%YAML:1.0
---
opencv_ml_ann_mlp:
   format: 3
   layer_sizes: [ 784, 128, 62 ]
   activation_function: SIGMOID_SYM
   f_param1: 6.6666666666666663e-01
   f_param2: 1.7159000000000000e+00
   min_val: -9.4999999999999996e-01
   max_val: 9.4999999999999996e-01
   min_val1: -9.7999999999999998e-01
   max_val1: 9.7999999999999998e-01
   training_params:
      train_method: BACKPROP
      dw_scale: 7.0000000000000007e-02
      moment_scale: 7.0000000000000007e-02
      term_criteria:
         epsilon: 1.0000000000000000e-04
         iterations: 100
   input_scale:
      - 3.2460204099410856e+00
      - -3.4830838379464435e-01
      - 3.1385575950084332e+00
      - -5.2750819120132508e-01
      - 2.5348764981920660e+00
      - -6.0218379466671412e-01
      - 2.5133205254447297e+00
      - -6.0498969408905534e-01
      - 2.6137321799171414e+00
      - -5.7660289112683660e-01
      - 2.7142225395299673e+00
      - -5.3740096492351030e-01
      - 2.7193360020262327e+00
      - -5.0965000623605006e-01
      - 2.7082638120692621e+00
      - -5.4462932323528379e-01
      - 2.5455800832472444e+00
      - -6.1636374141850270e-01
      - 2.3541539742601256e+00
      - -6.8004877583894552e-01
      - 2.2222876951825503e+00
      - -7.4772450389816036e-01
      - 2.1669924194232197e+00
      - -8.0182671225570956e-01
      - 2.1237542795011306e+00
      - -8.3211523461505110e-01
      - 2.1082877621157206e+00
      - -8.5484956126205447e-01
      - 2.1263005967929267e+00
      - -8.4964559324125144e-01
      - 2.1455697517074346e+00
      - -8.0289591139325156e-01
      - 2.2015663074284184e+00
      - -7.6370260771754217e-01
      - 2.3443524186633651e+00
      - -7.0457303340946131e-01
      - 2.5486326910091419e+00
      - -6.1256045141012405e-01
      - 2.7038439683668640e+00
      - -5.3598779846316458e-01
      - 2.8535637072986639e+00
      - -4.9614933073479256e-01
      - 2.8548971780513526e+00
      - -4.7708736086402892e-01
      - 2.8149622974226673e+00
      - -4.8874438082670957e-01
      - 2.7482201849435079e+00
      - -5.3258140154807299e-01
      - 2.6397033713154583e+00
      - -5.5244214175101380e-01
      - 2.6294413848007729e+00
      - -5.4560973161560411e-01
      - 3.0936790739901125e+00
      - -4.8189670806579171e-01
      - 3.1142224869117263e+00
      - -3.6667596549992720e-01
      - 2.6663093398232718e+00
      - -6.1575602865992829e-01
      - 2.6028726530299391e+00
      - -7.1651393494829874e-01
      - 2.3546078529037726e+00
      - -7.7166941027698566e-01
      - 2.3822160414774243e+00
      - -8.2539143985988739e-01
      - 2.4875183735315165e+00
      - -8.7417778375840438e-01
      - 2.5306425745602672e+00
      - -8.9480636297283167e-01
      - 2.5523788941946361e+00
      - -9.1325415037422686e-01
      - 2.4834552270513823e+00
      - -9.2668161649737757e-01
      - 2.3698408637888901e+00
      - -9.3736635675437929e-01
      - 2.2635015548412292e+00
      - -9.4672477810109468e-01
      - 2.2055382300184969e+00
      - -9.8036434204048339e-01
      - 2.1766827511571085e+00
      - -1.0136756712686483e+00
      - 2.1648443766463510e+00
      - -1.0497587691039707e+00
      - 2.1601492358223089e+00
      - -1.0740812466258098e+00
      - 2.1727537687185303e+00
      - -1.0889400359609822e+00
      - 2.1809341887013760e+00
      - -1.0732068809015354e+00
      - 2.1937058411886121e+00
      - -1.0366658499274737e+00
      - 2.2626528633513718e+00
      - -1.0093749554110394e+00
      - 2.3643388140143196e+00
      - -9.7788173819550084e-01
      - 2.4789461619120119e+00
      - -9.4473995173189051e-01
      - 2.5461491800387299e+00
      - -8.8300551361643631e-01
      - 2.5844921697226639e+00
      - -8.3822764903469238e-01
      - 2.5926554588380277e+00
      - -7.8924770553739643e-01
      - 2.5366257349962966e+00
      - -7.6649379087673897e-01
      - 2.4538479956235753e+00
      - -7.1726176179550039e-01
      - 2.4855020717847354e+00
      - -6.5912117750583932e-01
      - 2.7576469177373042e+00
      - -6.0236367894699261e-01
      - 2.8294535300902539e+00
      - -5.2684691793989669e-01
      - 2.3192554808601007e+00
      - -6.9210893417648200e-01
      - 2.3261204949291265e+00
      - -7.8802681464961399e-01
      - 2.2066836805364809e+00
      - -8.7885910203317863e-01
      - 2.2618635080006335e+00
      - -1.0216854246930216e+00
      - 2.3528030792725905e+00
      - -1.1511839872734484e+00
      - 2.3321482601190904e+00
      - -1.1996267221882462e+00
      - 2.3177793525405672e+00
      - -1.1966319354396187e+00
      - 2.2652285053530892e+00
      - -1.1564874703754666e+00
      - 2.2269734155345575e+00
      - -1.1261905156418048e+00
      - 2.2153952552680658e+00
      - -1.1134375685514653e+00
      - 2.2502245859822456e+00
      - -1.1343844238354168e+00
      - 2.2808382817416297e+00
      - -1.1528684610393385e+00
      - 2.3168652803190164e+00
      - -1.2031647746760878e+00
      - 2.3274724918578786e+00
      - -1.2392207397013522e+00
      - 2.3119882367064877e+00
      - -1.2551353486106807e+00
      - 2.2991779983256704e+00
      - -1.2447184986573272e+00
      - 2.2600686362893194e+00
      - -1.1981899141386438e+00
      - 2.2364373993844762e+00
      - -1.1748439465120935e+00
      - 2.2138433008604492e+00
      - -1.1631971867959201e+00
      - 2.2450254973340598e+00
      - -1.1781978539753304e+00
      - 2.2892749788719096e+00
      - -1.1758656249951371e+00
      - 2.3870563366135999e+00
      - -1.1496734955579526e+00
      - 2.4096974440441281e+00
      - -1.0618146381072555e+00
      - 2.3850706983177319e+00
      - -9.6627751419994024e-01
      - 2.3242014981457708e+00
      - -8.3990635651755907e-01
      - 2.4098048437024131e+00
      - -7.3399344316972459e-01
      - 2.6586421050861815e+00
      - -6.4345212558948794e-01
      - 2.6881584081547980e+00
      - -5.5054324460999793e-01
      - 2.2693558794657620e+00
      - -6.7675193621211405e-01
      - 2.3361480670764134e+00
      - -8.3200738225583182e-01
      - 2.2281766595430814e+00
      - -9.8688207475777445e-01
      - 2.2997371627000902e+00
      - -1.2233501453873790e+00
      - 2.3432781586593374e+00
      - -1.3774740219179675e+00
      - 2.3417887613318098e+00
      - -1.4245278919306705e+00
      - 2.2940998624015201e+00
      - -1.3610382606711577e+00
      - 2.2567344222528103e+00
      - -1.2642419515719077e+00
      - 2.2636412614770864e+00
      - -1.1969922108440927e+00
      - 2.2761044639636960e+00
      - -1.1481255627457052e+00
      - 2.3028681215554720e+00
      - -1.1154314656637740e+00
      - 2.2700489551695338e+00
      - -1.0659827115336147e+00
      - 2.2505488407148717e+00
      - -1.0562455150881318e+00
      - 2.2291173593539435e+00
      - -1.0576396626397464e+00
      - 2.2270643714126570e+00
      - -1.0751827864780603e+00
      - 2.2361100719702267e+00
      - -1.0952383356951987e+00
      - 2.2771570657367826e+00
      - -1.1226924291325497e+00
      - 2.3057150372091222e+00
      - -1.1736173114952237e+00
      - 2.2769969198296640e+00
      - -1.2178652621876875e+00
      - 2.2685987193770507e+00
      - -1.2783365012280268e+00
      - 2.2425580635835938e+00
      - -1.2988703158262007e+00
      - 2.2830613095324006e+00
      - -1.2999099836216910e+00
      - 2.3263762449479310e+00
      - -1.2557252849873934e+00
      - 2.3448544448279827e+00
      - -1.1307894550900899e+00
      - 2.3306308752807805e+00
      - -9.6116254296580728e-01
      - 2.4143701288734301e+00
      - -7.8843632137352382e-01
      - 2.7495656195975373e+00
      - -6.5499522005623201e-01
      - 2.8032163946988367e+00
      - -5.0628798510177375e-01
      - 2.2573504859017772e+00
      - -6.7716904791329657e-01
      - 2.3584347279769831e+00
      - -8.7882719282689226e-01
      - 2.2393352625630301e+00
      - -1.0909172298339744e+00
      - 2.2615636607188012e+00
      - -1.3351118096319845e+00
      - 2.3418460979408704e+00
      - -1.5048820301117860e+00
      - 2.3061810264126659e+00
      - -1.4765150370329148e+00
      - 2.2538539170472180e+00
      - -1.3942043700072184e+00
      - 2.2595785816864975e+00
      - -1.3228642834226469e+00
      - 2.2841927155222903e+00
      - -1.1797724488866190e+00
      - 2.2598098661942934e+00
      - -1.0467250405579558e+00
      - 2.2848974217269649e+00
      - -9.9741186477828914e-01
      - 2.2294687004433213e+00
      - -9.6065763550640304e-01
      - 2.2009712445279646e+00
      - -9.4475828117962901e-01
      - 2.1831252949589781e+00
      - -9.4182273867624455e-01
      - 2.1794027333896948e+00
      - -9.6017808867695875e-01
      - 2.1753791965827576e+00
      - -9.7758952645375297e-01
      - 2.2065848135268809e+00
      - -9.8603138892296427e-01
      - 2.2531121348286653e+00
      - -1.0303244234919762e+00
      - 2.2637010766304888e+00
      - -1.1040197006624033e+00
      - 2.2826066880077907e+00
      - -1.2394942307337906e+00
      - 2.2622642777322435e+00
      - -1.3495984587370380e+00
      - 2.2575608566813288e+00
      - -1.3843080664069103e+00
      - 2.2835851350296932e+00
      - -1.3871090830981896e+00
      - 2.3009612681501648e+00
      - -1.2903636266722236e+00
      - 2.2940436938059952e+00
      - -1.0984714731181744e+00
      - 2.3760224092080580e+00
      - -8.6025191941250889e-01
      - 2.7398714586639645e+00
      - -6.8969953758588831e-01
      - 2.7670998470531369e+00
      - -5.0601913059955450e-01
      - 2.2341279693755953e+00
      - -7.1697621539350698e-01
      - 2.3432143367221250e+00
      - -9.2913100976584262e-01
      - 2.2665987091039130e+00
      - -1.1871763182312987e+00
      - 2.2873784307026428e+00
      - -1.4342081746029336e+00
      - 2.3734972349810728e+00
      - -1.5854882808340522e+00
      - 2.3712962410038845e+00
      - -1.5685052019503642e+00
      - 2.3094870540464063e+00
      - -1.4345739262418353e+00
      - 2.2795720102915586e+00
      - -1.2854721411116221e+00
      - 2.2802712456411429e+00
      - -1.1479094139372983e+00
      - 2.2327287316652611e+00
      - -1.0242513810892255e+00
      - 2.2394878221500449e+00
      - -9.5509361461614761e-01
      - 2.1850637047326695e+00
      - -9.0659002516763587e-01
      - 2.1747031584241054e+00
      - -8.8509299928743490e-01
      - 2.1761805874502702e+00
      - -8.9214147312148240e-01
      - 2.1666539056805161e+00
      - -9.0855035561699482e-01
      - 2.1622089819609482e+00
      - -9.3616187713499177e-01
      - 2.1851577926165024e+00
      - -9.5374594051243700e-01
      - 2.2319094070616963e+00
      - -9.8857818177286871e-01
      - 2.2433514364372567e+00
      - -1.0483669484362055e+00
      - 2.3018688137235213e+00
      - -1.1732808834092903e+00
      - 2.2932971082951776e+00
      - -1.3043662159866947e+00
      - 2.2940548005048762e+00
      - -1.3874852851529860e+00
      - 2.3017614306540146e+00
      - -1.4387279282608889e+00
      - 2.3024299902043928e+00
      - -1.3997387125237628e+00
      - 2.2809019740960204e+00
      - -1.2424951671701632e+00
      - 2.3296664159103484e+00
      - -1.0047842665514803e+00
      - 2.6207052848871712e+00
      - -7.9233438322172223e-01
      - 2.5945839982287691e+00
      - -5.6115152115523059e-01
      - 2.2034280117379694e+00
      - -7.5425985243537697e-01
      - 2.3400914265906043e+00
      - -9.9807225368347285e-01
      - 2.2445510950930267e+00
      - -1.2463472726380018e+00
      - 2.2691098687202351e+00
      - -1.4562498881012653e+00
      - 2.3875570581497234e+00
      - -1.6064212391951209e+00
      - 2.4015205242278133e+00
      - -1.5643767544880083e+00
      - 2.3292740192068022e+00
      - -1.3828629555570653e+00
      - 2.2437810660914224e+00
      - -1.2044689898433780e+00
      - 2.2437547777152380e+00
      - -1.0874635515501223e+00
      - 2.2157376382631710e+00
      - -9.8219059338214210e-01
      - 2.2424210191018976e+00
      - -9.3010802500018153e-01
      - 2.2417747752920110e+00
      - -8.8128575812561649e-01
      - 2.2586483861480864e+00
      - -8.4113070382831467e-01
      - 2.3004127010817936e+00
      - -8.4398356209603298e-01
      - 2.2790322811899868e+00
      - -8.5909815812918078e-01
      - 2.2439551564067477e+00
      - -8.8395742413709266e-01
      - 2.2422092098494031e+00
      - -9.2486344553611677e-01
      - 2.2461842744040617e+00
      - -9.5280950029881584e-01
      - 2.2182284140296811e+00
      - -9.9116205985318373e-01
      - 2.2523357456949094e+00
      - -1.0878328690274410e+00
      - 2.2545461713922852e+00
      - -1.1877404913767089e+00
      - 2.3120160097125360e+00
      - -1.3170393582359994e+00
      - 2.3379703538825818e+00
      - -1.4174593415209606e+00
      - 2.3216205884068426e+00
      - -1.4064552018930219e+00
      - 2.2475860542449526e+00
      - -1.2680733663161892e+00
      - 2.2796396755677071e+00
      - -1.0687363461933550e+00
      - 2.5427018600106934e+00
      - -8.4554375353974986e-01
      - 2.4924591952541912e+00
      - -5.9107072614785916e-01
      - 2.1824949555246613e+00
      - -7.8539940226255156e-01
      - 2.3170129431724820e+00
      - -1.0291649484053216e+00
      - 2.2138028051143408e+00
      - -1.2523270875877128e+00
      - 2.2569218722078705e+00
      - -1.4506919036298072e+00
      - 2.3639733650498078e+00
      - -1.5794772231636753e+00
      - 2.3498395900414017e+00
      - -1.4826756723011325e+00
      - 2.2688161187048648e+00
      - -1.2914827548023615e+00
      - 2.2114784391790514e+00
      - -1.1519339049242130e+00
      - 2.2216129564471738e+00
      - -1.0523067928138452e+00
      - 2.1966862317279912e+00
      - -9.4880011537526809e-01
      - 2.2363948118317718e+00
      - -8.9296128191832813e-01
      - 2.2948603325550301e+00
      - -8.4034332906785614e-01
      - 2.3452722640272996e+00
      - -7.8032610165470706e-01
      - 2.3398296020657954e+00
      - -7.4680853688220117e-01
      - 2.2837419655755751e+00
      - -7.5828445227860042e-01
      - 2.2552159954540407e+00
      - -7.9439611392741605e-01
      - 2.2890006641144054e+00
      - -8.7016439305193349e-01
      - 2.3020877121694534e+00
      - -9.2517669133007097e-01
      - 2.2324808825131677e+00
      - -9.7485643370465547e-01
      - 2.2388660873579980e+00
      - -1.0500878694502251e+00
      - 2.2217618534681645e+00
      - -1.1117948638530317e+00
      - 2.2777958204678361e+00
      - -1.2066584065552930e+00
      - 2.2966373136789420e+00
      - -1.2990447365883560e+00
      - 2.2855656090320955e+00
      - -1.3149251107639417e+00
      - 2.2063427606481159e+00
      - -1.2073747456281783e+00
      - 2.2418205370541955e+00
      - -1.0453195708444192e+00
      - 2.4890107912926926e+00
      - -8.4162371454012419e-01
      - 2.4523703112360686e+00
      - -6.0555811610082311e-01
      - 2.1418960320881006e+00
      - -7.9291877665400290e-01
      - 2.2665420115180028e+00
      - -1.0223704692993631e+00
      - 2.1901706206307971e+00
      - -1.2269579359359095e+00
      - 2.2505542803843337e+00
      - -1.4098002588651115e+00
      - 2.3489814433340617e+00
      - -1.5278635729147090e+00
      - 2.3439472015006633e+00
      - -1.4381053142796540e+00
      - 2.2731273732624775e+00
      - -1.2729266286597734e+00
      - 2.2374973026592739e+00
      - -1.1565949627729915e+00
      - 2.2446940188586040e+00
      - -1.0629351225644346e+00
      - 2.2069886599644173e+00
      - -9.4252529356551229e-01
      - 2.2375247125029580e+00
      - -8.7122398916119659e-01
      - 2.3306136698961408e+00
      - -8.1499540693022487e-01
      - 2.3350715013171763e+00
      - -7.4169723865407877e-01
      - 2.3263855051958546e+00
      - -7.3038519779213518e-01
      - 2.2892092317360575e+00
      - -7.5424330725566446e-01
      - 2.2704642036019185e+00
      - -7.9666619871489464e-01
      - 2.2906178651071989e+00
      - -8.6706002526105541e-01
      - 2.2945622567596997e+00
      - -9.2386536810541453e-01
      - 2.2270151255632933e+00
      - -9.7837222261514678e-01
      - 2.2330741348974912e+00
      - -1.0631970239320103e+00
      - 2.2224369308723855e+00
      - -1.1210215790894953e+00
      - 2.2744616854892814e+00
      - -1.1686541300841087e+00
      - 2.2893823690958057e+00
      - -1.2163802268126438e+00
      - 2.2619038269939424e+00
      - -1.2333370357733340e+00
      - 2.1978532012347469e+00
      - -1.1359898657353749e+00
      - 2.2378332718438267e+00
      - -1.0046392038723460e+00
      - 2.4581489961239611e+00
      - -8.2829000273605491e-01
      - 2.4252732857078181e+00
      - -6.1371214171179345e-01
      - 2.1290639536273410e+00
      - -7.8969933276856352e-01
      - 2.2345672338417870e+00
      - -9.8800280535766216e-01
      - 2.1532171357951024e+00
      - -1.1575372573564140e+00
      - 2.1987163444735480e+00
      - -1.3174954921288970e+00
      - 2.2887158357147501e+00
      - -1.4305166013551711e+00
      - 2.2793452640880849e+00
      - -1.3514739395299247e+00
      - 2.2258608297768689e+00
      - -1.2091715217591101e+00
      - 2.2076632183234897e+00
      - -1.1225758976556439e+00
      - 2.1973404455035692e+00
      - -1.0367766931014859e+00
      - 2.1913582377434331e+00
      - -9.3882910950508580e-01
      - 2.2413704167286364e+00
      - -8.6319898749910484e-01
      - 2.2813722679372943e+00
      - -8.0501363279028781e-01
      - 2.2931155863451909e+00
      - -7.5719686076807391e-01
      - 2.3020439509828172e+00
      - -7.6619782297645977e-01
      - 2.2792959230046663e+00
      - -8.0200772059348147e-01
      - 2.2573243076468548e+00
      - -8.3484104551235327e-01
      - 2.2517665104291664e+00
      - -8.9711970297623722e-01
      - 2.2350420684545962e+00
      - -9.4633726244313765e-01
      - 2.1981197516538096e+00
      - -1.0101845066338855e+00
      - 2.2083724698683471e+00
      - -1.0850870102650683e+00
      - 2.2265967612925972e+00
      - -1.1289614278695672e+00
      - 2.2677934019178458e+00
      - -1.1489544131666325e+00
      - 2.2852959417624339e+00
      - -1.1617341583979941e+00
      - 2.2405948584332207e+00
      - -1.1464180150140040e+00
      - 2.1773231538968036e+00
      - -1.0356155020932374e+00
      - 2.1953702995314930e+00
      - -9.0271060824342675e-01
      - 2.3800505969174597e+00
      - -7.7002856495624394e-01
      - 2.3642697358877203e+00
      - -6.0285210941363143e-01
      - 2.1245398727596037e+00
      - -7.9070015363869028e-01
      - 2.2107326947409072e+00
      - -9.4961305341024027e-01
      - 2.1534237790245254e+00
      - -1.1070746073330615e+00
      - 2.1811402728163820e+00
      - -1.2629320709436711e+00
      - 2.2829236560331019e+00
      - -1.3604014075698780e+00
      - 2.2575810844729554e+00
      - -1.2727982816509180e+00
      - 2.2129030726339844e+00
      - -1.1670011350423746e+00
      - 2.1856026960218484e+00
      - -1.1088024129368137e+00
      - 2.1909139071494295e+00
      - -1.0395316558988874e+00
      - 2.2200917532513089e+00
      - -9.6417301772323172e-01
      - 2.2648777178930120e+00
      - -8.9342375029266796e-01
      - 2.2731357459630739e+00
      - -8.4441726692381958e-01
      - 2.2901231374622606e+00
      - -8.2705509936501509e-01
      - 2.2711659387886916e+00
      - -8.4075349232015451e-01
      - 2.2347172536778528e+00
      - -8.7303012741121833e-01
      - 2.2248047471623349e+00
      - -9.0068762587220019e-01
      - 2.2351081565407993e+00
      - -9.4090312514314878e-01
      - 2.2595689718874294e+00
      - -1.0143652906179372e+00
      - 2.2224037313189111e+00
      - -1.0715522081474713e+00
      - 2.2210643105903460e+00
      - -1.1086935439389851e+00
      - 2.2283695513365709e+00
      - -1.1345275875155096e+00
      - 2.2281278740504398e+00
      - -1.1381291368277924e+00
      - 2.2622461481954854e+00
      - -1.1458689803253355e+00
      - 2.2537137105701075e+00
      - -1.1057780982912688e+00
      - 2.1933769736839634e+00
      - -9.8267190854531583e-01
      - 2.2099351218722219e+00
      - -8.5176271897484390e-01
      - 2.3843570206373998e+00
      - -7.4320431720206759e-01
      - 2.3645945489560081e+00
      - -6.0893585652491844e-01
      - 2.1154273031572739e+00
      - -7.9955343873035911e-01
      - 2.1809203124405605e+00
      - -9.2109300522759674e-01
      - 2.1382396753974984e+00
      - -1.0628507442934196e+00
      - 2.1565496997757219e+00
      - -1.2100242331050104e+00
      - 2.2583478789183480e+00
      - -1.2912262951080038e+00
      - 2.2518239351459131e+00
      - -1.2526589280718259e+00
      - 2.2111332785199158e+00
      - -1.1823618640897591e+00
      - 2.1819368653962439e+00
      - -1.1066676746134190e+00
      - 2.1872185518876250e+00
      - -1.0397344406033122e+00
      - 2.2287107785195968e+00
      - -9.8696323162159572e-01
      - 2.2919693094412992e+00
      - -9.5768733254500271e-01
      - 2.2788042989338160e+00
      - -9.4741055627045012e-01
      - 2.2631913324480921e+00
      - -9.5997885053050858e-01
      - 2.2325468800621082e+00
      - -9.7857581080022493e-01
      - 2.2208611020521265e+00
      - -1.0124492715290112e+00
      - 2.2048006379283840e+00
      - -1.0272327358842104e+00
      - 2.2285709891137437e+00
      - -1.0469015940929771e+00
      - 2.2609406660958506e+00
      - -1.0955021788709747e+00
      - 2.2635428835825993e+00
      - -1.1415039101811870e+00
      - 2.2605812966569028e+00
      - -1.1547757817707207e+00
      - 2.2291196604638781e+00
      - -1.1592919790608838e+00
      - 2.2278335766912734e+00
      - -1.1636669847436698e+00
      - 2.2582650371104505e+00
      - -1.1503174542924424e+00
      - 2.2681385330226647e+00
      - -1.0981960914215840e+00
      - 2.2006481336271313e+00
      - -9.6655075015253222e-01
      - 2.2305412888969118e+00
      - -8.3342607340496311e-01
      - 2.3708753116381942e+00
      - -7.2528931651300721e-01
      - 2.3467258921162535e+00
      - -6.1610731724060142e-01
      - 2.1147284390754240e+00
      - -8.1119990402476083e-01
      - 2.1725933016658274e+00
      - -9.2082709664217510e-01
      - 2.1328224261884547e+00
      - -1.0487758548032784e+00
      - 2.1471034588497049e+00
      - -1.1794076589392843e+00
      - 2.2477682355133157e+00
      - -1.2577738468319675e+00
      - 2.2465194393995294e+00
      - -1.2628309523765824e+00
      - 2.2321565703775348e+00
      - -1.2269500098220643e+00
      - 2.2082171317566717e+00
      - -1.1363796466580949e+00
      - 2.2192247220662602e+00
      - -1.0743651575760345e+00
      - 2.2544645263705259e+00
      - -1.0445606491118049e+00
      - 2.2901370084780446e+00
      - -1.0248427397773545e+00
      - 2.2357095498298318e+00
      - -1.0242514868572468e+00
      - 2.2059279551487148e+00
      - -1.0466483762145653e+00
      - 2.1783147543660211e+00
      - -1.0709786408445230e+00
      - 2.1808328402858375e+00
      - -1.1109084373400349e+00
      - 2.1819676421359517e+00
      - -1.1404328382190967e+00
      - 2.2107763482113656e+00
      - -1.1457921612800404e+00
      - 2.2573901862380406e+00
      - -1.1683537814731411e+00
      - 2.2616050713907661e+00
      - -1.1871347024070864e+00
      - 2.2208242464245562e+00
      - -1.1709781371157297e+00
      - 2.1875900575217870e+00
      - -1.1730053572615253e+00
      - 2.2010402557367907e+00
      - -1.1730700625308981e+00
      - 2.2278610459628121e+00
      - -1.1342245103539854e+00
      - 2.2410968504550319e+00
      - -1.0765207834982180e+00
      - 2.2120995423674774e+00
      - -9.6329602874040765e-01
      - 2.2406122487426026e+00
      - -8.2349292258906015e-01
      - 2.3622964323044275e+00
      - -7.2023028809574419e-01
      - 2.3243541558217506e+00
      - -6.2001067686233713e-01
      - 2.0986269269203985e+00
      - -7.9948536720798902e-01
      - 2.1645063322338474e+00
      - -9.0726762341422273e-01
      - 2.1283195888945117e+00
      - -1.0368837112148002e+00
      - 2.1419814575880065e+00
      - -1.1618497277424844e+00
      - 2.2331406397901232e+00
      - -1.2402413147301850e+00
      - 2.2141098007440667e+00
      - -1.2441763278259839e+00
      - 2.2177254733833514e+00
      - -1.2373068258313940e+00
      - 2.1825228038838849e+00
      - -1.1453612921041412e+00
      - 2.1819549862492682e+00
      - -1.0932360338037916e+00
      - 2.2157741194293821e+00
      - -1.0887096476142444e+00
      - 2.2322988310183565e+00
      - -1.0570013373396281e+00
      - 2.2140088302949978e+00
      - -1.0626576930627338e+00
      - 2.1800525886409052e+00
      - -1.0877781343443720e+00
      - 2.1304604893789576e+00
      - -1.1044825795144351e+00
      - 2.1227761944040706e+00
      - -1.1314547335816316e+00
      - 2.1534380932033930e+00
      - -1.1676562436035909e+00
      - 2.1917256687533495e+00
      - -1.1731099198459809e+00
      - 2.2475150351789699e+00
      - -1.1870514392291616e+00
      - 2.2354986685125966e+00
      - -1.1818418044678447e+00
      - 2.1765673546711994e+00
      - -1.1530049509567954e+00
      - 2.1686176182271604e+00
      - -1.1614628671599148e+00
      - 2.2049341318582476e+00
      - -1.1674676151304320e+00
      - 2.2323911506318992e+00
      - -1.1218495906862644e+00
      - 2.2339756579972638e+00
      - -1.0642264939432338e+00
      - 2.2000024877774269e+00
      - -9.5538081034860667e-01
      - 2.2216939284039960e+00
      - -8.2159398397406536e-01
      - 2.3522274599402868e+00
      - -7.2209163088930439e-01
      - 2.3214719765052285e+00
      - -6.2313289446145537e-01
      - 2.1001623002767396e+00
      - -7.9434677583145219e-01
      - 2.1681829759446507e+00
      - -9.0260161984971699e-01
      - 2.1231633983045670e+00
      - -1.0268374304458519e+00
      - 2.1434006253147211e+00
      - -1.1563764090139754e+00
      - 2.2254666022651359e+00
      - -1.2393207478253543e+00
      - 2.1956799552656987e+00
      - -1.2336121430602405e+00
      - 2.2124794322183146e+00
      - -1.2149932621212456e+00
      - 2.1883096916072331e+00
      - -1.1091943755027112e+00
      - 2.2088512917930436e+00
      - -1.0580823920699094e+00
      - 2.2312418426295393e+00
      - -1.0348571666042277e+00
      - 2.2509707284913301e+00
      - -1.0036163033062493e+00
      - 2.2148402847349438e+00
      - -1.0019653420294159e+00
      - 2.1764781347712381e+00
      - -1.0320180989964565e+00
      - 2.1265383381923373e+00
      - -1.0455075565401191e+00
      - 2.1215755927019311e+00
      - -1.0661394211250848e+00
      - 2.1630812627530558e+00
      - -1.1118139602560830e+00
      - 2.2082788830031670e+00
      - -1.1368620838582779e+00
      - 2.2381546135980157e+00
      - -1.1524345150152833e+00
      - 2.2304560998396576e+00
      - -1.1435277463843110e+00
      - 2.1894483319326419e+00
      - -1.1114817317223689e+00
      - 2.1748481115930174e+00
      - -1.1012246176393510e+00
      - 2.2000046735469989e+00
      - -1.1220565913843823e+00
      - 2.2264691185451060e+00
      - -1.1091068237900206e+00
      - 2.2179219938676376e+00
      - -1.0655957946539862e+00
      - 2.1823964728819960e+00
      - -9.6682196887781047e-01
      - 2.2035234940158359e+00
      - -8.4354571402194212e-01
      - 2.3179957900264263e+00
      - -7.4085854402764795e-01
      - 2.2858811770995420e+00
      - -6.3729311976757885e-01
      - 2.1084584054578581e+00
      - -8.0826734702839875e-01
      - 2.1591632122077251e+00
      - -9.0091868065377112e-01
      - 2.1285184341913994e+00
      - -1.0217637519634923e+00
      - 2.1559127716499584e+00
      - -1.1599352879442475e+00
      - 2.2283315448117920e+00
      - -1.2400323482275903e+00
      - 2.2191036830357715e+00
      - -1.2144317160265057e+00
      - 2.2527192564737870e+00
      - -1.1616546295689354e+00
      - 2.2125571041662724e+00
      - -1.0507887734820180e+00
      - 2.2246838421473507e+00
      - -1.0102127039635000e+00
      - 2.2439981103668645e+00
      - -9.9378906687735424e-01
      - 2.2828044391465907e+00
      - -9.8104440737936827e-01
      - 2.2324111931471302e+00
      - -9.6316944622061296e-01
      - 2.2100317029615071e+00
      - -9.7585382013111766e-01
      - 2.1877443930457603e+00
      - -1.0054919006721330e+00
      - 2.1813219645970250e+00
      - -1.0309267000142810e+00
      - 2.1911411367883309e+00
      - -1.0581635598691299e+00
      - 2.2252826051639931e+00
      - -1.0855632460762605e+00
      - 2.2679575014385636e+00
      - -1.1235425236665006e+00
      - 2.2543934368917409e+00
      - -1.1150461060442172e+00
      - 2.2241904734240299e+00
      - -1.0573965191402834e+00
      - 2.2205497024900289e+00
      - -1.0422953501981591e+00
      - 2.2272372703991454e+00
      - -1.0635384082488355e+00
      - 2.2327641800720381e+00
      - -1.0803442138091508e+00
      - 2.2098372449006214e+00
      - -1.0729843993924562e+00
      - 2.1756707930928521e+00
      - -9.9306293519827848e-01
      - 2.1991549802099697e+00
      - -8.8420620946896644e-01
      - 2.3066347367258513e+00
      - -7.7495343613640788e-01
      - 2.2863103183503344e+00
      - -6.6865307964620191e-01
      - 2.1231411133446860e+00
      - -8.1383748903506681e-01
      - 2.1717280219013153e+00
      - -9.1376796719064490e-01
      - 2.1252716348872114e+00
      - -1.0240977348543421e+00
      - 2.1496991185999272e+00
      - -1.1577597604482908e+00
      - 2.2394794051004721e+00
      - -1.2508233741893264e+00
      - 2.2356076693697280e+00
      - -1.2092618976954128e+00
      - 2.2337831401100514e+00
      - -1.1209857519061415e+00
      - 2.1967383673332179e+00
      - -1.0156895416912501e+00
      - 2.2197756343313015e+00
      - -9.7549282026016881e-01
      - 2.2186469611337074e+00
      - -9.4055928524493271e-01
      - 2.2536010969389411e+00
      - -9.0551759573199175e-01
      - 2.2436742784753809e+00
      - -8.8645481728226494e-01
      - 2.2386813076284278e+00
      - -8.9190502739578026e-01
      - 2.2074855646353289e+00
      - -9.1223955744287899e-01
      - 2.1966645748768787e+00
      - -9.3761877869966870e-01
      - 2.1994221943170924e+00
      - -9.7398039817198012e-01
      - 2.2361218799001263e+00
      - -1.0133552676598685e+00
      - 2.2525852446778063e+00
      - -1.0436466906926225e+00
      - 2.2453991888450844e+00
      - -1.0521853342735821e+00
      - 2.2655813534439431e+00
      - -1.0128220655018607e+00
      - 2.2761591187965480e+00
      - -9.9525883942843241e-01
      - 2.2563670448158075e+00
      - -1.0077573558177666e+00
      - 2.2255898899466611e+00
      - -1.0465832576847247e+00
      - 2.1940550916526544e+00
      - -1.0691069277763461e+00
      - 2.1386353049504159e+00
      - -1.0041810595580192e+00
      - 2.1616001563977378e+00
      - -9.1856288682339171e-01
      - 2.2851892051084621e+00
      - -8.2120767695251651e-01
      - 2.2674610595617839e+00
      - -7.0398563416792170e-01
      - 2.1316892052336662e+00
      - -7.8318083145848150e-01
      - 2.1922194699069562e+00
      - -9.0994324107128510e-01
      - 2.1240265010578168e+00
      - -1.0395194922231681e+00
      - 2.1558620325786029e+00
      - -1.1837746625253851e+00
      - 2.2485402889520301e+00
      - -1.2896852835816450e+00
      - 2.2491718993964667e+00
      - -1.2391892035222649e+00
      - 2.2332103371129457e+00
      - -1.1279916102826404e+00
      - 2.2100068710542220e+00
      - -1.0339648414087812e+00
      - 2.2278894035878234e+00
      - -9.8575716572900729e-01
      - 2.2142817844338145e+00
      - -9.3095028772302824e-01
      - 2.2388431358509853e+00
      - -8.9081795878376069e-01
      - 2.2341048637760950e+00
      - -8.6507445995311238e-01
      - 2.2489839308080519e+00
      - -8.5284280744961960e-01
      - 2.2329806822006484e+00
      - -8.4726558051182543e-01
      - 2.2232824117317573e+00
      - -8.6830831790146690e-01
      - 2.2050743967692696e+00
      - -9.0834988329688948e-01
      - 2.2184124920951889e+00
      - -9.4716699749779354e-01
      - 2.2411540559600107e+00
      - -9.8325035259438476e-01
      - 2.2349658585708059e+00
      - -9.9471745997240579e-01
      - 2.2507773350826885e+00
      - -9.8835354554910215e-01
      - 2.2126565678028047e+00
      - -9.6167719382811168e-01
      - 2.2212244913832477e+00
      - -9.8504057083150987e-01
      - 2.2166785747731619e+00
      - -1.0386886722015809e+00
      - 2.1946163986166929e+00
      - -1.0812411797873840e+00
      - 2.1271596609768157e+00
      - -1.0226396913861575e+00
      - 2.1400724527403847e+00
      - -9.4301329052491867e-01
      - 2.2476795171686477e+00
      - -8.3700989555602845e-01
      - 2.2195019345899571e+00
      - -7.0580772506403500e-01
      - 2.1520576969956791e+00
      - -7.5798029049619020e-01
      - 2.2315861541240745e+00
      - -9.2430482479617493e-01
      - 2.1445666657510083e+00
      - -1.0777066716244812e+00
      - 2.1743905913031916e+00
      - -1.2363917635903681e+00
      - 2.2692913748125405e+00
      - -1.3661405782031359e+00
      - 2.2973117879586256e+00
      - -1.3238844524956945e+00
      - 2.2550479995687915e+00
      - -1.2008341803493454e+00
      - 2.2029779267449285e+00
      - -1.1075701944140421e+00
      - 2.2096255961159925e+00
      - -1.0319488165447890e+00
      - 2.2003060469470581e+00
      - -9.4984137387200929e-01
      - 2.2153746639845124e+00
      - -8.9665737408109880e-01
      - 2.2122650716955552e+00
      - -8.5930255980541004e-01
      - 2.2247897434846280e+00
      - -8.2415641413423990e-01
      - 2.2337831548757787e+00
      - -8.0056794714603241e-01
      - 2.2228683487656489e+00
      - -8.0971907649289809e-01
      - 2.2286269718785756e+00
      - -8.5443890251585530e-01
      - 2.2460107358773742e+00
      - -9.0786453114576260e-01
      - 2.2704677225225005e+00
      - -9.6103759619595874e-01
      - 2.2333987696217572e+00
      - -9.8494723701821529e-01
      - 2.2053645840267970e+00
      - -9.8812581353133022e-01
      - 2.1744179950860278e+00
      - -9.7868494515125448e-01
      - 2.2101256416263957e+00
      - -1.0126070084469458e+00
      - 2.2019064055746522e+00
      - -1.0633807215996893e+00
      - 2.1886275328157749e+00
      - -1.1087366190369514e+00
      - 2.1309147726235254e+00
      - -1.0506719331769414e+00
      - 2.1400842328825753e+00
      - -9.5950773373068110e-01
      - 2.2374396351035535e+00
      - -8.4662003080134673e-01
      - 2.1914779898218866e+00
      - -7.1027636462445187e-01
      - 2.1605845450928074e+00
      - -7.6353232477345023e-01
      - 2.2537028661286831e+00
      - -9.4778648943802413e-01
      - 2.1714396024384417e+00
      - -1.1154224823152223e+00
      - 2.2103332243015141e+00
      - -1.2841892668539974e+00
      - 2.3143245935988386e+00
      - -1.4297467215821218e+00
      - 2.3493178099255543e+00
      - -1.3987785728143776e+00
      - 2.2530115985285586e+00
      - -1.2510336634839472e+00
      - 2.1959174428284354e+00
      - -1.1574296611233847e+00
      - 2.2113200499843577e+00
      - -1.0857232921459736e+00
      - 2.2000561650604924e+00
      - -9.9497036978296927e-01
      - 2.2208315238501553e+00
      - -9.3176752625217762e-01
      - 2.2773738471221874e+00
      - -8.7726280901885567e-01
      - 2.2810695885166794e+00
      - -8.2159950178925378e-01
      - 2.2876538984424273e+00
      - -8.0613257317182796e-01
      - 2.2883905028102611e+00
      - -8.0870227122564420e-01
      - 2.2775233990780985e+00
      - -8.3804965685420396e-01
      - 2.2842099951719077e+00
      - -8.9506430573055928e-01
      - 2.2807924794672028e+00
      - -9.6475269626935600e-01
      - 2.2119073408894936e+00
      - -9.9542553579103488e-01
      - 2.1745244322625523e+00
      - -1.0028868173848442e+00
      - 2.1613829827840312e+00
      - -1.0211105376704628e+00
      - 2.2238133139710925e+00
      - -1.0840284520771586e+00
      - 2.2489921041003038e+00
      - -1.1470341907046497e+00
      - 2.2149525987365299e+00
      - -1.1659947676870817e+00
      - 2.1405144791122974e+00
      - -1.0861760590456702e+00
      - 2.1529413859534015e+00
      - -9.8354776698594670e-01
      - 2.2600303827708412e+00
      - -8.6506616637891942e-01
      - 2.2150215384974326e+00
      - -7.2326337992775880e-01
      - 2.1880407354979967e+00
      - -7.5940404694231689e-01
      - 2.2878929161207382e+00
      - -9.5496679895758829e-01
      - 2.1919334783679036e+00
      - -1.1356281133195674e+00
      - 2.2231654049035585e+00
      - -1.3157686186671920e+00
      - 2.3569842439793005e+00
      - -1.4756713477471373e+00
      - 2.3738757387383620e+00
      - -1.4323196387547503e+00
      - 2.2740027728890793e+00
      - -1.2735463176670703e+00
      - 2.1901092682589289e+00
      - -1.1619215331635013e+00
      - 2.1780849596810690e+00
      - -1.0877661502004505e+00
      - 2.1774809324369637e+00
      - -1.0186610263501401e+00
      - 2.2198762013250017e+00
      - -9.6542000922241600e-01
      - 2.2470470435214187e+00
      - -9.0706009364222584e-01
      - 2.2379023794396455e+00
      - -8.5309730710318510e-01
      - 2.2246953496081789e+00
      - -8.2212040526849262e-01
      - 2.2245700449646999e+00
      - -8.2154042551377193e-01
      - 2.2302247427443511e+00
      - -8.6430823030200155e-01
      - 2.2684482291915327e+00
      - -9.4760086291917556e-01
      - 2.2733605699433341e+00
      - -1.0035131381493674e+00
      - 2.2128060877738918e+00
      - -1.0195046155799337e+00
      - 2.1800691006850195e+00
      - -1.0315702514449412e+00
      - 2.1626576713522079e+00
      - -1.0548564776159419e+00
      - 2.2398381261895093e+00
      - -1.1497119474723239e+00
      - 2.2466208511958055e+00
      - -1.2096396749487270e+00
      - 2.2034872468002211e+00
      - -1.2060024293013101e+00
      - 2.1458430113942724e+00
      - -1.1151314055934509e+00
      - 2.1809960037452383e+00
      - -9.9519917557125981e-01
      - 2.3255855438421613e+00
      - -8.5666470691044205e-01
      - 2.2877694429093980e+00
      - -6.9535078453009880e-01
      - 2.2160192617088947e+00
      - -7.5066368507826209e-01
      - 2.3152114379704476e+00
      - -9.4810883467817997e-01
      - 2.2035199483108352e+00
      - -1.1446744666388977e+00
      - 2.2154302932018344e+00
      - -1.3318362369821433e+00
      - 2.3556410476652987e+00
      - -1.4886268283730817e+00
      - 2.3718489407479035e+00
      - -1.4508405200616590e+00
      - 2.2875032296409099e+00
      - -1.2886304990550153e+00
      - 2.2025727171189673e+00
      - -1.1525479931098959e+00
      - 2.2116193522103291e+00
      - -1.0900751719156574e+00
      - 2.1887881121675021e+00
      - -1.0181565034393139e+00
      - 2.2061995865906723e+00
      - -9.8139928053463521e-01
      - 2.2288034095252987e+00
      - -9.4993523595661011e-01
      - 2.2166722328590129e+00
      - -9.3741916748175824e-01
      - 2.2123320023686368e+00
      - -9.2082208649319541e-01
      - 2.2199810517029803e+00
      - -9.3015240547669353e-01
      - 2.2307510431301116e+00
      - -9.6918046662593427e-01
      - 2.2574691285671142e+00
      - -1.0032036215969111e+00
      - 2.2723989334399133e+00
      - -1.0274342707402755e+00
      - 2.2427358935592032e+00
      - -1.0469587497888977e+00
      - 2.2270047540740765e+00
      - -1.0689138600993882e+00
      - 2.2044653408419328e+00
      - -1.1151930802178736e+00
      - 2.2362958402858610e+00
      - -1.2057485333171611e+00
      - 2.2370101075104221e+00
      - -1.2592514601081595e+00
      - 2.2268241657920322e+00
      - -1.2541572485820522e+00
      - 2.1904606825938022e+00
      - -1.1619580301710053e+00
      - 2.2395188494979665e+00
      - -1.0067426487532161e+00
      - 2.4014182264831234e+00
      - -8.3276358895611380e-01
      - 2.3691574681875140e+00
      - -6.5270467085732109e-01
      - 2.2191572533244477e+00
      - -7.2193914435475159e-01
      - 2.3113405401700367e+00
      - -9.1250303823528733e-01
      - 2.2067382586810202e+00
      - -1.1191550578923868e+00
      - 2.2077999409949913e+00
      - -1.3067678684841959e+00
      - 2.2833198377323258e+00
      - -1.4419892084411963e+00
      - 2.3111261842817412e+00
      - -1.4387354000212478e+00
      - 2.2730428961492888e+00
      - -1.3178108751116508e+00
      - 2.2338339657799966e+00
      - -1.1978875009121677e+00
      - 2.2534176157160899e+00
      - -1.1194662932807384e+00
      - 2.2198757326480814e+00
      - -1.0295528630942046e+00
      - 2.2163464325181392e+00
      - -9.9007726578972743e-01
      - 2.1953742187354819e+00
      - -9.6515991968341774e-01
      - 2.1749634261123290e+00
      - -9.7232408276153870e-01
      - 2.1636321666390761e+00
      - -9.6790480452722083e-01
      - 2.1723066479327913e+00
      - -9.7243572906179065e-01
      - 2.1964229886059150e+00
      - -9.9036245600883388e-01
      - 2.2324872816574621e+00
      - -1.0015179645799634e+00
      - 2.2499780579464521e+00
      - -1.0237699008649002e+00
      - 2.2396442696272287e+00
      - -1.0529774099288929e+00
      - 2.2342494342629293e+00
      - -1.1000957585862119e+00
      - 2.2118011787309428e+00
      - -1.1743367666924791e+00
      - 2.2014368396110502e+00
      - -1.2304851248181552e+00
      - 2.2144083268436994e+00
      - -1.2673671853250870e+00
      - 2.2134378909783252e+00
      - -1.2503676383537725e+00
      - 2.2136557860066515e+00
      - -1.1548212579812547e+00
      - 2.2761927153360189e+00
      - -9.7012714909203623e-01
      - 2.4721841160122202e+00
      - -7.9007093652069726e-01
      - 2.4413708653863488e+00
      - -6.1369206782034003e-01
      - 2.2441928207517301e+00
      - -6.9349384804389758e-01
      - 2.3503879249955295e+00
      - -8.9796353326747069e-01
      - 2.2075676808827800e+00
      - -1.0916539944362269e+00
      - 2.1845354684128342e+00
      - -1.2375135404599724e+00
      - 2.2621067498077561e+00
      - -1.3777469811783831e+00
      - 2.2801287415231348e+00
      - -1.3912249925181974e+00
      - 2.2381283613149368e+00
      - -1.3155724925888614e+00
      - 2.2277708165254904e+00
      - -1.2374956095195047e+00
      - 2.2559553835333883e+00
      - -1.1513866017075181e+00
      - 2.2121826969444656e+00
      - -1.0442566765143668e+00
      - 2.2205251860243105e+00
      - -1.0092036064918606e+00
      - 2.2010437771270670e+00
      - -9.9211787713501498e-01
      - 2.1770281107153715e+00
      - -9.9753612106787981e-01
      - 2.1547019296687084e+00
      - -9.9251514920290240e-01
      - 2.1682531447339817e+00
      - -9.9223643196326405e-01
      - 2.1861726169254934e+00
      - -9.9964515611550642e-01
      - 2.2263980864686408e+00
      - -1.0100325789667377e+00
      - 2.2456814675812149e+00
      - -1.0387068930390091e+00
      - 2.2415051752355502e+00
      - -1.0739551052557974e+00
      - 2.2375098971570719e+00
      - -1.1433337296793200e+00
      - 2.2112152449227973e+00
      - -1.2165793481762970e+00
      - 2.2030163721430731e+00
      - -1.2617802419779927e+00
      - 2.2150993886530213e+00
      - -1.2650986036916887e+00
      - 2.2286324287140755e+00
      - -1.2011703882801261e+00
      - 2.2332671413422269e+00
      - -1.0665234862007151e+00
      - 2.3215104740862103e+00
      - -8.8762450025930340e-01
      - 2.6533355403899379e+00
      - -7.1914111374400336e-01
      - 2.6522381338171259e+00
      - -5.3295709189036522e-01
      - 2.3324547858748086e+00
      - -6.7449970343082810e-01
      - 2.3953065027069709e+00
      - -8.3904915348100761e-01
      - 2.2285519362564434e+00
      - -9.9032165409683215e-01
      - 2.2111954266324041e+00
      - -1.1452398259309338e+00
      - 2.2695647074698133e+00
      - -1.2557401689867693e+00
      - 2.2808285521461675e+00
      - -1.2919705189670994e+00
      - 2.2448794007763957e+00
      - -1.2670618601250048e+00
      - 2.2523659930664888e+00
      - -1.2351277097030708e+00
      - 2.2779835399366584e+00
      - -1.2009665324549574e+00
      - 2.3046469100349691e+00
      - -1.1736147223061926e+00
      - 2.3224523088612430e+00
      - -1.1519090304687702e+00
      - 2.2657436222148428e+00
      - -1.1026430730950731e+00
      - 2.2405837419132704e+00
      - -1.1002948433520581e+00
      - 2.2094505585266244e+00
      - -1.0926175944827359e+00
      - 2.2220185282156204e+00
      - -1.0923421370711957e+00
      - 2.2554779542150896e+00
      - -1.1117270743446199e+00
      - 2.3115058894714422e+00
      - -1.1340715589222314e+00
      - 2.3199395365291191e+00
      - -1.1464952493591525e+00
      - 2.2727257569752872e+00
      - -1.1530701249220789e+00
      - 2.2428371377387997e+00
      - -1.1764768989007721e+00
      - 2.2304698847935986e+00
      - -1.2149743495703131e+00
      - 2.2569204702554750e+00
      - -1.2349498316401317e+00
      - 2.2662381258542195e+00
      - -1.1918239575630420e+00
      - 2.3002597905266917e+00
      - -1.0915753140300086e+00
      - 2.3227772555764599e+00
      - -9.6060285977404092e-01
      - 2.3979030008612692e+00
      - -8.0348429289678525e-01
      - 2.7295653285308221e+00
      - -6.7604131171380999e-01
      - 2.7959426414060449e+00
      - -5.2104180162491709e-01
      - 2.3825469512775213e+00
      - -6.4238917314627186e-01
      - 2.3973613363983532e+00
      - -7.5167321358267347e-01
      - 2.2562564254053905e+00
      - -8.5374585332354902e-01
      - 2.2454005680521232e+00
      - -9.8330203299241081e-01
      - 2.3267534786855202e+00
      - -1.0883502678490156e+00
      - 2.3398613605999654e+00
      - -1.1356848965825610e+00
      - 2.2874421083399228e+00
      - -1.1373481782852140e+00
      - 2.2460539168264715e+00
      - -1.1233818935377586e+00
      - 2.2225733501980769e+00
      - -1.1090657585451593e+00
      - 2.2380012249654624e+00
      - -1.1182990926923162e+00
      - 2.2895667718162573e+00
      - -1.1574268150174034e+00
      - 2.3110288207718819e+00
      - -1.1900124348741257e+00
      - 2.3174910806222413e+00
      - -1.2372510143509978e+00
      - 2.3020338574967814e+00
      - -1.2521332566958123e+00
      - 2.3005738313650022e+00
      - -1.2507136171737585e+00
      - 2.2958675879487624e+00
      - -1.2227501861182835e+00
      - 2.2836030173077759e+00
      - -1.1683519020351141e+00
      - 2.2576714198873478e+00
      - -1.1144706376657809e+00
      - 2.2191531941461164e+00
      - -1.0764728181097754e+00
      - 2.2391365611804601e+00
      - -1.0767222513133301e+00
      - 2.2958884001458943e+00
      - -1.0922327867334098e+00
      - 2.3609940364532522e+00
      - -1.0847779772840502e+00
      - 2.3988625461721584e+00
      - -1.0274924894988546e+00
      - 2.4200338309955178e+00
      - -9.3957973129304251e-01
      - 2.3436690411824701e+00
      - -8.3413869198114554e-01
      - 2.4016272440692772e+00
      - -7.3803390685787928e-01
      - 2.6489279345960317e+00
      - -6.5753030959862890e-01
      - 2.7230789843036556e+00
      - -5.5729441865796159e-01
      - 2.7807386585459200e+00
      - -5.7583697513025900e-01
      - 2.7054962744231963e+00
      - -6.7606169000788707e-01
      - 2.4303926037241044e+00
      - -7.3961429912162924e-01
      - 2.4642336133237954e+00
      - -8.2220103745088302e-01
      - 2.5673213037900831e+00
      - -8.7516728740868133e-01
      - 2.5518000186996397e+00
      - -8.7761583163835777e-01
      - 2.5172275581441363e+00
      - -9.0021948121106254e-01
      - 2.4253145798537306e+00
      - -9.3629419400313274e-01
      - 2.3299045379584906e+00
      - -9.5005227839678807e-01
      - 2.2641894428736533e+00
      - -9.5970840782301026e-01
      - 2.2195176043557634e+00
      - -9.7103879933002069e-01
      - 2.2094112469665235e+00
      - -1.0147207065033774e+00
      - 2.1989063847130135e+00
      - -1.0635074277343350e+00
      - 2.1987517812130473e+00
      - -1.1042723445219111e+00
      - 2.2069371412007928e+00
      - -1.1088166914287485e+00
      - 2.2189554354676599e+00
      - -1.0534626579406425e+00
      - 2.2524919494572186e+00
      - -9.9328968032310905e-01
      - 2.3310560288741833e+00
      - -9.4933179243458632e-01
      - 2.4136426474980470e+00
      - -9.0384640305518726e-01
      - 2.5190178254470759e+00
      - -8.7373816108716496e-01
      - 2.5882992726092038e+00
      - -8.2026645135145093e-01
      - 2.6650068176856303e+00
      - -7.8902208313540234e-01
      - 2.6495983698975887e+00
      - -7.4595566077055464e-01
      - 2.5993566551061544e+00
      - -7.2794959569913120e-01
      - 2.4929575333103089e+00
      - -6.9813657903441206e-01
      - 2.5263917082527061e+00
      - -6.5905507384185624e-01
      - 2.7034254514193341e+00
      - -6.0600902701449000e-01
      - 2.7396637795980814e+00
      - -5.3465113942815556e-01
      - 3.1327580765679857e+00
      - -3.6490223478549483e-01
      - 3.1058924080052948e+00
      - -5.1650228039927071e-01
      - 2.5862927685337858e+00
      - -5.8599308887398716e-01
      - 2.6316103262586217e+00
      - -5.9217336077258409e-01
      - 2.6446779939872243e+00
      - -5.6258222660067769e-01
      - 2.6268316934711087e+00
      - -5.4473884285086072e-01
      - 2.6111194499743675e+00
      - -5.4603408692166344e-01
      - 2.5733404267416553e+00
      - -5.9387920668408456e-01
      - 2.4650737138068131e+00
      - -6.6036662930976819e-01
      - 2.3308654189337674e+00
      - -7.0205402057034272e-01
      - 2.2381216191289379e+00
      - -7.3661928882130445e-01
      - 2.1814046629563451e+00
      - -7.7162541753938496e-01
      - 2.1421197917626946e+00
      - -8.0705081536912260e-01
      - 2.1420271490329665e+00
      - -8.5344397294441565e-01
      - 2.1504097171249263e+00
      - -8.4368588043788684e-01
      - 2.1941055335099771e+00
      - -7.8592112943555792e-01
      - 2.2939517116966859e+00
      - -7.2134997572318038e-01
      - 2.4541126865521385e+00
      - -6.5172969503954614e-01
      - 2.6561285290620238e+00
      - -5.7567889137545802e-01
      - 2.8223158378481070e+00
      - -5.0804033037930851e-01
      - 2.9395395685748422e+00
      - -4.6720467047423059e-01
      - 2.9856908753553388e+00
      - -4.5462189226199623e-01
      - 2.9190388389024067e+00
      - -4.7063911597486979e-01
      - 2.8272295035176058e+00
      - -5.1257473972874501e-01
      - 2.6997680912624782e+00
      - -5.3113661072377072e-01
      - 2.6546398629245092e+00
      - -5.4151835316788011e-01
      - 2.8994725904325249e+00
      - -5.0031785552376040e-01
      - 2.8442144231262900e+00
      - -4.1349053409476383e-01
   output_scale:
      - 5.2631578947368418e-01
      - 4.9999999999999994e-01
      - 5.2631578947368418e-01
      - 4.9999999999999994e-01
      - 5.2631578947368418e-01
      - 4.9999999999999994e-01
      - 5.2631578947368418e-01
      - 4.9999999999999994e-01
      - 5.2631578947368418e-01
      - 4.9999999999999994e-01
      - 5.2631578947368418e-01
      - 4.9999999999999994e-01
      - 5.2631578947368418e-01
      - 4.9999999999999994e-01
      - 5.2631578947368418e-01
      - 4.9999999999999994e-01
      - 5.2631578947368418e-01
      - 4.9999999999999994e-01
      - 5.2631578947368418e-01
      - 4.9999999999999994e-01
      - 5.2631578947368418e-01
      - 4.9999999999999994e-01
      - 5.2631578947368418e-01
      - 4.9999999999999994e-01
      - 5.2631578947368418e-01
      - 4.9999999999999994e-01
      - 5.2631578947368418e-01
      - 4.9999999999999994e-01
      - 5.2631578947368418e-01
      - 4.9999999999999994e-01
      - 5.2631578947368418e-01
      - 4.9999999999999994e-01
      - 5.2631578947368418e-01
      - 4.9999999999999994e-01
      - 5.2631578947368418e-01
      - 4.9999999999999994e-01
      - 5.2631578947368418e-01
      - 4.9999999999999994e-01
      - 5.2631578947368418e-01
      - 4.9999999999999994e-01
      - 5.2631578947368418e-01
      - 4.9999999999999994e-01
      - 5.2631578947368418e-01
      - 4.9999999999999994e-01
      - 5.2631578947368418e-01
      - 4.9999999999999994e-01
      - 5.2631578947368418e-01
      - 4.9999999999999994e-01
      - 5.2631578947368418e-01
      - 4.9999999999999994e-01
      - 5.2631578947368418e-01
      - 4.9999999999999994e-01
      - 5.2631578947368418e-01
      - 4.9999999999999994e-01
      - 5.2631578947368418e-01
      - 4.9999999999999994e-01
      - 5.2631578947368418e-01
      - 4.9999999999999994e-01
      - 5.2631578947368418e-01
      - 4.9999999999999994e-01
      - 5.2631578947368418e-01
      - 4.9999999999999994e-01
      - 5.2631578947368418e-01
      - 4.9999999999999994e-01
      - 5.2631578947368418e-01
      - 4.9999999999999994e-01
      - 5.2631578947368418e-01
      - 4.9999999999999994e-01
      - 5.2631578947368418e-01
      - 4.9999999999999994e-01
      - 5.2631578947368418e-01
      - 4.9999999999999994e-01
      - 5.2631578947368418e-01
      - 4.9999999999999994e-01
      - 5.2631578947368418e-01
      - 4.9999999999999994e-01
      - 5.2631578947368418e-01
      - 4.9999999999999994e-01
      - 5.2631578947368418e-01
      - 4.9999999999999994e-01
      - 5.2631578947368418e-01
      - 4.9999999999999994e-01
      - 5.2631578947368418e-01
      - 4.9999999999999994e-01
      - 5.2631578947368418e-01
      - 4.9999999999999994e-01
      - 5.2631578947368418e-01
      - 4.9999999999999994e-01
      - 5.2631578947368418e-01
      - 4.9999999999999994e-01
      - 5.2631578947368418e-01
      - 4.9999999999999994e-01
      - 5.2631578947368418e-01
      - 4.9999999999999994e-01
      - 5.2631578947368418e-01
      - 4.9999999999999994e-01
      - 5.2631578947368418e-01
      - 4.9999999999999994e-01
      - 5.2631578947368418e-01
      - 4.9999999999999994e-01
      - 5.2631578947368418e-01
      - 4.9999999999999994e-01
      - 5.2631578947368418e-01
      - 4.9999999999999994e-01
      - 5.2631578947368418e-01
      - 4.9999999999999994e-01
      - 5.2631578947368418e-01
      - 4.9999999999999994e-01
      - 5.2631578947368418e-01
      - 4.9999999999999994e-01
      - 5.2631578947368418e-01
      - 4.9999999999999994e-01
      - 5.2631578947368418e-01
      - 4.9999999999999994e-01
      - 5.2631578947368418e-01
      - 4.9999999999999994e-01
      - 5.2631578947368418e-01
      - 4.9999999999999994e-01
      - 5.2631578947368418e-01
      - 4.9999999999999994e-01
      - 5.2631578947368418e-01
      - 4.9999999999999994e-01
      - 5.2631578947368418e-01
      - 4.9999999999999994e-01
   inv_output_scale:
      - 1.8999999999999999e+00
      - -9.4999999999999996e-01
      - 1.8999999999999999e+00
      - -9.4999999999999996e-01
      - 1.8999999999999999e+00
      - -9.4999999999999996e-01
      - 1.8999999999999999e+00
      - -9.4999999999999996e-01
      - 1.8999999999999999e+00
      - -9.4999999999999996e-01
      - 1.8999999999999999e+00
      - -9.4999999999999996e-01
      - 1.8999999999999999e+00
      - -9.4999999999999996e-01
      - 1.8999999999999999e+00
      - -9.4999999999999996e-01
      - 1.8999999999999999e+00
      - -9.4999999999999996e-01
      - 1.8999999999999999e+00
      - -9.4999999999999996e-01
      - 1.8999999999999999e+00
      - -9.4999999999999996e-01
      - 1.8999999999999999e+00
      - -9.4999999999999996e-01
      - 1.8999999999999999e+00
      - -9.4999999999999996e-01
      - 1.8999999999999999e+00
      - -9.4999999999999996e-01
      - 1.8999999999999999e+00
      - -9.4999999999999996e-01
      - 1.8999999999999999e+00
      - -9.4999999999999996e-01
      - 1.8999999999999999e+00
      - -9.4999999999999996e-01
      - 1.8999999999999999e+00
      - -9.4999999999999996e-01
      - 1.8999999999999999e+00
      - -9.4999999999999996e-01
      - 1.8999999999999999e+00
      - -9.4999999999999996e-01
      - 1.8999999999999999e+00
      - -9.4999999999999996e-01
      - 1.8999999999999999e+00
      - -9.4999999999999996e-01
      - 1.8999999999999999e+00
      - -9.4999999999999996e-01
      - 1.8999999999999999e+00
      - -9.4999999999999996e-01
      - 1.8999999999999999e+00
      - -9.4999999999999996e-01
      - 1.8999999999999999e+00
      - -9.4999999999999996e-01
      - 1.8999999999999999e+00
      - -9.4999999999999996e-01
      - 1.8999999999999999e+00
      - -9.4999999999999996e-01
      - 1.8999999999999999e+00
      - -9.4999999999999996e-01
      - 1.8999999999999999e+00
      - -9.4999999999999996e-01
      - 1.8999999999999999e+00
      - -9.4999999999999996e-01
      - 1.8999999999999999e+00
      - -9.4999999999999996e-01
      - 1.8999999999999999e+00
      - -9.4999999999999996e-01
      - 1.8999999999999999e+00
      - -9.4999999999999996e-01
      - 1.8999999999999999e+00
      - -9.4999999999999996e-01
      - 1.8999999999999999e+00
      - -9.4999999999999996e-01
      - 1.8999999999999999e+00
      - -9.4999999999999996e-01
      - 1.8999999999999999e+00
      - -9.4999999999999996e-01
      - 1.8999999999999999e+00
      - -9.4999999999999996e-01
      - 1.8999999999999999e+00
      - -9.4999999999999996e-01
      - 1.8999999999999999e+00
      - -9.4999999999999996e-01
      - 1.8999999999999999e+00
      - -9.4999999999999996e-01
      - 1.8999999999999999e+00
      - -9.4999999999999996e-01
      - 1.8999999999999999e+00
      - -9.4999999999999996e-01
      - 1.8999999999999999e+00
      - -9.4999999999999996e-01
      - 1.8999999999999999e+00
      - -9.4999999999999996e-01
      - 1.8999999999999999e+00
      - -9.4999999999999996e-01
      - 1.8999999999999999e+00
      - -9.4999999999999996e-01
      - 1.8999999999999999e+00
      - -9.4999999999999996e-01
      - 1.8999999999999999e+00
      - -9.4999999999999996e-01
      - 1.8999999999999999e+00
      - -9.4999999999999996e-01
      - 1.8999999999999999e+00
      - -9.4999999999999996e-01
      - 1.8999999999999999e+00
      - -9.4999999999999996e-01
      - 1.8999999999999999e+00
      - -9.4999999999999996e-01
      - 1.8999999999999999e+00
      - -9.4999999999999996e-01
      - 1.8999999999999999e+00
      - -9.4999999999999996e-01
      - 1.8999999999999999e+00
      - -9.4999999999999996e-01
      - 1.8999999999999999e+00
      - -9.4999999999999996e-01
      - 1.8999999999999999e+00
      - -9.4999999999999996e-01
      - 1.8999999999999999e+00
      - -9.4999999999999996e-01
      - 1.8999999999999999e+00
      - -9.4999999999999996e-01
      - 1.8999999999999999e+00
      - -9.4999999999999996e-01
   weights:
      -
         - 4.2404726150716704e-01
         - 2.3235543229597828e-02
         - -9.3556481585449247e-01
         - 8.5154858607347916e-01
         - 7.5642244388754865e-01
         - 3.9455002736154161e-02
         - 5.9880277282525742e-02
         - -1.4236006143232721e-01
         - 1.9295623350714391e-01
         - -9.8025665690102248e-01
         - -4.7870089263660359e-01
         - -1.0949798696651092e-01
         - 3.0821889222359905e-01
         - -2.9338787041745162e-01
         - -8.3363370697600414e-01
         - -1.4569773676197653e-01
         - 2.3632336249721472e-01
         - 1.5978469471214642e+00
         - -1.4520036259756257e+00
         - 6.4679970228638695e-01
         - -1.5584454589503396e+00
         - -4.2786654354005899e-01
         - 1.4970016812105294e-01
         - 8.6291581085875729e-02
         - 1.6740934904783908e+00
         - 7.1452054911806906e-01
         - 1.8027738446476442e+00
         - 3.1747525600254400e-01
         - 4.7420747089633580e-01
         - -3.5541773280047761e-01
         - -7.9769343762124789e-01
         - -4.0140474847866314e-01
         - 8.7491495355009608e-01
         - 2.5170322000242817e-01
         - -8.2406714970841055e-01
         - -4.6048648563473136e-03
         - -1.6121204875317254e+00
         - -1.5355089846990369e-01
         - 1.0683787988479571e-01
         - 8.9358621490831391e-01
         - 8.4089257609746726e-01
         - 9.9349273496497970e-01
         - 5.5062027325493823e-01
         - -1.2403773954691692e-01
         - -1.1747438904861547e+00
         - 6.3307404286606583e-01
         - 4.7260078534474170e-01
         - 6.9057823245628169e-01
         - -5.3815873441600492e-02
         - 1.5811633093424174e-01
         - 1.3828568881597877e-01
         - -6.1143495522995928e-01
         - -1.2647013011026698e-01
         - -3.9674631649799830e-01
         - -9.9077978721993351e-02
         - 7.6604674163866390e-02
         - 1.3251810267829200e-01
         - -2.1357564997258777e-01
         - 7.3576887582989947e-01
         - -3.8212772229923711e-02
         - -1.2241796582669682e+00
         - 6.5045765475839423e-01
         - 3.2257231413669335e-01
         - -5.3509734302672729e-01
         - 7.5955901389542904e-02
         - -8.7080146766780187e-01
         - 1.0045367490163084e+00
         - 2.6448313250166461e-01
         - -8.1089043145629669e-01
         - -4.4658932622864628e-01
         - -4.3679447794895604e-01
         - 1.0154662924863922e+00
         - -7.0550780107620481e-01
         - 1.5988504006183613e-01
         - 1.6555803025431124e+00
         - 6.8966440497160122e-02
         - -4.5865010214937146e-01
         - -7.1088128659944849e-01
         - 7.8357598339101098e-01
         - -4.1467268385847977e-01
         - 6.9437190029706619e-01
         - -1.8691241355330887e-01
         - -1.1212674846348414e+00
         - 2.8608341586269298e-01
         - 5.2583701225938773e-01
         - 3.3800636808719214e-01
         - -8.4769844122558236e-01
         - -1.1940685039246299e+00
         - 2.8797988695256849e-01
         - 2.9210389046029112e-01
         - 1.3255385452929672e-01
         - 1.5116571045652952e-01
         - 8.6254378938602827e-01
         - 7.4729460896448752e-01
         - 4.7366705689793204e-02
         - 3.2602792021302390e-01
         - 2.2005650012372521e-01
         - 7.1888856062700190e-01
         - -3.9000045242619430e-01
         - -1.5391638727268904e+00
         - -6.5047428681852398e-02
         - -3.6474436257475840e-01
         - 1.8602311364443302e-02
         - -4.2890978321275267e-02
         - 1.0556979864097296e-01
         - 8.5532311580840525e-01
         - -3.3933104185591201e-01
         - -5.5627014890463922e-01
         - -8.5302147488686531e-01
         - 1.2685149144894827e+00
         - 8.0714156992710939e-01
         - -1.3339304730120547e+00
         - 2.9815935277706523e-01
         - 2.7971857151110724e-01
         - -1.2546267674302241e+00
         - 1.5598873460429550e+00
         - 7.1293503503164879e-01
         - 8.6363165595615715e-02
         - -3.3741895020807267e-02
         - 1.2590595695152570e-01
         - -3.6751114029519999e-01
         - 1.0868090693455419e+00
         - 4.5360995492906514e-01
         - -1.6563482689441628e-01
         - -3.2260062797260769e-01
         - 1.1439751413825971e+00
         - -3.0381366659552778e-01
         - 9.7760982940131780e-01
         - -1.9258398826253678e-01
         - 2.4854032163164386e-01
         - -1.1947039346617885e+00
         - 2.4988586530678303e-01
         - 7.1147002573487517e-01
         - -3.8920688214139265e-01
         - 5.8673190311999912e-01
         - 3.3178998249898624e-02
         - -2.6988157934178199e-02
         - -1.2573226756427058e+00
         - 1.2326412128331271e-01
         - 1.9257082503880488e-01
         - -7.2740941038255713e-01
         - 4.4483515037590965e-01
         - -6.8461322813981307e-01
         - 5.9946710959031968e-01
         - 1.0970238912328729e+00
         - 1.5617024731127200e+00
         - -1.4636355544972877e+00
         - 1.2003429047391918e-01
         - -6.6570478196079896e-01
         - -3.0060952520925271e-01
         - 2.1984863659367071e-01
         - -4.7972244462582547e-01
         - 1.3775614482962661e+00
         - 4.5465919580529890e-01
         - 1.5524754308648838e+00
         - 7.3733463825256626e-02
         - 4.7067008219324802e-01
         - -4.6378466534486706e-01
         - -2.9673717283009438e-01
         - -1.8197340602997841e-01
         - 7.2005602640879462e-01
         - 6.3600494338645836e-03
         - -4.0589480777830300e-01
         - -1.6833499673739847e-02
         - -1.0162558510346646e+00
         - -6.1956877959466272e-01
         - 5.6529375465837783e-01
         - 1.3694808083458481e+00
         - 1.9456929799918135e-01
         - -2.4759824114726747e-01
         - 1.1288043641359012e-01
         - -2.8334057024467674e-01
         - -1.2853881783028405e+00
         - 5.1788506346247765e-01
         - 8.6214781387679140e-01
         - 4.2948481226330021e-01
         - -5.7919707291341171e-01
         - 5.3436648573740075e-01
         - 4.6706842521609206e-02
         - -4.1532173049073345e-01
         - 1.4178653610744171e-01
         - 2.9048716796094926e-01
         - 2.3155370207954049e-01
         - 4.1949306160361172e-01
         - -1.7201249491828269e-01
         - -2.8006368994028685e-01
         - 1.2297733979722825e+00
         - 3.9085831518251701e-01
         - -8.4220261296672128e-01
         - 4.3133148314367425e-01
         - 5.6443887653935931e-01
         - -7.6372505792171519e-01
         - -6.8436436568104442e-01
         - -8.8474733306353459e-01
         - 8.7518318474200163e-01
         - 1.2243691356216618e-01
         - -9.6210231923480261e-01
         - -1.6173690450920158e-01
         - -9.2401228170166561e-01
         - 9.3423749591212579e-01
         - -6.0706767177627619e-01
         - 7.4207503742728248e-02
         - 1.5682407637939217e+00
         - -3.5422775453267963e-01
         - -9.9106243883148343e-02
         - -6.3561666636544201e-01
         - -7.1162897409239978e-02
         - 1.6953237142270122e-01
         - -5.2642682238975967e-02
         - -9.7695187635130276e-01
         - -1.2424418665904100e+00
         - -4.0511610767806600e-01
         - 7.4208239335838999e-01
         - -2.3950414804303082e-02
         - -4.8555825113797785e-01
         - 2.3715550056292689e-01
         - 2.3068742855295987e-01
         - 4.0382170020699826e-01
         - -4.8720370591441969e-01
         - 1.6534200570581478e-01
         - 1.1784229247040683e+00
         - 6.9654149716090352e-01
         - -1.6660999023743156e-01
         - 6.3892170943554871e-01
         - 2.4584399177967414e-01
         - 7.4016219060916855e-01
         - -5.3506985883552982e-01
         - -5.6725343689745766e-01
         - -2.3260685423278757e-01
         - 4.3585891386456810e-01
         - 1.6688269835780481e-01
         - 1.5505603800203047e-01
         - -4.7791140705116703e-01
         - 3.7390100449148417e-01
         - -1.0092529721628711e-01
         - -1.2748942314889256e-01
         - -1.1634440942310671e+00
         - 2.0120113316721406e+00
         - -6.0015108159916515e-02
         - -8.1402901198481747e-01
         - 3.5514071415011055e-02
         - 6.4262087953161606e-01
         - -3.5434058433084681e-01
         - 1.3630749441954453e+00
         - -6.0670521144364242e-01
         - 5.7592847614372555e-01
         - -4.9553389458514724e-01
         - 9.0489383469201112e-01
         - -3.5697836460262339e-01
         - 2.6191752236516158e-01
         - -1.2531361632358104e-01
         - 1.2533319969122614e-01
         - 4.1603086164309838e-01
         - 2.9040128899625473e-01
         - -7.7787843228894815e-01
         - 3.2319514394800225e-01
         - -2.9435861366058858e-01
         - 4.2827475758826766e-01
         - -1.6335680324425152e+00
         - -1.1372956783516978e-01
         - 3.1784966671837706e-01
         - 2.1556879624287758e-02
         - 9.8710732942361523e-01
         - 1.7948001413213699e-01
         - 1.1955618476713697e-01
         - -1.6182474732386680e+00
         - 1.2430086589543761e+00
         - -9.7029026550763633e-02
         - -1.1863584102718308e+00
         - 1.3908040984141963e+00
         - -7.3663697534265093e-01
         - -1.1189099161602523e-01
         - 1.3898367938382490e+00
         - 1.7803927780747832e+00
         - -1.2672218782779638e+00
         - -4.6645842372507534e-01
         - -9.2829262786113434e-02
         - -2.3446874934365902e-01
         - 3.6766137956458161e-01
         - -1.4952519909547626e+00
         - 9.0855845835324323e-01
         - 4.6422071791088398e-01
         - 3.1444749385387172e-01
         - -4.6474139558965594e-02
         - 2.6052543679169909e-01
         - -1.0095863980570969e+00
         - 3.6156060422646824e-01
         - 4.3008448198347377e-01
         - 9.1116415157080555e-01
         - -7.5503882075420206e-02
         - -2.9317279276788799e-01
         - -3.3989857980266956e-02
         - -1.1544320018584538e-01
         - -5.6896208413427729e-01
         - 4.9691790963678217e-01
         - 8.5823169244479247e-01
         - -7.6511072909450861e-01
         - -9.7439145928275583e-01
         - -3.5566693626259349e-01
         - -7.7380944113613104e-01
         - -1.3281759931167030e+00
         - -2.3778835657657260e-01
         - 8.0409801767027678e-01
         - -9.6256061084456362e-02
         - -5.1065484404151607e-01
         - 8.0200786934809487e-01
         - -1.9628261002378264e-01
         - -6.6845939145007818e-02
         - -2.9194238179644694e-01
         - 4.9244358718681375e-01
         - 8.0647088260502997e-01
         - -4.1725945278786036e-02
         - -1.6175671596701888e-01
         - -2.6134779202566523e-02
         - 1.1668449697012051e+00
         - 1.2287377468178675e+00
         - 3.4454414203566930e-01
         - 3.2747296161898920e-01
         - 6.6267864206218963e-01
         - -7.1687606530296366e-01
         - -1.2457793657188916e+00
         - -1.3261643965322969e+00
         - 7.5915861885158620e-01
         - -1.0338890385004036e-01
         - -9.6824190437141910e-01
         - -1.1023146881719449e-01
         - -1.2697271793694072e+00
         - 4.0709134005662062e-01
         - -5.0157115026810764e-02
         - 8.4320103407298605e-02
         - 1.7577907179777197e+00
         - -7.3430251875973496e-01
         - 4.3708064537450408e-01
         - -7.6276326184437071e-01
         - -8.0206407146800418e-01
         - 2.3821920701321071e-02
         - -3.9019679752207787e-01
         - -1.0436859621283194e+00
         - -8.9312814160138865e-01
         - -7.2564067658665754e-01
         - -1.1371807346334632e-01
         - -2.7980326466249150e-01
         - -1.1147088086087489e-01
         - 1.4665482706242841e+00
         - 2.6812816986856897e-01
         - 3.4394499207988466e-01
         - -8.2805519963249796e-01
         - 8.3438285717002891e-01
         - 1.0202619352692268e+00
         - 1.0546937848084246e+00
         - 4.8959631781680624e-01
         - -1.5699209902789890e-01
         - 7.5398714273344258e-01
         - -1.7797920178007773e-01
         - -7.2414393749808947e-01
         - -1.9367000939879664e-01
         - -4.0717147991818586e-01
         - 5.8583393951355867e-01
         - 8.5064460255895973e-03
         - 6.0193007920107910e-01
         - -3.0142158208468184e-01
         - -3.6853624159549225e-01
         - 9.6826463674615726e-02
         - 7.1639595799567701e-01
         - -1.1481089246176053e+00
         - 6.8966136202194772e-01
         - -7.5458329297731375e-01
         - -2.1237854818914149e-02
         - 6.0165565046744134e-02
         - 5.9938337313968160e-01
         - 2.1533337640422978e-02
         - 9.8102689791789099e-01
         - -1.3021171832710352e+00
         - 3.8428299583365411e-01
         - -5.8019189844501751e-01
         - 1.1277984063575930e+00
         - -2.2800330375277833e-01
         - 1.1313590883849237e-02
         - -6.4671244510915837e-01
         - 3.1154239167819359e-01
         - 1.7338120902502552e+00
         - 4.8627012625428406e-01
         - -1.0620330112100409e+00
         - 1.9825533740588114e-02
         - 7.7255478793066337e-02
         - -1.5636733863293883e-01
         - -2.0485896773795704e+00
         - -3.2376845851955410e-02
         - 2.9427621983536556e-01
         - 2.6161838111337882e-01
         - 7.3745710165683342e-01
         - 9.0983690259254324e-01
         - -3.7286019168178636e-01
         - -1.2629164181816084e+00
         - 4.8504390680242687e-01
         - -5.5657424608429408e-02
         - -6.2421270888068658e-01
         - 1.2032020966693351e+00
         - -1.0096137995608316e+00
         - -5.4757963503710338e-01
         - 1.2147563491584290e+00
         - 1.8856914191157506e+00
         - -8.6032223347707493e-01
         - -5.9092563005871612e-01
         - -5.4422755851517302e-01
         - 3.7208511270858746e-01
         - 5.6052043766148263e-01
         - -1.1377684423038352e+00
         - 4.5715116403341838e-01
         - 4.7452567647024368e-01
         - 7.2598968726887880e-01
         - -2.3517760076821254e-01
         - -8.5251184291407947e-02
         - -1.0390071253873825e+00
         - 6.1219721455868605e-02
         - 2.0792350519948888e-01
         - 4.0316226999629379e-01
         - 4.9824290428225404e-01
         - 6.6478724640255904e-01
         - -1.7964817169897750e-02
         - 4.3850049935210572e-01
         - -3.9882587614206816e-01
         - 5.2896484529980781e-01
         - 9.6592445064851684e-01
         - -7.1938792882612923e-01
         - -8.9553597257531381e-01
         - -7.0364554219636458e-02
         - -9.4285735332460385e-01
         - -4.8652967548098452e-01
         - -3.3276043176577380e-01
         - 1.2428048678947037e+00
         - -1.3090736671851652e-01
         - -3.9722370352962305e-01
         - 9.5187250869811313e-01
         - 1.4275426013571657e-01
         - 8.9795965558543422e-01
         - 9.8519832865011148e-02
         - -1.5135320230687113e-01
         - 5.3769911209644838e-01
         - -4.5050597197244924e-01
         - -1.8282924545031726e-01
         - 2.9854826218574620e-01
         - 7.9635231849024590e-01
         - 1.5520892651958000e+00
         - 6.5951351101452860e-01
         - -2.5506372479492334e-01
         - 5.3102293399787204e-01
         - -7.3616059904354103e-01
         - -1.5366910160326461e+00
         - -1.2130452579025495e+00
         - 7.6902737480854033e-01
         - -8.4658629042541941e-02
         - -5.7368286356981635e-01
         - -6.6352120040404494e-01
         - -1.5044627343665113e+00
         - 3.6816822036700514e-01
         - -4.3676447017791309e-01
         - 2.8914258621825499e-02
         - 1.3610394959429719e+00
         - -1.3402490067518997e+00
         - 5.8328862226873723e-01
         - -9.6670870865716962e-01
         - -9.5724390158136130e-01
         - -1.1299800109239594e-01
         - -1.1989678102602014e-01
         - -8.0676572001978131e-01
         - -1.0242591919329338e+00
         - -1.1415268015173673e-01
         - -3.8174961080196279e-01
         - -4.2811446500764666e-01
         - -1.3881037166075305e-01
         - 1.7249208706135211e+00
         - 3.1307656507706161e-01
         - -5.0490572263463851e-01
         - -5.6801402799452361e-01
         - 4.2082433889636445e-01
         - 4.2573222224112184e-01
         - 6.7535599535568536e-01
         - 1.1818393008592496e+00
         - -5.4527429789836941e-02
         - 8.1068283081783143e-01
         - -4.0132431112415801e-01
         - -2.5017839629788058e-01
         - -8.6927117107722524e-02
         - -6.0336360084386065e-01
         - 2.9011853819028721e-01
         - 9.3141955577136962e-02
         - 6.8909169276802729e-01
         - 4.8977546545183430e-02
         - -2.0527008445044165e-01
         - 3.8801603114316363e-01
         - 7.5527496047285059e-01
         - -1.0780753597167470e+00
         - 7.4521733818846347e-01
         - -8.8134497371985210e-01
         - -4.3382178007772826e-01
         - 3.7923901784985392e-01
         - 7.9873078252130830e-02
         - 2.5004752736272634e-01
         - 6.1301688458104442e-01
         - -1.2679995144324052e+00
         - -2.3533929586734087e-01
         - -6.2291473449830426e-01
         - 8.4364730730963655e-01
         - -8.9331192892226879e-02
         - 5.1468154926763066e-01
         - -3.0501006101043504e-01
         - 6.5159521656511865e-01
         - 1.8128670125917818e+00
         - 7.6635854419802352e-01
         - -1.0821516657636390e+00
         - 4.7206136411657484e-01
         - 3.4786829421257237e-01
         - -9.0070724441018946e-01
         - -2.1680932594293343e+00
         - 1.2407484947265839e-01
         - 2.6447184618750513e-01
         - 4.4250893666189445e-01
         - 1.0873417641424059e+00
         - 9.0212678366194354e-01
         - 4.9364933037769071e-01
         - -9.1111451329595616e-01
         - 8.6758212134374557e-01
         - -4.3335675717349392e-01
         - -1.0970764909395413e-01
         - -1.3437078265996508e-01
         - -8.7788441570087850e-01
         - -1.2767263141051024e+00
         - 1.1595728056490437e+00
         - 1.3926463901389279e+00
         - -9.8915813337711933e-01
         - -1.3604271025379133e-01
         - -2.7647535907585206e-02
         - 7.4712011832577951e-01
         - 5.7823202562671061e-01
         - -8.2071257088624450e-01
         - 3.0527820579995318e-01
         - 4.0381138743909689e-01
         - 1.1414102062387412e+00
         - -1.9452842021441319e-01
         - -2.3082376208700039e-01
         - -7.9106804625610072e-01
         - 5.5238082359028651e-01
         - 1.0399263242351357e-01
         - 2.8531523634246303e-01
         - 7.7988615695870922e-01
         - 9.1306491241834842e-01
         - 1.9078818027237779e-01
         - 6.5927869086203095e-01
         - -6.2025738155106402e-01
         - 5.2465173414183375e-01
         - 5.3483470552626322e-01
         - -4.9987619760142094e-01
         - -7.1077145791289464e-01
         - 1.7449858273897498e-01
         - -4.5969402383266050e-01
         - -7.5958432623960542e-02
         - -3.2876041924693578e-01
         - 1.6119636314856389e+00
         - 2.4969608534715157e-01
         - -3.9038621719529304e-01
         - 1.5347287469073350e+00
         - 1.8989020564955714e-01
         - 2.8466914027374540e-01
         - 3.8324616492849078e-01
         - -3.2486601424501849e-01
         - 4.2509746122862752e-01
         - -1.1763852735986584e+00
         - -3.9349678007886241e-01
         - 5.8037226433337363e-01
         - 3.4557200924147480e-01
         - 1.7054642960187987e+00
         - 8.8393058663340773e-01
         - -1.0067977618309771e+00
         - 3.6715667174102179e-01
         - -1.0778555035167903e+00
         - -1.4502181919681465e+00
         - -6.4766090523637809e-01
         - -2.2648304145581537e-02
         - 9.2397266476555651e-01
         - -2.6801920435208570e-01
         - -7.2597573148836492e-01
         - -1.9067282085728685e+00
         - 4.1681511072213767e-01
         - -1.3349498918527053e-01
         - -7.9068239778832886e-02
         - 1.6280747543297081e+00
         - -8.7217861161927168e-01
         - 2.3235883277006747e-01
         - -8.1277121747330539e-01
         - -6.7030943700809906e-02
         - 1.6344527649933871e-01
         - -1.0537892091037700e-01
         - -6.6727791813782011e-01
         - -1.5808175925233137e+00
         - -2.6293344673808527e-01
         - 1.0152128945668543e-01
         - -4.0476555867283276e-01
         - -1.9199103874848744e-01
         - 1.5383560440556900e+00
         - 1.6760646686275973e-01
         - -4.7954794445103560e-01
         - 3.9857842556351963e-01
         - 2.4977310914703540e-01
         - 1.9493296027711263e-01
         - 1.6380508922003442e-01
         - 1.0084562587193511e+00
         - -1.5323912847360328e+00
         - 7.0352218045467008e-01
         - 1.3281663011922354e-01
         - 8.8915649297279520e-01
         - -1.2793480779041579e-02
         - -1.1712707224165865e-01
         - -5.8887539757345997e-01
         - 3.7626248686084923e-01
         - 4.5155135347106551e-02
         - 3.6052486585188748e-01
         - -1.9618069746106193e-01
         - 2.7768621802405292e-02
         - 3.0786164615404837e-01
         - -9.0783820280954319e-01
         - 1.0141669198904031e+00
         - -6.6922413289372218e-01
         - -5.7307272879551041e-01
         - 6.9901149207182078e-01
         - -2.3502376066908046e-01
         - -2.6419496539307932e-02
         - 6.0980834072312858e-03
         - -1.2212031878166349e+00
         - -6.7442710783961002e-01
         - -6.6974300084939042e-01
         - 7.8271526969195004e-01
         - -8.5255024009089422e-02
         - 6.8293045868213043e-01
         - -5.8636881418599629e-01
         - 3.8305398507526889e-01
         - 1.7826847517687643e+00
         - 7.6991805719773443e-01
         - -6.7692402849534417e-01
         - 7.3715498005737634e-01
         - 1.5775923477759549e-01
         - -4.1358374252060209e-01
         - -1.3885551418606981e+00
         - 1.6761634914084547e-01
         - -5.3407152506961202e-02
         - 8.4299147011413667e-01
         - 9.5446936394874238e-01
         - 9.8805987834669384e-01
         - 5.5525117303768445e-01
         - -1.0703104988317476e+00
         - 7.0651747948836296e-01
         - -7.3891521831471030e-01
         - 6.0353422384422417e-01
         - -6.8471514079921258e-01
         - -2.9460944601805261e-01
         - -1.1145424780275275e+00
         - 8.2678379785180101e-01
         - -1.6084833905050497e-01
         - -9.7799236917830534e-01
         - 3.0696425726248661e-01
         - 2.2325026793749453e-01
         - 1.1137474112591652e+00
         - -9.1044724780208336e-03
         - -2.5697938135030352e-01
         - 1.4561012475274207e-01
         - 2.1613586232625739e-01
         - 1.3678501112079546e+00
         - -7.5101601078466662e-01
         - 1.3110619926841656e-02
         - -7.0642304943895395e-01
         - 9.5044593453781445e-01
         - 2.1816436652966051e-01
         - 6.3634648459882170e-01
         - 7.1180628186255868e-01
         - 7.0338527656451177e-01
         - 1.9937107645782201e-01
         - 5.8994371402324264e-01
         - -7.7060113582622192e-01
         - 1.2647009260847279e+00
         - -4.8724886573873316e-01
         - -1.0374993624645523e+00
         - -5.5428268225920396e-01
         - 1.7032323991508541e-01
         - -3.1596737971489031e-01
         - 1.5135364909365581e-01
         - 1.8096027028668657e-01
         - 1.4525429353881010e+00
         - 3.6580742691613677e-01
         - -6.6054017642133067e-01
         - 1.5898815038733802e+00
         - -1.2497980415779011e-01
         - -3.0721079349058128e-01
         - -6.2357774239395114e-01
         - -4.6647179478392586e-01
         - -3.6010774923969269e-01
         - -1.1263859747560834e+00
         - -1.6187504370236513e-01
         - 4.5541831992159992e-01
         - 3.8712308554753944e-01
         - 1.5951334769528860e+00
         - 3.7617941475438621e-01
         - -9.2304772017705805e-01
         - 3.8705873480235448e-01
         - -6.4885443942136189e-01
         - -8.2184823212942371e-01
         - 7.7133380319810807e-01
         - 1.0399102858426341e-01
         - 1.2149961582491424e+00
         - -2.6161213450369591e-01
         - -8.2547838308955801e-01
         - -2.2407656034451042e+00
         - 4.2587359159574723e-01
         - -4.0381761425673601e-01
         - -4.7584000483470679e-01
         - 1.2109101249580501e+00
         - 7.5525634588667423e-01
         - -5.2523228829305035e-01
         - -7.8000857147222702e-01
         - -4.5038339486062798e-02
         - 5.9152112244917364e-02
         - 2.3131418504589588e-01
         - -4.6726960139783991e-01
         - -1.4606325853304947e+00
         - -8.2057510985210280e-01
         - 4.0055105626520149e-01
         - 4.1095163677128227e-01
         - 2.3438048748736223e-01
         - 2.0499547261120085e-01
         - 9.5710840875668779e-01
         - -5.7109601154427492e-01
         - 9.9074195548548782e-01
         - 7.4799638610379293e-01
         - 5.0523763551630962e-01
         - -1.9502215383509577e-01
         - 1.4345734845476577e+00
         - -1.4187655175812433e+00
         - 1.8598114216000919e-01
         - 9.0325546132933454e-01
         - 6.3616806544137428e-01
         - 2.8688820247500058e-01
         - 4.9694200516932532e-02
         - 3.2875445508560036e-01
         - 6.2037086529693908e-01
         - -4.6694014824483610e-01
         - 2.6212864423834531e-01
         - 8.7040126623919523e-02
         - -3.1722150759861784e-01
         - -1.5367443086786553e-01
         - -4.6333343737965871e-01
         - 9.1368113422580988e-01
         - -1.6808565037558815e-01
         - -6.7023280319169798e-01
         - 8.3790005249734523e-01
         - -9.5311067233980484e-01
         - 3.9695291590553172e-01
         - -7.0050089101668100e-01
         - -1.7361128149010727e+00
         - -7.6796042560651223e-01
         - -8.6460335026480439e-01
         - 8.8420528065954318e-01
         - -2.8479841401835104e-01
         - 1.4479251901704759e-01
         - -3.3814704672695861e-01
         - 5.4507427771370125e-02
         - 1.0663243706849794e+00
         - 7.4006914824864911e-01
         - -3.5873811935361438e-01
         - 6.1006727573945130e-01
         - 3.2614577311291315e-01
         - -2.3668286697444516e-02
         - -1.0366532482168103e+00
         - 2.3309321234597699e-01
         - -1.4242921028755598e-01
         - 1.0303039147354778e+00
         - 6.0717955515531097e-01
         - 8.4704933497330293e-01
         - 5.5874356579874151e-01
         - -6.4857069591695693e-01
         - 1.1513311234326254e-01
         - -4.2120593367861525e-01
         - 6.6153525244108713e-01
         - 4.5265168542115275e-01
         - -6.4933520987777826e-02
         - -7.4064403117283673e-01
         - 5.7855062250968159e-01
         - -6.4852189514554326e-01
         - -1.2392990134320956e+00
         - 3.5050062952180178e-01
         - -5.9908127152285731e-02
         - 9.2167797404015017e-01
         - -1.3460094818130347e-01
         - 8.0054370624578375e-01
         - 5.7479679068311591e-02
         - 8.1899203552636496e-02
         - 1.3815663515182208e+00
         - -8.0561228388927342e-01
         - 1.2091967629106116e-01
         - -5.1717151446530840e-01
         - 9.0775321436737988e-01
         - -9.7868688304174264e-02
         - 5.1527218968218580e-01
         - 6.9698522595027568e-01
         - 9.8691510987017270e-03
         - 4.3062109780634805e-01
         - 1.2636122542944868e+00
         - -6.9595663276726449e-01
         - 1.2090263613775916e+00
         - -1.4084229711177394e+00
         - -8.1010095108369584e-01
         - -7.4121124411748529e-01
         - 3.6777326250039144e-01
         - 2.7696445513329410e-01
         - -1.6546249232864751e-01
         - -8.3645712924312804e-02
         - 3.9889242936470160e-01
         - -1.6274003935463530e-01
         - -8.2515856493640860e-01
         - 8.4658369046576720e-01
         - -1.2331705071984160e-01
         - -2.3618398315925088e-01
         - -1.0015775150702715e+00
         - -7.7374238980198606e-01
         - -5.0843217010264075e-01
         - -6.7464259757859235e-01
         - 2.5650598341367268e-02
         - 4.3798214926305129e-01
         - 4.5116318948725503e-01
         - 1.0192972296675642e+00
         - -1.5250253005742517e-01
         - -7.1819491735611474e-01
         - 4.0549402501883336e-01
         - -2.8001409167736180e-01
         - -7.4329710425080797e-01
         - 1.2459815134153511e+00
         - 5.1224290440037967e-01
         - -2.0506026105253108e-01
         - -5.5877116990219211e-01
         - -1.1028707030983320e+00
         - -1.4675068583406035e+00
         - 3.0778657558361827e-01
         - -6.7795333585542938e-01
         - -1.2069399402130596e+00
         - 5.9645264576886103e-01
         - 1.8668868766215954e+00
         - -7.9247156980997535e-01
         - -8.9545754899456664e-01
         - -5.0659380609723736e-01
         - -4.0982473545816350e-01
         - 1.5585058996787327e-01
         - 2.7468720027426369e-01
         - -1.0391363655723047e+00
         - -1.5145892779862089e+00
         - 1.0560972367431432e+00
         - 7.9490617308444889e-01
         - 7.2276235108789721e-01
         - -8.1650073349521390e-01
         - 1.5036405983556531e+00
         - -1.1199655367959753e+00
         - 9.7342857291183971e-01
         - 4.1354309774912223e-01
         - 8.5402621492784647e-01
         - -2.6978558726786339e-01
         - 1.2685884911327554e+00
         - -7.9162455742790949e-01
         - -4.0305116281311615e-02
         - 1.3281954503365465e+00
         - 2.4273261245988070e-01
         - -6.4302788030893895e-03
         - 7.2675349303155043e-02
         - 4.7590503584692945e-01
         - 3.6541690099308766e-01
         - -5.6550565160727551e-01
         - -1.5711876367853453e-01
         - 8.9303293641538009e-02
         - -2.2478059155603833e-01
         - -4.2872807784805700e-01
         - 1.3338227236443889e-01
         - 4.1727163810905921e-01
         - -1.5587935251492782e-01
         - -8.8528984511316366e-01
         - 5.5200977090820580e-01
         - -1.4002904461115326e+00
         - 9.5016101815516640e-01
         - -1.3303278279558857e+00
         - -1.1834986958254670e+00
         - -4.9248238506410297e-01
         - -6.5391638968959587e-01
         - 7.2326569674914187e-01
         - -4.2248633649672357e-01
         - -4.1423119391008484e-01
         - -1.9864641117463147e-01
         - 3.6934793465514171e-01
         - 1.2782306611793013e+00
         - 7.8538720970787679e-01
         - -6.1739179860047522e-01
         - 5.3029231602477100e-01
         - 5.3203728288597096e-01
         - 3.9016175297192723e-01
         - -1.0828158097181766e+00
         - 2.5098695160323503e-01
         - -6.7805502138501214e-02
         - 4.4771432633668651e-01
         - 1.9353532528352285e-01
         - 2.7005112022807454e-01
         - 1.9250387817687584e-01
         - -1.3399369622788522e+00
         - 3.1670018601720284e-01
         - 3.0997496023063198e-01
         - 4.3427255683067112e-01
         - 7.2141413082956252e-01
         - -1.5720360600626063e-01
         - -5.2762737674975779e-01
         - 5.3829944308624611e-01
         - -4.9067395340596837e-01
         - -7.1534890422366593e-01
         - -6.1754787725300284e-02
         - 4.7061052939273701e-01
         - 3.8743076643634744e-01
         - 2.9954394374881238e-01
         - 1.2112339988340755e+00
         - 1.5456148006487336e-01
         - -1.2516130545275855e-01
         - 1.6422672142991783e+00
         - -6.1918697671844802e-01
         - -6.0179711237119404e-01
         - -3.8021118536877713e-01
         - 1.1045183129139415e+00
         - -4.5257176049373699e-01
         - -1.7102082184751882e-01
         - 2.7928159453431295e-01
         - -5.5732765522026784e-01
         - -7.5292646370624744e-02
         - 1.7192680036897463e+00
         - -7.8048603999491672e-01
         - 1.2457080327570471e+00
         - -1.5539082873845915e+00
         - 7.6092010619970202e-02
         - -6.0880163763714901e-01
         - 4.6813681875468793e-01
         - 7.7138917430284437e-01
         - -8.2925687986025276e-01
         - -7.6294945972599337e-02
         - -2.1869463496237387e-01
         - -8.3568097580210066e-01
         - -6.5890667257094826e-01
         - 1.9128537936287307e-01
         - -1.9106494095916776e-01
         - -1.9761587018221347e-01
         - -1.0895764514321311e+00
         - -8.3696761305195388e-01
         - -4.8291237069733933e-01
         - -9.1589847396260526e-01
         - 2.4064128065638157e-01
         - 1.0472590283230019e+00
         - 4.6879300286424380e-01
         - 1.5502476382485122e-01
         - -8.1064208120172190e-02
         - -6.6880686141560319e-01
         - 3.4336768870502754e-01
         - 1.9724995574962115e-01
         - -8.0322540909858642e-01
         - 1.1242792895199814e+00
         - 3.7748735364998048e-01
         - -1.0757621050575576e+00
         - -6.8583610282949858e-01
         - -9.8165030857678814e-01
         - -1.2520854409473683e+00
         - -6.3013644846356867e-02
         - 1.8366844770386764e-01
         - -1.2149691776397660e+00
         - 5.5004587753369472e-01
         - 1.7665900605842675e+00
         - -1.6541544989933935e-01
         - -8.9081219868088557e-01
         - -8.8643951519406308e-02
         - -7.6974324585727427e-01
         - -1.5868776389562328e-01
         - 5.6041530965358222e-01
         - -5.1969554078215408e-01
         - -1.2698750110877552e+00
         - 1.4718276892090847e+00
         - 1.7365351002025282e+00
         - 7.1242397161807758e-01
         - -1.3435582231420973e+00
         - 1.8760760289489868e+00
         - -1.0581542591574424e+00
         - 7.9134904267800199e-01
         - -2.9559440643968138e-01
         - 6.5432985980082559e-01
         - -1.6556494239260161e-01
         - 6.7781641072360321e-01
         - 4.1138053914304765e-02
         - -4.4335054369282402e-02
         - 1.0199817913314864e+00
         - 4.5261268185506892e-01
         - -3.0408754500873258e-01
         - -5.5892969683696107e-02
         - 2.6678973307836823e-01
         - 7.1255480801640902e-01
         - -7.5790665353335673e-01
         - 8.1910129594488928e-03
         - -2.5258926970075124e-01
         - -3.4836342717566215e-01
         - -5.4793665561597138e-01
         - 5.8830854459891713e-01
         - -3.3316457736377640e-02
         - -6.2883273344050927e-01
         - -2.1751050405469249e-01
         - 3.3416295026736209e-01
         - -1.4947052787612154e+00
         - 1.0453279733967804e+00
         - -1.5868066685123783e+00
         - -6.8528042494181651e-01
         - -2.3955842298440339e-01
         - -1.3742656648160109e-01
         - 4.0413719755297223e-01
         - -4.1922569652964142e-01
         - -2.6362351194934819e-01
         - 1.1381984875558029e-01
         - 4.5617007395701914e-01
         - 9.7605461129695847e-01
         - 5.7294623177502702e-01
         - -8.1094543436916533e-01
         - 5.0845099359772139e-01
         - 6.1065738453618890e-01
         - 8.5042368448459382e-01
         - -1.1317717698853377e-01
         - 3.7326971911874246e-01
         - -2.2309731258433238e-01
         - -3.5418241847644910e-01
         - -4.2518340328682136e-01
         - -6.5821368042260020e-02
         - -4.6578694532835210e-02
         - -1.5581897146495347e+00
         - 1.8725392999480436e-01
         - 5.9063002197852510e-01
         - 7.1955548195138197e-01
         - 8.5633599219573808e-01
         - 9.1429844047244824e-01
         - -1.0465361403785141e+00
         - 1.0704078199240861e+00
         - -3.5116237900181169e-01
         - -2.1786018745251684e-01
         - -5.6519891261211830e-01
         - 6.1037680657651816e-01
         - -7.5553097309500661e-02
         - 4.7723702299259990e-01
         - 8.7832401417248707e-01
         - 6.4881529747025968e-01
         - 3.1041449834659945e-01
         - 1.1772838564892740e+00
         - -4.2931458306506853e-01
         - -1.2633585979969764e+00
         - 4.6290592388882357e-01
         - 6.8667434311483633e-01
         - -7.7606188364456874e-01
         - 1.8875006571721861e-01
         - -7.7183567139899500e-01
         - -5.0430255831661963e-01
         - -3.7689278127351444e-01
         - 1.4507182092064348e+00
         - -7.2424779508959014e-01
         - 5.1791185144918306e-01
         - -7.3277135449305708e-01
         - 1.0330284021514669e+00
         - -4.7937881249746539e-01
         - 2.0427992173311990e-01
         - 7.3791667597049260e-01
         - -4.5107513256857168e-01
         - -3.4013920080507476e-01
         - -2.3144055817476700e-01
         - -1.4285456324669998e+00
         - -4.1028781941175546e-01
         - 8.4931484477537289e-02
         - -1.6128228131648994e-01
         - 1.9497147018473646e-01
         - -1.2810657994829024e+00
         - -1.0073755158839956e-01
         - -4.5071291830942539e-01
         - -1.3436221969163300e+00
         - 3.9251055785867361e-01
         - 1.2790609254747274e+00
         - 1.8200608297093032e-01
         - -9.7177328241007221e-01
         - -8.2788049045983025e-01
         - -3.1629049687115091e-01
         - 1.7014646463714167e-01
         - -5.8867988822980588e-01
         - -3.4785418118614542e-01
         - 1.2085532738493006e+00
         - 2.5871300947109954e-01
         - -1.1355751729911601e+00
         - 1.3336380499420725e-01
         - -2.2480794966738460e-01
         - -8.9675398071690327e-01
         - -3.2502372139986879e-01
         - -4.7577516348809502e-02
         - 1.9909556595998107e-02
         - 4.9059055433023208e-01
         - 2.8296712974368882e-01
         - -2.0332478651150651e-01
         - -1.0219256921316328e-01
         - -2.4854643517745043e-01
         - -8.2945486235165955e-01
         - -5.1780966536700712e-01
         - 3.3135102808127309e-01
         - 9.9553414625417536e-01
         - -1.4433385108067551e+00
         - 3.9251344484887751e-01
         - 1.9528897304283996e+00
         - 8.1118890134856447e-01
         - -1.1892135087057347e+00
         - 2.0689057950669789e+00
         - -5.0849155274051749e-01
         - 2.2852084114415200e-01
         - -3.7168867799272032e-01
         - 1.5691963965568445e-01
         - -5.0927965463301772e-01
         - 1.0798361562313428e+00
         - -3.8520655678973829e-02
         - -1.8107985184786893e-01
         - 5.2381864359183927e-01
         - 6.3435491677755962e-01
         - -3.8996825997322959e-01
         - -2.5379489095126606e-01
         - 4.1277459219306945e-01
         - 8.9582750542649370e-01
         - -4.6708193531972736e-01
         - 5.1960139874642097e-02
         - -4.6835866819614652e-01
         - -1.3172410300424511e-02
         - -8.1725154138313516e-01
         - 6.3337126546281297e-01
         - 2.8938829591810489e-01
         - -1.4012514677670822e+00
         - -1.7034632005304873e-01
         - -4.3165694098311630e-01
         - -8.6935232173289445e-01
         - 5.9609353161680900e-01
         - -1.1949779114285830e+00
         - -6.8190169928786504e-01
         - 9.9025584222972238e-02
         - -3.8570159863085524e-01
         - 3.2818771458475955e-02
         - -2.8468592350700966e-01
         - -3.6419502407402743e-01
         - 6.8578059240497424e-01
         - 5.6191237343230671e-01
         - 1.0634157947766751e+00
         - 6.6440863099578407e-01
         - -1.2099736428581283e+00
         - -1.6764263910209698e-01
         - 2.6038301940199376e-01
         - 1.1302068292485865e+00
         - 3.5372083494040057e-01
         - 4.5466381483610641e-01
         - -7.9676772932797713e-01
         - -8.4116798726475761e-01
         - -3.6859219028241025e-01
         - -4.2978451566733178e-01
         - -3.7306637431913708e-01
         - -1.2104497836832619e+00
         - 4.6480958132559524e-01
         - 8.0825230669050541e-01
         - 4.7269619730172080e-01
         - 1.0674823921022003e+00
         - 1.5050830238907689e+00
         - -9.3458649375905778e-01
         - 1.6082876944757369e+00
         - -2.1138266432827121e-01
         - -4.3827455922477510e-01
         - -7.4921995080476989e-01
         - -3.9463262393054099e-01
         - -2.2427572996810738e-01
         - -2.2701578616863692e-02
         - 2.1943630614972479e-01
         - 6.8235784647665998e-01
         - -1.5735284810693062e-01
         - 5.2772401963289817e-01
         - -2.2702529436545671e-01
         - -1.4968499570187737e+00
         - 5.8597770437835917e-01
         - 1.0351514276891005e+00
         - -8.3312765275104214e-02
         - 8.1216262825480479e-01
         - -9.5954734209406800e-01
         - -5.7616940279536255e-01
         - -4.9253749531732155e-01
         - 1.4022389314142782e+00
         - -2.3373229000836182e-01
         - -6.8826802347880589e-01
         - -2.9268335027867787e-01
         - 1.4184013121426331e+00
         - -1.5800256155245745e-01
         - 1.7662669245855711e-01
         - 6.3000599765115384e-01
         - -4.1647374771043477e-01
         - -2.3340479056315985e-01
         - -1.1991241803403821e-01
         - -1.6622625658029664e+00
         - 1.6849351495841179e-02
         - 6.8553716888101612e-01
         - -2.7018222000032638e-01
         - 4.3894539381782860e-01
         - -1.2317455116628357e+00
         - 2.1933052282521814e-01
         - -3.9969353196094720e-01
         - -1.1226025336917571e+00
         - 4.8122633855443092e-01
         - 1.3299762900143084e+00
         - -2.6600414516061527e-01
         - -1.1673739613805945e+00
         - -1.3345058030402068e+00
         - -4.6289429626811335e-01
         - 3.2306418294884620e-01
         - -1.2899571430764027e+00
         - 2.8582874523759316e-01
         - 1.0957754642155482e+00
         - -3.4646112514375649e-01
         - -1.7178553923586395e+00
         - 9.4877458885195720e-01
         - 3.1141782471215806e-01
         - -1.9386166107399130e-01
         - -6.8230679789899895e-01
