%YAML:1.0
---
opencv_ml_ann_mlp:
   format: 3
   layer_sizes: [ 784, 128, 62 ]
   activation_function: SIGMOID_SYM
   f_param1: 6.6666666666666663e-01
   f_param2: 1.7159000000000000e+00
   min_val: -9.4999999999999996e-01
   max_val: 9.4999999999999996e-01
   min_val1: -9.7999999999999998e-01
   max_val1: 9.7999999999999998e-01
   training_params:
      train_method: BACKPROP
      dw_scale: 2.9999999999999999e-02
      moment_scale: 2.9999999999999999e-02
      term_criteria:
         epsilon: 1.0000000000000000e-04
         iterations: 100
   input_scale:
      - 3.2460204099410856e+00
      - -3.4830838379464435e-01
      - 3.1385575950084332e+00
      - -5.2750819120132508e-01
      - 2.5348764981920660e+00
      - -6.0218379466671412e-01
      - 2.5133205254447297e+00
      - -6.0498969408905534e-01
      - 2.6137321799171414e+00
      - -5.7660289112683660e-01
      - 2.7142225395299673e+00
      - -5.3740096492351030e-01
      - 2.7193360020262327e+00
      - -5.0965000623605006e-01
      - 2.7082638120692621e+00
      - -5.4462932323528379e-01
      - 2.5455800832472444e+00
      - -6.1636374141850270e-01
      - 2.3541539742601256e+00
      - -6.8004877583894552e-01
      - 2.2222876951825503e+00
      - -7.4772450389816036e-01
      - 2.1669924194232197e+00
      - -8.0182671225570956e-01
      - 2.1237542795011306e+00
      - -8.3211523461505110e-01
      - 2.1082877621157206e+00
      - -8.5484956126205447e-01
      - 2.1263005967929267e+00
      - -8.4964559324125144e-01
      - 2.1455697517074346e+00
      - -8.0289591139325156e-01
      - 2.2015663074284184e+00
      - -7.6370260771754217e-01
      - 2.3443524186633651e+00
      - -7.0457303340946131e-01
      - 2.5486326910091419e+00
      - -6.1256045141012405e-01
      - 2.7038439683668640e+00
      - -5.3598779846316458e-01
      - 2.8535637072986639e+00
      - -4.9614933073479256e-01
      - 2.8548971780513526e+00
      - -4.7708736086402892e-01
      - 2.8149622974226673e+00
      - -4.8874438082670957e-01
      - 2.7482201849435079e+00
      - -5.3258140154807299e-01
      - 2.6397033713154583e+00
      - -5.5244214175101380e-01
      - 2.6294413848007729e+00
      - -5.4560973161560411e-01
      - 3.0936790739901125e+00
      - -4.8189670806579171e-01
      - 3.1142224869117263e+00
      - -3.6667596549992720e-01
      - 2.6663093398232718e+00
      - -6.1575602865992829e-01
      - 2.6028726530299391e+00
      - -7.1651393494829874e-01
      - 2.3546078529037726e+00
      - -7.7166941027698566e-01
      - 2.3822160414774243e+00
      - -8.2539143985988739e-01
      - 2.4875183735315165e+00
      - -8.7417778375840438e-01
      - 2.5306425745602672e+00
      - -8.9480636297283167e-01
      - 2.5523788941946361e+00
      - -9.1325415037422686e-01
      - 2.4834552270513823e+00
      - -9.2668161649737757e-01
      - 2.3698408637888901e+00
      - -9.3736635675437929e-01
      - 2.2635015548412292e+00
      - -9.4672477810109468e-01
      - 2.2055382300184969e+00
      - -9.8036434204048339e-01
      - 2.1766827511571085e+00
      - -1.0136756712686483e+00
      - 2.1648443766463510e+00
      - -1.0497587691039707e+00
      - 2.1601492358223089e+00
      - -1.0740812466258098e+00
      - 2.1727537687185303e+00
      - -1.0889400359609822e+00
      - 2.1809341887013760e+00
      - -1.0732068809015354e+00
      - 2.1937058411886121e+00
      - -1.0366658499274737e+00
      - 2.2626528633513718e+00
      - -1.0093749554110394e+00
      - 2.3643388140143196e+00
      - -9.7788173819550084e-01
      - 2.4789461619120119e+00
      - -9.4473995173189051e-01
      - 2.5461491800387299e+00
      - -8.8300551361643631e-01
      - 2.5844921697226639e+00
      - -8.3822764903469238e-01
      - 2.5926554588380277e+00
      - -7.8924770553739643e-01
      - 2.5366257349962966e+00
      - -7.6649379087673897e-01
      - 2.4538479956235753e+00
      - -7.1726176179550039e-01
      - 2.4855020717847354e+00
      - -6.5912117750583932e-01
      - 2.7576469177373042e+00
      - -6.0236367894699261e-01
      - 2.8294535300902539e+00
      - -5.2684691793989669e-01
      - 2.3192554808601007e+00
      - -6.9210893417648200e-01
      - 2.3261204949291265e+00
      - -7.8802681464961399e-01
      - 2.2066836805364809e+00
      - -8.7885910203317863e-01
      - 2.2618635080006335e+00
      - -1.0216854246930216e+00
      - 2.3528030792725905e+00
      - -1.1511839872734484e+00
      - 2.3321482601190904e+00
      - -1.1996267221882462e+00
      - 2.3177793525405672e+00
      - -1.1966319354396187e+00
      - 2.2652285053530892e+00
      - -1.1564874703754666e+00
      - 2.2269734155345575e+00
      - -1.1261905156418048e+00
      - 2.2153952552680658e+00
      - -1.1134375685514653e+00
      - 2.2502245859822456e+00
      - -1.1343844238354168e+00
      - 2.2808382817416297e+00
      - -1.1528684610393385e+00
      - 2.3168652803190164e+00
      - -1.2031647746760878e+00
      - 2.3274724918578786e+00
      - -1.2392207397013522e+00
      - 2.3119882367064877e+00
      - -1.2551353486106807e+00
      - 2.2991779983256704e+00
      - -1.2447184986573272e+00
      - 2.2600686362893194e+00
      - -1.1981899141386438e+00
      - 2.2364373993844762e+00
      - -1.1748439465120935e+00
      - 2.2138433008604492e+00
      - -1.1631971867959201e+00
      - 2.2450254973340598e+00
      - -1.1781978539753304e+00
      - 2.2892749788719096e+00
      - -1.1758656249951371e+00
      - 2.3870563366135999e+00
      - -1.1496734955579526e+00
      - 2.4096974440441281e+00
      - -1.0618146381072555e+00
      - 2.3850706983177319e+00
      - -9.6627751419994024e-01
      - 2.3242014981457708e+00
      - -8.3990635651755907e-01
      - 2.4098048437024131e+00
      - -7.3399344316972459e-01
      - 2.6586421050861815e+00
      - -6.4345212558948794e-01
      - 2.6881584081547980e+00
      - -5.5054324460999793e-01
      - 2.2693558794657620e+00
      - -6.7675193621211405e-01
      - 2.3361480670764134e+00
      - -8.3200738225583182e-01
      - 2.2281766595430814e+00
      - -9.8688207475777445e-01
      - 2.2997371627000902e+00
      - -1.2233501453873790e+00
      - 2.3432781586593374e+00
      - -1.3774740219179675e+00
      - 2.3417887613318098e+00
      - -1.4245278919306705e+00
      - 2.2940998624015201e+00
      - -1.3610382606711577e+00
      - 2.2567344222528103e+00
      - -1.2642419515719077e+00
      - 2.2636412614770864e+00
      - -1.1969922108440927e+00
      - 2.2761044639636960e+00
      - -1.1481255627457052e+00
      - 2.3028681215554720e+00
      - -1.1154314656637740e+00
      - 2.2700489551695338e+00
      - -1.0659827115336147e+00
      - 2.2505488407148717e+00
      - -1.0562455150881318e+00
      - 2.2291173593539435e+00
      - -1.0576396626397464e+00
      - 2.2270643714126570e+00
      - -1.0751827864780603e+00
      - 2.2361100719702267e+00
      - -1.0952383356951987e+00
      - 2.2771570657367826e+00
      - -1.1226924291325497e+00
      - 2.3057150372091222e+00
      - -1.1736173114952237e+00
      - 2.2769969198296640e+00
      - -1.2178652621876875e+00
      - 2.2685987193770507e+00
      - -1.2783365012280268e+00
      - 2.2425580635835938e+00
      - -1.2988703158262007e+00
      - 2.2830613095324006e+00
      - -1.2999099836216910e+00
      - 2.3263762449479310e+00
      - -1.2557252849873934e+00
      - 2.3448544448279827e+00
      - -1.1307894550900899e+00
      - 2.3306308752807805e+00
      - -9.6116254296580728e-01
      - 2.4143701288734301e+00
      - -7.8843632137352382e-01
      - 2.7495656195975373e+00
      - -6.5499522005623201e-01
      - 2.8032163946988367e+00
      - -5.0628798510177375e-01
      - 2.2573504859017772e+00
      - -6.7716904791329657e-01
      - 2.3584347279769831e+00
      - -8.7882719282689226e-01
      - 2.2393352625630301e+00
      - -1.0909172298339744e+00
      - 2.2615636607188012e+00
      - -1.3351118096319845e+00
      - 2.3418460979408704e+00
      - -1.5048820301117860e+00
      - 2.3061810264126659e+00
      - -1.4765150370329148e+00
      - 2.2538539170472180e+00
      - -1.3942043700072184e+00
      - 2.2595785816864975e+00
      - -1.3228642834226469e+00
      - 2.2841927155222903e+00
      - -1.1797724488866190e+00
      - 2.2598098661942934e+00
      - -1.0467250405579558e+00
      - 2.2848974217269649e+00
      - -9.9741186477828914e-01
      - 2.2294687004433213e+00
      - -9.6065763550640304e-01
      - 2.2009712445279646e+00
      - -9.4475828117962901e-01
      - 2.1831252949589781e+00
      - -9.4182273867624455e-01
      - 2.1794027333896948e+00
      - -9.6017808867695875e-01
      - 2.1753791965827576e+00
      - -9.7758952645375297e-01
      - 2.2065848135268809e+00
      - -9.8603138892296427e-01
      - 2.2531121348286653e+00
      - -1.0303244234919762e+00
      - 2.2637010766304888e+00
      - -1.1040197006624033e+00
      - 2.2826066880077907e+00
      - -1.2394942307337906e+00
      - 2.2622642777322435e+00
      - -1.3495984587370380e+00
      - 2.2575608566813288e+00
      - -1.3843080664069103e+00
      - 2.2835851350296932e+00
      - -1.3871090830981896e+00
      - 2.3009612681501648e+00
      - -1.2903636266722236e+00
      - 2.2940436938059952e+00
      - -1.0984714731181744e+00
      - 2.3760224092080580e+00
      - -8.6025191941250889e-01
      - 2.7398714586639645e+00
      - -6.8969953758588831e-01
      - 2.7670998470531369e+00
      - -5.0601913059955450e-01
      - 2.2341279693755953e+00
      - -7.1697621539350698e-01
      - 2.3432143367221250e+00
      - -9.2913100976584262e-01
      - 2.2665987091039130e+00
      - -1.1871763182312987e+00
      - 2.2873784307026428e+00
      - -1.4342081746029336e+00
      - 2.3734972349810728e+00
      - -1.5854882808340522e+00
      - 2.3712962410038845e+00
      - -1.5685052019503642e+00
      - 2.3094870540464063e+00
      - -1.4345739262418353e+00
      - 2.2795720102915586e+00
      - -1.2854721411116221e+00
      - 2.2802712456411429e+00
      - -1.1479094139372983e+00
      - 2.2327287316652611e+00
      - -1.0242513810892255e+00
      - 2.2394878221500449e+00
      - -9.5509361461614761e-01
      - 2.1850637047326695e+00
      - -9.0659002516763587e-01
      - 2.1747031584241054e+00
      - -8.8509299928743490e-01
      - 2.1761805874502702e+00
      - -8.9214147312148240e-01
      - 2.1666539056805161e+00
      - -9.0855035561699482e-01
      - 2.1622089819609482e+00
      - -9.3616187713499177e-01
      - 2.1851577926165024e+00
      - -9.5374594051243700e-01
      - 2.2319094070616963e+00
      - -9.8857818177286871e-01
      - 2.2433514364372567e+00
      - -1.0483669484362055e+00
      - 2.3018688137235213e+00
      - -1.1732808834092903e+00
      - 2.2932971082951776e+00
      - -1.3043662159866947e+00
      - 2.2940548005048762e+00
      - -1.3874852851529860e+00
      - 2.3017614306540146e+00
      - -1.4387279282608889e+00
      - 2.3024299902043928e+00
      - -1.3997387125237628e+00
      - 2.2809019740960204e+00
      - -1.2424951671701632e+00
      - 2.3296664159103484e+00
      - -1.0047842665514803e+00
      - 2.6207052848871712e+00
      - -7.9233438322172223e-01
      - 2.5945839982287691e+00
      - -5.6115152115523059e-01
      - 2.2034280117379694e+00
      - -7.5425985243537697e-01
      - 2.3400914265906043e+00
      - -9.9807225368347285e-01
      - 2.2445510950930267e+00
      - -1.2463472726380018e+00
      - 2.2691098687202351e+00
      - -1.4562498881012653e+00
      - 2.3875570581497234e+00
      - -1.6064212391951209e+00
      - 2.4015205242278133e+00
      - -1.5643767544880083e+00
      - 2.3292740192068022e+00
      - -1.3828629555570653e+00
      - 2.2437810660914224e+00
      - -1.2044689898433780e+00
      - 2.2437547777152380e+00
      - -1.0874635515501223e+00
      - 2.2157376382631710e+00
      - -9.8219059338214210e-01
      - 2.2424210191018976e+00
      - -9.3010802500018153e-01
      - 2.2417747752920110e+00
      - -8.8128575812561649e-01
      - 2.2586483861480864e+00
      - -8.4113070382831467e-01
      - 2.3004127010817936e+00
      - -8.4398356209603298e-01
      - 2.2790322811899868e+00
      - -8.5909815812918078e-01
      - 2.2439551564067477e+00
      - -8.8395742413709266e-01
      - 2.2422092098494031e+00
      - -9.2486344553611677e-01
      - 2.2461842744040617e+00
      - -9.5280950029881584e-01
      - 2.2182284140296811e+00
      - -9.9116205985318373e-01
      - 2.2523357456949094e+00
      - -1.0878328690274410e+00
      - 2.2545461713922852e+00
      - -1.1877404913767089e+00
      - 2.3120160097125360e+00
      - -1.3170393582359994e+00
      - 2.3379703538825818e+00
      - -1.4174593415209606e+00
      - 2.3216205884068426e+00
      - -1.4064552018930219e+00
      - 2.2475860542449526e+00
      - -1.2680733663161892e+00
      - 2.2796396755677071e+00
      - -1.0687363461933550e+00
      - 2.5427018600106934e+00
      - -8.4554375353974986e-01
      - 2.4924591952541912e+00
      - -5.9107072614785916e-01
      - 2.1824949555246613e+00
      - -7.8539940226255156e-01
      - 2.3170129431724820e+00
      - -1.0291649484053216e+00
      - 2.2138028051143408e+00
      - -1.2523270875877128e+00
      - 2.2569218722078705e+00
      - -1.4506919036298072e+00
      - 2.3639733650498078e+00
      - -1.5794772231636753e+00
      - 2.3498395900414017e+00
      - -1.4826756723011325e+00
      - 2.2688161187048648e+00
      - -1.2914827548023615e+00
      - 2.2114784391790514e+00
      - -1.1519339049242130e+00
      - 2.2216129564471738e+00
      - -1.0523067928138452e+00
      - 2.1966862317279912e+00
      - -9.4880011537526809e-01
      - 2.2363948118317718e+00
      - -8.9296128191832813e-01
      - 2.2948603325550301e+00
      - -8.4034332906785614e-01
      - 2.3452722640272996e+00
      - -7.8032610165470706e-01
      - 2.3398296020657954e+00
      - -7.4680853688220117e-01
      - 2.2837419655755751e+00
      - -7.5828445227860042e-01
      - 2.2552159954540407e+00
      - -7.9439611392741605e-01
      - 2.2890006641144054e+00
      - -8.7016439305193349e-01
      - 2.3020877121694534e+00
      - -9.2517669133007097e-01
      - 2.2324808825131677e+00
      - -9.7485643370465547e-01
      - 2.2388660873579980e+00
      - -1.0500878694502251e+00
      - 2.2217618534681645e+00
      - -1.1117948638530317e+00
      - 2.2777958204678361e+00
      - -1.2066584065552930e+00
      - 2.2966373136789420e+00
      - -1.2990447365883560e+00
      - 2.2855656090320955e+00
      - -1.3149251107639417e+00
      - 2.2063427606481159e+00
      - -1.2073747456281783e+00
      - 2.2418205370541955e+00
      - -1.0453195708444192e+00
      - 2.4890107912926926e+00
      - -8.4162371454012419e-01
      - 2.4523703112360686e+00
      - -6.0555811610082311e-01
      - 2.1418960320881006e+00
      - -7.9291877665400290e-01
      - 2.2665420115180028e+00
      - -1.0223704692993631e+00
      - 2.1901706206307971e+00
      - -1.2269579359359095e+00
      - 2.2505542803843337e+00
      - -1.4098002588651115e+00
      - 2.3489814433340617e+00
      - -1.5278635729147090e+00
      - 2.3439472015006633e+00
      - -1.4381053142796540e+00
      - 2.2731273732624775e+00
      - -1.2729266286597734e+00
      - 2.2374973026592739e+00
      - -1.1565949627729915e+00
      - 2.2446940188586040e+00
      - -1.0629351225644346e+00
      - 2.2069886599644173e+00
      - -9.4252529356551229e-01
      - 2.2375247125029580e+00
      - -8.7122398916119659e-01
      - 2.3306136698961408e+00
      - -8.1499540693022487e-01
      - 2.3350715013171763e+00
      - -7.4169723865407877e-01
      - 2.3263855051958546e+00
      - -7.3038519779213518e-01
      - 2.2892092317360575e+00
      - -7.5424330725566446e-01
      - 2.2704642036019185e+00
      - -7.9666619871489464e-01
      - 2.2906178651071989e+00
      - -8.6706002526105541e-01
      - 2.2945622567596997e+00
      - -9.2386536810541453e-01
      - 2.2270151255632933e+00
      - -9.7837222261514678e-01
      - 2.2330741348974912e+00
      - -1.0631970239320103e+00
      - 2.2224369308723855e+00
      - -1.1210215790894953e+00
      - 2.2744616854892814e+00
      - -1.1686541300841087e+00
      - 2.2893823690958057e+00
      - -1.2163802268126438e+00
      - 2.2619038269939424e+00
      - -1.2333370357733340e+00
      - 2.1978532012347469e+00
      - -1.1359898657353749e+00
      - 2.2378332718438267e+00
      - -1.0046392038723460e+00
      - 2.4581489961239611e+00
      - -8.2829000273605491e-01
      - 2.4252732857078181e+00
      - -6.1371214171179345e-01
      - 2.1290639536273410e+00
      - -7.8969933276856352e-01
      - 2.2345672338417870e+00
      - -9.8800280535766216e-01
      - 2.1532171357951024e+00
      - -1.1575372573564140e+00
      - 2.1987163444735480e+00
      - -1.3174954921288970e+00
      - 2.2887158357147501e+00
      - -1.4305166013551711e+00
      - 2.2793452640880849e+00
      - -1.3514739395299247e+00
      - 2.2258608297768689e+00
      - -1.2091715217591101e+00
      - 2.2076632183234897e+00
      - -1.1225758976556439e+00
      - 2.1973404455035692e+00
      - -1.0367766931014859e+00
      - 2.1913582377434331e+00
      - -9.3882910950508580e-01
      - 2.2413704167286364e+00
      - -8.6319898749910484e-01
      - 2.2813722679372943e+00
      - -8.0501363279028781e-01
      - 2.2931155863451909e+00
      - -7.5719686076807391e-01
      - 2.3020439509828172e+00
      - -7.6619782297645977e-01
      - 2.2792959230046663e+00
      - -8.0200772059348147e-01
      - 2.2573243076468548e+00
      - -8.3484104551235327e-01
      - 2.2517665104291664e+00
      - -8.9711970297623722e-01
      - 2.2350420684545962e+00
      - -9.4633726244313765e-01
      - 2.1981197516538096e+00
      - -1.0101845066338855e+00
      - 2.2083724698683471e+00
      - -1.0850870102650683e+00
      - 2.2265967612925972e+00
      - -1.1289614278695672e+00
      - 2.2677934019178458e+00
      - -1.1489544131666325e+00
      - 2.2852959417624339e+00
      - -1.1617341583979941e+00
      - 2.2405948584332207e+00
      - -1.1464180150140040e+00
      - 2.1773231538968036e+00
      - -1.0356155020932374e+00
      - 2.1953702995314930e+00
      - -9.0271060824342675e-01
      - 2.3800505969174597e+00
      - -7.7002856495624394e-01
      - 2.3642697358877203e+00
      - -6.0285210941363143e-01
      - 2.1245398727596037e+00
      - -7.9070015363869028e-01
      - 2.2107326947409072e+00
      - -9.4961305341024027e-01
      - 2.1534237790245254e+00
      - -1.1070746073330615e+00
      - 2.1811402728163820e+00
      - -1.2629320709436711e+00
      - 2.2829236560331019e+00
      - -1.3604014075698780e+00
      - 2.2575810844729554e+00
      - -1.2727982816509180e+00
      - 2.2129030726339844e+00
      - -1.1670011350423746e+00
      - 2.1856026960218484e+00
      - -1.1088024129368137e+00
      - 2.1909139071494295e+00
      - -1.0395316558988874e+00
      - 2.2200917532513089e+00
      - -9.6417301772323172e-01
      - 2.2648777178930120e+00
      - -8.9342375029266796e-01
      - 2.2731357459630739e+00
      - -8.4441726692381958e-01
      - 2.2901231374622606e+00
      - -8.2705509936501509e-01
      - 2.2711659387886916e+00
      - -8.4075349232015451e-01
      - 2.2347172536778528e+00
      - -8.7303012741121833e-01
      - 2.2248047471623349e+00
      - -9.0068762587220019e-01
      - 2.2351081565407993e+00
      - -9.4090312514314878e-01
      - 2.2595689718874294e+00
      - -1.0143652906179372e+00
      - 2.2224037313189111e+00
      - -1.0715522081474713e+00
      - 2.2210643105903460e+00
      - -1.1086935439389851e+00
      - 2.2283695513365709e+00
      - -1.1345275875155096e+00
      - 2.2281278740504398e+00
      - -1.1381291368277924e+00
      - 2.2622461481954854e+00
      - -1.1458689803253355e+00
      - 2.2537137105701075e+00
      - -1.1057780982912688e+00
      - 2.1933769736839634e+00
      - -9.8267190854531583e-01
      - 2.2099351218722219e+00
      - -8.5176271897484390e-01
      - 2.3843570206373998e+00
      - -7.4320431720206759e-01
      - 2.3645945489560081e+00
      - -6.0893585652491844e-01
      - 2.1154273031572739e+00
      - -7.9955343873035911e-01
      - 2.1809203124405605e+00
      - -9.2109300522759674e-01
      - 2.1382396753974984e+00
      - -1.0628507442934196e+00
      - 2.1565496997757219e+00
      - -1.2100242331050104e+00
      - 2.2583478789183480e+00
      - -1.2912262951080038e+00
      - 2.2518239351459131e+00
      - -1.2526589280718259e+00
      - 2.2111332785199158e+00
      - -1.1823618640897591e+00
      - 2.1819368653962439e+00
      - -1.1066676746134190e+00
      - 2.1872185518876250e+00
      - -1.0397344406033122e+00
      - 2.2287107785195968e+00
      - -9.8696323162159572e-01
      - 2.2919693094412992e+00
      - -9.5768733254500271e-01
      - 2.2788042989338160e+00
      - -9.4741055627045012e-01
      - 2.2631913324480921e+00
      - -9.5997885053050858e-01
      - 2.2325468800621082e+00
      - -9.7857581080022493e-01
      - 2.2208611020521265e+00
      - -1.0124492715290112e+00
      - 2.2048006379283840e+00
      - -1.0272327358842104e+00
      - 2.2285709891137437e+00
      - -1.0469015940929771e+00
      - 2.2609406660958506e+00
      - -1.0955021788709747e+00
      - 2.2635428835825993e+00
      - -1.1415039101811870e+00
      - 2.2605812966569028e+00
      - -1.1547757817707207e+00
      - 2.2291196604638781e+00
      - -1.1592919790608838e+00
      - 2.2278335766912734e+00
      - -1.1636669847436698e+00
      - 2.2582650371104505e+00
      - -1.1503174542924424e+00
      - 2.2681385330226647e+00
      - -1.0981960914215840e+00
      - 2.2006481336271313e+00
      - -9.6655075015253222e-01
      - 2.2305412888969118e+00
      - -8.3342607340496311e-01
      - 2.3708753116381942e+00
      - -7.2528931651300721e-01
      - 2.3467258921162535e+00
      - -6.1610731724060142e-01
      - 2.1147284390754240e+00
      - -8.1119990402476083e-01
      - 2.1725933016658274e+00
      - -9.2082709664217510e-01
      - 2.1328224261884547e+00
      - -1.0487758548032784e+00
      - 2.1471034588497049e+00
      - -1.1794076589392843e+00
      - 2.2477682355133157e+00
      - -1.2577738468319675e+00
      - 2.2465194393995294e+00
      - -1.2628309523765824e+00
      - 2.2321565703775348e+00
      - -1.2269500098220643e+00
      - 2.2082171317566717e+00
      - -1.1363796466580949e+00
      - 2.2192247220662602e+00
      - -1.0743651575760345e+00
      - 2.2544645263705259e+00
      - -1.0445606491118049e+00
      - 2.2901370084780446e+00
      - -1.0248427397773545e+00
      - 2.2357095498298318e+00
      - -1.0242514868572468e+00
      - 2.2059279551487148e+00
      - -1.0466483762145653e+00
      - 2.1783147543660211e+00
      - -1.0709786408445230e+00
      - 2.1808328402858375e+00
      - -1.1109084373400349e+00
      - 2.1819676421359517e+00
      - -1.1404328382190967e+00
      - 2.2107763482113656e+00
      - -1.1457921612800404e+00
      - 2.2573901862380406e+00
      - -1.1683537814731411e+00
      - 2.2616050713907661e+00
      - -1.1871347024070864e+00
      - 2.2208242464245562e+00
      - -1.1709781371157297e+00
      - 2.1875900575217870e+00
      - -1.1730053572615253e+00
      - 2.2010402557367907e+00
      - -1.1730700625308981e+00
      - 2.2278610459628121e+00
      - -1.1342245103539854e+00
      - 2.2410968504550319e+00
      - -1.0765207834982180e+00
      - 2.2120995423674774e+00
      - -9.6329602874040765e-01
      - 2.2406122487426026e+00
      - -8.2349292258906015e-01
      - 2.3622964323044275e+00
      - -7.2023028809574419e-01
      - 2.3243541558217506e+00
      - -6.2001067686233713e-01
      - 2.0986269269203985e+00
      - -7.9948536720798902e-01
      - 2.1645063322338474e+00
      - -9.0726762341422273e-01
      - 2.1283195888945117e+00
      - -1.0368837112148002e+00
      - 2.1419814575880065e+00
      - -1.1618497277424844e+00
      - 2.2331406397901232e+00
      - -1.2402413147301850e+00
      - 2.2141098007440667e+00
      - -1.2441763278259839e+00
      - 2.2177254733833514e+00
      - -1.2373068258313940e+00
      - 2.1825228038838849e+00
      - -1.1453612921041412e+00
      - 2.1819549862492682e+00
      - -1.0932360338037916e+00
      - 2.2157741194293821e+00
      - -1.0887096476142444e+00
      - 2.2322988310183565e+00
      - -1.0570013373396281e+00
      - 2.2140088302949978e+00
      - -1.0626576930627338e+00
      - 2.1800525886409052e+00
      - -1.0877781343443720e+00
      - 2.1304604893789576e+00
      - -1.1044825795144351e+00
      - 2.1227761944040706e+00
      - -1.1314547335816316e+00
      - 2.1534380932033930e+00
      - -1.1676562436035909e+00
      - 2.1917256687533495e+00
      - -1.1731099198459809e+00
      - 2.2475150351789699e+00
      - -1.1870514392291616e+00
      - 2.2354986685125966e+00
      - -1.1818418044678447e+00
      - 2.1765673546711994e+00
      - -1.1530049509567954e+00
      - 2.1686176182271604e+00
      - -1.1614628671599148e+00
      - 2.2049341318582476e+00
      - -1.1674676151304320e+00
      - 2.2323911506318992e+00
      - -1.1218495906862644e+00
      - 2.2339756579972638e+00
      - -1.0642264939432338e+00
      - 2.2000024877774269e+00
      - -9.5538081034860667e-01
      - 2.2216939284039960e+00
      - -8.2159398397406536e-01
      - 2.3522274599402868e+00
      - -7.2209163088930439e-01
      - 2.3214719765052285e+00
      - -6.2313289446145537e-01
      - 2.1001623002767396e+00
      - -7.9434677583145219e-01
      - 2.1681829759446507e+00
      - -9.0260161984971699e-01
      - 2.1231633983045670e+00
      - -1.0268374304458519e+00
      - 2.1434006253147211e+00
      - -1.1563764090139754e+00
      - 2.2254666022651359e+00
      - -1.2393207478253543e+00
      - 2.1956799552656987e+00
      - -1.2336121430602405e+00
      - 2.2124794322183146e+00
      - -1.2149932621212456e+00
      - 2.1883096916072331e+00
      - -1.1091943755027112e+00
      - 2.2088512917930436e+00
      - -1.0580823920699094e+00
      - 2.2312418426295393e+00
      - -1.0348571666042277e+00
      - 2.2509707284913301e+00
      - -1.0036163033062493e+00
      - 2.2148402847349438e+00
      - -1.0019653420294159e+00
      - 2.1764781347712381e+00
      - -1.0320180989964565e+00
      - 2.1265383381923373e+00
      - -1.0455075565401191e+00
      - 2.1215755927019311e+00
      - -1.0661394211250848e+00
      - 2.1630812627530558e+00
      - -1.1118139602560830e+00
      - 2.2082788830031670e+00
      - -1.1368620838582779e+00
      - 2.2381546135980157e+00
      - -1.1524345150152833e+00
      - 2.2304560998396576e+00
      - -1.1435277463843110e+00
      - 2.1894483319326419e+00
      - -1.1114817317223689e+00
      - 2.1748481115930174e+00
      - -1.1012246176393510e+00
      - 2.2000046735469989e+00
      - -1.1220565913843823e+00
      - 2.2264691185451060e+00
      - -1.1091068237900206e+00
      - 2.2179219938676376e+00
      - -1.0655957946539862e+00
      - 2.1823964728819960e+00
      - -9.6682196887781047e-01
      - 2.2035234940158359e+00
      - -8.4354571402194212e-01
      - 2.3179957900264263e+00
      - -7.4085854402764795e-01
      - 2.2858811770995420e+00
      - -6.3729311976757885e-01
      - 2.1084584054578581e+00
      - -8.0826734702839875e-01
      - 2.1591632122077251e+00
      - -9.0091868065377112e-01
      - 2.1285184341913994e+00
      - -1.0217637519634923e+00
      - 2.1559127716499584e+00
      - -1.1599352879442475e+00
      - 2.2283315448117920e+00
      - -1.2400323482275903e+00
      - 2.2191036830357715e+00
      - -1.2144317160265057e+00
      - 2.2527192564737870e+00
      - -1.1616546295689354e+00
      - 2.2125571041662724e+00
      - -1.0507887734820180e+00
      - 2.2246838421473507e+00
      - -1.0102127039635000e+00
      - 2.2439981103668645e+00
      - -9.9378906687735424e-01
      - 2.2828044391465907e+00
      - -9.8104440737936827e-01
      - 2.2324111931471302e+00
      - -9.6316944622061296e-01
      - 2.2100317029615071e+00
      - -9.7585382013111766e-01
      - 2.1877443930457603e+00
      - -1.0054919006721330e+00
      - 2.1813219645970250e+00
      - -1.0309267000142810e+00
      - 2.1911411367883309e+00
      - -1.0581635598691299e+00
      - 2.2252826051639931e+00
      - -1.0855632460762605e+00
      - 2.2679575014385636e+00
      - -1.1235425236665006e+00
      - 2.2543934368917409e+00
      - -1.1150461060442172e+00
      - 2.2241904734240299e+00
      - -1.0573965191402834e+00
      - 2.2205497024900289e+00
      - -1.0422953501981591e+00
      - 2.2272372703991454e+00
      - -1.0635384082488355e+00
      - 2.2327641800720381e+00
      - -1.0803442138091508e+00
      - 2.2098372449006214e+00
      - -1.0729843993924562e+00
      - 2.1756707930928521e+00
      - -9.9306293519827848e-01
      - 2.1991549802099697e+00
      - -8.8420620946896644e-01
      - 2.3066347367258513e+00
      - -7.7495343613640788e-01
      - 2.2863103183503344e+00
      - -6.6865307964620191e-01
      - 2.1231411133446860e+00
      - -8.1383748903506681e-01
      - 2.1717280219013153e+00
      - -9.1376796719064490e-01
      - 2.1252716348872114e+00
      - -1.0240977348543421e+00
      - 2.1496991185999272e+00
      - -1.1577597604482908e+00
      - 2.2394794051004721e+00
      - -1.2508233741893264e+00
      - 2.2356076693697280e+00
      - -1.2092618976954128e+00
      - 2.2337831401100514e+00
      - -1.1209857519061415e+00
      - 2.1967383673332179e+00
      - -1.0156895416912501e+00
      - 2.2197756343313015e+00
      - -9.7549282026016881e-01
      - 2.2186469611337074e+00
      - -9.4055928524493271e-01
      - 2.2536010969389411e+00
      - -9.0551759573199175e-01
      - 2.2436742784753809e+00
      - -8.8645481728226494e-01
      - 2.2386813076284278e+00
      - -8.9190502739578026e-01
      - 2.2074855646353289e+00
      - -9.1223955744287899e-01
      - 2.1966645748768787e+00
      - -9.3761877869966870e-01
      - 2.1994221943170924e+00
      - -9.7398039817198012e-01
      - 2.2361218799001263e+00
      - -1.0133552676598685e+00
      - 2.2525852446778063e+00
      - -1.0436466906926225e+00
      - 2.2453991888450844e+00
      - -1.0521853342735821e+00
      - 2.2655813534439431e+00
      - -1.0128220655018607e+00
      - 2.2761591187965480e+00
      - -9.9525883942843241e-01
      - 2.2563670448158075e+00
      - -1.0077573558177666e+00
      - 2.2255898899466611e+00
      - -1.0465832576847247e+00
      - 2.1940550916526544e+00
      - -1.0691069277763461e+00
      - 2.1386353049504159e+00
      - -1.0041810595580192e+00
      - 2.1616001563977378e+00
      - -9.1856288682339171e-01
      - 2.2851892051084621e+00
      - -8.2120767695251651e-01
      - 2.2674610595617839e+00
      - -7.0398563416792170e-01
      - 2.1316892052336662e+00
      - -7.8318083145848150e-01
      - 2.1922194699069562e+00
      - -9.0994324107128510e-01
      - 2.1240265010578168e+00
      - -1.0395194922231681e+00
      - 2.1558620325786029e+00
      - -1.1837746625253851e+00
      - 2.2485402889520301e+00
      - -1.2896852835816450e+00
      - 2.2491718993964667e+00
      - -1.2391892035222649e+00
      - 2.2332103371129457e+00
      - -1.1279916102826404e+00
      - 2.2100068710542220e+00
      - -1.0339648414087812e+00
      - 2.2278894035878234e+00
      - -9.8575716572900729e-01
      - 2.2142817844338145e+00
      - -9.3095028772302824e-01
      - 2.2388431358509853e+00
      - -8.9081795878376069e-01
      - 2.2341048637760950e+00
      - -8.6507445995311238e-01
      - 2.2489839308080519e+00
      - -8.5284280744961960e-01
      - 2.2329806822006484e+00
      - -8.4726558051182543e-01
      - 2.2232824117317573e+00
      - -8.6830831790146690e-01
      - 2.2050743967692696e+00
      - -9.0834988329688948e-01
      - 2.2184124920951889e+00
      - -9.4716699749779354e-01
      - 2.2411540559600107e+00
      - -9.8325035259438476e-01
      - 2.2349658585708059e+00
      - -9.9471745997240579e-01
      - 2.2507773350826885e+00
      - -9.8835354554910215e-01
      - 2.2126565678028047e+00
      - -9.6167719382811168e-01
      - 2.2212244913832477e+00
      - -9.8504057083150987e-01
      - 2.2166785747731619e+00
      - -1.0386886722015809e+00
      - 2.1946163986166929e+00
      - -1.0812411797873840e+00
      - 2.1271596609768157e+00
      - -1.0226396913861575e+00
      - 2.1400724527403847e+00
      - -9.4301329052491867e-01
      - 2.2476795171686477e+00
      - -8.3700989555602845e-01
      - 2.2195019345899571e+00
      - -7.0580772506403500e-01
      - 2.1520576969956791e+00
      - -7.5798029049619020e-01
      - 2.2315861541240745e+00
      - -9.2430482479617493e-01
      - 2.1445666657510083e+00
      - -1.0777066716244812e+00
      - 2.1743905913031916e+00
      - -1.2363917635903681e+00
      - 2.2692913748125405e+00
      - -1.3661405782031359e+00
      - 2.2973117879586256e+00
      - -1.3238844524956945e+00
      - 2.2550479995687915e+00
      - -1.2008341803493454e+00
      - 2.2029779267449285e+00
      - -1.1075701944140421e+00
      - 2.2096255961159925e+00
      - -1.0319488165447890e+00
      - 2.2003060469470581e+00
      - -9.4984137387200929e-01
      - 2.2153746639845124e+00
      - -8.9665737408109880e-01
      - 2.2122650716955552e+00
      - -8.5930255980541004e-01
      - 2.2247897434846280e+00
      - -8.2415641413423990e-01
      - 2.2337831548757787e+00
      - -8.0056794714603241e-01
      - 2.2228683487656489e+00
      - -8.0971907649289809e-01
      - 2.2286269718785756e+00
      - -8.5443890251585530e-01
      - 2.2460107358773742e+00
      - -9.0786453114576260e-01
      - 2.2704677225225005e+00
      - -9.6103759619595874e-01
      - 2.2333987696217572e+00
      - -9.8494723701821529e-01
      - 2.2053645840267970e+00
      - -9.8812581353133022e-01
      - 2.1744179950860278e+00
      - -9.7868494515125448e-01
      - 2.2101256416263957e+00
      - -1.0126070084469458e+00
      - 2.2019064055746522e+00
      - -1.0633807215996893e+00
      - 2.1886275328157749e+00
      - -1.1087366190369514e+00
      - 2.1309147726235254e+00
      - -1.0506719331769414e+00
      - 2.1400842328825753e+00
      - -9.5950773373068110e-01
      - 2.2374396351035535e+00
      - -8.4662003080134673e-01
      - 2.1914779898218866e+00
      - -7.1027636462445187e-01
      - 2.1605845450928074e+00
      - -7.6353232477345023e-01
      - 2.2537028661286831e+00
      - -9.4778648943802413e-01
      - 2.1714396024384417e+00
      - -1.1154224823152223e+00
      - 2.2103332243015141e+00
      - -1.2841892668539974e+00
      - 2.3143245935988386e+00
      - -1.4297467215821218e+00
      - 2.3493178099255543e+00
      - -1.3987785728143776e+00
      - 2.2530115985285586e+00
      - -1.2510336634839472e+00
      - 2.1959174428284354e+00
      - -1.1574296611233847e+00
      - 2.2113200499843577e+00
      - -1.0857232921459736e+00
      - 2.2000561650604924e+00
      - -9.9497036978296927e-01
      - 2.2208315238501553e+00
      - -9.3176752625217762e-01
      - 2.2773738471221874e+00
      - -8.7726280901885567e-01
      - 2.2810695885166794e+00
      - -8.2159950178925378e-01
      - 2.2876538984424273e+00
      - -8.0613257317182796e-01
      - 2.2883905028102611e+00
      - -8.0870227122564420e-01
      - 2.2775233990780985e+00
      - -8.3804965685420396e-01
      - 2.2842099951719077e+00
      - -8.9506430573055928e-01
      - 2.2807924794672028e+00
      - -9.6475269626935600e-01
      - 2.2119073408894936e+00
      - -9.9542553579103488e-01
      - 2.1745244322625523e+00
      - -1.0028868173848442e+00
      - 2.1613829827840312e+00
      - -1.0211105376704628e+00
      - 2.2238133139710925e+00
      - -1.0840284520771586e+00
      - 2.2489921041003038e+00
      - -1.1470341907046497e+00
      - 2.2149525987365299e+00
      - -1.1659947676870817e+00
      - 2.1405144791122974e+00
      - -1.0861760590456702e+00
      - 2.1529413859534015e+00
      - -9.8354776698594670e-01
      - 2.2600303827708412e+00
      - -8.6506616637891942e-01
      - 2.2150215384974326e+00
      - -7.2326337992775880e-01
      - 2.1880407354979967e+00
      - -7.5940404694231689e-01
      - 2.2878929161207382e+00
      - -9.5496679895758829e-01
      - 2.1919334783679036e+00
      - -1.1356281133195674e+00
      - 2.2231654049035585e+00
      - -1.3157686186671920e+00
      - 2.3569842439793005e+00
      - -1.4756713477471373e+00
      - 2.3738757387383620e+00
      - -1.4323196387547503e+00
      - 2.2740027728890793e+00
      - -1.2735463176670703e+00
      - 2.1901092682589289e+00
      - -1.1619215331635013e+00
      - 2.1780849596810690e+00
      - -1.0877661502004505e+00
      - 2.1774809324369637e+00
      - -1.0186610263501401e+00
      - 2.2198762013250017e+00
      - -9.6542000922241600e-01
      - 2.2470470435214187e+00
      - -9.0706009364222584e-01
      - 2.2379023794396455e+00
      - -8.5309730710318510e-01
      - 2.2246953496081789e+00
      - -8.2212040526849262e-01
      - 2.2245700449646999e+00
      - -8.2154042551377193e-01
      - 2.2302247427443511e+00
      - -8.6430823030200155e-01
      - 2.2684482291915327e+00
      - -9.4760086291917556e-01
      - 2.2733605699433341e+00
      - -1.0035131381493674e+00
      - 2.2128060877738918e+00
      - -1.0195046155799337e+00
      - 2.1800691006850195e+00
      - -1.0315702514449412e+00
      - 2.1626576713522079e+00
      - -1.0548564776159419e+00
      - 2.2398381261895093e+00
      - -1.1497119474723239e+00
      - 2.2466208511958055e+00
      - -1.2096396749487270e+00
      - 2.2034872468002211e+00
      - -1.2060024293013101e+00
      - 2.1458430113942724e+00
      - -1.1151314055934509e+00
      - 2.1809960037452383e+00
      - -9.9519917557125981e-01
      - 2.3255855438421613e+00
      - -8.5666470691044205e-01
      - 2.2877694429093980e+00
      - -6.9535078453009880e-01
      - 2.2160192617088947e+00
      - -7.5066368507826209e-01
      - 2.3152114379704476e+00
      - -9.4810883467817997e-01
      - 2.2035199483108352e+00
      - -1.1446744666388977e+00
      - 2.2154302932018344e+00
      - -1.3318362369821433e+00
      - 2.3556410476652987e+00
      - -1.4886268283730817e+00
      - 2.3718489407479035e+00
      - -1.4508405200616590e+00
      - 2.2875032296409099e+00
      - -1.2886304990550153e+00
      - 2.2025727171189673e+00
      - -1.1525479931098959e+00
      - 2.2116193522103291e+00
      - -1.0900751719156574e+00
      - 2.1887881121675021e+00
      - -1.0181565034393139e+00
      - 2.2061995865906723e+00
      - -9.8139928053463521e-01
      - 2.2288034095252987e+00
      - -9.4993523595661011e-01
      - 2.2166722328590129e+00
      - -9.3741916748175824e-01
      - 2.2123320023686368e+00
      - -9.2082208649319541e-01
      - 2.2199810517029803e+00
      - -9.3015240547669353e-01
      - 2.2307510431301116e+00
      - -9.6918046662593427e-01
      - 2.2574691285671142e+00
      - -1.0032036215969111e+00
      - 2.2723989334399133e+00
      - -1.0274342707402755e+00
      - 2.2427358935592032e+00
      - -1.0469587497888977e+00
      - 2.2270047540740765e+00
      - -1.0689138600993882e+00
      - 2.2044653408419328e+00
      - -1.1151930802178736e+00
      - 2.2362958402858610e+00
      - -1.2057485333171611e+00
      - 2.2370101075104221e+00
      - -1.2592514601081595e+00
      - 2.2268241657920322e+00
      - -1.2541572485820522e+00
      - 2.1904606825938022e+00
      - -1.1619580301710053e+00
      - 2.2395188494979665e+00
      - -1.0067426487532161e+00
      - 2.4014182264831234e+00
      - -8.3276358895611380e-01
      - 2.3691574681875140e+00
      - -6.5270467085732109e-01
      - 2.2191572533244477e+00
      - -7.2193914435475159e-01
      - 2.3113405401700367e+00
      - -9.1250303823528733e-01
      - 2.2067382586810202e+00
      - -1.1191550578923868e+00
      - 2.2077999409949913e+00
      - -1.3067678684841959e+00
      - 2.2833198377323258e+00
      - -1.4419892084411963e+00
      - 2.3111261842817412e+00
      - -1.4387354000212478e+00
      - 2.2730428961492888e+00
      - -1.3178108751116508e+00
      - 2.2338339657799966e+00
      - -1.1978875009121677e+00
      - 2.2534176157160899e+00
      - -1.1194662932807384e+00
      - 2.2198757326480814e+00
      - -1.0295528630942046e+00
      - 2.2163464325181392e+00
      - -9.9007726578972743e-01
      - 2.1953742187354819e+00
      - -9.6515991968341774e-01
      - 2.1749634261123290e+00
      - -9.7232408276153870e-01
      - 2.1636321666390761e+00
      - -9.6790480452722083e-01
      - 2.1723066479327913e+00
      - -9.7243572906179065e-01
      - 2.1964229886059150e+00
      - -9.9036245600883388e-01
      - 2.2324872816574621e+00
      - -1.0015179645799634e+00
      - 2.2499780579464521e+00
      - -1.0237699008649002e+00
      - 2.2396442696272287e+00
      - -1.0529774099288929e+00
      - 2.2342494342629293e+00
      - -1.1000957585862119e+00
      - 2.2118011787309428e+00
      - -1.1743367666924791e+00
      - 2.2014368396110502e+00
      - -1.2304851248181552e+00
      - 2.2144083268436994e+00
      - -1.2673671853250870e+00
      - 2.2134378909783252e+00
      - -1.2503676383537725e+00
      - 2.2136557860066515e+00
      - -1.1548212579812547e+00
      - 2.2761927153360189e+00
      - -9.7012714909203623e-01
      - 2.4721841160122202e+00
      - -7.9007093652069726e-01
      - 2.4413708653863488e+00
      - -6.1369206782034003e-01
      - 2.2441928207517301e+00
      - -6.9349384804389758e-01
      - 2.3503879249955295e+00
      - -8.9796353326747069e-01
      - 2.2075676808827800e+00
      - -1.0916539944362269e+00
      - 2.1845354684128342e+00
      - -1.2375135404599724e+00
      - 2.2621067498077561e+00
      - -1.3777469811783831e+00
      - 2.2801287415231348e+00
      - -1.3912249925181974e+00
      - 2.2381283613149368e+00
      - -1.3155724925888614e+00
      - 2.2277708165254904e+00
      - -1.2374956095195047e+00
      - 2.2559553835333883e+00
      - -1.1513866017075181e+00
      - 2.2121826969444656e+00
      - -1.0442566765143668e+00
      - 2.2205251860243105e+00
      - -1.0092036064918606e+00
      - 2.2010437771270670e+00
      - -9.9211787713501498e-01
      - 2.1770281107153715e+00
      - -9.9753612106787981e-01
      - 2.1547019296687084e+00
      - -9.9251514920290240e-01
      - 2.1682531447339817e+00
      - -9.9223643196326405e-01
      - 2.1861726169254934e+00
      - -9.9964515611550642e-01
      - 2.2263980864686408e+00
      - -1.0100325789667377e+00
      - 2.2456814675812149e+00
      - -1.0387068930390091e+00
      - 2.2415051752355502e+00
      - -1.0739551052557974e+00
      - 2.2375098971570719e+00
      - -1.1433337296793200e+00
      - 2.2112152449227973e+00
      - -1.2165793481762970e+00
      - 2.2030163721430731e+00
      - -1.2617802419779927e+00
      - 2.2150993886530213e+00
      - -1.2650986036916887e+00
      - 2.2286324287140755e+00
      - -1.2011703882801261e+00
      - 2.2332671413422269e+00
      - -1.0665234862007151e+00
      - 2.3215104740862103e+00
      - -8.8762450025930340e-01
      - 2.6533355403899379e+00
      - -7.1914111374400336e-01
      - 2.6522381338171259e+00
      - -5.3295709189036522e-01
      - 2.3324547858748086e+00
      - -6.7449970343082810e-01
      - 2.3953065027069709e+00
      - -8.3904915348100761e-01
      - 2.2285519362564434e+00
      - -9.9032165409683215e-01
      - 2.2111954266324041e+00
      - -1.1452398259309338e+00
      - 2.2695647074698133e+00
      - -1.2557401689867693e+00
      - 2.2808285521461675e+00
      - -1.2919705189670994e+00
      - 2.2448794007763957e+00
      - -1.2670618601250048e+00
      - 2.2523659930664888e+00
      - -1.2351277097030708e+00
      - 2.2779835399366584e+00
      - -1.2009665324549574e+00
      - 2.3046469100349691e+00
      - -1.1736147223061926e+00
      - 2.3224523088612430e+00
      - -1.1519090304687702e+00
      - 2.2657436222148428e+00
      - -1.1026430730950731e+00
      - 2.2405837419132704e+00
      - -1.1002948433520581e+00
      - 2.2094505585266244e+00
      - -1.0926175944827359e+00
      - 2.2220185282156204e+00
      - -1.0923421370711957e+00
      - 2.2554779542150896e+00
      - -1.1117270743446199e+00
      - 2.3115058894714422e+00
      - -1.1340715589222314e+00
      - 2.3199395365291191e+00
      - -1.1464952493591525e+00
      - 2.2727257569752872e+00
      - -1.1530701249220789e+00
      - 2.2428371377387997e+00
      - -1.1764768989007721e+00
      - 2.2304698847935986e+00
      - -1.2149743495703131e+00
      - 2.2569204702554750e+00
      - -1.2349498316401317e+00
      - 2.2662381258542195e+00
      - -1.1918239575630420e+00
      - 2.3002597905266917e+00
      - -1.0915753140300086e+00
      - 2.3227772555764599e+00
      - -9.6060285977404092e-01
      - 2.3979030008612692e+00
      - -8.0348429289678525e-01
      - 2.7295653285308221e+00
      - -6.7604131171380999e-01
      - 2.7959426414060449e+00
      - -5.2104180162491709e-01
      - 2.3825469512775213e+00
      - -6.4238917314627186e-01
      - 2.3973613363983532e+00
      - -7.5167321358267347e-01
      - 2.2562564254053905e+00
      - -8.5374585332354902e-01
      - 2.2454005680521232e+00
      - -9.8330203299241081e-01
      - 2.3267534786855202e+00
      - -1.0883502678490156e+00
      - 2.3398613605999654e+00
      - -1.1356848965825610e+00
      - 2.2874421083399228e+00
      - -1.1373481782852140e+00
      - 2.2460539168264715e+00
      - -1.1233818935377586e+00
      - 2.2225733501980769e+00
      - -1.1090657585451593e+00
      - 2.2380012249654624e+00
      - -1.1182990926923162e+00
      - 2.2895667718162573e+00
      - -1.1574268150174034e+00
      - 2.3110288207718819e+00
      - -1.1900124348741257e+00
      - 2.3174910806222413e+00
      - -1.2372510143509978e+00
      - 2.3020338574967814e+00
      - -1.2521332566958123e+00
      - 2.3005738313650022e+00
      - -1.2507136171737585e+00
      - 2.2958675879487624e+00
      - -1.2227501861182835e+00
      - 2.2836030173077759e+00
      - -1.1683519020351141e+00
      - 2.2576714198873478e+00
      - -1.1144706376657809e+00
      - 2.2191531941461164e+00
      - -1.0764728181097754e+00
      - 2.2391365611804601e+00
      - -1.0767222513133301e+00
      - 2.2958884001458943e+00
      - -1.0922327867334098e+00
      - 2.3609940364532522e+00
      - -1.0847779772840502e+00
      - 2.3988625461721584e+00
      - -1.0274924894988546e+00
      - 2.4200338309955178e+00
      - -9.3957973129304251e-01
      - 2.3436690411824701e+00
      - -8.3413869198114554e-01
      - 2.4016272440692772e+00
      - -7.3803390685787928e-01
      - 2.6489279345960317e+00
      - -6.5753030959862890e-01
      - 2.7230789843036556e+00
      - -5.5729441865796159e-01
      - 2.7807386585459200e+00
      - -5.7583697513025900e-01
      - 2.7054962744231963e+00
      - -6.7606169000788707e-01
      - 2.4303926037241044e+00
      - -7.3961429912162924e-01
      - 2.4642336133237954e+00
      - -8.2220103745088302e-01
      - 2.5673213037900831e+00
      - -8.7516728740868133e-01
      - 2.5518000186996397e+00
      - -8.7761583163835777e-01
      - 2.5172275581441363e+00
      - -9.0021948121106254e-01
      - 2.4253145798537306e+00
      - -9.3629419400313274e-01
      - 2.3299045379584906e+00
      - -9.5005227839678807e-01
      - 2.2641894428736533e+00
      - -9.5970840782301026e-01
      - 2.2195176043557634e+00
      - -9.7103879933002069e-01
      - 2.2094112469665235e+00
      - -1.0147207065033774e+00
      - 2.1989063847130135e+00
      - -1.0635074277343350e+00
      - 2.1987517812130473e+00
      - -1.1042723445219111e+00
      - 2.2069371412007928e+00
      - -1.1088166914287485e+00
      - 2.2189554354676599e+00
      - -1.0534626579406425e+00
      - 2.2524919494572186e+00
      - -9.9328968032310905e-01
      - 2.3310560288741833e+00
      - -9.4933179243458632e-01
      - 2.4136426474980470e+00
      - -9.0384640305518726e-01
      - 2.5190178254470759e+00
      - -8.7373816108716496e-01
      - 2.5882992726092038e+00
      - -8.2026645135145093e-01
      - 2.6650068176856303e+00
      - -7.8902208313540234e-01
      - 2.6495983698975887e+00
      - -7.4595566077055464e-01
      - 2.5993566551061544e+00
      - -7.2794959569913120e-01
      - 2.4929575333103089e+00
      - -6.9813657903441206e-01
      - 2.5263917082527061e+00
      - -6.5905507384185624e-01
      - 2.7034254514193341e+00
      - -6.0600902701449000e-01
      - 2.7396637795980814e+00
      - -5.3465113942815556e-01
      - 3.1327580765679857e+00
      - -3.6490223478549483e-01
      - 3.1058924080052948e+00
      - -5.1650228039927071e-01
      - 2.5862927685337858e+00
      - -5.8599308887398716e-01
      - 2.6316103262586217e+00
      - -5.9217336077258409e-01
      - 2.6446779939872243e+00
      - -5.6258222660067769e-01
      - 2.6268316934711087e+00
      - -5.4473884285086072e-01
      - 2.6111194499743675e+00
      - -5.4603408692166344e-01
      - 2.5733404267416553e+00
      - -5.9387920668408456e-01
      - 2.4650737138068131e+00
      - -6.6036662930976819e-01
      - 2.3308654189337674e+00
      - -7.0205402057034272e-01
      - 2.2381216191289379e+00
      - -7.3661928882130445e-01
      - 2.1814046629563451e+00
      - -7.7162541753938496e-01
      - 2.1421197917626946e+00
      - -8.0705081536912260e-01
      - 2.1420271490329665e+00
      - -8.5344397294441565e-01
      - 2.1504097171249263e+00
      - -8.4368588043788684e-01
      - 2.1941055335099771e+00
      - -7.8592112943555792e-01
      - 2.2939517116966859e+00
      - -7.2134997572318038e-01
      - 2.4541126865521385e+00
      - -6.5172969503954614e-01
      - 2.6561285290620238e+00
      - -5.7567889137545802e-01
      - 2.8223158378481070e+00
      - -5.0804033037930851e-01
      - 2.9395395685748422e+00
      - -4.6720467047423059e-01
      - 2.9856908753553388e+00
      - -4.5462189226199623e-01
      - 2.9190388389024067e+00
      - -4.7063911597486979e-01
      - 2.8272295035176058e+00
      - -5.1257473972874501e-01
      - 2.6997680912624782e+00
      - -5.3113661072377072e-01
      - 2.6546398629245092e+00
      - -5.4151835316788011e-01
      - 2.8994725904325249e+00
      - -5.0031785552376040e-01
      - 2.8442144231262900e+00
      - -4.1349053409476383e-01
   output_scale:
      - 5.2631578947368418e-01
      - 4.9999999999999994e-01
      - 5.2631578947368418e-01
      - 4.9999999999999994e-01
      - 5.2631578947368418e-01
      - 4.9999999999999994e-01
      - 5.2631578947368418e-01
      - 4.9999999999999994e-01
      - 5.2631578947368418e-01
      - 4.9999999999999994e-01
      - 5.2631578947368418e-01
      - 4.9999999999999994e-01
      - 5.2631578947368418e-01
      - 4.9999999999999994e-01
      - 5.2631578947368418e-01
      - 4.9999999999999994e-01
      - 5.2631578947368418e-01
      - 4.9999999999999994e-01
      - 5.2631578947368418e-01
      - 4.9999999999999994e-01
      - 5.2631578947368418e-01
      - 4.9999999999999994e-01
      - 5.2631578947368418e-01
      - 4.9999999999999994e-01
      - 5.2631578947368418e-01
      - 4.9999999999999994e-01
      - 5.2631578947368418e-01
      - 4.9999999999999994e-01
      - 5.2631578947368418e-01
      - 4.9999999999999994e-01
      - 5.2631578947368418e-01
      - 4.9999999999999994e-01
      - 5.2631578947368418e-01
      - 4.9999999999999994e-01
      - 5.2631578947368418e-01
      - 4.9999999999999994e-01
      - 5.2631578947368418e-01
      - 4.9999999999999994e-01
      - 5.2631578947368418e-01
      - 4.9999999999999994e-01
      - 5.2631578947368418e-01
      - 4.9999999999999994e-01
      - 5.2631578947368418e-01
      - 4.9999999999999994e-01
      - 5.2631578947368418e-01
      - 4.9999999999999994e-01
      - 5.2631578947368418e-01
      - 4.9999999999999994e-01
      - 5.2631578947368418e-01
      - 4.9999999999999994e-01
      - 5.2631578947368418e-01
      - 4.9999999999999994e-01
      - 5.2631578947368418e-01
      - 4.9999999999999994e-01
      - 5.2631578947368418e-01
      - 4.9999999999999994e-01
      - 5.2631578947368418e-01
      - 4.9999999999999994e-01
      - 5.2631578947368418e-01
      - 4.9999999999999994e-01
      - 5.2631578947368418e-01
      - 4.9999999999999994e-01
      - 5.2631578947368418e-01
      - 4.9999999999999994e-01
      - 5.2631578947368418e-01
      - 4.9999999999999994e-01
      - 5.2631578947368418e-01
      - 4.9999999999999994e-01
      - 5.2631578947368418e-01
      - 4.9999999999999994e-01
      - 5.2631578947368418e-01
      - 4.9999999999999994e-01
      - 5.2631578947368418e-01
      - 4.9999999999999994e-01
      - 5.2631578947368418e-01
      - 4.9999999999999994e-01
      - 5.2631578947368418e-01
      - 4.9999999999999994e-01
      - 5.2631578947368418e-01
      - 4.9999999999999994e-01
      - 5.2631578947368418e-01
      - 4.9999999999999994e-01
      - 5.2631578947368418e-01
      - 4.9999999999999994e-01
      - 5.2631578947368418e-01
      - 4.9999999999999994e-01
      - 5.2631578947368418e-01
      - 4.9999999999999994e-01
      - 5.2631578947368418e-01
      - 4.9999999999999994e-01
      - 5.2631578947368418e-01
      - 4.9999999999999994e-01
      - 5.2631578947368418e-01
      - 4.9999999999999994e-01
      - 5.2631578947368418e-01
      - 4.9999999999999994e-01
      - 5.2631578947368418e-01
      - 4.9999999999999994e-01
      - 5.2631578947368418e-01
      - 4.9999999999999994e-01
      - 5.2631578947368418e-01
      - 4.9999999999999994e-01
      - 5.2631578947368418e-01
      - 4.9999999999999994e-01
      - 5.2631578947368418e-01
      - 4.9999999999999994e-01
      - 5.2631578947368418e-01
      - 4.9999999999999994e-01
      - 5.2631578947368418e-01
      - 4.9999999999999994e-01
      - 5.2631578947368418e-01
      - 4.9999999999999994e-01
      - 5.2631578947368418e-01
      - 4.9999999999999994e-01
      - 5.2631578947368418e-01
      - 4.9999999999999994e-01
      - 5.2631578947368418e-01
      - 4.9999999999999994e-01
      - 5.2631578947368418e-01
      - 4.9999999999999994e-01
      - 5.2631578947368418e-01
      - 4.9999999999999994e-01
      - 5.2631578947368418e-01
      - 4.9999999999999994e-01
   inv_output_scale:
      - 1.8999999999999999e+00
      - -9.4999999999999996e-01
      - 1.8999999999999999e+00
      - -9.4999999999999996e-01
      - 1.8999999999999999e+00
      - -9.4999999999999996e-01
      - 1.8999999999999999e+00
      - -9.4999999999999996e-01
      - 1.8999999999999999e+00
      - -9.4999999999999996e-01
      - 1.8999999999999999e+00
      - -9.4999999999999996e-01
      - 1.8999999999999999e+00
      - -9.4999999999999996e-01
      - 1.8999999999999999e+00
      - -9.4999999999999996e-01
      - 1.8999999999999999e+00
      - -9.4999999999999996e-01
      - 1.8999999999999999e+00
      - -9.4999999999999996e-01
      - 1.8999999999999999e+00
      - -9.4999999999999996e-01
      - 1.8999999999999999e+00
      - -9.4999999999999996e-01
      - 1.8999999999999999e+00
      - -9.4999999999999996e-01
      - 1.8999999999999999e+00
      - -9.4999999999999996e-01
      - 1.8999999999999999e+00
      - -9.4999999999999996e-01
      - 1.8999999999999999e+00
      - -9.4999999999999996e-01
      - 1.8999999999999999e+00
      - -9.4999999999999996e-01
      - 1.8999999999999999e+00
      - -9.4999999999999996e-01
      - 1.8999999999999999e+00
      - -9.4999999999999996e-01
      - 1.8999999999999999e+00
      - -9.4999999999999996e-01
      - 1.8999999999999999e+00
      - -9.4999999999999996e-01
      - 1.8999999999999999e+00
      - -9.4999999999999996e-01
      - 1.8999999999999999e+00
      - -9.4999999999999996e-01
      - 1.8999999999999999e+00
      - -9.4999999999999996e-01
      - 1.8999999999999999e+00
      - -9.4999999999999996e-01
      - 1.8999999999999999e+00
      - -9.4999999999999996e-01
      - 1.8999999999999999e+00
      - -9.4999999999999996e-01
      - 1.8999999999999999e+00
      - -9.4999999999999996e-01
      - 1.8999999999999999e+00
      - -9.4999999999999996e-01
      - 1.8999999999999999e+00
      - -9.4999999999999996e-01
      - 1.8999999999999999e+00
      - -9.4999999999999996e-01
      - 1.8999999999999999e+00
      - -9.4999999999999996e-01
      - 1.8999999999999999e+00
      - -9.4999999999999996e-01
      - 1.8999999999999999e+00
      - -9.4999999999999996e-01
      - 1.8999999999999999e+00
      - -9.4999999999999996e-01
      - 1.8999999999999999e+00
      - -9.4999999999999996e-01
      - 1.8999999999999999e+00
      - -9.4999999999999996e-01
      - 1.8999999999999999e+00
      - -9.4999999999999996e-01
      - 1.8999999999999999e+00
      - -9.4999999999999996e-01
      - 1.8999999999999999e+00
      - -9.4999999999999996e-01
      - 1.8999999999999999e+00
      - -9.4999999999999996e-01
      - 1.8999999999999999e+00
      - -9.4999999999999996e-01
      - 1.8999999999999999e+00
      - -9.4999999999999996e-01
      - 1.8999999999999999e+00
      - -9.4999999999999996e-01
      - 1.8999999999999999e+00
      - -9.4999999999999996e-01
      - 1.8999999999999999e+00
      - -9.4999999999999996e-01
      - 1.8999999999999999e+00
      - -9.4999999999999996e-01
      - 1.8999999999999999e+00
      - -9.4999999999999996e-01
      - 1.8999999999999999e+00
      - -9.4999999999999996e-01
      - 1.8999999999999999e+00
      - -9.4999999999999996e-01
      - 1.8999999999999999e+00
      - -9.4999999999999996e-01
      - 1.8999999999999999e+00
      - -9.4999999999999996e-01
      - 1.8999999999999999e+00
      - -9.4999999999999996e-01
      - 1.8999999999999999e+00
      - -9.4999999999999996e-01
      - 1.8999999999999999e+00
      - -9.4999999999999996e-01
      - 1.8999999999999999e+00
      - -9.4999999999999996e-01
      - 1.8999999999999999e+00
      - -9.4999999999999996e-01
      - 1.8999999999999999e+00
      - -9.4999999999999996e-01
      - 1.8999999999999999e+00
      - -9.4999999999999996e-01
      - 1.8999999999999999e+00
      - -9.4999999999999996e-01
      - 1.8999999999999999e+00
      - -9.4999999999999996e-01
      - 1.8999999999999999e+00
      - -9.4999999999999996e-01
   weights:
      -
         - -5.0712448836038232e-02
         - 3.4823381032807710e-01
         - -2.7483207085162215e-01
         - -1.7547534910618992e-01
         - 5.2224717740099047e-01
         - 6.1129913517874768e-01
         - -5.9979974190608673e-02
         - 2.8053693573752903e-01
         - 3.7951740535701373e-01
         - -6.9088376419950873e-02
         - -3.6429896144895785e-01
         - -6.2870333038756243e-01
         - 3.0920242104748685e-01
         - 1.6788615564674808e-01
         - -1.8451524869239413e-02
         - -6.2812848675197180e-02
         - 5.0722756455815594e-02
         - 2.0503770284033135e-01
         - -3.8765295406190953e-01
         - 1.6014990761348222e-01
         - -1.5524966847535774e-02
         - -1.4949559830552364e-01
         - -5.5870682605426236e-01
         - 1.8095794176912078e-01
         - 1.4682195849186361e-01
         - 7.6654498781404412e-01
         - 2.3669460549451107e-01
         - -4.7275940147916262e-01
         - -2.5096024437851953e-03
         - 3.5488533384919796e-01
         - -1.0824987126829790e-01
         - -1.2233098869277040e-01
         - -1.2648879034086682e-01
         - 2.2048884007689218e-01
         - -4.8502307961020169e-01
         - 2.9609777727059555e-01
         - -3.5808536379769440e-02
         - 7.6787716975637937e-02
         - 2.9424553783146179e-01
         - 1.0025146584005228e-01
         - 3.0417281214762887e-01
         - 1.6469369522435784e-01
         - -1.9333095234672362e-01
         - 8.4376867316007576e-02
         - -3.0032347296593276e-01
         - 6.2230541767947442e-02
         - 2.6873166067264675e-01
         - 1.0044944535932882e-01
         - -4.0158053861071780e-01
         - 4.1486776198615799e-01
         - -1.1082101881483094e-02
         - -7.7636499157542316e-01
         - -4.4181245128179183e-02
         - -7.1812660715124599e-02
         - 7.8038037303947538e-01
         - 1.0315473116798184e-01
         - 2.5980842878398225e-01
         - -4.1484177132476474e-01
         - 5.8137677675033728e-01
         - -1.8073081895261678e-01
         - 2.0689311602390650e-01
         - 6.2897427160464681e-01
         - 3.0538423286837768e-01
         - -1.7554370807795541e-01
         - -2.9063850997154222e-01
         - 2.9119450814345005e-01
         - -3.8589029790466522e-02
         - 2.5700011190859740e-01
         - -4.1313153486224929e-01
         - -8.9807790656586117e-03
         - -1.4890442571822954e-01
         - -1.6883194169079405e-01
         - 4.1177108702778853e-01
         - 3.4727254056722923e-01
         - 3.4760986090966334e-01
         - -1.0259902465297976e+00
         - -3.6158862167771777e-01
         - -6.1656686595210577e-02
         - -5.7723322188239656e-01
         - 6.1674434637592013e-01
         - 4.6283681390079712e-01
         - -1.0907420858332387e-02
         - -4.7928123353649599e-01
         - -4.3312807270404469e-01
         - 1.6450677206312311e-01
         - 1.7555792418085037e-01
         - -8.4043089819170511e-02
         - -2.3517635153580604e-01
         - 1.5369265650844782e-01
         - 2.3008511151542305e-02
         - 1.2881013837310157e-01
         - -1.3734715537335226e-01
         - -1.3910607826933649e-01
         - 3.2613883690155887e-01
         - 5.6340403988588417e-01
         - 2.1910138202284768e-01
         - -9.2323677785459982e-02
         - -1.7030416391716469e-01
         - 4.2844251444867260e-01
         - -2.7593550089128088e-01
         - -3.1343568868344474e-01
         - 1.6235959126444244e-01
         - 1.4203440424377164e-01
         - -6.4248082531249084e-02
         - -3.8237924053263272e-01
         - 2.2628451941796338e-01
         - -2.5597131488692365e-01
         - 9.6597411442899933e-02
         - 4.4530957874359844e-01
         - -4.2996060599418123e-01
         - -2.1431686995593353e-02
         - 5.0132821362407654e-01
         - -2.4673833559237010e-01
         - 2.0152062222711145e-01
         - -2.3041624360335458e-01
         - -1.1902145599009707e-01
         - 3.8462592286208608e-01
         - 4.0821383504094133e-01
         - 1.2585867024614680e-01
         - 3.4290280562482661e-01
         - -2.6090244872576124e-01
         - -4.5905405831329120e-02
         - 2.7742072035184306e-01
         - -4.3448056083641752e-02
         - 3.2621233199600730e-01
         - -1.8990806495747981e-01
         - -2.2777413681589187e-01
         - 2.8868168645155773e-01
         - -1.8639860958821067e-01
         - 2.8076518019715180e-01
         - 2.9385833520653443e-01
         - -2.0838947461698057e-01
         - 8.3045404943305520e-02
         - 8.0605251068882069e-02
         - 2.7042828238653721e-01
         - 5.3279361808658710e-01
         - 2.7654117119101290e-01
         - 6.0780086552128396e-02
         - -1.6508959004948817e-01
         - -6.2499138300782597e-01
         - 3.7610000038449623e-02
         - 1.6260143041820896e-01
         - -3.4101664113064517e-01
         - 1.8185566074624265e-01
         - -1.1054164270992611e-01
         - 4.0301019459859151e-02
         - -1.7406089787328979e-01
         - 1.7555148851548136e-01
         - 6.6954278031801470e-02
         - 1.5672077684680036e-01
         - -5.4581993878694590e-01
         - 4.3305414698717841e-02
         - -1.7376953502489331e-01
         - 7.3663831920222467e-01
         - 6.9993086268938820e-01
         - 1.4173733621004252e-02
         - 2.5106780873270770e-02
         - 2.4695454071854114e-01
         - -1.0140885289922300e-01
         - -2.0193435975570920e-01
         - -3.6157581557638194e-02
         - 7.9720404382994672e-02
         - -3.7800378780153951e-02
         - -1.2656017403704891e-02
         - -3.2770227722437173e-01
         - -1.5244822336731284e-01
         - 9.7954547020183177e-02
         - 2.1364710108489329e-01
         - 1.6241310780987844e-01
         - -2.0291556061858060e-01
         - -8.5286043022267832e-02
         - -2.1797839702727001e-01
         - -2.5227217774164962e-01
         - 3.3353888117006320e-01
         - 2.0678042419149165e-01
         - 2.6295479113546671e-01
         - -4.8161096901083561e-01
         - 4.5712526886373783e-01
         - -2.6308449108542720e-01
         - -5.4818171615651634e-01
         - -9.7905031777197227e-02
         - -4.8008364973176276e-01
         - 5.4283192564484972e-01
         - -1.6272425178329725e-01
         - 2.0494502298244646e-01
         - -1.9925282093122890e-01
         - 4.3549420976943548e-01
         - -4.2892016984450575e-02
         - -1.3045447990133763e-01
         - 2.3076394917780810e-01
         - 6.3092147614477867e-01
         - -1.9320465450671526e-01
         - -3.8239682335874114e-01
         - -1.9206161079476130e-02
         - -9.1724312141021447e-02
         - 1.7057647770081594e-01
         - -6.9107278631682489e-01
         - -9.4681506413074171e-02
         - -1.9812844373111768e-01
         - -3.6166705122828796e-02
         - 2.2486683848199990e-01
         - 4.7861699095233268e-01
         - -5.0921571074846496e-02
         - -1.6081595421065256e-01
         - -1.6208233937128322e-01
         - -2.1763916568176367e-01
         - -4.1204292585405533e-01
         - 3.9943180757589652e-01
         - 3.1819283998553320e-02
         - -4.7058181658617643e-01
         - -5.9448495433315783e-02
         - -1.9532804922381350e-01
         - -1.7460945311795489e-01
         - 1.6297869152896105e-01
         - 1.1024676340038089e-02
         - -1.1356460964792721e-01
         - -1.8687600420417375e-01
         - 5.8274192526578096e-02
         - 1.3551392636676696e-01
         - -6.2049455148060512e-02
         - 2.8241128685640257e-02
         - 5.4788099481405084e-01
         - 3.2372746445793321e-01
         - 4.2481247396996841e-01
         - -3.2325749811659282e-01
         - -2.8376950939173012e-01
         - 2.7921713769750989e-01
         - -2.0777470291036165e-01
         - -1.6185758693632077e-01
         - 8.7789923458248320e-02
         - -1.3019366505325644e-01
         - 4.4883896782562543e-01
         - 1.3996927873122894e-01
         - 4.5809345984859812e-01
         - -4.0143891374208279e-01
         - 3.0496814914330161e-01
         - 1.5460397604252227e-01
         - -1.5271340567807151e-01
         - 1.0441665064592255e-01
         - 2.6189552525055848e-01
         - -7.1502088691642360e-02
         - 4.9388737753204481e-01
         - 6.0293927426109922e-02
         - -4.6112279762627345e-01
         - 2.2399823568462382e-01
         - 3.8876077955024807e-01
         - -1.8931192901338115e-01
         - 3.4255744908432462e-01
         - -1.3716941417857784e-01
         - 7.0303337685485148e-02
         - 2.1654424707492559e-01
         - -5.8927031729137447e-01
         - 1.0312411477903380e-01
         - 1.4776282881605041e-01
         - -2.0586391713399455e-01
         - 1.1478463500258707e-01
         - -4.5633875295316345e-01
         - 6.6392540254623295e-02
         - 4.8224608628875820e-01
         - -2.3465075619441025e-01
         - -1.9930197227883473e-01
         - -2.7667378840700269e-01
         - 2.0972201883054339e-01
         - 4.6298019641877275e-01
         - 2.4368623285080829e-01
         - 1.3578441518207259e-03
         - -3.6098038782253383e-01
         - -1.6499323287206250e-01
         - -1.9549908057257462e-01
         - 1.8899435516255378e-01
         - -1.5006218214212823e-02
         - 3.1325391883065923e-01
         - 8.6150959575351294e-02
         - 1.1406787269077312e-01
         - 1.5285234994556290e-01
         - 9.7699722289175429e-03
         - -2.8618675812293504e-01
         - 8.2070824850435431e-02
         - -4.1256070640623033e-01
         - 1.7811094608632555e-01
         - 8.5127270064180346e-02
         - 8.6701029819029796e-01
         - 9.6756977965008939e-01
         - 2.5982396987630074e-01
         - 6.7501605806386283e-02
         - 2.3832560392631100e-01
         - -2.7867883184152775e-01
         - -4.4287724163003117e-01
         - 9.5119909382067075e-02
         - -1.2603696883805476e-01
         - -2.2024683440551365e-01
         - -1.6538228309461525e-01
         - -1.5841445453054201e-01
         - -4.5090060226909240e-01
         - 7.3772768090220986e-02
         - 8.5793695565390612e-02
         - -2.7733670180549713e-02
         - -2.8738701598458904e-01
         - 3.8899036207737081e-01
         - -2.4037862764874832e-01
         - -1.0557393655397823e-01
         - 2.8744877059702767e-01
         - -2.6850282017268656e-01
         - 3.2053560389545543e-01
         - 8.1646598706873446e-03
         - 4.9781811423874861e-01
         - -4.3551144202557474e-01
         - 1.8521672937974235e-01
         - -3.2060577662379691e-01
         - -5.2326618166832228e-01
         - 2.0999839018785896e-01
         - -2.8771179348111103e-01
         - 1.0302756847476395e-01
         - 1.1510567266544479e-01
         - 3.2203822779197649e-01
         - -9.4173901017079023e-02
         - -1.3692879514979295e-01
         - 1.8164618616415124e-03
         - 3.3534005545347201e-01
         - -1.4554534141318845e-01
         - -5.6437912718514560e-01
         - -2.9667918217070538e-01
         - 5.0730450071835104e-02
         - 6.7629365500819369e-02
         - -6.5442590128138922e-01
         - 1.6431721723073772e-01
         - -3.3383729587260935e-01
         - 4.9815073879116108e-02
         - 1.2451712655264689e-01
         - 6.1420968249829988e-01
         - -1.2446979494794222e-01
         - 3.9802086998627140e-01
         - 1.9786824301429840e-01
         - -5.2719925577881510e-01
         - 5.1618603335055600e-02
         - 2.1736197523820600e-01
         - 1.2345496595920616e-01
         - -4.5178051292559296e-01
         - 4.0453343373939815e-01
         - -1.6638132446310325e-01
         - -2.4072148551689328e-02
         - -5.8044969775010440e-02
         - 2.7566012050299943e-01
         - -2.0524371270035099e-01
         - -3.1597618020879681e-01
         - -3.8671873287859254e-01
         - 2.4454809144883485e-01
         - -6.7627348591583536e-02
         - -1.0158012910328365e-01
         - 4.2134968921692018e-01
         - 8.2572078764878726e-03
         - 6.8828386683147669e-01
         - -1.4766008013329190e-01
         - -1.6080682500621790e-01
         - 8.7842955478185811e-02
         - -2.8932165725210390e-01
         - -7.0152268781431257e-02
         - -9.4658094570536241e-02
         - -5.9074822413885997e-01
         - 4.1410093712566659e-01
         - 3.5653818965090671e-02
         - 7.8719431881321500e-01
         - -4.9474420695360416e-01
         - 2.4936033070801439e-01
         - 7.5558653961372929e-02
         - 3.0298365242017472e-01
         - 1.7654003235668919e-01
         - 2.6978115965446588e-02
         - 5.7146403355182548e-02
         - 1.2139282430262475e-01
         - 2.0385507553868445e-01
         - -9.6053966031868609e-02
         - 2.9250844991053049e-01
         - 8.4676475875144791e-02
         - -4.4379281027456374e-01
         - 3.3910255134508011e-01
         - -1.7532088608718155e-01
         - 6.2987135506825415e-02
         - -6.3675929689646985e-02
         - -4.3207921825172618e-01
         - 1.0481611704885466e-01
         - 2.2700308661871119e-01
         - -6.4338610857081713e-01
         - -3.4210201186179900e-01
         - -4.7222503904783253e-01
         - -1.2170376369825002e-01
         - 4.1866356617489103e-01
         - -2.1672969376166623e-01
         - -3.8337644150564726e-01
         - -2.2718441686444996e-01
         - -1.3763558386724885e-02
         - 1.7045255722517383e-01
         - -1.3201255720899166e-01
         - -1.0451644508450118e-01
         - -3.1175706796508262e-01
         - 1.1345319786572243e-01
         - -6.9617018580566473e-02
         - 2.0564984058331170e-01
         - 5.3852594403317480e-02
         - 3.1732148539392624e-01
         - 2.5121429406063189e-01
         - 1.0832397259230106e-01
         - 5.8796262731005418e-02
         - -2.3316008928976759e-02
         - -2.9421943377597531e-01
         - 1.0184506173708224e-01
         - -9.5005051588941111e-02
         - 1.6965733613395295e-01
         - 2.3309363726649518e-01
         - 9.7644360166173172e-01
         - 6.2152308993433947e-01
         - 1.6046717060935389e-01
         - -7.0312106426337270e-02
         - 7.3435550643202712e-03
         - -8.3633779568153585e-02
         - -8.7176519550044251e-01
         - 3.3070575909420842e-02
         - -5.4066884952984694e-02
         - -1.1256730879784570e-01
         - -2.4129380102734736e-02
         - 4.4360613374504754e-02
         - -4.7840785520637452e-01
         - 2.9126151601593248e-01
         - -2.3942340824856659e-01
         - -2.4771147331281407e-01
         - 7.0044535979437772e-02
         - 4.0993452309718154e-01
         - -1.0189312956691669e-01
         - -5.7701981975889466e-02
         - -3.7511361589860785e-02
         - 3.4422593554082621e-02
         - 1.9024325415865212e-01
         - 3.0426020385153119e-01
         - 5.3105902471808586e-01
         - -1.0312868510050227e-01
         - 1.9721778593733541e-01
         - -1.8241883979656154e-01
         - -2.5762265779653787e-01
         - 2.2132052576441893e-01
         - -7.2863475216326953e-02
         - -2.4572112681245131e-01
         - 1.2907256961758665e-01
         - 2.4720296875090297e-01
         - -4.2504696951567320e-02
         - 9.5480743362571979e-02
         - 5.7189417230726104e-02
         - 7.8397918531431215e-02
         - -2.8755224707756605e-01
         - -4.0180778825107283e-01
         - -6.4125664936406546e-01
         - 2.0628262707345871e-01
         - -1.9311386774726746e-01
         - -4.3844061483942709e-01
         - 3.8772577476405745e-01
         - -4.6717681729519184e-01
         - 1.4962187573615407e-01
         - 1.1863168927845129e-01
         - 2.8530912587464330e-01
         - -1.8916111508422048e-01
         - 3.5880962787128684e-01
         - 2.4448771463303662e-01
         - -4.3731119947441982e-01
         - 1.5218908858499603e-02
         - -1.8238977381607746e-01
         - 1.6354754293084708e-01
         - -4.2032003528792933e-01
         - 4.6489863976531642e-01
         - -4.6253158598598146e-02
         - 2.2779553321992194e-01
         - -2.4769541241804513e-02
         - 3.7179973888661094e-01
         - -5.9658319677457425e-02
         - -4.0363069598928419e-01
         - 3.7666890956613340e-03
         - 4.3734249046446283e-01
         - -9.4257416289550144e-02
         - -1.4216092169477937e-01
         - 2.6516222063785590e-02
         - 5.7644659323865151e-02
         - 1.1692793465085101e+00
         - -2.4060193610075098e-01
         - 3.0722823709545033e-01
         - -1.0761818094470960e-01
         - -4.5220082407507528e-01
         - -4.0020969562769171e-01
         - -1.0474914961135118e-01
         - -6.7537900035043830e-01
         - -1.8782909992165281e-01
         - -3.0861482159056649e-02
         - 3.1424877161298492e-01
         - -3.9953605054551194e-01
         - 4.2698079406520384e-01
         - 1.6774084124780084e-01
         - 3.5689836476371983e-01
         - 2.9507736986199046e-02
         - 1.9009360800533345e-01
         - 2.4917851336885224e-01
         - -5.9233844091717648e-02
         - 1.1379013317007851e-02
         - 2.2382305420754375e-01
         - 1.9741951307862199e-01
         - -1.0271997384529855e-01
         - -3.5605727689454986e-01
         - 2.5097150929800005e-01
         - -1.3196211353232451e-01
         - 1.9453469096447573e-01
         - -2.5384290235414508e-01
         - 1.6027535971299176e-02
         - 4.1343503802021658e-01
         - 1.2356286950194481e-01
         - -2.6372373316775440e-02
         - -1.9891593195848439e-01
         - -4.9996624877209095e-01
         - -9.5869119052313066e-03
         - 5.3900957586901065e-03
         - -2.0425554433395030e-01
         - -2.5626822933699939e-01
         - -1.9124926831306277e-01
         - -2.6272573253967696e-01
         - 3.0157728781447285e-01
         - 8.7154006238304368e-03
         - 4.6809366614721404e-02
         - 3.3452997531790751e-01
         - -1.1980848800521768e-01
         - 6.2919059241264355e-02
         - 1.0502754742633139e-01
         - 6.8431786229937897e-02
         - 2.9622302076603957e-01
         - 6.7165556935371729e-01
         - -8.5410811239012105e-02
         - 1.6987174763836876e-01
         - 2.3607573663489378e-01
         - 1.3362622103695704e-01
         - 9.9917141487513253e-02
         - 4.2886618302763628e-02
         - 4.2628546363915075e-02
         - 1.8594434453421371e-01
         - 9.5675430735952727e-01
         - 3.3861259413858580e-01
         - 1.3591515468056908e-01
         - -8.0049819076513637e-02
         - -3.0822152126871605e-01
         - -2.5532859148668646e-01
         - -8.5680578793233508e-01
         - -2.0265101091926353e-02
         - 2.9729835313708641e-01
         - -3.1836497440885891e-01
         - -6.3540148107184696e-02
         - 2.7253911457039415e-01
         - -3.1417966736511882e-01
         - 4.2342267643261366e-01
         - -1.2099865280687819e-01
         - -3.5280528662921778e-01
         - 2.0450766196508383e-03
         - 2.7129662560043216e-01
         - -1.1319006574315064e-02
         - 2.5057491180270136e-01
         - -2.9916629789821630e-01
         - 1.4081017035625362e-01
         - 1.4846115527375595e-01
         - 7.4945911075939189e-02
         - 4.2795525012729668e-01
         - -5.8906710648477814e-02
         - 1.5605581073520999e-01
         - -1.1131802504520406e-01
         - -2.9910692908867753e-01
         - -7.5103885781369704e-03
         - 2.0005577623576556e-01
         - -1.5147410920075829e-01
         - 3.7780250505057439e-01
         - 2.8344889269334689e-01
         - 2.5347771135364494e-01
         - 7.2361367485009606e-03
         - 5.5662918365578996e-02
         - 1.4666718799407094e-01
         - -3.5894249358352776e-01
         - -1.2355343728602726e-01
         - -2.6631003357384991e-01
         - 2.1638303155325625e-01
         - -3.8496013872839949e-02
         - -3.2468504020142092e-02
         - 3.5943901340509815e-01
         - -6.9429840439397053e-02
         - 3.0055631885290574e-01
         - 1.9845747154618626e-01
         - 1.1224366113639291e-01
         - -3.8453463769306778e-01
         - 1.4727982755146296e-01
         - 2.1003268492014357e-03
         - -5.8245660138306832e-01
         - -1.4871420672575006e-01
         - 6.9764227830545256e-02
         - 1.7298136825626201e-01
         - -3.8153076435635880e-01
         - 4.4019507290200799e-01
         - 1.1616419116272858e-01
         - 4.0007141765809211e-02
         - -1.5773849920802871e-01
         - 2.7500325314099733e-01
         - -2.2503188620696662e-01
         - -4.0934079319853406e-01
         - 2.1598392798379276e-01
         - 1.1854963770613239e-01
         - -1.0976659124723440e-01
         - -1.4647920389012611e-01
         - -5.4797180506212233e-02
         - -1.6856538838029803e-01
         - 1.1653590007299803e+00
         - -2.3020784737927771e-01
         - 2.9977305369441981e-01
         - -2.7388859290373535e-01
         - -2.8869956535592967e-01
         - -2.2302510076066656e-01
         - 1.5542281136184136e-01
         - -3.4559054672196410e-01
         - -5.3815989621580951e-01
         - -1.5890895830482213e-01
         - -2.0483492483285656e-01
         - -1.8902929848707578e-01
         - 5.7906200550685660e-01
         - 1.0872718285662696e-01
         - 2.1173715815029082e-01
         - -2.3445961717604516e-01
         - 2.0099335221025860e-01
         - 3.6298150229449912e-02
         - -1.8229211188452901e-01
         - -3.0956355038386205e-02
         - 1.1149017017311234e-01
         - 8.7232621027621277e-02
         - -6.5560163050304876e-02
         - -1.8369034501101589e-01
         - 2.6107686920284678e-01
         - -2.1918396248562635e-01
         - 2.6668484575627804e-01
         - -2.2353129408195407e-01
         - 2.7189442903746847e-01
         - 5.5710608550339591e-01
         - 1.1399329230628895e-01
         - 6.7880273973280836e-01
         - -1.0122671586237211e-01
         - -4.3229603233155184e-01
         - -7.1786902877574305e-02
         - -2.6394179337774243e-01
         - -1.4230574191270692e-01
         - 7.0245911594151264e-02
         - -2.9531268512915071e-01
         - -2.2461491021925797e-01
         - 4.8499954949083608e-02
         - -1.3244021183355393e-02
         - 1.1553335174368927e-01
         - 5.3556368413963473e-01
         - -1.9272396724303675e-01
         - -1.1115728157367744e-01
         - 7.3981100478743331e-02
         - -2.9526708871463764e-01
         - 9.2415450737982033e-02
         - 5.1229945391117626e-01
         - -1.0212270842346728e-01
         - 3.2482665611772737e-02
         - 3.4267641501744323e-01
         - -9.7117570162541855e-02
         - 2.1101871130798998e-02
         - 1.0951600522928205e-01
         - 1.7103258795962731e-01
         - 3.0538588734545513e-01
         - 6.5265047669737786e-01
         - 8.5863209434177648e-02
         - -5.6914940656330792e-01
         - -6.3837957837663051e-02
         - -2.5717220389276918e-01
         - -5.7282312195877727e-01
         - -1.8739940957552731e-01
         - -1.1411335940433963e-02
         - 2.8395503846112430e-01
         - -6.5061295256942697e-01
         - -1.5163897046414787e-01
         - 5.9801631679236955e-01
         - -6.3932784094342707e-02
         - 3.6540670065604858e-01
         - -2.5356036962747051e-02
         - -4.8853374746264394e-01
         - 1.4824957864666261e-01
         - 2.6167564870977555e-01
         - -4.3423116868217745e-02
         - 2.7611960130494551e-01
         - -2.5386576737537353e-01
         - 4.5377266490421023e-02
         - -2.7065191871316130e-01
         - -2.4320523020729565e-01
         - 3.2222470244330487e-01
         - -7.4445176765821158e-02
         - 2.8267471897293850e-01
         - -2.4624584335292585e-01
         - -5.6819740231459082e-01
         - 1.3234699994547897e-01
         - 3.4514721584323038e-01
         - 3.1936294075780741e-01
         - 4.3454186099676467e-01
         - 3.3080939077735388e-01
         - 6.2323037036697004e-01
         - 6.9470914112446658e-02
         - 5.3276090807125565e-01
         - 1.0314119895418902e-01
         - -4.3524608019469052e-01
         - -5.4483055352702238e-02
         - -4.3347539895500761e-02
         - -3.3128789862534681e-02
         - 6.3933426840256579e-03
         - 9.0648448588810104e-02
         - 8.1089003462123194e-02
         - -1.2413696507272967e-03
         - 9.0492427233834175e-02
         - 7.6604173505415804e-02
         - -1.0478988067917359e-01
         - -4.9088647320791218e-01
         - 1.0208618844755683e-01
         - -3.8089312152794867e-02
         - -3.0971069326393530e-01
         - -3.7117044392235504e-01
         - -1.9079344962761913e-01
         - 4.6798003280014006e-01
         - -4.6322894177881041e-01
         - 3.3525175045644384e-01
         - 3.7182231298701318e-01
         - -5.5132412614553761e-02
         - -3.0990980818644509e-01
         - 4.4058144977473074e-01
         - -3.3916175722289987e-01
         - -1.1581440301617411e-01
         - 3.7404586566466130e-01
         - -4.2941741373992530e-02
         - -3.4172952750913566e-01
         - -1.1622835080099345e-01
         - 1.5311328056819193e-01
         - 6.6313528732225888e-02
         - 1.0285189630882556e+00
         - -3.1387760989745814e-02
         - 8.7844445178236558e-02
         - -3.4601730351592652e-01
         - -1.5934456521149037e-01
         - -1.3797831961021909e-01
         - 2.5311166145615827e-01
         - 1.0611444005422854e-01
         - -3.7900298134825228e-01
         - -1.6693240912091203e-01
         - -8.2685979148879285e-01
         - -3.1218569255459538e-01
         - 2.5674941033173831e-01
         - -9.5414605163185321e-04
         - -1.8247834506800870e-02
         - -3.0357786699102156e-02
         - 1.5703704172600880e-01
         - -8.3807542360244972e-02
         - -8.9459689744327171e-03
         - 2.3450976293673009e-01
         - -1.5511590724953547e-01
         - -1.1743899530604052e-01
         - -3.4244006675619365e-01
         - -1.6510262210950810e-01
         - 2.7638189723542855e-02
         - -2.7911588265434362e-01
         - 6.8956309712669542e-02
         - -1.3455639554589952e-01
         - 5.9015597238220197e-01
         - 5.3950477438284661e-01
         - -2.8723282309024312e-02
         - 8.3712532048437405e-01
         - -2.1393049965564495e-01
         - -2.5728844175127130e-01
         - 1.7286017171894274e-03
         - -3.0381831875206300e-01
         - -7.6103731774074729e-02
         - -1.2800602122356633e-01
         - -1.0809735918340044e-02
         - -4.9583968077071335e-02
         - -2.1457313748307050e-01
         - -2.0839350105502349e-01
         - -3.3148743154839587e-02
         - 7.3272484074665489e-01
         - -4.2195731525177541e-02
         - -2.9410667043551780e-01
         - 1.6113257214670693e-01
         - -6.7114130831700214e-01
         - -1.1958490247897838e-01
         - 5.9480658142241338e-01
         - -2.4135542990721476e-02
         - 2.6181047530692386e-01
         - 3.4918271673110385e-01
         - 4.3240817367212692e-02
         - -2.7480262993697629e-01
         - 3.5816686722396912e-01
         - 2.6452320832393406e-01
         - -1.2860864859315027e-01
         - 4.5707578279451061e-01
         - 9.7361429837549737e-02
         - -2.9104700443024534e-01
         - -4.1666613315851572e-02
         - 8.8610957706241167e-02
         - -7.3864082605367509e-01
         - 3.9113005530074624e-01
         - -3.1738960773572317e-01
         - 3.1782387697370346e-01
         - -6.6300369606381548e-01
         - -2.1940714221963828e-01
         - 6.5498018822391557e-01
         - 2.1766705021328356e-01
         - 2.1889186376730244e-01
         - -1.9169673423426475e-01
         - -2.7795652484692585e-01
         - 2.1180750875618451e-01
         - -3.6141678306983054e-02
         - -5.9168900194246206e-02
         - 6.3954083346214025e-02
         - -2.1873691274314827e-01
         - 4.1030248865542329e-01
         - -2.0905071799665612e-01
         - -5.7742970123831694e-01
         - 2.6301973634206888e-01
         - -4.0466932846565440e-01
         - 2.9751910797991471e-01
         - -5.2811235730645410e-02
         - -3.3557977513476944e-01
         - 3.8166214607413140e-01
         - 2.8286281481578696e-01
         - 3.8703492513056226e-01
         - 7.7324231754746287e-01
         - 3.8892962533392250e-01
         - 4.9032351073308167e-01
         - 1.7745063253682261e-01
         - 5.6865354617860742e-01
         - 9.6665879191595680e-02
         - -2.7969480065320146e-01
         - -3.8887642728704935e-01
         - 3.6605256926101798e-01
         - 1.9084045968837857e-01
         - -1.2586598428792881e-01
         - 1.1968527196646489e-02
         - 7.3907597570503886e-02
         - -3.6691765098299761e-01
         - -1.5006210281494098e-01
         - -9.3926189806438271e-02
         - -3.5980787610956400e-01
         - -4.3054723225266468e-02
         - 2.8745042890612421e-01
         - 5.9321980740461494e-02
         - 1.4130907472568197e-01
         - -5.5207657554265510e-01
         - -3.4276952957066648e-01
         - 5.3062395430462671e-02
         - -5.6167128152971801e-01
         - 5.3297163724328564e-02
         - 5.5389339952995920e-01
         - 2.1058389175496753e-01
         - -1.1300473432616015e-01
         - 7.1926591183844246e-01
         - -3.6501077024613243e-01
         - 4.8352658844739271e-01
         - 5.2378779571846967e-01
         - 1.0243154787406347e-01
         - -3.5148445221652796e-01
         - 1.2506202274396247e-01
         - 2.2302275620963927e-01
         - 9.1578963657873880e-02
         - 1.0440379520268395e+00
         - 1.7062558123715649e-01
         - 1.2303432848390856e-01
         - -2.4525907345344872e-01
         - -4.0340637712729090e-02
         - -7.2207830114612959e-02
         - 1.2787852876861971e-01
         - 9.3508071579413948e-04
         - -3.0834207172873496e-01
         - 2.6528830746149629e-01
         - -6.5983220356088879e-01
         - -8.1055180260542828e-02
         - 2.5286329977496064e-01
         - 2.6055082644991356e-02
         - -4.8150270770408266e-01
         - -1.8200899034874882e-01
         - 2.8120597694075622e-01
         - -9.5878318829832360e-02
         - 1.7238991347981861e-01
         - 5.4847662030736954e-01
         - 4.3488608876486833e-03
         - -1.5133464176978390e-03
         - -2.1697306547159065e-01
         - -6.9577250469197854e-03
         - -7.1579947212028178e-02
         - -5.8754684697556354e-02
         - 1.6430007072341246e-01
         - -3.6287765540642880e-01
         - 6.0584222442708824e-01
         - 6.5055754135054711e-01
         - -2.2226034719299775e-01
         - 5.6456134432025185e-01
         - 4.4377605144427644e-02
         - 1.1482170275822870e-01
         - -1.0663977134815558e-01
         - 2.2425370031123621e-03
         - -8.2108157945675762e-04
         - -2.7045384529271799e-01
         - 8.5999183906459178e-02
         - -2.2459213892756222e-01
         - -1.7417339677660731e-01
         - -3.7541402417516956e-01
         - -3.5457524801639967e-02
         - 7.5771454983578013e-01
         - 8.0936462231618989e-02
         - -2.9661326877996946e-01
         - 2.0161245089433832e-01
         - -7.0029316682653642e-01
         - -1.6956711301196703e-01
         - 4.7293603756909730e-01
         - -1.1537106630300148e-01
         - 4.2227273424438122e-01
         - 2.3409168554678467e-01
         - 1.6520651334148947e-01
         - -1.0065759746020933e-02
         - 1.4708158629229967e-01
         - 2.3964500900356295e-01
         - -3.5268749191414789e-01
         - 4.0220599005627369e-03
         - -2.1435910704864211e-01
         - -2.6349741944787985e-01
         - -1.3452539392022792e-02
         - 1.7446443148411536e-01
         - -4.6375631850092774e-01
         - 2.9034926729330995e-01
         - -3.0307106107621851e-01
         - 5.2358760229931200e-01
         - -4.3145535244680455e-01
         - -2.5273719098397601e-01
         - 3.5640460842995475e-01
         - 4.1949803306726235e-02
         - -2.2645679271485052e-02
         - -2.5931177056969040e-01
         - 2.1268537023769857e-01
         - 1.3960260443701075e-01
         - -1.5173886132418374e-01
         - 9.7654023221364225e-02
         - -2.4340430651082548e-01
         - -6.5356402798743524e-02
         - 4.2516067273737562e-01
         - -1.2444239381336787e-01
         - -4.1035920391427017e-01
         - 3.1772894827236176e-01
         - -3.5820735240181106e-01
         - 4.6345441943910087e-01
         - 2.3757905376723637e-01
         - 1.6466615692534517e-01
         - 3.8422637206096322e-01
         - 1.7290893597991444e-01
         - 5.6767456055052135e-01
         - 7.9089339262923974e-01
         - 8.5168878317317925e-02
         - 2.6613236625174297e-01
         - 3.8075801029024386e-02
         - 2.9689813311722507e-01
         - 2.8742206999947364e-02
         - 2.6307351916803673e-01
         - -3.7920871981218623e-01
         - 4.2487065022982901e-01
         - 1.2914911902500301e-01
         - -3.7073674791223060e-01
         - -1.0218787672391523e-02
         - 1.0023296335922510e-01
         - -5.2166692962044692e-01
         - -2.2294086368391056e-01
         - -3.6259369897484439e-01
         - -5.1741943924980538e-01
         - 3.6488792334757025e-01
         - 4.2419933912385244e-01
         - -6.1520506958857996e-02
         - 1.6805335908914837e-01
         - -3.2533431301537247e-01
         - -1.8183506179257169e-01
         - 3.8393856244536118e-02
         - -4.9976186216976182e-01
         - 8.2330927098624353e-03
         - 9.3833546608699037e-01
         - -1.4024927430613129e-01
         - -1.0246999543333800e-01
         - 6.7319522383582731e-01
         - -2.0697562758441451e-01
         - 7.0600904173299484e-01
         - 5.7580380638000694e-01
         - 3.3061924437339385e-01
         - -3.7165075597576530e-01
         - -1.1705965765722326e-01
         - 1.9603707365193027e-01
         - -2.1494681013953526e-01
         - 6.1736473524796975e-01
         - 2.9714249534506260e-01
         - 1.3585435387109668e-01
         - -7.5906822910605978e-02
         - 3.1532056676130260e-01
         - -1.2143065217743432e-02
         - 1.4014373210146269e-01
         - 4.4084283889540533e-02
         - -8.5271634886163461e-02
         - 1.0335202793783334e-01
         - -1.2596044859133221e-01
         - 2.6318220681260340e-01
         - 1.9440756429598480e-01
         - -3.0833956522923861e-01
         - -3.9602672072206924e-01
         - -1.2912884239098091e-01
         - 3.9111054495135211e-01
         - -1.1627866180252447e-01
         - 1.3318072800992575e-01
         - 5.6039065869303195e-01
         - 9.8607849825743582e-02
         - -1.1779689953929767e-01
         - 1.8787733155567354e-01
         - 2.0584093407407650e-01
         - -1.5774643684952722e-01
         - -1.4096946539246924e-01
         - -9.6622240024077460e-02
         - -5.2005378582544859e-01
         - 4.5260002494503576e-01
         - 8.2118524295477391e-01
         - -2.8665363303089314e-01
         - 5.9884919618657029e-01
         - 2.2262827016927145e-01
         - 1.8761439871930122e-01
         - -4.6804368721465756e-01
         - -1.8367263150003876e-02
         - -8.3550909991537581e-02
         - -3.7649216632453553e-01
         - -2.0975126327437355e-01
         - -4.0568796894234017e-02
         - -4.9877504910649123e-01
         - -6.7087774936149758e-01
         - -2.8089803231303234e-01
         - 4.6569256540339132e-01
         - 2.3574167554210318e-01
         - 3.7592970297609007e-01
         - 7.0093556514260649e-02
         - -1.0597128216095529e-01
         - -3.9706634674548741e-01
         - 8.0025970411540845e-02
         - -2.1386319584918415e-01
         - 3.3688345596224738e-02
         - 2.2048569476992413e-01
         - 4.8925797461354587e-02
         - 1.5328955818648229e-01
         - 2.3818986886588450e-01
         - -1.2682514825245453e-01
         - -1.7123092653559188e-01
         - -1.9540585457715651e-01
         - -4.0501562007028719e-01
         - -2.4790398054615811e-01
         - 3.1293026459717482e-01
         - -1.3332738946281431e-01
         - -1.7717669338405384e-01
         - 2.9467608692848685e-01
         - 1.2652760642228619e-01
         - 6.5560154531956194e-01
         - -1.2636805316408559e-01
         - -1.2714887433921246e-01
         - -3.0633641394066941e-01
         - 2.6079062839589551e-01
         - -3.3417757212344512e-01
         - -4.2923271466242120e-02
         - 3.1359824759912935e-01
         - 7.0944918288837464e-02
         - -1.3515108272199217e-01
         - 1.8224855665395896e-02
         - -3.7252578396975905e-02
         - 2.4448542941741594e-01
         - 2.5922977450356621e-01
         - -1.2774360816649716e-01
         - -1.9570134518143256e-01
         - -2.7561031551050351e-02
         - 3.4624082774875796e-02
         - 5.4110403097534765e-01
         - -9.8890628560197022e-02
         - 2.2532198105588672e-01
         - 1.2109654836418593e-01
         - 1.9476564152473125e-01
         - 3.3122620237476424e-01
         - 6.7346982646531806e-01
         - -2.0750224775377590e-01
         - 2.7431129111051061e-01
         - 2.3865388266585669e-01
         - 2.3993350763288604e-01
         - -2.0654486362112624e-02
         - 6.0586532405974214e-01
         - -1.3086078274137289e-01
         - 5.2234774871397305e-01
         - -8.7350171111960050e-03
         - -5.1313868831548182e-01
         - -2.9234700632042587e-01
         - 7.1178104027875277e-02
         - -9.8583822997939496e-02
         - -1.1314857908561869e-01
         - -2.8367395580099225e-01
         - -5.8859438958252552e-01
         - -4.6987276758569205e-03
         - 2.1267001811153713e-01
         - -3.3904802380420423e-01
         - -5.3452007559854570e-03
         - 6.4484242279782555e-02
         - -1.9815194424808058e-01
         - 5.7944089681744936e-02
         - -1.7773197070634961e-01
         - 2.1395692681352363e-01
         - 1.0116273982447452e+00
         - -4.3109909163718274e-01
         - 9.9899362573537112e-02
         - 6.3219932569691617e-01
         - -2.3391658867632431e-01
         - 9.5988542182751224e-01
         - 6.1242130439275011e-01
         - 6.1043936746138283e-02
         - -4.9370738532424407e-01
         - -2.6163698862443613e-01
         - 1.5335491217326735e-01
         - -5.0004864329049037e-01
         - 6.3846719276444164e-01
         - 1.9378611493005599e-01
         - -1.8430391579288655e-01
         - -1.1051227908803121e-01
         - 1.0195917638267987e-01
         - -1.6613252737919451e-01
         - 3.1688633619975642e-01
         - -3.6957813063245096e-02
         - 1.4029962150854003e-01
         - -2.2344802421755330e-01
         - -1.5409166874463431e-01
         - -1.2652510645817377e-01
         - 1.2902646199256976e-01
         - -3.7693243124306042e-01
         - -5.6801027702399816e-02
         - 1.4955690425218812e-01
         - 1.9680897036415551e-01
         - -1.1752531025843135e-01
         - -2.4120704936922352e-01
         - 4.3275058975059583e-01
         - -1.5316421452150690e-02
         - -3.7252484575157851e-01
         - 2.7372556944609627e-01
         - 1.4656163635433730e-01
         - -5.9304777183835033e-01
         - -1.7508064411128618e-01
         - -3.0979786336143977e-01
         - -5.6353159194192481e-01
         - 6.8925483865129811e-01
         - 9.8642060594324954e-01
         - -1.4170033522353390e-01
         - 4.1056521577414279e-01
         - 8.2970835013628549e-02
         - 2.6859432014945417e-01
         - -3.0746069058541153e-01
         - -1.3950897666638393e-01
         - 1.6515175640962054e-01
         - -2.0679765612515105e-01
         - -2.8789687078539072e-01
         - 2.1117021454741766e-01
         - -3.0232438646136001e-01
         - -8.3795224743059227e-01
         - -3.6505648221085685e-01
         - -5.0865721116154838e-02
         - 3.7625151922549344e-01
         - 8.6792164772862146e-01
         - -9.3312354012997201e-02
         - 5.1854706915962190e-01
         - -1.8995446568682306e-01
         - 9.4505856277765643e-03
         - -2.5606364291793654e-01
         - 1.0938660824827333e-01
         - 1.2605020052740051e-01
         - 2.4328637082214077e-01
         - 2.0846201648312307e-01
         - 1.6004926837321429e-01
         - -1.1962651262090225e-01
         - -2.9120457677235029e-01
         - -3.7625348782708684e-01
         - -8.8371188869851403e-02
         - -5.2158767873963799e-02
         - 1.7232281930252397e-01
         - -1.3576467880807755e-01
         - 2.4913657180224702e-01
         - 1.1407514196073842e-01
         - 8.6451860716319370e-02
         - 2.5418141958174401e-01
         - 6.6096914459534264e-02
         - 1.3540868133970563e-02
         - -6.4772737912039058e-01
         - 2.4764547863611630e-01
         - -6.0406935736170742e-01
         - 5.1509898270826658e-02
         - 1.7020854945975367e-01
         - -2.9461502387850835e-01
         - -2.4355294848860579e-01
         - -3.5205649521291482e-01
         - 1.9265012053141812e-02
         - 4.8897161143308793e-01
         - 2.7405934800805565e-01
         - -1.7418283789331510e-01
         - -2.5426200741225230e-01
         - -1.8303813436439970e-01
         - -2.4441770436263505e-01
         - 5.9162530703423710e-01
         - -2.6439460435122419e-01
         - -2.5459688201863718e-02
         - -1.1421242137081768e-01
         - 4.6021719820656913e-02
         - 1.3233867895766813e-01
         - 5.1493617490067978e-01
         - -1.0801927246095917e-02
         - -1.4498806040838936e-02
         - 2.7611130022768665e-01
         - 3.4497249793894519e-01
         - -3.8081547447227770e-01
         - 5.5804570160298439e-01
         - -1.1967317541722689e-02
         - 5.0639051521178324e-01
         - -7.0533844104758117e-02
         - -5.4497025592700676e-01
         - -3.2139718059519956e-01
         - 5.0090910298828596e-02
         - 1.7426699243133945e-01
         - -3.5665287318973732e-01
