%YAML:1.0
---
opencv_ml_ann_mlp:
   format: 3
   layer_sizes: [ 784, 128, 62 ]
   activation_function: SIGMOID_SYM
   f_param1: 6.6666666666666663e-01
   f_param2: 1.7159000000000000e+00
   min_val: -9.4999999999999996e-01
   max_val: 9.4999999999999996e-01
   min_val1: -9.7999999999999998e-01
   max_val1: 9.7999999999999998e-01
   training_params:
      train_method: BACKPROP
      dw_scale: 1.0000000000000000e-02
      moment_scale: 1.0000000000000000e-02
      term_criteria:
         epsilon: 1.0000000000000000e-04
         iterations: 100
   input_scale:
      - 3.2460204099410856e+00
      - -3.4830838379464435e-01
      - 3.1385575950084332e+00
      - -5.2750819120132508e-01
      - 2.5348764981920660e+00
      - -6.0218379466671412e-01
      - 2.5133205254447297e+00
      - -6.0498969408905534e-01
      - 2.6137321799171414e+00
      - -5.7660289112683660e-01
      - 2.7142225395299673e+00
      - -5.3740096492351030e-01
      - 2.7193360020262327e+00
      - -5.0965000623605006e-01
      - 2.7082638120692621e+00
      - -5.4462932323528379e-01
      - 2.5455800832472444e+00
      - -6.1636374141850270e-01
      - 2.3541539742601256e+00
      - -6.8004877583894552e-01
      - 2.2222876951825503e+00
      - -7.4772450389816036e-01
      - 2.1669924194232197e+00
      - -8.0182671225570956e-01
      - 2.1237542795011306e+00
      - -8.3211523461505110e-01
      - 2.1082877621157206e+00
      - -8.5484956126205447e-01
      - 2.1263005967929267e+00
      - -8.4964559324125144e-01
      - 2.1455697517074346e+00
      - -8.0289591139325156e-01
      - 2.2015663074284184e+00
      - -7.6370260771754217e-01
      - 2.3443524186633651e+00
      - -7.0457303340946131e-01
      - 2.5486326910091419e+00
      - -6.1256045141012405e-01
      - 2.7038439683668640e+00
      - -5.3598779846316458e-01
      - 2.8535637072986639e+00
      - -4.9614933073479256e-01
      - 2.8548971780513526e+00
      - -4.7708736086402892e-01
      - 2.8149622974226673e+00
      - -4.8874438082670957e-01
      - 2.7482201849435079e+00
      - -5.3258140154807299e-01
      - 2.6397033713154583e+00
      - -5.5244214175101380e-01
      - 2.6294413848007729e+00
      - -5.4560973161560411e-01
      - 3.0936790739901125e+00
      - -4.8189670806579171e-01
      - 3.1142224869117263e+00
      - -3.6667596549992720e-01
      - 2.6663093398232718e+00
      - -6.1575602865992829e-01
      - 2.6028726530299391e+00
      - -7.1651393494829874e-01
      - 2.3546078529037726e+00
      - -7.7166941027698566e-01
      - 2.3822160414774243e+00
      - -8.2539143985988739e-01
      - 2.4875183735315165e+00
      - -8.7417778375840438e-01
      - 2.5306425745602672e+00
      - -8.9480636297283167e-01
      - 2.5523788941946361e+00
      - -9.1325415037422686e-01
      - 2.4834552270513823e+00
      - -9.2668161649737757e-01
      - 2.3698408637888901e+00
      - -9.3736635675437929e-01
      - 2.2635015548412292e+00
      - -9.4672477810109468e-01
      - 2.2055382300184969e+00
      - -9.8036434204048339e-01
      - 2.1766827511571085e+00
      - -1.0136756712686483e+00
      - 2.1648443766463510e+00
      - -1.0497587691039707e+00
      - 2.1601492358223089e+00
      - -1.0740812466258098e+00
      - 2.1727537687185303e+00
      - -1.0889400359609822e+00
      - 2.1809341887013760e+00
      - -1.0732068809015354e+00
      - 2.1937058411886121e+00
      - -1.0366658499274737e+00
      - 2.2626528633513718e+00
      - -1.0093749554110394e+00
      - 2.3643388140143196e+00
      - -9.7788173819550084e-01
      - 2.4789461619120119e+00
      - -9.4473995173189051e-01
      - 2.5461491800387299e+00
      - -8.8300551361643631e-01
      - 2.5844921697226639e+00
      - -8.3822764903469238e-01
      - 2.5926554588380277e+00
      - -7.8924770553739643e-01
      - 2.5366257349962966e+00
      - -7.6649379087673897e-01
      - 2.4538479956235753e+00
      - -7.1726176179550039e-01
      - 2.4855020717847354e+00
      - -6.5912117750583932e-01
      - 2.7576469177373042e+00
      - -6.0236367894699261e-01
      - 2.8294535300902539e+00
      - -5.2684691793989669e-01
      - 2.3192554808601007e+00
      - -6.9210893417648200e-01
      - 2.3261204949291265e+00
      - -7.8802681464961399e-01
      - 2.2066836805364809e+00
      - -8.7885910203317863e-01
      - 2.2618635080006335e+00
      - -1.0216854246930216e+00
      - 2.3528030792725905e+00
      - -1.1511839872734484e+00
      - 2.3321482601190904e+00
      - -1.1996267221882462e+00
      - 2.3177793525405672e+00
      - -1.1966319354396187e+00
      - 2.2652285053530892e+00
      - -1.1564874703754666e+00
      - 2.2269734155345575e+00
      - -1.1261905156418048e+00
      - 2.2153952552680658e+00
      - -1.1134375685514653e+00
      - 2.2502245859822456e+00
      - -1.1343844238354168e+00
      - 2.2808382817416297e+00
      - -1.1528684610393385e+00
      - 2.3168652803190164e+00
      - -1.2031647746760878e+00
      - 2.3274724918578786e+00
      - -1.2392207397013522e+00
      - 2.3119882367064877e+00
      - -1.2551353486106807e+00
      - 2.2991779983256704e+00
      - -1.2447184986573272e+00
      - 2.2600686362893194e+00
      - -1.1981899141386438e+00
      - 2.2364373993844762e+00
      - -1.1748439465120935e+00
      - 2.2138433008604492e+00
      - -1.1631971867959201e+00
      - 2.2450254973340598e+00
      - -1.1781978539753304e+00
      - 2.2892749788719096e+00
      - -1.1758656249951371e+00
      - 2.3870563366135999e+00
      - -1.1496734955579526e+00
      - 2.4096974440441281e+00
      - -1.0618146381072555e+00
      - 2.3850706983177319e+00
      - -9.6627751419994024e-01
      - 2.3242014981457708e+00
      - -8.3990635651755907e-01
      - 2.4098048437024131e+00
      - -7.3399344316972459e-01
      - 2.6586421050861815e+00
      - -6.4345212558948794e-01
      - 2.6881584081547980e+00
      - -5.5054324460999793e-01
      - 2.2693558794657620e+00
      - -6.7675193621211405e-01
      - 2.3361480670764134e+00
      - -8.3200738225583182e-01
      - 2.2281766595430814e+00
      - -9.8688207475777445e-01
      - 2.2997371627000902e+00
      - -1.2233501453873790e+00
      - 2.3432781586593374e+00
      - -1.3774740219179675e+00
      - 2.3417887613318098e+00
      - -1.4245278919306705e+00
      - 2.2940998624015201e+00
      - -1.3610382606711577e+00
      - 2.2567344222528103e+00
      - -1.2642419515719077e+00
      - 2.2636412614770864e+00
      - -1.1969922108440927e+00
      - 2.2761044639636960e+00
      - -1.1481255627457052e+00
      - 2.3028681215554720e+00
      - -1.1154314656637740e+00
      - 2.2700489551695338e+00
      - -1.0659827115336147e+00
      - 2.2505488407148717e+00
      - -1.0562455150881318e+00
      - 2.2291173593539435e+00
      - -1.0576396626397464e+00
      - 2.2270643714126570e+00
      - -1.0751827864780603e+00
      - 2.2361100719702267e+00
      - -1.0952383356951987e+00
      - 2.2771570657367826e+00
      - -1.1226924291325497e+00
      - 2.3057150372091222e+00
      - -1.1736173114952237e+00
      - 2.2769969198296640e+00
      - -1.2178652621876875e+00
      - 2.2685987193770507e+00
      - -1.2783365012280268e+00
      - 2.2425580635835938e+00
      - -1.2988703158262007e+00
      - 2.2830613095324006e+00
      - -1.2999099836216910e+00
      - 2.3263762449479310e+00
      - -1.2557252849873934e+00
      - 2.3448544448279827e+00
      - -1.1307894550900899e+00
      - 2.3306308752807805e+00
      - -9.6116254296580728e-01
      - 2.4143701288734301e+00
      - -7.8843632137352382e-01
      - 2.7495656195975373e+00
      - -6.5499522005623201e-01
      - 2.8032163946988367e+00
      - -5.0628798510177375e-01
      - 2.2573504859017772e+00
      - -6.7716904791329657e-01
      - 2.3584347279769831e+00
      - -8.7882719282689226e-01
      - 2.2393352625630301e+00
      - -1.0909172298339744e+00
      - 2.2615636607188012e+00
      - -1.3351118096319845e+00
      - 2.3418460979408704e+00
      - -1.5048820301117860e+00
      - 2.3061810264126659e+00
      - -1.4765150370329148e+00
      - 2.2538539170472180e+00
      - -1.3942043700072184e+00
      - 2.2595785816864975e+00
      - -1.3228642834226469e+00
      - 2.2841927155222903e+00
      - -1.1797724488866190e+00
      - 2.2598098661942934e+00
      - -1.0467250405579558e+00
      - 2.2848974217269649e+00
      - -9.9741186477828914e-01
      - 2.2294687004433213e+00
      - -9.6065763550640304e-01
      - 2.2009712445279646e+00
      - -9.4475828117962901e-01
      - 2.1831252949589781e+00
      - -9.4182273867624455e-01
      - 2.1794027333896948e+00
      - -9.6017808867695875e-01
      - 2.1753791965827576e+00
      - -9.7758952645375297e-01
      - 2.2065848135268809e+00
      - -9.8603138892296427e-01
      - 2.2531121348286653e+00
      - -1.0303244234919762e+00
      - 2.2637010766304888e+00
      - -1.1040197006624033e+00
      - 2.2826066880077907e+00
      - -1.2394942307337906e+00
      - 2.2622642777322435e+00
      - -1.3495984587370380e+00
      - 2.2575608566813288e+00
      - -1.3843080664069103e+00
      - 2.2835851350296932e+00
      - -1.3871090830981896e+00
      - 2.3009612681501648e+00
      - -1.2903636266722236e+00
      - 2.2940436938059952e+00
      - -1.0984714731181744e+00
      - 2.3760224092080580e+00
      - -8.6025191941250889e-01
      - 2.7398714586639645e+00
      - -6.8969953758588831e-01
      - 2.7670998470531369e+00
      - -5.0601913059955450e-01
      - 2.2341279693755953e+00
      - -7.1697621539350698e-01
      - 2.3432143367221250e+00
      - -9.2913100976584262e-01
      - 2.2665987091039130e+00
      - -1.1871763182312987e+00
      - 2.2873784307026428e+00
      - -1.4342081746029336e+00
      - 2.3734972349810728e+00
      - -1.5854882808340522e+00
      - 2.3712962410038845e+00
      - -1.5685052019503642e+00
      - 2.3094870540464063e+00
      - -1.4345739262418353e+00
      - 2.2795720102915586e+00
      - -1.2854721411116221e+00
      - 2.2802712456411429e+00
      - -1.1479094139372983e+00
      - 2.2327287316652611e+00
      - -1.0242513810892255e+00
      - 2.2394878221500449e+00
      - -9.5509361461614761e-01
      - 2.1850637047326695e+00
      - -9.0659002516763587e-01
      - 2.1747031584241054e+00
      - -8.8509299928743490e-01
      - 2.1761805874502702e+00
      - -8.9214147312148240e-01
      - 2.1666539056805161e+00
      - -9.0855035561699482e-01
      - 2.1622089819609482e+00
      - -9.3616187713499177e-01
      - 2.1851577926165024e+00
      - -9.5374594051243700e-01
      - 2.2319094070616963e+00
      - -9.8857818177286871e-01
      - 2.2433514364372567e+00
      - -1.0483669484362055e+00
      - 2.3018688137235213e+00
      - -1.1732808834092903e+00
      - 2.2932971082951776e+00
      - -1.3043662159866947e+00
      - 2.2940548005048762e+00
      - -1.3874852851529860e+00
      - 2.3017614306540146e+00
      - -1.4387279282608889e+00
      - 2.3024299902043928e+00
      - -1.3997387125237628e+00
      - 2.2809019740960204e+00
      - -1.2424951671701632e+00
      - 2.3296664159103484e+00
      - -1.0047842665514803e+00
      - 2.6207052848871712e+00
      - -7.9233438322172223e-01
      - 2.5945839982287691e+00
      - -5.6115152115523059e-01
      - 2.2034280117379694e+00
      - -7.5425985243537697e-01
      - 2.3400914265906043e+00
      - -9.9807225368347285e-01
      - 2.2445510950930267e+00
      - -1.2463472726380018e+00
      - 2.2691098687202351e+00
      - -1.4562498881012653e+00
      - 2.3875570581497234e+00
      - -1.6064212391951209e+00
      - 2.4015205242278133e+00
      - -1.5643767544880083e+00
      - 2.3292740192068022e+00
      - -1.3828629555570653e+00
      - 2.2437810660914224e+00
      - -1.2044689898433780e+00
      - 2.2437547777152380e+00
      - -1.0874635515501223e+00
      - 2.2157376382631710e+00
      - -9.8219059338214210e-01
      - 2.2424210191018976e+00
      - -9.3010802500018153e-01
      - 2.2417747752920110e+00
      - -8.8128575812561649e-01
      - 2.2586483861480864e+00
      - -8.4113070382831467e-01
      - 2.3004127010817936e+00
      - -8.4398356209603298e-01
      - 2.2790322811899868e+00
      - -8.5909815812918078e-01
      - 2.2439551564067477e+00
      - -8.8395742413709266e-01
      - 2.2422092098494031e+00
      - -9.2486344553611677e-01
      - 2.2461842744040617e+00
      - -9.5280950029881584e-01
      - 2.2182284140296811e+00
      - -9.9116205985318373e-01
      - 2.2523357456949094e+00
      - -1.0878328690274410e+00
      - 2.2545461713922852e+00
      - -1.1877404913767089e+00
      - 2.3120160097125360e+00
      - -1.3170393582359994e+00
      - 2.3379703538825818e+00
      - -1.4174593415209606e+00
      - 2.3216205884068426e+00
      - -1.4064552018930219e+00
      - 2.2475860542449526e+00
      - -1.2680733663161892e+00
      - 2.2796396755677071e+00
      - -1.0687363461933550e+00
      - 2.5427018600106934e+00
      - -8.4554375353974986e-01
      - 2.4924591952541912e+00
      - -5.9107072614785916e-01
      - 2.1824949555246613e+00
      - -7.8539940226255156e-01
      - 2.3170129431724820e+00
      - -1.0291649484053216e+00
      - 2.2138028051143408e+00
      - -1.2523270875877128e+00
      - 2.2569218722078705e+00
      - -1.4506919036298072e+00
      - 2.3639733650498078e+00
      - -1.5794772231636753e+00
      - 2.3498395900414017e+00
      - -1.4826756723011325e+00
      - 2.2688161187048648e+00
      - -1.2914827548023615e+00
      - 2.2114784391790514e+00
      - -1.1519339049242130e+00
      - 2.2216129564471738e+00
      - -1.0523067928138452e+00
      - 2.1966862317279912e+00
      - -9.4880011537526809e-01
      - 2.2363948118317718e+00
      - -8.9296128191832813e-01
      - 2.2948603325550301e+00
      - -8.4034332906785614e-01
      - 2.3452722640272996e+00
      - -7.8032610165470706e-01
      - 2.3398296020657954e+00
      - -7.4680853688220117e-01
      - 2.2837419655755751e+00
      - -7.5828445227860042e-01
      - 2.2552159954540407e+00
      - -7.9439611392741605e-01
      - 2.2890006641144054e+00
      - -8.7016439305193349e-01
      - 2.3020877121694534e+00
      - -9.2517669133007097e-01
      - 2.2324808825131677e+00
      - -9.7485643370465547e-01
      - 2.2388660873579980e+00
      - -1.0500878694502251e+00
      - 2.2217618534681645e+00
      - -1.1117948638530317e+00
      - 2.2777958204678361e+00
      - -1.2066584065552930e+00
      - 2.2966373136789420e+00
      - -1.2990447365883560e+00
      - 2.2855656090320955e+00
      - -1.3149251107639417e+00
      - 2.2063427606481159e+00
      - -1.2073747456281783e+00
      - 2.2418205370541955e+00
      - -1.0453195708444192e+00
      - 2.4890107912926926e+00
      - -8.4162371454012419e-01
      - 2.4523703112360686e+00
      - -6.0555811610082311e-01
      - 2.1418960320881006e+00
      - -7.9291877665400290e-01
      - 2.2665420115180028e+00
      - -1.0223704692993631e+00
      - 2.1901706206307971e+00
      - -1.2269579359359095e+00
      - 2.2505542803843337e+00
      - -1.4098002588651115e+00
      - 2.3489814433340617e+00
      - -1.5278635729147090e+00
      - 2.3439472015006633e+00
      - -1.4381053142796540e+00
      - 2.2731273732624775e+00
      - -1.2729266286597734e+00
      - 2.2374973026592739e+00
      - -1.1565949627729915e+00
      - 2.2446940188586040e+00
      - -1.0629351225644346e+00
      - 2.2069886599644173e+00
      - -9.4252529356551229e-01
      - 2.2375247125029580e+00
      - -8.7122398916119659e-01
      - 2.3306136698961408e+00
      - -8.1499540693022487e-01
      - 2.3350715013171763e+00
      - -7.4169723865407877e-01
      - 2.3263855051958546e+00
      - -7.3038519779213518e-01
      - 2.2892092317360575e+00
      - -7.5424330725566446e-01
      - 2.2704642036019185e+00
      - -7.9666619871489464e-01
      - 2.2906178651071989e+00
      - -8.6706002526105541e-01
      - 2.2945622567596997e+00
      - -9.2386536810541453e-01
      - 2.2270151255632933e+00
      - -9.7837222261514678e-01
      - 2.2330741348974912e+00
      - -1.0631970239320103e+00
      - 2.2224369308723855e+00
      - -1.1210215790894953e+00
      - 2.2744616854892814e+00
      - -1.1686541300841087e+00
      - 2.2893823690958057e+00
      - -1.2163802268126438e+00
      - 2.2619038269939424e+00
      - -1.2333370357733340e+00
      - 2.1978532012347469e+00
      - -1.1359898657353749e+00
      - 2.2378332718438267e+00
      - -1.0046392038723460e+00
      - 2.4581489961239611e+00
      - -8.2829000273605491e-01
      - 2.4252732857078181e+00
      - -6.1371214171179345e-01
      - 2.1290639536273410e+00
      - -7.8969933276856352e-01
      - 2.2345672338417870e+00
      - -9.8800280535766216e-01
      - 2.1532171357951024e+00
      - -1.1575372573564140e+00
      - 2.1987163444735480e+00
      - -1.3174954921288970e+00
      - 2.2887158357147501e+00
      - -1.4305166013551711e+00
      - 2.2793452640880849e+00
      - -1.3514739395299247e+00
      - 2.2258608297768689e+00
      - -1.2091715217591101e+00
      - 2.2076632183234897e+00
      - -1.1225758976556439e+00
      - 2.1973404455035692e+00
      - -1.0367766931014859e+00
      - 2.1913582377434331e+00
      - -9.3882910950508580e-01
      - 2.2413704167286364e+00
      - -8.6319898749910484e-01
      - 2.2813722679372943e+00
      - -8.0501363279028781e-01
      - 2.2931155863451909e+00
      - -7.5719686076807391e-01
      - 2.3020439509828172e+00
      - -7.6619782297645977e-01
      - 2.2792959230046663e+00
      - -8.0200772059348147e-01
      - 2.2573243076468548e+00
      - -8.3484104551235327e-01
      - 2.2517665104291664e+00
      - -8.9711970297623722e-01
      - 2.2350420684545962e+00
      - -9.4633726244313765e-01
      - 2.1981197516538096e+00
      - -1.0101845066338855e+00
      - 2.2083724698683471e+00
      - -1.0850870102650683e+00
      - 2.2265967612925972e+00
      - -1.1289614278695672e+00
      - 2.2677934019178458e+00
      - -1.1489544131666325e+00
      - 2.2852959417624339e+00
      - -1.1617341583979941e+00
      - 2.2405948584332207e+00
      - -1.1464180150140040e+00
      - 2.1773231538968036e+00
      - -1.0356155020932374e+00
      - 2.1953702995314930e+00
      - -9.0271060824342675e-01
      - 2.3800505969174597e+00
      - -7.7002856495624394e-01
      - 2.3642697358877203e+00
      - -6.0285210941363143e-01
      - 2.1245398727596037e+00
      - -7.9070015363869028e-01
      - 2.2107326947409072e+00
      - -9.4961305341024027e-01
      - 2.1534237790245254e+00
      - -1.1070746073330615e+00
      - 2.1811402728163820e+00
      - -1.2629320709436711e+00
      - 2.2829236560331019e+00
      - -1.3604014075698780e+00
      - 2.2575810844729554e+00
      - -1.2727982816509180e+00
      - 2.2129030726339844e+00
      - -1.1670011350423746e+00
      - 2.1856026960218484e+00
      - -1.1088024129368137e+00
      - 2.1909139071494295e+00
      - -1.0395316558988874e+00
      - 2.2200917532513089e+00
      - -9.6417301772323172e-01
      - 2.2648777178930120e+00
      - -8.9342375029266796e-01
      - 2.2731357459630739e+00
      - -8.4441726692381958e-01
      - 2.2901231374622606e+00
      - -8.2705509936501509e-01
      - 2.2711659387886916e+00
      - -8.4075349232015451e-01
      - 2.2347172536778528e+00
      - -8.7303012741121833e-01
      - 2.2248047471623349e+00
      - -9.0068762587220019e-01
      - 2.2351081565407993e+00
      - -9.4090312514314878e-01
      - 2.2595689718874294e+00
      - -1.0143652906179372e+00
      - 2.2224037313189111e+00
      - -1.0715522081474713e+00
      - 2.2210643105903460e+00
      - -1.1086935439389851e+00
      - 2.2283695513365709e+00
      - -1.1345275875155096e+00
      - 2.2281278740504398e+00
      - -1.1381291368277924e+00
      - 2.2622461481954854e+00
      - -1.1458689803253355e+00
      - 2.2537137105701075e+00
      - -1.1057780982912688e+00
      - 2.1933769736839634e+00
      - -9.8267190854531583e-01
      - 2.2099351218722219e+00
      - -8.5176271897484390e-01
      - 2.3843570206373998e+00
      - -7.4320431720206759e-01
      - 2.3645945489560081e+00
      - -6.0893585652491844e-01
      - 2.1154273031572739e+00
      - -7.9955343873035911e-01
      - 2.1809203124405605e+00
      - -9.2109300522759674e-01
      - 2.1382396753974984e+00
      - -1.0628507442934196e+00
      - 2.1565496997757219e+00
      - -1.2100242331050104e+00
      - 2.2583478789183480e+00
      - -1.2912262951080038e+00
      - 2.2518239351459131e+00
      - -1.2526589280718259e+00
      - 2.2111332785199158e+00
      - -1.1823618640897591e+00
      - 2.1819368653962439e+00
      - -1.1066676746134190e+00
      - 2.1872185518876250e+00
      - -1.0397344406033122e+00
      - 2.2287107785195968e+00
      - -9.8696323162159572e-01
      - 2.2919693094412992e+00
      - -9.5768733254500271e-01
      - 2.2788042989338160e+00
      - -9.4741055627045012e-01
      - 2.2631913324480921e+00
      - -9.5997885053050858e-01
      - 2.2325468800621082e+00
      - -9.7857581080022493e-01
      - 2.2208611020521265e+00
      - -1.0124492715290112e+00
      - 2.2048006379283840e+00
      - -1.0272327358842104e+00
      - 2.2285709891137437e+00
      - -1.0469015940929771e+00
      - 2.2609406660958506e+00
      - -1.0955021788709747e+00
      - 2.2635428835825993e+00
      - -1.1415039101811870e+00
      - 2.2605812966569028e+00
      - -1.1547757817707207e+00
      - 2.2291196604638781e+00
      - -1.1592919790608838e+00
      - 2.2278335766912734e+00
      - -1.1636669847436698e+00
      - 2.2582650371104505e+00
      - -1.1503174542924424e+00
      - 2.2681385330226647e+00
      - -1.0981960914215840e+00
      - 2.2006481336271313e+00
      - -9.6655075015253222e-01
      - 2.2305412888969118e+00
      - -8.3342607340496311e-01
      - 2.3708753116381942e+00
      - -7.2528931651300721e-01
      - 2.3467258921162535e+00
      - -6.1610731724060142e-01
      - 2.1147284390754240e+00
      - -8.1119990402476083e-01
      - 2.1725933016658274e+00
      - -9.2082709664217510e-01
      - 2.1328224261884547e+00
      - -1.0487758548032784e+00
      - 2.1471034588497049e+00
      - -1.1794076589392843e+00
      - 2.2477682355133157e+00
      - -1.2577738468319675e+00
      - 2.2465194393995294e+00
      - -1.2628309523765824e+00
      - 2.2321565703775348e+00
      - -1.2269500098220643e+00
      - 2.2082171317566717e+00
      - -1.1363796466580949e+00
      - 2.2192247220662602e+00
      - -1.0743651575760345e+00
      - 2.2544645263705259e+00
      - -1.0445606491118049e+00
      - 2.2901370084780446e+00
      - -1.0248427397773545e+00
      - 2.2357095498298318e+00
      - -1.0242514868572468e+00
      - 2.2059279551487148e+00
      - -1.0466483762145653e+00
      - 2.1783147543660211e+00
      - -1.0709786408445230e+00
      - 2.1808328402858375e+00
      - -1.1109084373400349e+00
      - 2.1819676421359517e+00
      - -1.1404328382190967e+00
      - 2.2107763482113656e+00
      - -1.1457921612800404e+00
      - 2.2573901862380406e+00
      - -1.1683537814731411e+00
      - 2.2616050713907661e+00
      - -1.1871347024070864e+00
      - 2.2208242464245562e+00
      - -1.1709781371157297e+00
      - 2.1875900575217870e+00
      - -1.1730053572615253e+00
      - 2.2010402557367907e+00
      - -1.1730700625308981e+00
      - 2.2278610459628121e+00
      - -1.1342245103539854e+00
      - 2.2410968504550319e+00
      - -1.0765207834982180e+00
      - 2.2120995423674774e+00
      - -9.6329602874040765e-01
      - 2.2406122487426026e+00
      - -8.2349292258906015e-01
      - 2.3622964323044275e+00
      - -7.2023028809574419e-01
      - 2.3243541558217506e+00
      - -6.2001067686233713e-01
      - 2.0986269269203985e+00
      - -7.9948536720798902e-01
      - 2.1645063322338474e+00
      - -9.0726762341422273e-01
      - 2.1283195888945117e+00
      - -1.0368837112148002e+00
      - 2.1419814575880065e+00
      - -1.1618497277424844e+00
      - 2.2331406397901232e+00
      - -1.2402413147301850e+00
      - 2.2141098007440667e+00
      - -1.2441763278259839e+00
      - 2.2177254733833514e+00
      - -1.2373068258313940e+00
      - 2.1825228038838849e+00
      - -1.1453612921041412e+00
      - 2.1819549862492682e+00
      - -1.0932360338037916e+00
      - 2.2157741194293821e+00
      - -1.0887096476142444e+00
      - 2.2322988310183565e+00
      - -1.0570013373396281e+00
      - 2.2140088302949978e+00
      - -1.0626576930627338e+00
      - 2.1800525886409052e+00
      - -1.0877781343443720e+00
      - 2.1304604893789576e+00
      - -1.1044825795144351e+00
      - 2.1227761944040706e+00
      - -1.1314547335816316e+00
      - 2.1534380932033930e+00
      - -1.1676562436035909e+00
      - 2.1917256687533495e+00
      - -1.1731099198459809e+00
      - 2.2475150351789699e+00
      - -1.1870514392291616e+00
      - 2.2354986685125966e+00
      - -1.1818418044678447e+00
      - 2.1765673546711994e+00
      - -1.1530049509567954e+00
      - 2.1686176182271604e+00
      - -1.1614628671599148e+00
      - 2.2049341318582476e+00
      - -1.1674676151304320e+00
      - 2.2323911506318992e+00
      - -1.1218495906862644e+00
      - 2.2339756579972638e+00
      - -1.0642264939432338e+00
      - 2.2000024877774269e+00
      - -9.5538081034860667e-01
      - 2.2216939284039960e+00
      - -8.2159398397406536e-01
      - 2.3522274599402868e+00
      - -7.2209163088930439e-01
      - 2.3214719765052285e+00
      - -6.2313289446145537e-01
      - 2.1001623002767396e+00
      - -7.9434677583145219e-01
      - 2.1681829759446507e+00
      - -9.0260161984971699e-01
      - 2.1231633983045670e+00
      - -1.0268374304458519e+00
      - 2.1434006253147211e+00
      - -1.1563764090139754e+00
      - 2.2254666022651359e+00
      - -1.2393207478253543e+00
      - 2.1956799552656987e+00
      - -1.2336121430602405e+00
      - 2.2124794322183146e+00
      - -1.2149932621212456e+00
      - 2.1883096916072331e+00
      - -1.1091943755027112e+00
      - 2.2088512917930436e+00
      - -1.0580823920699094e+00
      - 2.2312418426295393e+00
      - -1.0348571666042277e+00
      - 2.2509707284913301e+00
      - -1.0036163033062493e+00
      - 2.2148402847349438e+00
      - -1.0019653420294159e+00
      - 2.1764781347712381e+00
      - -1.0320180989964565e+00
      - 2.1265383381923373e+00
      - -1.0455075565401191e+00
      - 2.1215755927019311e+00
      - -1.0661394211250848e+00
      - 2.1630812627530558e+00
      - -1.1118139602560830e+00
      - 2.2082788830031670e+00
      - -1.1368620838582779e+00
      - 2.2381546135980157e+00
      - -1.1524345150152833e+00
      - 2.2304560998396576e+00
      - -1.1435277463843110e+00
      - 2.1894483319326419e+00
      - -1.1114817317223689e+00
      - 2.1748481115930174e+00
      - -1.1012246176393510e+00
      - 2.2000046735469989e+00
      - -1.1220565913843823e+00
      - 2.2264691185451060e+00
      - -1.1091068237900206e+00
      - 2.2179219938676376e+00
      - -1.0655957946539862e+00
      - 2.1823964728819960e+00
      - -9.6682196887781047e-01
      - 2.2035234940158359e+00
      - -8.4354571402194212e-01
      - 2.3179957900264263e+00
      - -7.4085854402764795e-01
      - 2.2858811770995420e+00
      - -6.3729311976757885e-01
      - 2.1084584054578581e+00
      - -8.0826734702839875e-01
      - 2.1591632122077251e+00
      - -9.0091868065377112e-01
      - 2.1285184341913994e+00
      - -1.0217637519634923e+00
      - 2.1559127716499584e+00
      - -1.1599352879442475e+00
      - 2.2283315448117920e+00
      - -1.2400323482275903e+00
      - 2.2191036830357715e+00
      - -1.2144317160265057e+00
      - 2.2527192564737870e+00
      - -1.1616546295689354e+00
      - 2.2125571041662724e+00
      - -1.0507887734820180e+00
      - 2.2246838421473507e+00
      - -1.0102127039635000e+00
      - 2.2439981103668645e+00
      - -9.9378906687735424e-01
      - 2.2828044391465907e+00
      - -9.8104440737936827e-01
      - 2.2324111931471302e+00
      - -9.6316944622061296e-01
      - 2.2100317029615071e+00
      - -9.7585382013111766e-01
      - 2.1877443930457603e+00
      - -1.0054919006721330e+00
      - 2.1813219645970250e+00
      - -1.0309267000142810e+00
      - 2.1911411367883309e+00
      - -1.0581635598691299e+00
      - 2.2252826051639931e+00
      - -1.0855632460762605e+00
      - 2.2679575014385636e+00
      - -1.1235425236665006e+00
      - 2.2543934368917409e+00
      - -1.1150461060442172e+00
      - 2.2241904734240299e+00
      - -1.0573965191402834e+00
      - 2.2205497024900289e+00
      - -1.0422953501981591e+00
      - 2.2272372703991454e+00
      - -1.0635384082488355e+00
      - 2.2327641800720381e+00
      - -1.0803442138091508e+00
      - 2.2098372449006214e+00
      - -1.0729843993924562e+00
      - 2.1756707930928521e+00
      - -9.9306293519827848e-01
      - 2.1991549802099697e+00
      - -8.8420620946896644e-01
      - 2.3066347367258513e+00
      - -7.7495343613640788e-01
      - 2.2863103183503344e+00
      - -6.6865307964620191e-01
      - 2.1231411133446860e+00
      - -8.1383748903506681e-01
      - 2.1717280219013153e+00
      - -9.1376796719064490e-01
      - 2.1252716348872114e+00
      - -1.0240977348543421e+00
      - 2.1496991185999272e+00
      - -1.1577597604482908e+00
      - 2.2394794051004721e+00
      - -1.2508233741893264e+00
      - 2.2356076693697280e+00
      - -1.2092618976954128e+00
      - 2.2337831401100514e+00
      - -1.1209857519061415e+00
      - 2.1967383673332179e+00
      - -1.0156895416912501e+00
      - 2.2197756343313015e+00
      - -9.7549282026016881e-01
      - 2.2186469611337074e+00
      - -9.4055928524493271e-01
      - 2.2536010969389411e+00
      - -9.0551759573199175e-01
      - 2.2436742784753809e+00
      - -8.8645481728226494e-01
      - 2.2386813076284278e+00
      - -8.9190502739578026e-01
      - 2.2074855646353289e+00
      - -9.1223955744287899e-01
      - 2.1966645748768787e+00
      - -9.3761877869966870e-01
      - 2.1994221943170924e+00
      - -9.7398039817198012e-01
      - 2.2361218799001263e+00
      - -1.0133552676598685e+00
      - 2.2525852446778063e+00
      - -1.0436466906926225e+00
      - 2.2453991888450844e+00
      - -1.0521853342735821e+00
      - 2.2655813534439431e+00
      - -1.0128220655018607e+00
      - 2.2761591187965480e+00
      - -9.9525883942843241e-01
      - 2.2563670448158075e+00
      - -1.0077573558177666e+00
      - 2.2255898899466611e+00
      - -1.0465832576847247e+00
      - 2.1940550916526544e+00
      - -1.0691069277763461e+00
      - 2.1386353049504159e+00
      - -1.0041810595580192e+00
      - 2.1616001563977378e+00
      - -9.1856288682339171e-01
      - 2.2851892051084621e+00
      - -8.2120767695251651e-01
      - 2.2674610595617839e+00
      - -7.0398563416792170e-01
      - 2.1316892052336662e+00
      - -7.8318083145848150e-01
      - 2.1922194699069562e+00
      - -9.0994324107128510e-01
      - 2.1240265010578168e+00
      - -1.0395194922231681e+00
      - 2.1558620325786029e+00
      - -1.1837746625253851e+00
      - 2.2485402889520301e+00
      - -1.2896852835816450e+00
      - 2.2491718993964667e+00
      - -1.2391892035222649e+00
      - 2.2332103371129457e+00
      - -1.1279916102826404e+00
      - 2.2100068710542220e+00
      - -1.0339648414087812e+00
      - 2.2278894035878234e+00
      - -9.8575716572900729e-01
      - 2.2142817844338145e+00
      - -9.3095028772302824e-01
      - 2.2388431358509853e+00
      - -8.9081795878376069e-01
      - 2.2341048637760950e+00
      - -8.6507445995311238e-01
      - 2.2489839308080519e+00
      - -8.5284280744961960e-01
      - 2.2329806822006484e+00
      - -8.4726558051182543e-01
      - 2.2232824117317573e+00
      - -8.6830831790146690e-01
      - 2.2050743967692696e+00
      - -9.0834988329688948e-01
      - 2.2184124920951889e+00
      - -9.4716699749779354e-01
      - 2.2411540559600107e+00
      - -9.8325035259438476e-01
      - 2.2349658585708059e+00
      - -9.9471745997240579e-01
      - 2.2507773350826885e+00
      - -9.8835354554910215e-01
      - 2.2126565678028047e+00
      - -9.6167719382811168e-01
      - 2.2212244913832477e+00
      - -9.8504057083150987e-01
      - 2.2166785747731619e+00
      - -1.0386886722015809e+00
      - 2.1946163986166929e+00
      - -1.0812411797873840e+00
      - 2.1271596609768157e+00
      - -1.0226396913861575e+00
      - 2.1400724527403847e+00
      - -9.4301329052491867e-01
      - 2.2476795171686477e+00
      - -8.3700989555602845e-01
      - 2.2195019345899571e+00
      - -7.0580772506403500e-01
      - 2.1520576969956791e+00
      - -7.5798029049619020e-01
      - 2.2315861541240745e+00
      - -9.2430482479617493e-01
      - 2.1445666657510083e+00
      - -1.0777066716244812e+00
      - 2.1743905913031916e+00
      - -1.2363917635903681e+00
      - 2.2692913748125405e+00
      - -1.3661405782031359e+00
      - 2.2973117879586256e+00
      - -1.3238844524956945e+00
      - 2.2550479995687915e+00
      - -1.2008341803493454e+00
      - 2.2029779267449285e+00
      - -1.1075701944140421e+00
      - 2.2096255961159925e+00
      - -1.0319488165447890e+00
      - 2.2003060469470581e+00
      - -9.4984137387200929e-01
      - 2.2153746639845124e+00
      - -8.9665737408109880e-01
      - 2.2122650716955552e+00
      - -8.5930255980541004e-01
      - 2.2247897434846280e+00
      - -8.2415641413423990e-01
      - 2.2337831548757787e+00
      - -8.0056794714603241e-01
      - 2.2228683487656489e+00
      - -8.0971907649289809e-01
      - 2.2286269718785756e+00
      - -8.5443890251585530e-01
      - 2.2460107358773742e+00
      - -9.0786453114576260e-01
      - 2.2704677225225005e+00
      - -9.6103759619595874e-01
      - 2.2333987696217572e+00
      - -9.8494723701821529e-01
      - 2.2053645840267970e+00
      - -9.8812581353133022e-01
      - 2.1744179950860278e+00
      - -9.7868494515125448e-01
      - 2.2101256416263957e+00
      - -1.0126070084469458e+00
      - 2.2019064055746522e+00
      - -1.0633807215996893e+00
      - 2.1886275328157749e+00
      - -1.1087366190369514e+00
      - 2.1309147726235254e+00
      - -1.0506719331769414e+00
      - 2.1400842328825753e+00
      - -9.5950773373068110e-01
      - 2.2374396351035535e+00
      - -8.4662003080134673e-01
      - 2.1914779898218866e+00
      - -7.1027636462445187e-01
      - 2.1605845450928074e+00
      - -7.6353232477345023e-01
      - 2.2537028661286831e+00
      - -9.4778648943802413e-01
      - 2.1714396024384417e+00
      - -1.1154224823152223e+00
      - 2.2103332243015141e+00
      - -1.2841892668539974e+00
      - 2.3143245935988386e+00
      - -1.4297467215821218e+00
      - 2.3493178099255543e+00
      - -1.3987785728143776e+00
      - 2.2530115985285586e+00
      - -1.2510336634839472e+00
      - 2.1959174428284354e+00
      - -1.1574296611233847e+00
      - 2.2113200499843577e+00
      - -1.0857232921459736e+00
      - 2.2000561650604924e+00
      - -9.9497036978296927e-01
      - 2.2208315238501553e+00
      - -9.3176752625217762e-01
      - 2.2773738471221874e+00
      - -8.7726280901885567e-01
      - 2.2810695885166794e+00
      - -8.2159950178925378e-01
      - 2.2876538984424273e+00
      - -8.0613257317182796e-01
      - 2.2883905028102611e+00
      - -8.0870227122564420e-01
      - 2.2775233990780985e+00
      - -8.3804965685420396e-01
      - 2.2842099951719077e+00
      - -8.9506430573055928e-01
      - 2.2807924794672028e+00
      - -9.6475269626935600e-01
      - 2.2119073408894936e+00
      - -9.9542553579103488e-01
      - 2.1745244322625523e+00
      - -1.0028868173848442e+00
      - 2.1613829827840312e+00
      - -1.0211105376704628e+00
      - 2.2238133139710925e+00
      - -1.0840284520771586e+00
      - 2.2489921041003038e+00
      - -1.1470341907046497e+00
      - 2.2149525987365299e+00
      - -1.1659947676870817e+00
      - 2.1405144791122974e+00
      - -1.0861760590456702e+00
      - 2.1529413859534015e+00
      - -9.8354776698594670e-01
      - 2.2600303827708412e+00
      - -8.6506616637891942e-01
      - 2.2150215384974326e+00
      - -7.2326337992775880e-01
      - 2.1880407354979967e+00
      - -7.5940404694231689e-01
      - 2.2878929161207382e+00
      - -9.5496679895758829e-01
      - 2.1919334783679036e+00
      - -1.1356281133195674e+00
      - 2.2231654049035585e+00
      - -1.3157686186671920e+00
      - 2.3569842439793005e+00
      - -1.4756713477471373e+00
      - 2.3738757387383620e+00
      - -1.4323196387547503e+00
      - 2.2740027728890793e+00
      - -1.2735463176670703e+00
      - 2.1901092682589289e+00
      - -1.1619215331635013e+00
      - 2.1780849596810690e+00
      - -1.0877661502004505e+00
      - 2.1774809324369637e+00
      - -1.0186610263501401e+00
      - 2.2198762013250017e+00
      - -9.6542000922241600e-01
      - 2.2470470435214187e+00
      - -9.0706009364222584e-01
      - 2.2379023794396455e+00
      - -8.5309730710318510e-01
      - 2.2246953496081789e+00
      - -8.2212040526849262e-01
      - 2.2245700449646999e+00
      - -8.2154042551377193e-01
      - 2.2302247427443511e+00
      - -8.6430823030200155e-01
      - 2.2684482291915327e+00
      - -9.4760086291917556e-01
      - 2.2733605699433341e+00
      - -1.0035131381493674e+00
      - 2.2128060877738918e+00
      - -1.0195046155799337e+00
      - 2.1800691006850195e+00
      - -1.0315702514449412e+00
      - 2.1626576713522079e+00
      - -1.0548564776159419e+00
      - 2.2398381261895093e+00
      - -1.1497119474723239e+00
      - 2.2466208511958055e+00
      - -1.2096396749487270e+00
      - 2.2034872468002211e+00
      - -1.2060024293013101e+00
      - 2.1458430113942724e+00
      - -1.1151314055934509e+00
      - 2.1809960037452383e+00
      - -9.9519917557125981e-01
      - 2.3255855438421613e+00
      - -8.5666470691044205e-01
      - 2.2877694429093980e+00
      - -6.9535078453009880e-01
      - 2.2160192617088947e+00
      - -7.5066368507826209e-01
      - 2.3152114379704476e+00
      - -9.4810883467817997e-01
      - 2.2035199483108352e+00
      - -1.1446744666388977e+00
      - 2.2154302932018344e+00
      - -1.3318362369821433e+00
      - 2.3556410476652987e+00
      - -1.4886268283730817e+00
      - 2.3718489407479035e+00
      - -1.4508405200616590e+00
      - 2.2875032296409099e+00
      - -1.2886304990550153e+00
      - 2.2025727171189673e+00
      - -1.1525479931098959e+00
      - 2.2116193522103291e+00
      - -1.0900751719156574e+00
      - 2.1887881121675021e+00
      - -1.0181565034393139e+00
      - 2.2061995865906723e+00
      - -9.8139928053463521e-01
      - 2.2288034095252987e+00
      - -9.4993523595661011e-01
      - 2.2166722328590129e+00
      - -9.3741916748175824e-01
      - 2.2123320023686368e+00
      - -9.2082208649319541e-01
      - 2.2199810517029803e+00
      - -9.3015240547669353e-01
      - 2.2307510431301116e+00
      - -9.6918046662593427e-01
      - 2.2574691285671142e+00
      - -1.0032036215969111e+00
      - 2.2723989334399133e+00
      - -1.0274342707402755e+00
      - 2.2427358935592032e+00
      - -1.0469587497888977e+00
      - 2.2270047540740765e+00
      - -1.0689138600993882e+00
      - 2.2044653408419328e+00
      - -1.1151930802178736e+00
      - 2.2362958402858610e+00
      - -1.2057485333171611e+00
      - 2.2370101075104221e+00
      - -1.2592514601081595e+00
      - 2.2268241657920322e+00
      - -1.2541572485820522e+00
      - 2.1904606825938022e+00
      - -1.1619580301710053e+00
      - 2.2395188494979665e+00
      - -1.0067426487532161e+00
      - 2.4014182264831234e+00
      - -8.3276358895611380e-01
      - 2.3691574681875140e+00
      - -6.5270467085732109e-01
      - 2.2191572533244477e+00
      - -7.2193914435475159e-01
      - 2.3113405401700367e+00
      - -9.1250303823528733e-01
      - 2.2067382586810202e+00
      - -1.1191550578923868e+00
      - 2.2077999409949913e+00
      - -1.3067678684841959e+00
      - 2.2833198377323258e+00
      - -1.4419892084411963e+00
      - 2.3111261842817412e+00
      - -1.4387354000212478e+00
      - 2.2730428961492888e+00
      - -1.3178108751116508e+00
      - 2.2338339657799966e+00
      - -1.1978875009121677e+00
      - 2.2534176157160899e+00
      - -1.1194662932807384e+00
      - 2.2198757326480814e+00
      - -1.0295528630942046e+00
      - 2.2163464325181392e+00
      - -9.9007726578972743e-01
      - 2.1953742187354819e+00
      - -9.6515991968341774e-01
      - 2.1749634261123290e+00
      - -9.7232408276153870e-01
      - 2.1636321666390761e+00
      - -9.6790480452722083e-01
      - 2.1723066479327913e+00
      - -9.7243572906179065e-01
      - 2.1964229886059150e+00
      - -9.9036245600883388e-01
      - 2.2324872816574621e+00
      - -1.0015179645799634e+00
      - 2.2499780579464521e+00
      - -1.0237699008649002e+00
      - 2.2396442696272287e+00
      - -1.0529774099288929e+00
      - 2.2342494342629293e+00
      - -1.1000957585862119e+00
      - 2.2118011787309428e+00
      - -1.1743367666924791e+00
      - 2.2014368396110502e+00
      - -1.2304851248181552e+00
      - 2.2144083268436994e+00
      - -1.2673671853250870e+00
      - 2.2134378909783252e+00
      - -1.2503676383537725e+00
      - 2.2136557860066515e+00
      - -1.1548212579812547e+00
      - 2.2761927153360189e+00
      - -9.7012714909203623e-01
      - 2.4721841160122202e+00
      - -7.9007093652069726e-01
      - 2.4413708653863488e+00
      - -6.1369206782034003e-01
      - 2.2441928207517301e+00
      - -6.9349384804389758e-01
      - 2.3503879249955295e+00
      - -8.9796353326747069e-01
      - 2.2075676808827800e+00
      - -1.0916539944362269e+00
      - 2.1845354684128342e+00
      - -1.2375135404599724e+00
      - 2.2621067498077561e+00
      - -1.3777469811783831e+00
      - 2.2801287415231348e+00
      - -1.3912249925181974e+00
      - 2.2381283613149368e+00
      - -1.3155724925888614e+00
      - 2.2277708165254904e+00
      - -1.2374956095195047e+00
      - 2.2559553835333883e+00
      - -1.1513866017075181e+00
      - 2.2121826969444656e+00
      - -1.0442566765143668e+00
      - 2.2205251860243105e+00
      - -1.0092036064918606e+00
      - 2.2010437771270670e+00
      - -9.9211787713501498e-01
      - 2.1770281107153715e+00
      - -9.9753612106787981e-01
      - 2.1547019296687084e+00
      - -9.9251514920290240e-01
      - 2.1682531447339817e+00
      - -9.9223643196326405e-01
      - 2.1861726169254934e+00
      - -9.9964515611550642e-01
      - 2.2263980864686408e+00
      - -1.0100325789667377e+00
      - 2.2456814675812149e+00
      - -1.0387068930390091e+00
      - 2.2415051752355502e+00
      - -1.0739551052557974e+00
      - 2.2375098971570719e+00
      - -1.1433337296793200e+00
      - 2.2112152449227973e+00
      - -1.2165793481762970e+00
      - 2.2030163721430731e+00
      - -1.2617802419779927e+00
      - 2.2150993886530213e+00
      - -1.2650986036916887e+00
      - 2.2286324287140755e+00
      - -1.2011703882801261e+00
      - 2.2332671413422269e+00
      - -1.0665234862007151e+00
      - 2.3215104740862103e+00
      - -8.8762450025930340e-01
      - 2.6533355403899379e+00
      - -7.1914111374400336e-01
      - 2.6522381338171259e+00
      - -5.3295709189036522e-01
      - 2.3324547858748086e+00
      - -6.7449970343082810e-01
      - 2.3953065027069709e+00
      - -8.3904915348100761e-01
      - 2.2285519362564434e+00
      - -9.9032165409683215e-01
      - 2.2111954266324041e+00
      - -1.1452398259309338e+00
      - 2.2695647074698133e+00
      - -1.2557401689867693e+00
      - 2.2808285521461675e+00
      - -1.2919705189670994e+00
      - 2.2448794007763957e+00
      - -1.2670618601250048e+00
      - 2.2523659930664888e+00
      - -1.2351277097030708e+00
      - 2.2779835399366584e+00
      - -1.2009665324549574e+00
      - 2.3046469100349691e+00
      - -1.1736147223061926e+00
      - 2.3224523088612430e+00
      - -1.1519090304687702e+00
      - 2.2657436222148428e+00
      - -1.1026430730950731e+00
      - 2.2405837419132704e+00
      - -1.1002948433520581e+00
      - 2.2094505585266244e+00
      - -1.0926175944827359e+00
      - 2.2220185282156204e+00
      - -1.0923421370711957e+00
      - 2.2554779542150896e+00
      - -1.1117270743446199e+00
      - 2.3115058894714422e+00
      - -1.1340715589222314e+00
      - 2.3199395365291191e+00
      - -1.1464952493591525e+00
      - 2.2727257569752872e+00
      - -1.1530701249220789e+00
      - 2.2428371377387997e+00
      - -1.1764768989007721e+00
      - 2.2304698847935986e+00
      - -1.2149743495703131e+00
      - 2.2569204702554750e+00
      - -1.2349498316401317e+00
      - 2.2662381258542195e+00
      - -1.1918239575630420e+00
      - 2.3002597905266917e+00
      - -1.0915753140300086e+00
      - 2.3227772555764599e+00
      - -9.6060285977404092e-01
      - 2.3979030008612692e+00
      - -8.0348429289678525e-01
      - 2.7295653285308221e+00
      - -6.7604131171380999e-01
      - 2.7959426414060449e+00
      - -5.2104180162491709e-01
      - 2.3825469512775213e+00
      - -6.4238917314627186e-01
      - 2.3973613363983532e+00
      - -7.5167321358267347e-01
      - 2.2562564254053905e+00
      - -8.5374585332354902e-01
      - 2.2454005680521232e+00
      - -9.8330203299241081e-01
      - 2.3267534786855202e+00
      - -1.0883502678490156e+00
      - 2.3398613605999654e+00
      - -1.1356848965825610e+00
      - 2.2874421083399228e+00
      - -1.1373481782852140e+00
      - 2.2460539168264715e+00
      - -1.1233818935377586e+00
      - 2.2225733501980769e+00
      - -1.1090657585451593e+00
      - 2.2380012249654624e+00
      - -1.1182990926923162e+00
      - 2.2895667718162573e+00
      - -1.1574268150174034e+00
      - 2.3110288207718819e+00
      - -1.1900124348741257e+00
      - 2.3174910806222413e+00
      - -1.2372510143509978e+00
      - 2.3020338574967814e+00
      - -1.2521332566958123e+00
      - 2.3005738313650022e+00
      - -1.2507136171737585e+00
      - 2.2958675879487624e+00
      - -1.2227501861182835e+00
      - 2.2836030173077759e+00
      - -1.1683519020351141e+00
      - 2.2576714198873478e+00
      - -1.1144706376657809e+00
      - 2.2191531941461164e+00
      - -1.0764728181097754e+00
      - 2.2391365611804601e+00
      - -1.0767222513133301e+00
      - 2.2958884001458943e+00
      - -1.0922327867334098e+00
      - 2.3609940364532522e+00
      - -1.0847779772840502e+00
      - 2.3988625461721584e+00
      - -1.0274924894988546e+00
      - 2.4200338309955178e+00
      - -9.3957973129304251e-01
      - 2.3436690411824701e+00
      - -8.3413869198114554e-01
      - 2.4016272440692772e+00
      - -7.3803390685787928e-01
      - 2.6489279345960317e+00
      - -6.5753030959862890e-01
      - 2.7230789843036556e+00
      - -5.5729441865796159e-01
      - 2.7807386585459200e+00
      - -5.7583697513025900e-01
      - 2.7054962744231963e+00
      - -6.7606169000788707e-01
      - 2.4303926037241044e+00
      - -7.3961429912162924e-01
      - 2.4642336133237954e+00
      - -8.2220103745088302e-01
      - 2.5673213037900831e+00
      - -8.7516728740868133e-01
      - 2.5518000186996397e+00
      - -8.7761583163835777e-01
      - 2.5172275581441363e+00
      - -9.0021948121106254e-01
      - 2.4253145798537306e+00
      - -9.3629419400313274e-01
      - 2.3299045379584906e+00
      - -9.5005227839678807e-01
      - 2.2641894428736533e+00
      - -9.5970840782301026e-01
      - 2.2195176043557634e+00
      - -9.7103879933002069e-01
      - 2.2094112469665235e+00
      - -1.0147207065033774e+00
      - 2.1989063847130135e+00
      - -1.0635074277343350e+00
      - 2.1987517812130473e+00
      - -1.1042723445219111e+00
      - 2.2069371412007928e+00
      - -1.1088166914287485e+00
      - 2.2189554354676599e+00
      - -1.0534626579406425e+00
      - 2.2524919494572186e+00
      - -9.9328968032310905e-01
      - 2.3310560288741833e+00
      - -9.4933179243458632e-01
      - 2.4136426474980470e+00
      - -9.0384640305518726e-01
      - 2.5190178254470759e+00
      - -8.7373816108716496e-01
      - 2.5882992726092038e+00
      - -8.2026645135145093e-01
      - 2.6650068176856303e+00
      - -7.8902208313540234e-01
      - 2.6495983698975887e+00
      - -7.4595566077055464e-01
      - 2.5993566551061544e+00
      - -7.2794959569913120e-01
      - 2.4929575333103089e+00
      - -6.9813657903441206e-01
      - 2.5263917082527061e+00
      - -6.5905507384185624e-01
      - 2.7034254514193341e+00
      - -6.0600902701449000e-01
      - 2.7396637795980814e+00
      - -5.3465113942815556e-01
      - 3.1327580765679857e+00
      - -3.6490223478549483e-01
      - 3.1058924080052948e+00
      - -5.1650228039927071e-01
      - 2.5862927685337858e+00
      - -5.8599308887398716e-01
      - 2.6316103262586217e+00
      - -5.9217336077258409e-01
      - 2.6446779939872243e+00
      - -5.6258222660067769e-01
      - 2.6268316934711087e+00
      - -5.4473884285086072e-01
      - 2.6111194499743675e+00
      - -5.4603408692166344e-01
      - 2.5733404267416553e+00
      - -5.9387920668408456e-01
      - 2.4650737138068131e+00
      - -6.6036662930976819e-01
      - 2.3308654189337674e+00
      - -7.0205402057034272e-01
      - 2.2381216191289379e+00
      - -7.3661928882130445e-01
      - 2.1814046629563451e+00
      - -7.7162541753938496e-01
      - 2.1421197917626946e+00
      - -8.0705081536912260e-01
      - 2.1420271490329665e+00
      - -8.5344397294441565e-01
      - 2.1504097171249263e+00
      - -8.4368588043788684e-01
      - 2.1941055335099771e+00
      - -7.8592112943555792e-01
      - 2.2939517116966859e+00
      - -7.2134997572318038e-01
      - 2.4541126865521385e+00
      - -6.5172969503954614e-01
      - 2.6561285290620238e+00
      - -5.7567889137545802e-01
      - 2.8223158378481070e+00
      - -5.0804033037930851e-01
      - 2.9395395685748422e+00
      - -4.6720467047423059e-01
      - 2.9856908753553388e+00
      - -4.5462189226199623e-01
      - 2.9190388389024067e+00
      - -4.7063911597486979e-01
      - 2.8272295035176058e+00
      - -5.1257473972874501e-01
      - 2.6997680912624782e+00
      - -5.3113661072377072e-01
      - 2.6546398629245092e+00
      - -5.4151835316788011e-01
      - 2.8994725904325249e+00
      - -5.0031785552376040e-01
      - 2.8442144231262900e+00
      - -4.1349053409476383e-01
   output_scale:
      - 5.2631578947368418e-01
      - 4.9999999999999994e-01
      - 5.2631578947368418e-01
      - 4.9999999999999994e-01
      - 5.2631578947368418e-01
      - 4.9999999999999994e-01
      - 5.2631578947368418e-01
      - 4.9999999999999994e-01
      - 5.2631578947368418e-01
      - 4.9999999999999994e-01
      - 5.2631578947368418e-01
      - 4.9999999999999994e-01
      - 5.2631578947368418e-01
      - 4.9999999999999994e-01
      - 5.2631578947368418e-01
      - 4.9999999999999994e-01
      - 5.2631578947368418e-01
      - 4.9999999999999994e-01
      - 5.2631578947368418e-01
      - 4.9999999999999994e-01
      - 5.2631578947368418e-01
      - 4.9999999999999994e-01
      - 5.2631578947368418e-01
      - 4.9999999999999994e-01
      - 5.2631578947368418e-01
      - 4.9999999999999994e-01
      - 5.2631578947368418e-01
      - 4.9999999999999994e-01
      - 5.2631578947368418e-01
      - 4.9999999999999994e-01
      - 5.2631578947368418e-01
      - 4.9999999999999994e-01
      - 5.2631578947368418e-01
      - 4.9999999999999994e-01
      - 5.2631578947368418e-01
      - 4.9999999999999994e-01
      - 5.2631578947368418e-01
      - 4.9999999999999994e-01
      - 5.2631578947368418e-01
      - 4.9999999999999994e-01
      - 5.2631578947368418e-01
      - 4.9999999999999994e-01
      - 5.2631578947368418e-01
      - 4.9999999999999994e-01
      - 5.2631578947368418e-01
      - 4.9999999999999994e-01
      - 5.2631578947368418e-01
      - 4.9999999999999994e-01
      - 5.2631578947368418e-01
      - 4.9999999999999994e-01
      - 5.2631578947368418e-01
      - 4.9999999999999994e-01
      - 5.2631578947368418e-01
      - 4.9999999999999994e-01
      - 5.2631578947368418e-01
      - 4.9999999999999994e-01
      - 5.2631578947368418e-01
      - 4.9999999999999994e-01
      - 5.2631578947368418e-01
      - 4.9999999999999994e-01
      - 5.2631578947368418e-01
      - 4.9999999999999994e-01
      - 5.2631578947368418e-01
      - 4.9999999999999994e-01
      - 5.2631578947368418e-01
      - 4.9999999999999994e-01
      - 5.2631578947368418e-01
      - 4.9999999999999994e-01
      - 5.2631578947368418e-01
      - 4.9999999999999994e-01
      - 5.2631578947368418e-01
      - 4.9999999999999994e-01
      - 5.2631578947368418e-01
      - 4.9999999999999994e-01
      - 5.2631578947368418e-01
      - 4.9999999999999994e-01
      - 5.2631578947368418e-01
      - 4.9999999999999994e-01
      - 5.2631578947368418e-01
      - 4.9999999999999994e-01
      - 5.2631578947368418e-01
      - 4.9999999999999994e-01
      - 5.2631578947368418e-01
      - 4.9999999999999994e-01
      - 5.2631578947368418e-01
      - 4.9999999999999994e-01
      - 5.2631578947368418e-01
      - 4.9999999999999994e-01
      - 5.2631578947368418e-01
      - 4.9999999999999994e-01
      - 5.2631578947368418e-01
      - 4.9999999999999994e-01
      - 5.2631578947368418e-01
      - 4.9999999999999994e-01
      - 5.2631578947368418e-01
      - 4.9999999999999994e-01
      - 5.2631578947368418e-01
      - 4.9999999999999994e-01
      - 5.2631578947368418e-01
      - 4.9999999999999994e-01
      - 5.2631578947368418e-01
      - 4.9999999999999994e-01
      - 5.2631578947368418e-01
      - 4.9999999999999994e-01
      - 5.2631578947368418e-01
      - 4.9999999999999994e-01
      - 5.2631578947368418e-01
      - 4.9999999999999994e-01
      - 5.2631578947368418e-01
      - 4.9999999999999994e-01
      - 5.2631578947368418e-01
      - 4.9999999999999994e-01
      - 5.2631578947368418e-01
      - 4.9999999999999994e-01
      - 5.2631578947368418e-01
      - 4.9999999999999994e-01
      - 5.2631578947368418e-01
      - 4.9999999999999994e-01
      - 5.2631578947368418e-01
      - 4.9999999999999994e-01
      - 5.2631578947368418e-01
      - 4.9999999999999994e-01
      - 5.2631578947368418e-01
      - 4.9999999999999994e-01
   inv_output_scale:
      - 1.8999999999999999e+00
      - -9.4999999999999996e-01
      - 1.8999999999999999e+00
      - -9.4999999999999996e-01
      - 1.8999999999999999e+00
      - -9.4999999999999996e-01
      - 1.8999999999999999e+00
      - -9.4999999999999996e-01
      - 1.8999999999999999e+00
      - -9.4999999999999996e-01
      - 1.8999999999999999e+00
      - -9.4999999999999996e-01
      - 1.8999999999999999e+00
      - -9.4999999999999996e-01
      - 1.8999999999999999e+00
      - -9.4999999999999996e-01
      - 1.8999999999999999e+00
      - -9.4999999999999996e-01
      - 1.8999999999999999e+00
      - -9.4999999999999996e-01
      - 1.8999999999999999e+00
      - -9.4999999999999996e-01
      - 1.8999999999999999e+00
      - -9.4999999999999996e-01
      - 1.8999999999999999e+00
      - -9.4999999999999996e-01
      - 1.8999999999999999e+00
      - -9.4999999999999996e-01
      - 1.8999999999999999e+00
      - -9.4999999999999996e-01
      - 1.8999999999999999e+00
      - -9.4999999999999996e-01
      - 1.8999999999999999e+00
      - -9.4999999999999996e-01
      - 1.8999999999999999e+00
      - -9.4999999999999996e-01
      - 1.8999999999999999e+00
      - -9.4999999999999996e-01
      - 1.8999999999999999e+00
      - -9.4999999999999996e-01
      - 1.8999999999999999e+00
      - -9.4999999999999996e-01
      - 1.8999999999999999e+00
      - -9.4999999999999996e-01
      - 1.8999999999999999e+00
      - -9.4999999999999996e-01
      - 1.8999999999999999e+00
      - -9.4999999999999996e-01
      - 1.8999999999999999e+00
      - -9.4999999999999996e-01
      - 1.8999999999999999e+00
      - -9.4999999999999996e-01
      - 1.8999999999999999e+00
      - -9.4999999999999996e-01
      - 1.8999999999999999e+00
      - -9.4999999999999996e-01
      - 1.8999999999999999e+00
      - -9.4999999999999996e-01
      - 1.8999999999999999e+00
      - -9.4999999999999996e-01
      - 1.8999999999999999e+00
      - -9.4999999999999996e-01
      - 1.8999999999999999e+00
      - -9.4999999999999996e-01
      - 1.8999999999999999e+00
      - -9.4999999999999996e-01
      - 1.8999999999999999e+00
      - -9.4999999999999996e-01
      - 1.8999999999999999e+00
      - -9.4999999999999996e-01
      - 1.8999999999999999e+00
      - -9.4999999999999996e-01
      - 1.8999999999999999e+00
      - -9.4999999999999996e-01
      - 1.8999999999999999e+00
      - -9.4999999999999996e-01
      - 1.8999999999999999e+00
      - -9.4999999999999996e-01
      - 1.8999999999999999e+00
      - -9.4999999999999996e-01
      - 1.8999999999999999e+00
      - -9.4999999999999996e-01
      - 1.8999999999999999e+00
      - -9.4999999999999996e-01
      - 1.8999999999999999e+00
      - -9.4999999999999996e-01
      - 1.8999999999999999e+00
      - -9.4999999999999996e-01
      - 1.8999999999999999e+00
      - -9.4999999999999996e-01
      - 1.8999999999999999e+00
      - -9.4999999999999996e-01
      - 1.8999999999999999e+00
      - -9.4999999999999996e-01
      - 1.8999999999999999e+00
      - -9.4999999999999996e-01
      - 1.8999999999999999e+00
      - -9.4999999999999996e-01
      - 1.8999999999999999e+00
      - -9.4999999999999996e-01
      - 1.8999999999999999e+00
      - -9.4999999999999996e-01
      - 1.8999999999999999e+00
      - -9.4999999999999996e-01
      - 1.8999999999999999e+00
      - -9.4999999999999996e-01
      - 1.8999999999999999e+00
      - -9.4999999999999996e-01
      - 1.8999999999999999e+00
      - -9.4999999999999996e-01
      - 1.8999999999999999e+00
      - -9.4999999999999996e-01
      - 1.8999999999999999e+00
      - -9.4999999999999996e-01
      - 1.8999999999999999e+00
      - -9.4999999999999996e-01
      - 1.8999999999999999e+00
      - -9.4999999999999996e-01
      - 1.8999999999999999e+00
      - -9.4999999999999996e-01
      - 1.8999999999999999e+00
      - -9.4999999999999996e-01
      - 1.8999999999999999e+00
      - -9.4999999999999996e-01
   weights:
      -
         - 1.1364333513197873e-01
         - 1.5289848020627086e-01
         - 9.3255497403255491e-02
         - -2.6572868072913614e-01
         - 1.5787775311990734e-01
         - -1.2746788940064830e-02
         - -1.6595085078246287e-02
         - 1.5818484931952029e-01
         - 1.5474653310081701e-01
         - 1.1297776316776226e-02
         - 5.8655036169976492e-02
         - -9.7613375754764295e-02
         - 2.0582782546064493e-01
         - -7.4559583509268779e-02
         - 1.0934109270100970e-01
         - -6.2863928407437958e-02
         - -1.7486318827555317e-02
         - -6.4667478927076971e-02
         - -2.1429266128471189e-01
         - 1.0464854050442167e-01
         - 1.0310246966848061e-01
         - -8.4548082134664845e-02
         - 9.5236140497428498e-02
         - -5.7682510251715127e-02
         - -7.2230088210968782e-02
         - 2.6637243635107305e-02
         - -9.1115283138173218e-03
         - 6.2860027160356588e-02
         - -5.9646607798791787e-02
         - 6.3248793656823801e-02
         - -7.7649284702879546e-04
         - -4.7708299356719356e-03
         - 2.7287994216511843e-02
         - -2.0792122502150359e-01
         - -4.7492420714632291e-02
         - -1.7463546413767742e-01
         - 1.1459000466614304e-01
         - -5.4278708134746959e-02
         - 4.9269534410845206e-01
         - 7.9516772124453544e-02
         - 2.0732989506390301e-02
         - 1.8757869256465026e-02
         - -3.1950847207838452e-02
         - -1.6482189053126563e-02
         - -3.7725848333979595e-01
         - -4.8939586969714524e-02
         - -8.5434770339996982e-02
         - 1.9748673118202845e-01
         - -6.0267854049005518e-02
         - -8.3020124802439421e-02
         - 1.8604141985597811e-01
         - -5.7446434462254330e-02
         - -1.7032751353476894e-01
         - 2.3264634697708536e-01
         - 1.4782730100154169e-02
         - -1.3400924856306393e-01
         - 1.3087085847111335e-01
         - -6.7743127730203953e-02
         - -1.6241346678594490e-01
         - 1.0323399550221181e-01
         - 1.5699749467551022e-01
         - -3.4310056483561488e-02
         - 1.8586596296458915e-01
         - 1.5982089650132225e-01
         - 3.4299457603098504e-01
         - -7.8453017232925096e-02
         - -1.2785649050042746e-02
         - -2.2057140602947556e-02
         - -6.7326992524324211e-02
         - 1.4576428254287474e-01
         - 3.2579662354290335e-02
         - 6.9927277390366957e-02
         - 1.3182240344641905e-01
         - -2.9848594685832558e-01
         - -1.0410158064211061e-02
         - -1.8680757037845941e-01
         - 2.8789470635629168e-02
         - 1.8033743929713994e-01
         - -2.4012890517776095e-01
         - 7.8782636968522862e-02
         - 9.7078337128445574e-02
         - -1.1531328981634335e-01
         - 1.0132260443115404e-01
         - 8.9742049315000474e-02
         - 9.6155092030829198e-03
         - 1.5854259911534902e-02
         - -8.9090883459509482e-02
         - 7.9409966448614182e-03
         - -2.2406052473912219e-01
         - 4.2093260278483695e-02
         - -2.9392608045682445e-02
         - 3.2523706054319135e-01
         - -8.1977904652718286e-02
         - 1.0721067217440457e-02
         - -1.0826438231889167e-01
         - 5.2159359049793554e-02
         - 2.7322659416156470e-01
         - -9.8147375433611392e-02
         - 1.2446684893387264e-01
         - -1.6617480238194049e-01
         - 6.1002848051319739e-02
         - -1.4613452555442469e-01
         - -7.8481547953006811e-02
         - -1.1350299371409005e-01
         - -1.3423620680865095e-01
         - 2.3991736169740738e-02
         - 1.1866809635141146e-01
         - 1.8379034707278530e-01
         - 4.1630396472122633e-02
         - -4.6948945685902285e-02
         - 6.8838878388664038e-02
         - -4.7145221002137513e-05
         - -2.4311600368022098e-02
         - -6.7963960237767282e-02
         - 4.2250093389864546e-02
         - -9.4474460874812163e-02
         - 6.8767496398417186e-02
         - 9.7129846187196583e-02
         - 8.9171480800607508e-02
         - -1.7785846451630272e-02
         - 6.1425901383540546e-03
         - 8.8509841998121175e-02
         - -3.4507593778174105e-02
         - -1.1243356622065112e-01
         - 5.3039110241108051e-02
         - 2.0922972090589612e-01
         - -9.2562681231188895e-02
         - 1.7540952560517933e-02
         - 1.0618575737810323e-02
         - 1.5088022179608826e-01
         - 1.1905220107116914e-01
         - -1.3513350334579155e-01
         - 1.9920866845738663e-01
         - -5.8338175437128138e-02
         - -3.5993265728885192e-02
         - 9.1673567969572295e-02
         - 2.9367397943601860e-02
         - 3.7792004459080937e-02
         - -6.9039249315003604e-02
         - -3.4631801127458915e-02
         - 1.4202910215745146e-01
         - 3.0674134986376642e-02
         - 4.4592337611280689e-02
         - -2.3415550487031329e-02
         - -8.9227878531843732e-02
         - -8.7214085831298735e-02
         - -1.9176947802737332e-01
         - 9.1757908374024200e-02
         - 6.5842122099670705e-02
         - -1.4189518501913873e-01
         - 2.3495013188541972e-01
         - 1.4581890914588129e-02
         - -1.3526274135475549e-02
         - 2.7927463027549115e-01
         - -1.1392297626544684e-01
         - 5.9549108621693062e-02
         - 3.5365025728690908e-02
         - -8.5431830318033919e-02
         - 6.7678591873261557e-02
         - 5.2509009352536107e-02
         - -3.8493100780198096e-02
         - -2.7525948939059121e-03
         - 1.4448702877514244e-01
         - -5.0384734524565072e-02
         - 1.1251544230211702e-01
         - -7.7186720736040285e-02
         - 4.4502088413386494e-02
         - 1.6824138989930545e-01
         - 8.0675214587348887e-02
         - 1.6792863154560390e-02
         - 1.0328443132638547e-01
         - 8.1217418480728359e-02
         - -2.0655481242339932e-01
         - -1.8285490318155566e-02
         - 1.5823478344983172e-01
         - 2.0244090387341479e-01
         - -1.3478573708911604e-01
         - -8.6809038043114184e-02
         - 9.1556201708618445e-02
         - -1.0368571643090737e-02
         - 9.8976170116161534e-03
         - 7.8236020204474649e-02
         - 1.1659753673405755e-01
         - -7.0322937921615258e-02
         - 1.6827373470724372e-01
         - 7.6173776978200505e-02
         - -1.4479367883197736e-01
         - -7.8932653852170007e-02
         - 8.8327077838754778e-02
         - -7.5618925055344101e-03
         - 1.3651855783040326e-01
         - 5.0698673383259486e-02
         - 7.8684882314395910e-02
         - -1.0883266292280142e-01
         - 2.3281876888511596e-04
         - 1.1031444877323023e-01
         - -1.1147107932492058e-01
         - 6.7479356882373578e-03
         - -2.2063919881865693e-02
         - 1.5590153635475448e-01
         - -3.1424222211430160e-02
         - -1.2233716561854777e-01
         - 2.0746938741140739e-02
         - -2.4390563894284928e-02
         - 2.4879460059440136e-02
         - -4.1482216620037503e-02
         - -1.0237993273815672e-02
         - 4.5082307052853855e-02
         - -2.0638207894982477e-01
         - 5.0767949768852454e-03
         - -1.1602614996401456e-01
         - -3.3030471489733162e-02
         - -2.0001176124934442e-04
         - -8.2715090788567244e-02
         - -1.0879871288854004e-01
         - -1.0066439252018977e-01
         - -4.8695085410040494e-02
         - 1.2964150884140621e-01
         - -7.1601201215116868e-03
         - 1.9935682103735800e-01
         - -1.1069770727857399e-02
         - 8.2653881667242163e-02
         - -4.3908786658411185e-02
         - -1.5700798092435134e-01
         - 6.7779832827939437e-02
         - -1.7126358406716319e-01
         - 1.1819168992405989e-02
         - 3.5854195484709792e-02
         - 1.2259738361917237e-01
         - 6.3228887792060137e-02
         - -1.5901092212711018e-01
         - 4.9086437365326160e-03
         - -1.6763127239073142e-01
         - -1.1692099795045613e-01
         - -2.2148824341634063e-01
         - 6.1451261075866730e-02
         - -6.0922677580622593e-02
         - 8.0650182775095034e-03
         - 2.1595686882966941e-01
         - 4.0758449316872357e-02
         - -2.6443080552740309e-02
         - -5.2511754047786872e-02
         - 1.0196499401275355e-01
         - 4.0648433626052118e-02
         - 1.7171297626620391e-01
         - 7.3348668869039867e-03
         - -3.3796938315459206e-02
         - -9.7515911146104101e-03
         - -2.2214600112980393e-02
         - -1.4183773131309144e-01
         - -8.8828020834508414e-02
         - -7.5935746959316430e-02
         - -3.6451649061168316e-02
         - 1.6990557010810914e-01
         - -1.0539289503444046e-01
         - 1.0157194359930521e-01
         - 4.9912420565325862e-02
         - 1.5218510597211224e-01
         - -5.0067626608873379e-02
         - 4.1333814091969755e-02
         - 1.5693624298912526e-01
         - 1.9945828544306946e-02
         - -7.9790341833190864e-02
         - 8.6065657058951566e-03
         - -5.4011189264145415e-02
         - -6.2285875213941966e-02
         - -9.2025394448587341e-03
         - -7.1935665378066282e-02
         - -4.3943788219976770e-02
         - 6.3098028598466388e-02
         - 5.1401786351912830e-02
         - 1.6140984686957746e-01
         - 3.2424735477258472e-02
         - -8.4706766281251854e-03
         - -1.1194922279202031e-01
         - 6.8499835067333231e-02
         - 1.5885416540722036e-01
         - -5.4979174101875500e-02
         - 1.5966395849336507e-01
         - 1.5607340567027106e-01
         - 3.6986070973728212e-03
         - 3.7236189686121307e-01
         - -1.6882458883546461e-02
         - 1.0199475707067052e-03
         - -4.9747019620255330e-02
         - 3.4844118368087790e-02
         - -5.2689435008258179e-02
         - 3.8811124015880348e-02
         - -2.0260145641863103e-01
         - -4.1142987214388575e-02
         - 1.8787755365213998e-01
         - 3.2744599168464630e-02
         - 1.3681521152325862e-01
         - 9.2863021281101452e-02
         - -5.1032373456144739e-02
         - 1.1661843206599076e-02
         - 1.1561575153640588e-01
         - -5.8014371498185001e-03
         - 1.2833021377280079e-01
         - 1.6889601231340509e-01
         - -1.5202647741881248e-01
         - -5.3058644091564994e-02
         - 1.5775793101466329e-01
         - 2.8399977305016439e-02
         - -1.5641421893560720e-01
         - -5.0131709553010481e-02
         - 5.4927079796515441e-02
         - -1.0733658554672848e-01
         - -7.2858174373474277e-02
         - -1.0281260629354307e-02
         - 2.9533949171357952e-02
         - 4.4979645908924649e-02
         - 2.0304783652742148e-02
         - 1.0266832588615785e-01
         - -1.7671342176683910e-01
         - -1.0492553023812226e-01
         - 7.7640019391811255e-02
         - 4.9195731053467785e-02
         - -3.1849779697108754e-02
         - 4.4717030883304441e-02
         - 1.3155530504896132e-01
         - -2.7885796195799620e-02
         - -4.0285374331447556e-02
         - -9.9418631521794892e-02
         - -2.6997064311261327e-02
         - -6.6104565500080967e-02
         - -7.9757996837489714e-02
         - -1.5196740669345321e-01
         - 2.9859938881214288e-02
         - 1.0519615069677911e-01
         - -1.1418519817441328e-01
         - -3.9847676742361150e-02
         - 4.3355143644273883e-02
         - -1.4992549541622144e-01
         - 2.2801651459431016e-01
         - 7.4655644645926639e-02
         - -1.1565077234741089e-01
         - 7.1968936941916348e-02
         - -2.1077582837234590e-01
         - -1.2264487665465555e-01
         - 3.2395463834294716e-02
         - -2.6044628837449447e-02
         - -1.7322598972794370e-01
         - -9.4666856840224800e-02
         - 1.1420637633178531e-01
         - 4.7852855960507298e-02
         - -1.0535022873386683e-01
         - 1.0760153544832290e-02
         - -5.5205945784124841e-02
         - -8.1183636201167239e-02
         - 1.4771085108500376e-01
         - -4.8656044997135522e-02
         - 1.7480457064007894e-02
         - -1.6707506612751821e-01
         - -2.0069725987300638e-01
         - 1.3062935237087150e-01
         - 5.0873231284899857e-04
         - -2.7824615604175582e-03
         - -6.7003411788420925e-02
         - -1.6158168976026548e-02
         - 2.7789630685269275e-02
         - -3.1753767740959254e-02
         - -3.7473411582853450e-01
         - 5.5444031133977507e-02
         - 7.2528182571719405e-02
         - -2.5670178166040492e-01
         - 1.9798356723488611e-01
         - 5.9206331700489875e-02
         - -1.8391562688087662e-01
         - -2.5040475971093996e-02
         - 3.8778039583277961e-02
         - -7.9804649627349435e-03
         - 1.8522147226518393e-01
         - 3.4795367492847745e-03
         - 2.9322186209704074e-02
         - -6.9605570381013032e-02
         - -5.0614432652367133e-02
         - -1.4925454920605255e-02
         - 1.0162585404018024e-01
         - 6.5457161690410826e-02
         - 1.3895220355334270e-01
         - 1.8012542847768795e-01
         - 2.1723143691080860e-02
         - 1.2125490534154625e-01
         - -3.8241735665917521e-02
         - 1.6402774355607588e-01
         - -1.8386541133136381e-03
         - 1.4092605302663529e-02
         - -1.8939911817091146e-01
         - -8.6861192208253196e-02
         - 8.5693657198027254e-02
         - -6.2255864503383468e-02
         - -7.7678643624205151e-02
         - -5.8182641948962152e-02
         - 3.6192269264290443e-02
         - -1.5499547415932521e-01
         - -1.9785191644740147e-02
         - -8.9018099136375234e-02
         - 4.7676271099146940e-02
         - 9.3224931537350730e-02
         - -2.3452023155038818e-02
         - 8.0068911691937639e-02
         - -7.0289392476394916e-02
         - 1.0007245415510922e-01
         - 4.6699474636733941e-02
         - 1.0181874348434440e-01
         - -7.5211123013929460e-02
         - 8.2993377895737963e-02
         - -8.0700365419694026e-02
         - 4.7041940834658075e-01
         - 1.0772983148035856e-01
         - -1.4978786032370028e-01
         - -1.4609251694122155e-01
         - -3.4023098514602931e-02
         - 4.2998101170567356e-02
         - -1.2917032475261478e-01
         - -1.0428620407696082e-01
         - 1.7539014082591738e-02
         - -1.6602468281037976e-02
         - 5.2432399213818301e-02
         - -4.5943227593210213e-02
         - 9.6164059407797570e-02
         - 1.5480572264174436e-01
         - -2.0714848415063455e-01
         - 2.7867177290571945e-02
         - -1.6093782801293817e-02
         - 8.8571802709844008e-02
         - -6.5261267634503179e-03
         - 6.5884058496161746e-02
         - 6.0539232892711646e-02
         - -9.8782124045766223e-02
         - -4.2605234978427865e-02
         - -8.1384290587420596e-02
         - -1.2632334201290799e-01
         - 1.1010146241193721e-02
         - 7.2345891121846612e-02
         - -3.5105240851986574e-02
         - 2.5961649865674220e-02
         - -2.8924030608528578e-01
         - 1.3380958826365738e-01
         - 3.4457166088474933e-02
         - -1.0436415773449288e-01
         - -3.3015112752978602e-02
         - -6.2363679379241737e-03
         - 1.2438662006872436e-01
         - 2.5423652698816207e-01
         - -9.4809804400814962e-02
         - 1.9507679664598823e-01
         - 3.6990393261100610e-02
         - -1.3423822476305677e-01
         - -1.7124421659422581e-01
         - -9.1669338738801454e-02
         - 1.1376183667582973e-01
         - -4.6407156185899315e-02
         - -1.9050613574968605e-02
         - -2.8315144907415324e-01
         - -2.1156031282130033e-03
         - 5.3801097113207290e-02
         - -1.6523374550700609e-01
         - -9.5975450569123766e-02
         - 1.0750338255716269e-01
         - -2.2468269386757000e-01
         - 3.9382392006094435e-01
         - 1.2152546307208184e-01
         - -9.2556785098425534e-03
         - -8.9330676626675348e-02
         - 1.2530556612670054e-02
         - 8.7665480544144910e-03
         - 1.0250213544566851e-01
         - 4.1801813453842054e-02
         - -3.6579574736210796e-01
         - 2.5892850904078297e-02
         - 9.9157966714343390e-02
         - 6.0545209422369448e-02
         - -1.8068839323353028e-01
         - -2.6391528962843004e-02
         - -1.0827148527976702e-01
         - -1.9955758054256625e-01
         - 1.2205136302333035e-01
         - 7.3371993621329276e-02
         - -2.7790190829710581e-02
         - 1.7427337620696582e-02
         - 8.8967123864524787e-03
         - 4.9611854613664207e-03
         - 3.8700255514084118e-02
         - -1.1048640379373575e-01
         - 6.0729890720293521e-02
         - 8.4333098216490557e-02
         - -1.1211813168731134e-02
         - 7.3958380079796725e-03
         - -3.5017493615891881e-01
         - -1.7784803519349777e-02
         - 7.6710885194318582e-02
         - -3.3170686548883443e-01
         - -1.1003747828075974e-01
         - 7.2000603434101062e-03
         - -8.9165635680991506e-02
         - 1.4374895739668944e-01
         - -2.7351134430405311e-02
         - -1.0416223199556342e-02
         - 7.8864126969233977e-02
         - -2.9911059710467990e-02
         - 2.1087219381899117e-02
         - -2.4655706291762586e-01
         - -1.0925037566537051e-01
         - -1.8379760303362183e-01
         - 1.3724711875792391e-02
         - 5.7443109647922631e-02
         - -3.3853862347010606e-02
         - -1.9457384529623761e-01
         - 4.2874071003052183e-02
         - -8.5620143722045614e-02
         - 2.7205398883122851e-02
         - 1.7511451194146546e-01
         - -3.0843378565710292e-02
         - -5.2090739630761648e-02
         - -3.0319961375636323e-01
         - -1.9618870854768358e-01
         - -1.2129172253944068e-01
         - -2.8840784554349019e-02
         - 1.0717686992245299e-02
         - -2.3864175691918503e-02
         - -3.7594204480421528e-02
         - 2.0924966408124510e-02
         - 7.7729322145035171e-03
         - -4.1598322285011341e-02
         - 1.1438315134284118e-02
         - 1.0022370687226269e-01
         - -2.1270095413544913e-02
         - 9.7594059088207910e-02
         - 1.1887404251090862e-01
         - -6.6866522594523012e-02
         - -1.3537369434740756e-01
         - 3.3397112894631309e-01
         - -8.7700120729180733e-03
         - 8.4949019147851523e-02
         - 1.5188788293783865e-02
         - 5.1802810482321660e-01
         - 1.3894471592995092e-01
         - -1.0965627548235748e-01
         - 3.8168017576924868e-03
         - 1.5703542168112089e-01
         - 6.8915463866327881e-02
         - -5.3829229771428358e-02
         - -3.6120297574758216e-02
         - 3.8742899232155938e-02
         - -1.2738446953629973e-01
         - -3.2987447260423491e-02
         - 8.7921212213495067e-02
         - -4.6451076241399152e-02
         - 2.9408210957650394e-01
         - -1.2143719608757905e-01
         - 7.8749249262213605e-02
         - 5.8807428041456423e-02
         - -1.3304722605238564e-02
         - 1.6659192492596685e-02
         - 4.3836375638410523e-02
         - 1.5557383458569758e-02
         - -1.8438274601618354e-03
         - -3.0080575485256032e-02
         - -1.9319721011492742e-02
         - -5.4447167856610829e-02
         - -3.6417252364715637e-02
         - 2.6663056286393379e-02
         - -3.0358770069513326e-02
         - 2.9027378484942440e-02
         - -3.9397520352026233e-01
         - 2.2148274886169644e-01
         - 1.9241183605493864e-01
         - -4.5441014045642755e-02
         - 8.0876713382271689e-02
         - 1.4280850351346949e-02
         - 9.7986655412472812e-02
         - -8.2299802614491352e-02
         - -9.9578235136958404e-02
         - 6.6374230835215681e-02
         - -1.5701558687326106e-01
         - -1.3632011920847456e-01
         - -7.3698594367805403e-02
         - -9.2258789935255353e-02
         - 1.7375873539006190e-01
         - -2.9506606244964203e-02
         - 5.4366139470316072e-02
         - -1.2547856242674507e-01
         - -5.4408868084394768e-02
         - -9.5147382486158089e-02
         - -1.4614594834934364e-01
         - 3.8082346038710427e-02
         - -1.8408728514538130e-02
         - -1.2863626072345591e-01
         - 4.7184877316655216e-01
         - -6.0133973725756511e-02
         - 1.0425539127141310e-01
         - 4.0504950389469024e-02
         - -7.2775046425154052e-03
         - -5.0353836742202424e-02
         - 1.3782099268049147e-01
         - 3.5686466069396093e-02
         - -3.6790692838650402e-01
         - 1.4721413740775108e-01
         - 1.1179431265182466e-01
         - -7.8740694396735478e-02
         - -9.6511450274382030e-02
         - 6.0123145747160565e-02
         - -1.0564824251864066e-01
         - -9.1343287875695026e-02
         - 3.8251345468238433e-02
         - 1.2069630923765610e-03
         - -7.1927296145070138e-02
         - 4.6118131751054482e-02
         - 5.0439596011159785e-02
         - 3.8414716957637846e-02
         - 4.8827295426210331e-02
         - -4.2167952599556469e-02
         - -1.3196688877196833e-01
         - 2.6562642226763012e-02
         - 1.0501203523232955e-01
         - -1.7340580186221279e-02
         - -1.6910420139023638e-01
         - 5.9515712326986464e-02
         - -7.6788072367476645e-02
         - 1.5290928164338830e-02
         - -1.7674315607949825e-01
         - 7.9787554677003256e-02
         - -6.3644050795918991e-02
         - 1.2722858931158099e-01
         - 7.3062463474585490e-02
         - 1.9221509856957138e-02
         - 1.3374481813699951e-01
         - 1.2885973613770801e-01
         - 7.0218143019818449e-02
         - -5.8814130998269577e-02
         - -1.0955810825584154e-01
         - -2.0979717741597298e-01
         - 1.3999380408092970e-02
         - 1.1813425455207308e-01
         - -2.2328832890771595e-02
         - -1.0737030690326874e-01
         - -7.7745587655629861e-02
         - -2.8673899635857255e-02
         - -6.7513291059638266e-03
         - 1.3635886631371147e-01
         - -1.8341974921061283e-02
         - 1.6963158686419361e-02
         - -2.6391489095039822e-01
         - -2.2812002169271672e-01
         - -1.5881833205428661e-01
         - 7.1277417100802584e-02
         - -6.1009835360623856e-02
         - -1.0425802027974235e-01
         - -6.6806077265733760e-02
         - 1.1886791041653071e-01
         - 1.2786021512517076e-01
         - 3.8143308407249084e-03
         - -6.5878355644187606e-02
         - -2.6991093594019751e-02
         - 3.0936858518708776e-01
         - 1.7948386043817938e-01
         - 2.5690908270303248e-01
         - -1.7332782917974679e-01
         - -2.1693536482918799e-01
         - 2.6515487952946754e-01
         - -1.2237638134025589e-01
         - -3.5207047894792935e-03
         - 1.6291929587529480e-01
         - 3.1301856805920264e-01
         - 1.0599533648944880e-01
         - -8.2607597115740353e-02
         - 4.0441649513881683e-04
         - 1.1836456560888106e-01
         - 1.0657426519635968e-01
         - 8.2056436206024638e-02
         - 8.0396284816480201e-02
         - -1.4769720033682970e-01
         - -1.6802390382927226e-01
         - -1.6123073471202123e-01
         - 8.5031400803146501e-02
         - -7.4166266480934176e-02
         - 1.4202070165068523e-01
         - 2.1264192874524229e-02
         - 1.0585273105272924e-01
         - -8.8738824325938298e-02
         - 1.1882489865509044e-01
         - 6.7494695743159153e-02
         - -1.1677493676570059e-02
         - 4.9993776591624246e-02
         - 1.4899165956984109e-02
         - -8.4710833239588001e-02
         - -4.5337697917598709e-02
         - 2.7922290611873721e-02
         - 7.4612934605842826e-02
         - 1.6197852040454827e-01
         - -2.3383159773672010e-01
         - 5.9020351205455630e-03
         - -3.4103001776052416e-01
         - 7.3960066655728391e-03
         - 1.8263887014042565e-02
         - 8.2611420788692838e-02
         - 1.7828487059980661e-01
         - -3.1796280622054672e-03
         - -9.6102956134362094e-03
         - -1.4745511000023034e-01
         - -1.5920605129906359e-01
         - -1.0509779789782649e-01
         - -1.1054822976463743e-01
         - -1.2871348232913793e-01
         - -6.0220882008049009e-02
         - -1.0942685252050195e-01
         - 2.4865178959137593e-01
         - -7.5441707718315487e-02
         - 5.8051828609698125e-02
         - -2.4548744201789691e-01
         - 2.7395717777659589e-02
         - -4.9178229085292471e-02
         - -1.9917838337809210e-01
         - 1.4651796036209327e-01
         - 4.1316837606785797e-02
         - -1.1959466026823612e-01
         - 2.4935818983418070e-01
         - -1.7139879467674707e-01
         - 6.8730362756670396e-02
         - -3.4664618015431491e-02
         - -1.3843257585320612e-01
         - -1.3900434999952219e-01
         - -5.2351023343269014e-02
         - -2.1059702418768735e-02
         - -5.2345036205298978e-01
         - 8.3364022223984854e-02
         - 2.4910416572262895e-02
         - -1.1671664403623326e-01
         - -2.0638191406985917e-01
         - -7.9696958853902003e-02
         - 1.4503921515364579e-02
         - 5.6935856446764466e-02
         - 2.1574259923357450e-01
         - -4.9004878888746627e-02
         - -8.3596373602666918e-02
         - 1.1321023719192941e-01
         - -3.7335456843702083e-02
         - 1.8670876989590895e-01
         - -1.5758599185207889e-02
         - -1.6025506231357237e-01
         - -1.2840242457118628e-01
         - -2.9886880301366315e-02
         - 7.8152813522695250e-02
         - 5.7452375887955091e-02
         - 8.1951635273180820e-02
         - -1.0048752321854068e-01
         - 8.8894430779521152e-02
         - 2.2442216267296319e-01
         - -1.6050569658495548e-01
         - 1.6420489088554910e-01
         - -5.1998882524381784e-02
         - -3.6272080056633661e-02
         - 1.2627604562200351e-01
         - 2.2923047942415002e-02
         - 2.6503316731542621e-02
         - 7.4819430635524306e-02
         - -3.2172301654647274e-02
         - 7.9765672648951014e-02
         - -2.2598224951162749e-01
         - -7.1212077132736321e-02
         - -5.3690005969491639e-02
         - 1.8547806836967554e-01
         - -6.7578535632248013e-03
         - -1.4752369839966566e-02
         - -1.1750736965733366e-02
         - -9.8709761418562261e-02
         - -1.9491653932244907e-02
         - 9.0218536336081734e-02
         - -3.3058741075496938e-02
         - 3.6200692098264396e-02
         - -1.2071011488069205e-01
         - -1.4122056674662906e-01
         - -1.6307867008350077e-01
         - 2.8897611109424393e-02
         - -1.1866117716557158e-01
         - 3.0191384992015381e-02
         - -6.2690511239615040e-02
         - 1.7601476415747605e-01
         - -7.6126088675660286e-02
         - 7.3234647725173685e-02
         - -1.7363158853231669e-01
         - 1.7902351319334303e-01
         - 1.7542431359471986e-01
         - 1.3916548639750595e-01
         - 1.8246703849425450e-01
         - -9.8832905077229957e-02
         - -1.8964148308916823e-01
         - -8.5427791785435650e-02
         - -1.5358520601819819e-01
         - -2.7588355900859413e-02
         - 3.2234279960130852e-01
         - 3.9169243601419296e-01
         - 8.6613003855477350e-02
         - 7.0732828750220281e-03
         - -6.3059572576581882e-03
         - 5.6663634950477076e-02
         - 4.8947669016105047e-02
         - -1.3552526736835788e-01
         - 5.0637722726515934e-02
         - -2.3910545391056923e-01
         - 6.8953112558958418e-02
         - 4.3557302675572727e-03
         - -2.1287179198153310e-02
         - -8.1680691426157206e-02
         - 1.3437031871042282e-01
         - 7.3405683720992890e-02
         - 4.6816828199330293e-02
         - -4.8787815412334595e-03
         - 2.5187414941210112e-01
         - -6.7877851844978396e-02
         - 2.9785268136906171e-03
         - 1.1167813968900007e-01
         - -9.0588030438792464e-03
         - -1.3066703359968274e-01
         - -5.2801862429731443e-02
         - 3.7416430239723575e-02
         - -8.3231313877082505e-02
         - 2.1770736549838998e-01
         - -2.5631820850162906e-01
         - -1.1215042705804562e-01
         - -2.1546937190546778e-01
         - 1.1496461078808265e-01
         - 9.6902193310469606e-02
         - 2.2460331890306012e-01
         - 1.0110233766573669e-01
         - 1.3261050298117621e-01
         - -2.3024041040146762e-01
         - -1.4637836514982666e-01
         - -1.5999572349507304e-01
         - -9.3287657978733937e-02
         - -8.1687495882259001e-02
         - -5.1901989788510669e-02
         - -5.3711633499552054e-02
         - -2.3215028616745487e-01
         - 2.6991786888229169e-01
         - -2.3479929436932476e-02
         - -4.9463057491271396e-02
         - -3.1233156003393520e-01
         - 2.0019912543061087e-02
         - 1.5394299280653750e-01
         - -3.7489539097550248e-02
         - 1.9897921312431416e-01
         - 1.8393592421729851e-01
         - -1.2328836745469392e-01
         - 3.0015247610168917e-02
         - -2.4619054927371772e-01
         - -7.6374056451333056e-04
         - 2.3068003542488363e-02
         - -9.6613690037197136e-02
         - -1.2937444744914847e-01
         - -7.9383405118438180e-02
         - -1.3200146230539203e-02
         - -3.0225038575029872e-01
         - 4.8698861401108781e-02
         - 2.3044215927066052e-02
         - 1.3573389351208397e-02
         - -9.0167930583666664e-02
         - -1.4241067041567462e-01
         - 2.4566693398992680e-02
         - 2.7308654918869146e-02
         - -1.6587051441501000e-01
         - 5.1541279057054780e-02
         - -1.4910222834216558e-01
         - 8.3741589847350847e-02
         - 8.0979663513726680e-02
         - 1.5380904320997703e-02
         - 3.1490789328775706e-02
         - -7.6874948032579715e-02
         - 4.4180584189516536e-03
         - -5.2435768013822263e-02
         - -5.3418958653991107e-02
         - -7.9745754324387755e-02
         - 3.8196258808386736e-02
         - -2.1411067384807864e-01
         - 7.9347117025690653e-02
         - -2.5684084753110552e-02
         - -7.0087723581853098e-02
         - 1.1602280222226019e-01
         - -1.6316731839504645e-01
         - -1.2587494981621705e-01
         - 7.9820725072416221e-02
         - 1.4266979418228412e-01
         - -8.0053886452130033e-03
         - -8.5435390826226226e-02
         - -8.5117842388005738e-02
         - -3.2014656985502557e-02
         - -3.4046225560254655e-02
         - -1.7322464203203347e-03
         - -1.3455926586790143e-01
         - 6.5162486798473376e-02
         - -2.4424649572172302e-01
         - 1.8860503190892755e-01
         - 1.0307179573496890e-01
         - 5.6702508175953882e-02
         - -9.0948596554909403e-02
         - 2.5151029368707539e-02
         - 1.4563090242115206e-01
         - 9.4188022817046579e-02
         - -5.9256996036258336e-02
         - -9.6025599552937310e-02
         - 9.4877943199010467e-02
         - 2.4962141827001016e-02
         - -2.0452404573990221e-01
         - -3.6069100335029844e-02
         - 5.9307014384179291e-02
         - 1.1737564929267863e-01
         - -2.2756975731813861e-01
         - 9.1464399113673003e-02
         - -2.2268095801253182e-01
         - 3.2501113997678466e-01
         - -7.3464162467938521e-02
         - 3.9354126027774348e-02
         - -7.8789815598380775e-02
         - -1.0628860331459423e-01
         - -1.3411218413984055e-01
         - -1.4929525860564681e-02
         - -8.0086864350848025e-02
         - 4.4402637471861166e-03
         - 3.9338077429413082e-01
         - 8.9718572490919982e-02
         - 8.9579463636585172e-02
         - 1.3368064028804147e-01
         - 6.7677182015471044e-02
         - -1.1468471515824859e-01
         - -7.4571453327076940e-03
         - -5.4931210349810293e-02
         - -3.7044987158947378e-02
         - -2.0178798707505796e-01
         - 1.3754362145346544e-01
         - -1.0277125392242364e-01
         - -3.2028450657130112e-03
         - -7.9140801496679389e-02
         - 3.4188054677781916e-02
         - 1.4731568030500986e-02
         - -1.8178147946696532e-01
         - 1.4067095790782910e-01
         - 2.7341740248148061e-01
         - 2.2277874965478953e-02
         - 4.3096569013433292e-03
         - 1.3816144441289011e-01
         - 5.8993642431067958e-02
         - -1.9473106680132660e-01
         - -1.0056387412203775e-01
         - 1.9393960211215675e-02
         - -1.3208408262557023e-01
         - 3.2365823879239036e-01
         - -1.8346076527233438e-01
         - -9.1216480720171904e-03
         - -2.7844526216180093e-01
         - 1.0445519994096317e-01
         - 1.1121441768660698e-01
         - 1.7646483924753209e-01
         - 3.5762211718624745e-02
         - 6.7139888542601125e-02
         - -1.0189614722619675e-01
         - -6.2576754173653742e-02
         - 2.8747022796967697e-02
         - -2.3970476963088242e-02
         - -3.7738544263377333e-02
         - -2.0782842280162809e-02
         - 7.7607636591165416e-02
         - 5.5991511826603363e-02
         - 1.1552634361146659e-01
         - 8.7222291702979945e-02
         - -9.4529710635748818e-02
         - 2.7889709670153716e-02
         - 4.6436447977329064e-02
         - 1.6735088094219441e-01
         - -1.2997616859120077e-02
         - 1.3342449784764973e-01
         - 1.2608962596124404e-01
         - -1.5847072252395580e-01
         - -1.4319196654168870e-01
         - -8.8550294554645914e-02
         - -5.4421578529202423e-02
         - 5.3829063501025353e-03
         - -3.1181662165479636e-02
         - -2.0629239166910490e-01
         - -1.0342236023725869e-01
         - 2.0267912753140400e-02
         - -1.8839195282156768e-01
         - 1.0788579555970869e-01
         - -1.7235706876629453e-01
         - 8.0796121014293093e-02
         - -4.1335384653273098e-02
         - -7.9966332283554487e-02
         - 4.3379362500767023e-02
         - 1.0343515958121799e-01
         - -2.1264181529101281e-01
         - -1.0358116419728225e-02
         - -1.1975354356945418e-01
         - 1.7359650681614011e-01
         - 3.0136336097134192e-01
         - -1.7992818436348909e-01
         - 2.1767445943071212e-01
         - 2.1286036845158754e-01
         - 8.2357754543512338e-02
         - 2.3476813026362023e-02
         - -6.5147200772917774e-02
         - -1.1287584786382715e-01
         - -8.0716559641652488e-02
         - -1.4738307339239837e-01
         - 1.2761240847614669e-01
         - 1.1414272020616578e-01
         - -1.1136932012447388e-01
         - 2.2562793625479988e-02
         - -2.3115677739559193e-01
         - -2.9457814240611635e-03
         - 6.4488231204629695e-02
         - 1.6116034769820359e-01
         - 1.1112855533520953e-01
         - -4.0800449591790598e-02
         - -2.0746293736388205e-01
         - 8.6670404030376055e-02
         - 3.9955971182042783e-02
         - 1.3062342209187625e-01
         - -1.4027289321111786e-01
         - 5.3765315934612715e-02
         - -1.7789453617803869e-01
         - 1.8551912160169454e-01
         - -3.5357652588217728e-02
         - -8.7803946231064228e-03
         - 1.5340554783842445e-02
         - 5.4820856307638707e-02
         - 1.3358219353702960e-01
         - 8.7325214450361000e-03
         - -2.1448402391189267e-02
         - -1.3515642055765997e-01
         - 1.1437371604474687e-02
         - 3.8745354068620397e-02
         - -1.5820034492093163e-01
         - 4.8750909893416619e-03
         - -1.3498212621363856e-01
         - 3.9195990646330586e-02
         - -2.0107659123826702e-01
         - 1.4229025556153835e-01
         - -1.0428585082081768e-01
         - 1.4353683298413467e-01
         - 5.7166171651895657e-02
         - -9.2398596103116445e-02
         - -3.0773569995927900e-02
         - -1.2369001023733141e-01
         - -8.8237658484564399e-02
         - 1.8147451471540310e-01
         - -1.1103706885939800e-01
         - -6.6574417500603833e-02
         - 3.0448504223916106e-01
         - -4.9432772949305460e-02
         - 7.5407249422436526e-02
         - 1.9983486794637541e-02
         - 9.2385573357337977e-02
         - 8.5008764117496353e-03
         - -6.8019273427397109e-03
         - 3.6447898221357022e-02
         - -5.6672960940203208e-02
         - -9.3584463770727516e-02
         - -1.0187752583937795e-01
         - -1.7247898435496589e-01
         - -1.9617059330440381e-01
         - -2.9304580485176941e-02
         - -6.7734686450906023e-02
         - -2.2138921512463421e-02
         - 2.7462532328900865e-04
         - 1.4019065448883464e-01
         - 1.5363882712286964e-01
         - -4.9025474832289362e-02
         - 4.9050891182662260e-02
         - 7.9678936117531032e-02
         - 3.7819359458301442e-02
         - -5.3902914758153182e-02
         - 2.7159995920285212e-02
         - -6.6283409265933041e-02
         - -1.1335272414381407e-01
         - 7.2648946995761132e-02
         - -1.0150300721066630e-01
         - -1.0254409344572218e-01
         - -8.3676221100395423e-02
         - 1.7492006332459162e-01
         - -1.2106541106478445e-01
         - 7.6861224384231361e-02
         - -4.6969811018035754e-02
         - 5.9486327277142636e-03
         - -8.0246896302441584e-02
         - -4.1314479103483112e-02
         - 1.7085801760000813e-01
         - 2.7330339891285214e-02
         - -1.4187832723761090e-01
         - -2.8364501977791230e-02
         - 1.0492282704307845e-01
         - 6.3123103989231016e-02
         - 1.2480479945777054e-01
         - -3.2157403328991996e-04
         - -8.2478028421135080e-02
         - 1.4294185676826365e-01
         - 6.2110234317461419e-02
         - 9.7844166130549304e-02
         - -5.5983512597071105e-03
         - 6.9251590626360901e-03
         - -5.4423405717856421e-02
         - -1.1963306070145280e-01
         - 1.4719925734294598e-01
         - 1.7494266396820907e-02
         - -1.4537978499844112e-01
         - -9.5002004323690312e-02
         - -4.1145554106722534e-02
         - -1.1355033892176875e-01
         - -1.8220076796916199e-01
         - 9.3867734335989522e-02
         - 2.6880325248582131e-02
         - -1.7370397358166478e-02
         - 3.2810784439521290e-02
         - -2.2885390740294467e-03
         - -2.6137048189633288e-02
         - 1.0077524030590870e-01
         - 1.7819588539707429e-02
         - 4.7136480396445819e-03
         - 2.3884563247028359e-01
         - 3.7957836015546594e-02
         - -1.9024555967796657e-02
         - 6.1947932117018073e-02
         - 2.2037209759085266e-01
         - -1.2013959042949317e-01
         - 4.1020016545732230e-01
         - 2.2726431144052345e-02
         - -1.3390624159578448e-02
         - 4.0448440947956105e-02
         - 3.6951583193504116e-03
         - -2.4445178819539434e-02
         - -4.8297396491437099e-02
         - -2.3166673378590661e-02
         - 6.7955970279122146e-02
         - 9.1592955779552121e-02
         - -6.7434379928474827e-02
         - 2.1511405128589481e-01
         - -9.4442016048180380e-02
         - 7.7670636326059708e-02
         - 6.7451911789376304e-02
         - 1.0670223674860048e-01
         - 4.2968670156948940e-02
         - -3.9461076333097865e-03
         - -1.8590577114302906e-01
         - 2.3260282478705801e-02
         - -2.2726938206976462e-02
         - 6.6065765839212226e-02
         - -1.6702774005909077e-01
         - 4.8663136302978707e-02
         - 1.4652441258051541e-01
         - 1.5170665748265061e-01
         - -1.3691505659352815e-01
         - -9.0471321656500209e-02
         - -1.7712100544807513e-02
         - 9.9848532232442833e-02
         - 1.1307681149417464e-01
         - 6.4406220731846639e-02
         - -8.9121942337916926e-02
         - 3.1694130963522936e-02
         - -3.1343151441740776e-02
         - 3.0074669411030614e-02
         - -1.7529395839981995e-01
         - 5.4110475829056530e-02
         - -1.4210873635081517e-01
         - 2.2793215082026235e-02
         - -6.3383404320074568e-02
         - 1.5717681599364283e-01
         - -5.2331419483119715e-02
         - 1.5699452747882415e-02
         - 1.5927924557351775e-01
         - -1.5543789362503777e-01
         - 1.4109390233327284e-02
         - -8.6434922023951380e-02
         - 6.1290530064413658e-02
         - 1.2770807099174861e-01
         - 2.1279076575680834e-03
         - -1.1127948839856180e-01
         - -1.1464957961368762e-01
         - -2.1835206356871809e-02
         - -2.4260993170185857e-02
         - -2.8815638150671141e-01
         - 1.1013451409971710e-01
         - 2.1235572913510345e-02
         - -8.6812969078399221e-02
         - -1.3382109375022332e-02
         - -8.6149567665034121e-02
         - 5.7452103017422304e-02
         - -4.0228703041058536e-02
         - -7.7373285030499964e-02
         - -1.2380648070917330e-01
         - -1.8140092869750234e-02
         - -1.6958491541087185e-02
         - -6.5217431528956926e-02
         - 8.9190327342935152e-03
         - 7.7190404188964515e-02
         - -5.2137979458268147e-02
         - 5.9796006544238656e-03
         - -2.4344956992998438e-03
         - 1.1726408655793139e-01
         - -6.2962191399156431e-02
         - -1.0048440196062801e-01
         - 2.9250863357824914e-02
         - -1.5040160361363503e-01
         - -4.6443241126514448e-02
         - -1.9574954067814349e-01
         - -9.6295546992698308e-02
         - -9.4747906942796015e-02
         - -8.2173803171573134e-02
         - 3.2219500108537508e-01
         - -3.5211994767345892e-02
         - -4.0656137492931475e-02
         - -2.1288532937695667e-02
         - 2.7142616430632076e-03
         - -5.2109583329597683e-02
         - 2.3888118757976851e-02
         - 1.4147943130894997e-01
         - 4.8875169217718784e-02
         - -4.9547052799236567e-02
         - -9.7666847950066749e-02
         - 1.0646483162124042e-01
         - 2.5231939710209750e-02
         - 1.5174701066332510e-01
         - -1.4063573815117789e-01
         - -8.5094821298316511e-02
