%YAML:1.0
---
opencv_ml_ann_mlp:
   format: 3
   layer_sizes: [ 784, 128, 62 ]
   activation_function: SIGMOID_SYM
   f_param1: 6.6666666666666663e-01
   f_param2: 1.7159000000000000e+00
   min_val: -9.4999999999999996e-01
   max_val: 9.4999999999999996e-01
   min_val1: -9.7999999999999998e-01
   max_val1: 9.7999999999999998e-01
   training_params:
      train_method: BACKPROP
      dw_scale: 5.0000000000000003e-02
      moment_scale: 5.0000000000000003e-02
      term_criteria:
         epsilon: 1.0000000000000000e-04
         iterations: 100
   input_scale:
      - 3.2460204099410856e+00
      - -3.4830838379464435e-01
      - 3.1385575950084332e+00
      - -5.2750819120132508e-01
      - 2.5348764981920660e+00
      - -6.0218379466671412e-01
      - 2.5133205254447297e+00
      - -6.0498969408905534e-01
      - 2.6137321799171414e+00
      - -5.7660289112683660e-01
      - 2.7142225395299673e+00
      - -5.3740096492351030e-01
      - 2.7193360020262327e+00
      - -5.0965000623605006e-01
      - 2.7082638120692621e+00
      - -5.4462932323528379e-01
      - 2.5455800832472444e+00
      - -6.1636374141850270e-01
      - 2.3541539742601256e+00
      - -6.8004877583894552e-01
      - 2.2222876951825503e+00
      - -7.4772450389816036e-01
      - 2.1669924194232197e+00
      - -8.0182671225570956e-01
      - 2.1237542795011306e+00
      - -8.3211523461505110e-01
      - 2.1082877621157206e+00
      - -8.5484956126205447e-01
      - 2.1263005967929267e+00
      - -8.4964559324125144e-01
      - 2.1455697517074346e+00
      - -8.0289591139325156e-01
      - 2.2015663074284184e+00
      - -7.6370260771754217e-01
      - 2.3443524186633651e+00
      - -7.0457303340946131e-01
      - 2.5486326910091419e+00
      - -6.1256045141012405e-01
      - 2.7038439683668640e+00
      - -5.3598779846316458e-01
      - 2.8535637072986639e+00
      - -4.9614933073479256e-01
      - 2.8548971780513526e+00
      - -4.7708736086402892e-01
      - 2.8149622974226673e+00
      - -4.8874438082670957e-01
      - 2.7482201849435079e+00
      - -5.3258140154807299e-01
      - 2.6397033713154583e+00
      - -5.5244214175101380e-01
      - 2.6294413848007729e+00
      - -5.4560973161560411e-01
      - 3.0936790739901125e+00
      - -4.8189670806579171e-01
      - 3.1142224869117263e+00
      - -3.6667596549992720e-01
      - 2.6663093398232718e+00
      - -6.1575602865992829e-01
      - 2.6028726530299391e+00
      - -7.1651393494829874e-01
      - 2.3546078529037726e+00
      - -7.7166941027698566e-01
      - 2.3822160414774243e+00
      - -8.2539143985988739e-01
      - 2.4875183735315165e+00
      - -8.7417778375840438e-01
      - 2.5306425745602672e+00
      - -8.9480636297283167e-01
      - 2.5523788941946361e+00
      - -9.1325415037422686e-01
      - 2.4834552270513823e+00
      - -9.2668161649737757e-01
      - 2.3698408637888901e+00
      - -9.3736635675437929e-01
      - 2.2635015548412292e+00
      - -9.4672477810109468e-01
      - 2.2055382300184969e+00
      - -9.8036434204048339e-01
      - 2.1766827511571085e+00
      - -1.0136756712686483e+00
      - 2.1648443766463510e+00
      - -1.0497587691039707e+00
      - 2.1601492358223089e+00
      - -1.0740812466258098e+00
      - 2.1727537687185303e+00
      - -1.0889400359609822e+00
      - 2.1809341887013760e+00
      - -1.0732068809015354e+00
      - 2.1937058411886121e+00
      - -1.0366658499274737e+00
      - 2.2626528633513718e+00
      - -1.0093749554110394e+00
      - 2.3643388140143196e+00
      - -9.7788173819550084e-01
      - 2.4789461619120119e+00
      - -9.4473995173189051e-01
      - 2.5461491800387299e+00
      - -8.8300551361643631e-01
      - 2.5844921697226639e+00
      - -8.3822764903469238e-01
      - 2.5926554588380277e+00
      - -7.8924770553739643e-01
      - 2.5366257349962966e+00
      - -7.6649379087673897e-01
      - 2.4538479956235753e+00
      - -7.1726176179550039e-01
      - 2.4855020717847354e+00
      - -6.5912117750583932e-01
      - 2.7576469177373042e+00
      - -6.0236367894699261e-01
      - 2.8294535300902539e+00
      - -5.2684691793989669e-01
      - 2.3192554808601007e+00
      - -6.9210893417648200e-01
      - 2.3261204949291265e+00
      - -7.8802681464961399e-01
      - 2.2066836805364809e+00
      - -8.7885910203317863e-01
      - 2.2618635080006335e+00
      - -1.0216854246930216e+00
      - 2.3528030792725905e+00
      - -1.1511839872734484e+00
      - 2.3321482601190904e+00
      - -1.1996267221882462e+00
      - 2.3177793525405672e+00
      - -1.1966319354396187e+00
      - 2.2652285053530892e+00
      - -1.1564874703754666e+00
      - 2.2269734155345575e+00
      - -1.1261905156418048e+00
      - 2.2153952552680658e+00
      - -1.1134375685514653e+00
      - 2.2502245859822456e+00
      - -1.1343844238354168e+00
      - 2.2808382817416297e+00
      - -1.1528684610393385e+00
      - 2.3168652803190164e+00
      - -1.2031647746760878e+00
      - 2.3274724918578786e+00
      - -1.2392207397013522e+00
      - 2.3119882367064877e+00
      - -1.2551353486106807e+00
      - 2.2991779983256704e+00
      - -1.2447184986573272e+00
      - 2.2600686362893194e+00
      - -1.1981899141386438e+00
      - 2.2364373993844762e+00
      - -1.1748439465120935e+00
      - 2.2138433008604492e+00
      - -1.1631971867959201e+00
      - 2.2450254973340598e+00
      - -1.1781978539753304e+00
      - 2.2892749788719096e+00
      - -1.1758656249951371e+00
      - 2.3870563366135999e+00
      - -1.1496734955579526e+00
      - 2.4096974440441281e+00
      - -1.0618146381072555e+00
      - 2.3850706983177319e+00
      - -9.6627751419994024e-01
      - 2.3242014981457708e+00
      - -8.3990635651755907e-01
      - 2.4098048437024131e+00
      - -7.3399344316972459e-01
      - 2.6586421050861815e+00
      - -6.4345212558948794e-01
      - 2.6881584081547980e+00
      - -5.5054324460999793e-01
      - 2.2693558794657620e+00
      - -6.7675193621211405e-01
      - 2.3361480670764134e+00
      - -8.3200738225583182e-01
      - 2.2281766595430814e+00
      - -9.8688207475777445e-01
      - 2.2997371627000902e+00
      - -1.2233501453873790e+00
      - 2.3432781586593374e+00
      - -1.3774740219179675e+00
      - 2.3417887613318098e+00
      - -1.4245278919306705e+00
      - 2.2940998624015201e+00
      - -1.3610382606711577e+00
      - 2.2567344222528103e+00
      - -1.2642419515719077e+00
      - 2.2636412614770864e+00
      - -1.1969922108440927e+00
      - 2.2761044639636960e+00
      - -1.1481255627457052e+00
      - 2.3028681215554720e+00
      - -1.1154314656637740e+00
      - 2.2700489551695338e+00
      - -1.0659827115336147e+00
      - 2.2505488407148717e+00
      - -1.0562455150881318e+00
      - 2.2291173593539435e+00
      - -1.0576396626397464e+00
      - 2.2270643714126570e+00
      - -1.0751827864780603e+00
      - 2.2361100719702267e+00
      - -1.0952383356951987e+00
      - 2.2771570657367826e+00
      - -1.1226924291325497e+00
      - 2.3057150372091222e+00
      - -1.1736173114952237e+00
      - 2.2769969198296640e+00
      - -1.2178652621876875e+00
      - 2.2685987193770507e+00
      - -1.2783365012280268e+00
      - 2.2425580635835938e+00
      - -1.2988703158262007e+00
      - 2.2830613095324006e+00
      - -1.2999099836216910e+00
      - 2.3263762449479310e+00
      - -1.2557252849873934e+00
      - 2.3448544448279827e+00
      - -1.1307894550900899e+00
      - 2.3306308752807805e+00
      - -9.6116254296580728e-01
      - 2.4143701288734301e+00
      - -7.8843632137352382e-01
      - 2.7495656195975373e+00
      - -6.5499522005623201e-01
      - 2.8032163946988367e+00
      - -5.0628798510177375e-01
      - 2.2573504859017772e+00
      - -6.7716904791329657e-01
      - 2.3584347279769831e+00
      - -8.7882719282689226e-01
      - 2.2393352625630301e+00
      - -1.0909172298339744e+00
      - 2.2615636607188012e+00
      - -1.3351118096319845e+00
      - 2.3418460979408704e+00
      - -1.5048820301117860e+00
      - 2.3061810264126659e+00
      - -1.4765150370329148e+00
      - 2.2538539170472180e+00
      - -1.3942043700072184e+00
      - 2.2595785816864975e+00
      - -1.3228642834226469e+00
      - 2.2841927155222903e+00
      - -1.1797724488866190e+00
      - 2.2598098661942934e+00
      - -1.0467250405579558e+00
      - 2.2848974217269649e+00
      - -9.9741186477828914e-01
      - 2.2294687004433213e+00
      - -9.6065763550640304e-01
      - 2.2009712445279646e+00
      - -9.4475828117962901e-01
      - 2.1831252949589781e+00
      - -9.4182273867624455e-01
      - 2.1794027333896948e+00
      - -9.6017808867695875e-01
      - 2.1753791965827576e+00
      - -9.7758952645375297e-01
      - 2.2065848135268809e+00
      - -9.8603138892296427e-01
      - 2.2531121348286653e+00
      - -1.0303244234919762e+00
      - 2.2637010766304888e+00
      - -1.1040197006624033e+00
      - 2.2826066880077907e+00
      - -1.2394942307337906e+00
      - 2.2622642777322435e+00
      - -1.3495984587370380e+00
      - 2.2575608566813288e+00
      - -1.3843080664069103e+00
      - 2.2835851350296932e+00
      - -1.3871090830981896e+00
      - 2.3009612681501648e+00
      - -1.2903636266722236e+00
      - 2.2940436938059952e+00
      - -1.0984714731181744e+00
      - 2.3760224092080580e+00
      - -8.6025191941250889e-01
      - 2.7398714586639645e+00
      - -6.8969953758588831e-01
      - 2.7670998470531369e+00
      - -5.0601913059955450e-01
      - 2.2341279693755953e+00
      - -7.1697621539350698e-01
      - 2.3432143367221250e+00
      - -9.2913100976584262e-01
      - 2.2665987091039130e+00
      - -1.1871763182312987e+00
      - 2.2873784307026428e+00
      - -1.4342081746029336e+00
      - 2.3734972349810728e+00
      - -1.5854882808340522e+00
      - 2.3712962410038845e+00
      - -1.5685052019503642e+00
      - 2.3094870540464063e+00
      - -1.4345739262418353e+00
      - 2.2795720102915586e+00
      - -1.2854721411116221e+00
      - 2.2802712456411429e+00
      - -1.1479094139372983e+00
      - 2.2327287316652611e+00
      - -1.0242513810892255e+00
      - 2.2394878221500449e+00
      - -9.5509361461614761e-01
      - 2.1850637047326695e+00
      - -9.0659002516763587e-01
      - 2.1747031584241054e+00
      - -8.8509299928743490e-01
      - 2.1761805874502702e+00
      - -8.9214147312148240e-01
      - 2.1666539056805161e+00
      - -9.0855035561699482e-01
      - 2.1622089819609482e+00
      - -9.3616187713499177e-01
      - 2.1851577926165024e+00
      - -9.5374594051243700e-01
      - 2.2319094070616963e+00
      - -9.8857818177286871e-01
      - 2.2433514364372567e+00
      - -1.0483669484362055e+00
      - 2.3018688137235213e+00
      - -1.1732808834092903e+00
      - 2.2932971082951776e+00
      - -1.3043662159866947e+00
      - 2.2940548005048762e+00
      - -1.3874852851529860e+00
      - 2.3017614306540146e+00
      - -1.4387279282608889e+00
      - 2.3024299902043928e+00
      - -1.3997387125237628e+00
      - 2.2809019740960204e+00
      - -1.2424951671701632e+00
      - 2.3296664159103484e+00
      - -1.0047842665514803e+00
      - 2.6207052848871712e+00
      - -7.9233438322172223e-01
      - 2.5945839982287691e+00
      - -5.6115152115523059e-01
      - 2.2034280117379694e+00
      - -7.5425985243537697e-01
      - 2.3400914265906043e+00
      - -9.9807225368347285e-01
      - 2.2445510950930267e+00
      - -1.2463472726380018e+00
      - 2.2691098687202351e+00
      - -1.4562498881012653e+00
      - 2.3875570581497234e+00
      - -1.6064212391951209e+00
      - 2.4015205242278133e+00
      - -1.5643767544880083e+00
      - 2.3292740192068022e+00
      - -1.3828629555570653e+00
      - 2.2437810660914224e+00
      - -1.2044689898433780e+00
      - 2.2437547777152380e+00
      - -1.0874635515501223e+00
      - 2.2157376382631710e+00
      - -9.8219059338214210e-01
      - 2.2424210191018976e+00
      - -9.3010802500018153e-01
      - 2.2417747752920110e+00
      - -8.8128575812561649e-01
      - 2.2586483861480864e+00
      - -8.4113070382831467e-01
      - 2.3004127010817936e+00
      - -8.4398356209603298e-01
      - 2.2790322811899868e+00
      - -8.5909815812918078e-01
      - 2.2439551564067477e+00
      - -8.8395742413709266e-01
      - 2.2422092098494031e+00
      - -9.2486344553611677e-01
      - 2.2461842744040617e+00
      - -9.5280950029881584e-01
      - 2.2182284140296811e+00
      - -9.9116205985318373e-01
      - 2.2523357456949094e+00
      - -1.0878328690274410e+00
      - 2.2545461713922852e+00
      - -1.1877404913767089e+00
      - 2.3120160097125360e+00
      - -1.3170393582359994e+00
      - 2.3379703538825818e+00
      - -1.4174593415209606e+00
      - 2.3216205884068426e+00
      - -1.4064552018930219e+00
      - 2.2475860542449526e+00
      - -1.2680733663161892e+00
      - 2.2796396755677071e+00
      - -1.0687363461933550e+00
      - 2.5427018600106934e+00
      - -8.4554375353974986e-01
      - 2.4924591952541912e+00
      - -5.9107072614785916e-01
      - 2.1824949555246613e+00
      - -7.8539940226255156e-01
      - 2.3170129431724820e+00
      - -1.0291649484053216e+00
      - 2.2138028051143408e+00
      - -1.2523270875877128e+00
      - 2.2569218722078705e+00
      - -1.4506919036298072e+00
      - 2.3639733650498078e+00
      - -1.5794772231636753e+00
      - 2.3498395900414017e+00
      - -1.4826756723011325e+00
      - 2.2688161187048648e+00
      - -1.2914827548023615e+00
      - 2.2114784391790514e+00
      - -1.1519339049242130e+00
      - 2.2216129564471738e+00
      - -1.0523067928138452e+00
      - 2.1966862317279912e+00
      - -9.4880011537526809e-01
      - 2.2363948118317718e+00
      - -8.9296128191832813e-01
      - 2.2948603325550301e+00
      - -8.4034332906785614e-01
      - 2.3452722640272996e+00
      - -7.8032610165470706e-01
      - 2.3398296020657954e+00
      - -7.4680853688220117e-01
      - 2.2837419655755751e+00
      - -7.5828445227860042e-01
      - 2.2552159954540407e+00
      - -7.9439611392741605e-01
      - 2.2890006641144054e+00
      - -8.7016439305193349e-01
      - 2.3020877121694534e+00
      - -9.2517669133007097e-01
      - 2.2324808825131677e+00
      - -9.7485643370465547e-01
      - 2.2388660873579980e+00
      - -1.0500878694502251e+00
      - 2.2217618534681645e+00
      - -1.1117948638530317e+00
      - 2.2777958204678361e+00
      - -1.2066584065552930e+00
      - 2.2966373136789420e+00
      - -1.2990447365883560e+00
      - 2.2855656090320955e+00
      - -1.3149251107639417e+00
      - 2.2063427606481159e+00
      - -1.2073747456281783e+00
      - 2.2418205370541955e+00
      - -1.0453195708444192e+00
      - 2.4890107912926926e+00
      - -8.4162371454012419e-01
      - 2.4523703112360686e+00
      - -6.0555811610082311e-01
      - 2.1418960320881006e+00
      - -7.9291877665400290e-01
      - 2.2665420115180028e+00
      - -1.0223704692993631e+00
      - 2.1901706206307971e+00
      - -1.2269579359359095e+00
      - 2.2505542803843337e+00
      - -1.4098002588651115e+00
      - 2.3489814433340617e+00
      - -1.5278635729147090e+00
      - 2.3439472015006633e+00
      - -1.4381053142796540e+00
      - 2.2731273732624775e+00
      - -1.2729266286597734e+00
      - 2.2374973026592739e+00
      - -1.1565949627729915e+00
      - 2.2446940188586040e+00
      - -1.0629351225644346e+00
      - 2.2069886599644173e+00
      - -9.4252529356551229e-01
      - 2.2375247125029580e+00
      - -8.7122398916119659e-01
      - 2.3306136698961408e+00
      - -8.1499540693022487e-01
      - 2.3350715013171763e+00
      - -7.4169723865407877e-01
      - 2.3263855051958546e+00
      - -7.3038519779213518e-01
      - 2.2892092317360575e+00
      - -7.5424330725566446e-01
      - 2.2704642036019185e+00
      - -7.9666619871489464e-01
      - 2.2906178651071989e+00
      - -8.6706002526105541e-01
      - 2.2945622567596997e+00
      - -9.2386536810541453e-01
      - 2.2270151255632933e+00
      - -9.7837222261514678e-01
      - 2.2330741348974912e+00
      - -1.0631970239320103e+00
      - 2.2224369308723855e+00
      - -1.1210215790894953e+00
      - 2.2744616854892814e+00
      - -1.1686541300841087e+00
      - 2.2893823690958057e+00
      - -1.2163802268126438e+00
      - 2.2619038269939424e+00
      - -1.2333370357733340e+00
      - 2.1978532012347469e+00
      - -1.1359898657353749e+00
      - 2.2378332718438267e+00
      - -1.0046392038723460e+00
      - 2.4581489961239611e+00
      - -8.2829000273605491e-01
      - 2.4252732857078181e+00
      - -6.1371214171179345e-01
      - 2.1290639536273410e+00
      - -7.8969933276856352e-01
      - 2.2345672338417870e+00
      - -9.8800280535766216e-01
      - 2.1532171357951024e+00
      - -1.1575372573564140e+00
      - 2.1987163444735480e+00
      - -1.3174954921288970e+00
      - 2.2887158357147501e+00
      - -1.4305166013551711e+00
      - 2.2793452640880849e+00
      - -1.3514739395299247e+00
      - 2.2258608297768689e+00
      - -1.2091715217591101e+00
      - 2.2076632183234897e+00
      - -1.1225758976556439e+00
      - 2.1973404455035692e+00
      - -1.0367766931014859e+00
      - 2.1913582377434331e+00
      - -9.3882910950508580e-01
      - 2.2413704167286364e+00
      - -8.6319898749910484e-01
      - 2.2813722679372943e+00
      - -8.0501363279028781e-01
      - 2.2931155863451909e+00
      - -7.5719686076807391e-01
      - 2.3020439509828172e+00
      - -7.6619782297645977e-01
      - 2.2792959230046663e+00
      - -8.0200772059348147e-01
      - 2.2573243076468548e+00
      - -8.3484104551235327e-01
      - 2.2517665104291664e+00
      - -8.9711970297623722e-01
      - 2.2350420684545962e+00
      - -9.4633726244313765e-01
      - 2.1981197516538096e+00
      - -1.0101845066338855e+00
      - 2.2083724698683471e+00
      - -1.0850870102650683e+00
      - 2.2265967612925972e+00
      - -1.1289614278695672e+00
      - 2.2677934019178458e+00
      - -1.1489544131666325e+00
      - 2.2852959417624339e+00
      - -1.1617341583979941e+00
      - 2.2405948584332207e+00
      - -1.1464180150140040e+00
      - 2.1773231538968036e+00
      - -1.0356155020932374e+00
      - 2.1953702995314930e+00
      - -9.0271060824342675e-01
      - 2.3800505969174597e+00
      - -7.7002856495624394e-01
      - 2.3642697358877203e+00
      - -6.0285210941363143e-01
      - 2.1245398727596037e+00
      - -7.9070015363869028e-01
      - 2.2107326947409072e+00
      - -9.4961305341024027e-01
      - 2.1534237790245254e+00
      - -1.1070746073330615e+00
      - 2.1811402728163820e+00
      - -1.2629320709436711e+00
      - 2.2829236560331019e+00
      - -1.3604014075698780e+00
      - 2.2575810844729554e+00
      - -1.2727982816509180e+00
      - 2.2129030726339844e+00
      - -1.1670011350423746e+00
      - 2.1856026960218484e+00
      - -1.1088024129368137e+00
      - 2.1909139071494295e+00
      - -1.0395316558988874e+00
      - 2.2200917532513089e+00
      - -9.6417301772323172e-01
      - 2.2648777178930120e+00
      - -8.9342375029266796e-01
      - 2.2731357459630739e+00
      - -8.4441726692381958e-01
      - 2.2901231374622606e+00
      - -8.2705509936501509e-01
      - 2.2711659387886916e+00
      - -8.4075349232015451e-01
      - 2.2347172536778528e+00
      - -8.7303012741121833e-01
      - 2.2248047471623349e+00
      - -9.0068762587220019e-01
      - 2.2351081565407993e+00
      - -9.4090312514314878e-01
      - 2.2595689718874294e+00
      - -1.0143652906179372e+00
      - 2.2224037313189111e+00
      - -1.0715522081474713e+00
      - 2.2210643105903460e+00
      - -1.1086935439389851e+00
      - 2.2283695513365709e+00
      - -1.1345275875155096e+00
      - 2.2281278740504398e+00
      - -1.1381291368277924e+00
      - 2.2622461481954854e+00
      - -1.1458689803253355e+00
      - 2.2537137105701075e+00
      - -1.1057780982912688e+00
      - 2.1933769736839634e+00
      - -9.8267190854531583e-01
      - 2.2099351218722219e+00
      - -8.5176271897484390e-01
      - 2.3843570206373998e+00
      - -7.4320431720206759e-01
      - 2.3645945489560081e+00
      - -6.0893585652491844e-01
      - 2.1154273031572739e+00
      - -7.9955343873035911e-01
      - 2.1809203124405605e+00
      - -9.2109300522759674e-01
      - 2.1382396753974984e+00
      - -1.0628507442934196e+00
      - 2.1565496997757219e+00
      - -1.2100242331050104e+00
      - 2.2583478789183480e+00
      - -1.2912262951080038e+00
      - 2.2518239351459131e+00
      - -1.2526589280718259e+00
      - 2.2111332785199158e+00
      - -1.1823618640897591e+00
      - 2.1819368653962439e+00
      - -1.1066676746134190e+00
      - 2.1872185518876250e+00
      - -1.0397344406033122e+00
      - 2.2287107785195968e+00
      - -9.8696323162159572e-01
      - 2.2919693094412992e+00
      - -9.5768733254500271e-01
      - 2.2788042989338160e+00
      - -9.4741055627045012e-01
      - 2.2631913324480921e+00
      - -9.5997885053050858e-01
      - 2.2325468800621082e+00
      - -9.7857581080022493e-01
      - 2.2208611020521265e+00
      - -1.0124492715290112e+00
      - 2.2048006379283840e+00
      - -1.0272327358842104e+00
      - 2.2285709891137437e+00
      - -1.0469015940929771e+00
      - 2.2609406660958506e+00
      - -1.0955021788709747e+00
      - 2.2635428835825993e+00
      - -1.1415039101811870e+00
      - 2.2605812966569028e+00
      - -1.1547757817707207e+00
      - 2.2291196604638781e+00
      - -1.1592919790608838e+00
      - 2.2278335766912734e+00
      - -1.1636669847436698e+00
      - 2.2582650371104505e+00
      - -1.1503174542924424e+00
      - 2.2681385330226647e+00
      - -1.0981960914215840e+00
      - 2.2006481336271313e+00
      - -9.6655075015253222e-01
      - 2.2305412888969118e+00
      - -8.3342607340496311e-01
      - 2.3708753116381942e+00
      - -7.2528931651300721e-01
      - 2.3467258921162535e+00
      - -6.1610731724060142e-01
      - 2.1147284390754240e+00
      - -8.1119990402476083e-01
      - 2.1725933016658274e+00
      - -9.2082709664217510e-01
      - 2.1328224261884547e+00
      - -1.0487758548032784e+00
      - 2.1471034588497049e+00
      - -1.1794076589392843e+00
      - 2.2477682355133157e+00
      - -1.2577738468319675e+00
      - 2.2465194393995294e+00
      - -1.2628309523765824e+00
      - 2.2321565703775348e+00
      - -1.2269500098220643e+00
      - 2.2082171317566717e+00
      - -1.1363796466580949e+00
      - 2.2192247220662602e+00
      - -1.0743651575760345e+00
      - 2.2544645263705259e+00
      - -1.0445606491118049e+00
      - 2.2901370084780446e+00
      - -1.0248427397773545e+00
      - 2.2357095498298318e+00
      - -1.0242514868572468e+00
      - 2.2059279551487148e+00
      - -1.0466483762145653e+00
      - 2.1783147543660211e+00
      - -1.0709786408445230e+00
      - 2.1808328402858375e+00
      - -1.1109084373400349e+00
      - 2.1819676421359517e+00
      - -1.1404328382190967e+00
      - 2.2107763482113656e+00
      - -1.1457921612800404e+00
      - 2.2573901862380406e+00
      - -1.1683537814731411e+00
      - 2.2616050713907661e+00
      - -1.1871347024070864e+00
      - 2.2208242464245562e+00
      - -1.1709781371157297e+00
      - 2.1875900575217870e+00
      - -1.1730053572615253e+00
      - 2.2010402557367907e+00
      - -1.1730700625308981e+00
      - 2.2278610459628121e+00
      - -1.1342245103539854e+00
      - 2.2410968504550319e+00
      - -1.0765207834982180e+00
      - 2.2120995423674774e+00
      - -9.6329602874040765e-01
      - 2.2406122487426026e+00
      - -8.2349292258906015e-01
      - 2.3622964323044275e+00
      - -7.2023028809574419e-01
      - 2.3243541558217506e+00
      - -6.2001067686233713e-01
      - 2.0986269269203985e+00
      - -7.9948536720798902e-01
      - 2.1645063322338474e+00
      - -9.0726762341422273e-01
      - 2.1283195888945117e+00
      - -1.0368837112148002e+00
      - 2.1419814575880065e+00
      - -1.1618497277424844e+00
      - 2.2331406397901232e+00
      - -1.2402413147301850e+00
      - 2.2141098007440667e+00
      - -1.2441763278259839e+00
      - 2.2177254733833514e+00
      - -1.2373068258313940e+00
      - 2.1825228038838849e+00
      - -1.1453612921041412e+00
      - 2.1819549862492682e+00
      - -1.0932360338037916e+00
      - 2.2157741194293821e+00
      - -1.0887096476142444e+00
      - 2.2322988310183565e+00
      - -1.0570013373396281e+00
      - 2.2140088302949978e+00
      - -1.0626576930627338e+00
      - 2.1800525886409052e+00
      - -1.0877781343443720e+00
      - 2.1304604893789576e+00
      - -1.1044825795144351e+00
      - 2.1227761944040706e+00
      - -1.1314547335816316e+00
      - 2.1534380932033930e+00
      - -1.1676562436035909e+00
      - 2.1917256687533495e+00
      - -1.1731099198459809e+00
      - 2.2475150351789699e+00
      - -1.1870514392291616e+00
      - 2.2354986685125966e+00
      - -1.1818418044678447e+00
      - 2.1765673546711994e+00
      - -1.1530049509567954e+00
      - 2.1686176182271604e+00
      - -1.1614628671599148e+00
      - 2.2049341318582476e+00
      - -1.1674676151304320e+00
      - 2.2323911506318992e+00
      - -1.1218495906862644e+00
      - 2.2339756579972638e+00
      - -1.0642264939432338e+00
      - 2.2000024877774269e+00
      - -9.5538081034860667e-01
      - 2.2216939284039960e+00
      - -8.2159398397406536e-01
      - 2.3522274599402868e+00
      - -7.2209163088930439e-01
      - 2.3214719765052285e+00
      - -6.2313289446145537e-01
      - 2.1001623002767396e+00
      - -7.9434677583145219e-01
      - 2.1681829759446507e+00
      - -9.0260161984971699e-01
      - 2.1231633983045670e+00
      - -1.0268374304458519e+00
      - 2.1434006253147211e+00
      - -1.1563764090139754e+00
      - 2.2254666022651359e+00
      - -1.2393207478253543e+00
      - 2.1956799552656987e+00
      - -1.2336121430602405e+00
      - 2.2124794322183146e+00
      - -1.2149932621212456e+00
      - 2.1883096916072331e+00
      - -1.1091943755027112e+00
      - 2.2088512917930436e+00
      - -1.0580823920699094e+00
      - 2.2312418426295393e+00
      - -1.0348571666042277e+00
      - 2.2509707284913301e+00
      - -1.0036163033062493e+00
      - 2.2148402847349438e+00
      - -1.0019653420294159e+00
      - 2.1764781347712381e+00
      - -1.0320180989964565e+00
      - 2.1265383381923373e+00
      - -1.0455075565401191e+00
      - 2.1215755927019311e+00
      - -1.0661394211250848e+00
      - 2.1630812627530558e+00
      - -1.1118139602560830e+00
      - 2.2082788830031670e+00
      - -1.1368620838582779e+00
      - 2.2381546135980157e+00
      - -1.1524345150152833e+00
      - 2.2304560998396576e+00
      - -1.1435277463843110e+00
      - 2.1894483319326419e+00
      - -1.1114817317223689e+00
      - 2.1748481115930174e+00
      - -1.1012246176393510e+00
      - 2.2000046735469989e+00
      - -1.1220565913843823e+00
      - 2.2264691185451060e+00
      - -1.1091068237900206e+00
      - 2.2179219938676376e+00
      - -1.0655957946539862e+00
      - 2.1823964728819960e+00
      - -9.6682196887781047e-01
      - 2.2035234940158359e+00
      - -8.4354571402194212e-01
      - 2.3179957900264263e+00
      - -7.4085854402764795e-01
      - 2.2858811770995420e+00
      - -6.3729311976757885e-01
      - 2.1084584054578581e+00
      - -8.0826734702839875e-01
      - 2.1591632122077251e+00
      - -9.0091868065377112e-01
      - 2.1285184341913994e+00
      - -1.0217637519634923e+00
      - 2.1559127716499584e+00
      - -1.1599352879442475e+00
      - 2.2283315448117920e+00
      - -1.2400323482275903e+00
      - 2.2191036830357715e+00
      - -1.2144317160265057e+00
      - 2.2527192564737870e+00
      - -1.1616546295689354e+00
      - 2.2125571041662724e+00
      - -1.0507887734820180e+00
      - 2.2246838421473507e+00
      - -1.0102127039635000e+00
      - 2.2439981103668645e+00
      - -9.9378906687735424e-01
      - 2.2828044391465907e+00
      - -9.8104440737936827e-01
      - 2.2324111931471302e+00
      - -9.6316944622061296e-01
      - 2.2100317029615071e+00
      - -9.7585382013111766e-01
      - 2.1877443930457603e+00
      - -1.0054919006721330e+00
      - 2.1813219645970250e+00
      - -1.0309267000142810e+00
      - 2.1911411367883309e+00
      - -1.0581635598691299e+00
      - 2.2252826051639931e+00
      - -1.0855632460762605e+00
      - 2.2679575014385636e+00
      - -1.1235425236665006e+00
      - 2.2543934368917409e+00
      - -1.1150461060442172e+00
      - 2.2241904734240299e+00
      - -1.0573965191402834e+00
      - 2.2205497024900289e+00
      - -1.0422953501981591e+00
      - 2.2272372703991454e+00
      - -1.0635384082488355e+00
      - 2.2327641800720381e+00
      - -1.0803442138091508e+00
      - 2.2098372449006214e+00
      - -1.0729843993924562e+00
      - 2.1756707930928521e+00
      - -9.9306293519827848e-01
      - 2.1991549802099697e+00
      - -8.8420620946896644e-01
      - 2.3066347367258513e+00
      - -7.7495343613640788e-01
      - 2.2863103183503344e+00
      - -6.6865307964620191e-01
      - 2.1231411133446860e+00
      - -8.1383748903506681e-01
      - 2.1717280219013153e+00
      - -9.1376796719064490e-01
      - 2.1252716348872114e+00
      - -1.0240977348543421e+00
      - 2.1496991185999272e+00
      - -1.1577597604482908e+00
      - 2.2394794051004721e+00
      - -1.2508233741893264e+00
      - 2.2356076693697280e+00
      - -1.2092618976954128e+00
      - 2.2337831401100514e+00
      - -1.1209857519061415e+00
      - 2.1967383673332179e+00
      - -1.0156895416912501e+00
      - 2.2197756343313015e+00
      - -9.7549282026016881e-01
      - 2.2186469611337074e+00
      - -9.4055928524493271e-01
      - 2.2536010969389411e+00
      - -9.0551759573199175e-01
      - 2.2436742784753809e+00
      - -8.8645481728226494e-01
      - 2.2386813076284278e+00
      - -8.9190502739578026e-01
      - 2.2074855646353289e+00
      - -9.1223955744287899e-01
      - 2.1966645748768787e+00
      - -9.3761877869966870e-01
      - 2.1994221943170924e+00
      - -9.7398039817198012e-01
      - 2.2361218799001263e+00
      - -1.0133552676598685e+00
      - 2.2525852446778063e+00
      - -1.0436466906926225e+00
      - 2.2453991888450844e+00
      - -1.0521853342735821e+00
      - 2.2655813534439431e+00
      - -1.0128220655018607e+00
      - 2.2761591187965480e+00
      - -9.9525883942843241e-01
      - 2.2563670448158075e+00
      - -1.0077573558177666e+00
      - 2.2255898899466611e+00
      - -1.0465832576847247e+00
      - 2.1940550916526544e+00
      - -1.0691069277763461e+00
      - 2.1386353049504159e+00
      - -1.0041810595580192e+00
      - 2.1616001563977378e+00
      - -9.1856288682339171e-01
      - 2.2851892051084621e+00
      - -8.2120767695251651e-01
      - 2.2674610595617839e+00
      - -7.0398563416792170e-01
      - 2.1316892052336662e+00
      - -7.8318083145848150e-01
      - 2.1922194699069562e+00
      - -9.0994324107128510e-01
      - 2.1240265010578168e+00
      - -1.0395194922231681e+00
      - 2.1558620325786029e+00
      - -1.1837746625253851e+00
      - 2.2485402889520301e+00
      - -1.2896852835816450e+00
      - 2.2491718993964667e+00
      - -1.2391892035222649e+00
      - 2.2332103371129457e+00
      - -1.1279916102826404e+00
      - 2.2100068710542220e+00
      - -1.0339648414087812e+00
      - 2.2278894035878234e+00
      - -9.8575716572900729e-01
      - 2.2142817844338145e+00
      - -9.3095028772302824e-01
      - 2.2388431358509853e+00
      - -8.9081795878376069e-01
      - 2.2341048637760950e+00
      - -8.6507445995311238e-01
      - 2.2489839308080519e+00
      - -8.5284280744961960e-01
      - 2.2329806822006484e+00
      - -8.4726558051182543e-01
      - 2.2232824117317573e+00
      - -8.6830831790146690e-01
      - 2.2050743967692696e+00
      - -9.0834988329688948e-01
      - 2.2184124920951889e+00
      - -9.4716699749779354e-01
      - 2.2411540559600107e+00
      - -9.8325035259438476e-01
      - 2.2349658585708059e+00
      - -9.9471745997240579e-01
      - 2.2507773350826885e+00
      - -9.8835354554910215e-01
      - 2.2126565678028047e+00
      - -9.6167719382811168e-01
      - 2.2212244913832477e+00
      - -9.8504057083150987e-01
      - 2.2166785747731619e+00
      - -1.0386886722015809e+00
      - 2.1946163986166929e+00
      - -1.0812411797873840e+00
      - 2.1271596609768157e+00
      - -1.0226396913861575e+00
      - 2.1400724527403847e+00
      - -9.4301329052491867e-01
      - 2.2476795171686477e+00
      - -8.3700989555602845e-01
      - 2.2195019345899571e+00
      - -7.0580772506403500e-01
      - 2.1520576969956791e+00
      - -7.5798029049619020e-01
      - 2.2315861541240745e+00
      - -9.2430482479617493e-01
      - 2.1445666657510083e+00
      - -1.0777066716244812e+00
      - 2.1743905913031916e+00
      - -1.2363917635903681e+00
      - 2.2692913748125405e+00
      - -1.3661405782031359e+00
      - 2.2973117879586256e+00
      - -1.3238844524956945e+00
      - 2.2550479995687915e+00
      - -1.2008341803493454e+00
      - 2.2029779267449285e+00
      - -1.1075701944140421e+00
      - 2.2096255961159925e+00
      - -1.0319488165447890e+00
      - 2.2003060469470581e+00
      - -9.4984137387200929e-01
      - 2.2153746639845124e+00
      - -8.9665737408109880e-01
      - 2.2122650716955552e+00
      - -8.5930255980541004e-01
      - 2.2247897434846280e+00
      - -8.2415641413423990e-01
      - 2.2337831548757787e+00
      - -8.0056794714603241e-01
      - 2.2228683487656489e+00
      - -8.0971907649289809e-01
      - 2.2286269718785756e+00
      - -8.5443890251585530e-01
      - 2.2460107358773742e+00
      - -9.0786453114576260e-01
      - 2.2704677225225005e+00
      - -9.6103759619595874e-01
      - 2.2333987696217572e+00
      - -9.8494723701821529e-01
      - 2.2053645840267970e+00
      - -9.8812581353133022e-01
      - 2.1744179950860278e+00
      - -9.7868494515125448e-01
      - 2.2101256416263957e+00
      - -1.0126070084469458e+00
      - 2.2019064055746522e+00
      - -1.0633807215996893e+00
      - 2.1886275328157749e+00
      - -1.1087366190369514e+00
      - 2.1309147726235254e+00
      - -1.0506719331769414e+00
      - 2.1400842328825753e+00
      - -9.5950773373068110e-01
      - 2.2374396351035535e+00
      - -8.4662003080134673e-01
      - 2.1914779898218866e+00
      - -7.1027636462445187e-01
      - 2.1605845450928074e+00
      - -7.6353232477345023e-01
      - 2.2537028661286831e+00
      - -9.4778648943802413e-01
      - 2.1714396024384417e+00
      - -1.1154224823152223e+00
      - 2.2103332243015141e+00
      - -1.2841892668539974e+00
      - 2.3143245935988386e+00
      - -1.4297467215821218e+00
      - 2.3493178099255543e+00
      - -1.3987785728143776e+00
      - 2.2530115985285586e+00
      - -1.2510336634839472e+00
      - 2.1959174428284354e+00
      - -1.1574296611233847e+00
      - 2.2113200499843577e+00
      - -1.0857232921459736e+00
      - 2.2000561650604924e+00
      - -9.9497036978296927e-01
      - 2.2208315238501553e+00
      - -9.3176752625217762e-01
      - 2.2773738471221874e+00
      - -8.7726280901885567e-01
      - 2.2810695885166794e+00
      - -8.2159950178925378e-01
      - 2.2876538984424273e+00
      - -8.0613257317182796e-01
      - 2.2883905028102611e+00
      - -8.0870227122564420e-01
      - 2.2775233990780985e+00
      - -8.3804965685420396e-01
      - 2.2842099951719077e+00
      - -8.9506430573055928e-01
      - 2.2807924794672028e+00
      - -9.6475269626935600e-01
      - 2.2119073408894936e+00
      - -9.9542553579103488e-01
      - 2.1745244322625523e+00
      - -1.0028868173848442e+00
      - 2.1613829827840312e+00
      - -1.0211105376704628e+00
      - 2.2238133139710925e+00
      - -1.0840284520771586e+00
      - 2.2489921041003038e+00
      - -1.1470341907046497e+00
      - 2.2149525987365299e+00
      - -1.1659947676870817e+00
      - 2.1405144791122974e+00
      - -1.0861760590456702e+00
      - 2.1529413859534015e+00
      - -9.8354776698594670e-01
      - 2.2600303827708412e+00
      - -8.6506616637891942e-01
      - 2.2150215384974326e+00
      - -7.2326337992775880e-01
      - 2.1880407354979967e+00
      - -7.5940404694231689e-01
      - 2.2878929161207382e+00
      - -9.5496679895758829e-01
      - 2.1919334783679036e+00
      - -1.1356281133195674e+00
      - 2.2231654049035585e+00
      - -1.3157686186671920e+00
      - 2.3569842439793005e+00
      - -1.4756713477471373e+00
      - 2.3738757387383620e+00
      - -1.4323196387547503e+00
      - 2.2740027728890793e+00
      - -1.2735463176670703e+00
      - 2.1901092682589289e+00
      - -1.1619215331635013e+00
      - 2.1780849596810690e+00
      - -1.0877661502004505e+00
      - 2.1774809324369637e+00
      - -1.0186610263501401e+00
      - 2.2198762013250017e+00
      - -9.6542000922241600e-01
      - 2.2470470435214187e+00
      - -9.0706009364222584e-01
      - 2.2379023794396455e+00
      - -8.5309730710318510e-01
      - 2.2246953496081789e+00
      - -8.2212040526849262e-01
      - 2.2245700449646999e+00
      - -8.2154042551377193e-01
      - 2.2302247427443511e+00
      - -8.6430823030200155e-01
      - 2.2684482291915327e+00
      - -9.4760086291917556e-01
      - 2.2733605699433341e+00
      - -1.0035131381493674e+00
      - 2.2128060877738918e+00
      - -1.0195046155799337e+00
      - 2.1800691006850195e+00
      - -1.0315702514449412e+00
      - 2.1626576713522079e+00
      - -1.0548564776159419e+00
      - 2.2398381261895093e+00
      - -1.1497119474723239e+00
      - 2.2466208511958055e+00
      - -1.2096396749487270e+00
      - 2.2034872468002211e+00
      - -1.2060024293013101e+00
      - 2.1458430113942724e+00
      - -1.1151314055934509e+00
      - 2.1809960037452383e+00
      - -9.9519917557125981e-01
      - 2.3255855438421613e+00
      - -8.5666470691044205e-01
      - 2.2877694429093980e+00
      - -6.9535078453009880e-01
      - 2.2160192617088947e+00
      - -7.5066368507826209e-01
      - 2.3152114379704476e+00
      - -9.4810883467817997e-01
      - 2.2035199483108352e+00
      - -1.1446744666388977e+00
      - 2.2154302932018344e+00
      - -1.3318362369821433e+00
      - 2.3556410476652987e+00
      - -1.4886268283730817e+00
      - 2.3718489407479035e+00
      - -1.4508405200616590e+00
      - 2.2875032296409099e+00
      - -1.2886304990550153e+00
      - 2.2025727171189673e+00
      - -1.1525479931098959e+00
      - 2.2116193522103291e+00
      - -1.0900751719156574e+00
      - 2.1887881121675021e+00
      - -1.0181565034393139e+00
      - 2.2061995865906723e+00
      - -9.8139928053463521e-01
      - 2.2288034095252987e+00
      - -9.4993523595661011e-01
      - 2.2166722328590129e+00
      - -9.3741916748175824e-01
      - 2.2123320023686368e+00
      - -9.2082208649319541e-01
      - 2.2199810517029803e+00
      - -9.3015240547669353e-01
      - 2.2307510431301116e+00
      - -9.6918046662593427e-01
      - 2.2574691285671142e+00
      - -1.0032036215969111e+00
      - 2.2723989334399133e+00
      - -1.0274342707402755e+00
      - 2.2427358935592032e+00
      - -1.0469587497888977e+00
      - 2.2270047540740765e+00
      - -1.0689138600993882e+00
      - 2.2044653408419328e+00
      - -1.1151930802178736e+00
      - 2.2362958402858610e+00
      - -1.2057485333171611e+00
      - 2.2370101075104221e+00
      - -1.2592514601081595e+00
      - 2.2268241657920322e+00
      - -1.2541572485820522e+00
      - 2.1904606825938022e+00
      - -1.1619580301710053e+00
      - 2.2395188494979665e+00
      - -1.0067426487532161e+00
      - 2.4014182264831234e+00
      - -8.3276358895611380e-01
      - 2.3691574681875140e+00
      - -6.5270467085732109e-01
      - 2.2191572533244477e+00
      - -7.2193914435475159e-01
      - 2.3113405401700367e+00
      - -9.1250303823528733e-01
      - 2.2067382586810202e+00
      - -1.1191550578923868e+00
      - 2.2077999409949913e+00
      - -1.3067678684841959e+00
      - 2.2833198377323258e+00
      - -1.4419892084411963e+00
      - 2.3111261842817412e+00
      - -1.4387354000212478e+00
      - 2.2730428961492888e+00
      - -1.3178108751116508e+00
      - 2.2338339657799966e+00
      - -1.1978875009121677e+00
      - 2.2534176157160899e+00
      - -1.1194662932807384e+00
      - 2.2198757326480814e+00
      - -1.0295528630942046e+00
      - 2.2163464325181392e+00
      - -9.9007726578972743e-01
      - 2.1953742187354819e+00
      - -9.6515991968341774e-01
      - 2.1749634261123290e+00
      - -9.7232408276153870e-01
      - 2.1636321666390761e+00
      - -9.6790480452722083e-01
      - 2.1723066479327913e+00
      - -9.7243572906179065e-01
      - 2.1964229886059150e+00
      - -9.9036245600883388e-01
      - 2.2324872816574621e+00
      - -1.0015179645799634e+00
      - 2.2499780579464521e+00
      - -1.0237699008649002e+00
      - 2.2396442696272287e+00
      - -1.0529774099288929e+00
      - 2.2342494342629293e+00
      - -1.1000957585862119e+00
      - 2.2118011787309428e+00
      - -1.1743367666924791e+00
      - 2.2014368396110502e+00
      - -1.2304851248181552e+00
      - 2.2144083268436994e+00
      - -1.2673671853250870e+00
      - 2.2134378909783252e+00
      - -1.2503676383537725e+00
      - 2.2136557860066515e+00
      - -1.1548212579812547e+00
      - 2.2761927153360189e+00
      - -9.7012714909203623e-01
      - 2.4721841160122202e+00
      - -7.9007093652069726e-01
      - 2.4413708653863488e+00
      - -6.1369206782034003e-01
      - 2.2441928207517301e+00
      - -6.9349384804389758e-01
      - 2.3503879249955295e+00
      - -8.9796353326747069e-01
      - 2.2075676808827800e+00
      - -1.0916539944362269e+00
      - 2.1845354684128342e+00
      - -1.2375135404599724e+00
      - 2.2621067498077561e+00
      - -1.3777469811783831e+00
      - 2.2801287415231348e+00
      - -1.3912249925181974e+00
      - 2.2381283613149368e+00
      - -1.3155724925888614e+00
      - 2.2277708165254904e+00
      - -1.2374956095195047e+00
      - 2.2559553835333883e+00
      - -1.1513866017075181e+00
      - 2.2121826969444656e+00
      - -1.0442566765143668e+00
      - 2.2205251860243105e+00
      - -1.0092036064918606e+00
      - 2.2010437771270670e+00
      - -9.9211787713501498e-01
      - 2.1770281107153715e+00
      - -9.9753612106787981e-01
      - 2.1547019296687084e+00
      - -9.9251514920290240e-01
      - 2.1682531447339817e+00
      - -9.9223643196326405e-01
      - 2.1861726169254934e+00
      - -9.9964515611550642e-01
      - 2.2263980864686408e+00
      - -1.0100325789667377e+00
      - 2.2456814675812149e+00
      - -1.0387068930390091e+00
      - 2.2415051752355502e+00
      - -1.0739551052557974e+00
      - 2.2375098971570719e+00
      - -1.1433337296793200e+00
      - 2.2112152449227973e+00
      - -1.2165793481762970e+00
      - 2.2030163721430731e+00
      - -1.2617802419779927e+00
      - 2.2150993886530213e+00
      - -1.2650986036916887e+00
      - 2.2286324287140755e+00
      - -1.2011703882801261e+00
      - 2.2332671413422269e+00
      - -1.0665234862007151e+00
      - 2.3215104740862103e+00
      - -8.8762450025930340e-01
      - 2.6533355403899379e+00
      - -7.1914111374400336e-01
      - 2.6522381338171259e+00
      - -5.3295709189036522e-01
      - 2.3324547858748086e+00
      - -6.7449970343082810e-01
      - 2.3953065027069709e+00
      - -8.3904915348100761e-01
      - 2.2285519362564434e+00
      - -9.9032165409683215e-01
      - 2.2111954266324041e+00
      - -1.1452398259309338e+00
      - 2.2695647074698133e+00
      - -1.2557401689867693e+00
      - 2.2808285521461675e+00
      - -1.2919705189670994e+00
      - 2.2448794007763957e+00
      - -1.2670618601250048e+00
      - 2.2523659930664888e+00
      - -1.2351277097030708e+00
      - 2.2779835399366584e+00
      - -1.2009665324549574e+00
      - 2.3046469100349691e+00
      - -1.1736147223061926e+00
      - 2.3224523088612430e+00
      - -1.1519090304687702e+00
      - 2.2657436222148428e+00
      - -1.1026430730950731e+00
      - 2.2405837419132704e+00
      - -1.1002948433520581e+00
      - 2.2094505585266244e+00
      - -1.0926175944827359e+00
      - 2.2220185282156204e+00
      - -1.0923421370711957e+00
      - 2.2554779542150896e+00
      - -1.1117270743446199e+00
      - 2.3115058894714422e+00
      - -1.1340715589222314e+00
      - 2.3199395365291191e+00
      - -1.1464952493591525e+00
      - 2.2727257569752872e+00
      - -1.1530701249220789e+00
      - 2.2428371377387997e+00
      - -1.1764768989007721e+00
      - 2.2304698847935986e+00
      - -1.2149743495703131e+00
      - 2.2569204702554750e+00
      - -1.2349498316401317e+00
      - 2.2662381258542195e+00
      - -1.1918239575630420e+00
      - 2.3002597905266917e+00
      - -1.0915753140300086e+00
      - 2.3227772555764599e+00
      - -9.6060285977404092e-01
      - 2.3979030008612692e+00
      - -8.0348429289678525e-01
      - 2.7295653285308221e+00
      - -6.7604131171380999e-01
      - 2.7959426414060449e+00
      - -5.2104180162491709e-01
      - 2.3825469512775213e+00
      - -6.4238917314627186e-01
      - 2.3973613363983532e+00
      - -7.5167321358267347e-01
      - 2.2562564254053905e+00
      - -8.5374585332354902e-01
      - 2.2454005680521232e+00
      - -9.8330203299241081e-01
      - 2.3267534786855202e+00
      - -1.0883502678490156e+00
      - 2.3398613605999654e+00
      - -1.1356848965825610e+00
      - 2.2874421083399228e+00
      - -1.1373481782852140e+00
      - 2.2460539168264715e+00
      - -1.1233818935377586e+00
      - 2.2225733501980769e+00
      - -1.1090657585451593e+00
      - 2.2380012249654624e+00
      - -1.1182990926923162e+00
      - 2.2895667718162573e+00
      - -1.1574268150174034e+00
      - 2.3110288207718819e+00
      - -1.1900124348741257e+00
      - 2.3174910806222413e+00
      - -1.2372510143509978e+00
      - 2.3020338574967814e+00
      - -1.2521332566958123e+00
      - 2.3005738313650022e+00
      - -1.2507136171737585e+00
      - 2.2958675879487624e+00
      - -1.2227501861182835e+00
      - 2.2836030173077759e+00
      - -1.1683519020351141e+00
      - 2.2576714198873478e+00
      - -1.1144706376657809e+00
      - 2.2191531941461164e+00
      - -1.0764728181097754e+00
      - 2.2391365611804601e+00
      - -1.0767222513133301e+00
      - 2.2958884001458943e+00
      - -1.0922327867334098e+00
      - 2.3609940364532522e+00
      - -1.0847779772840502e+00
      - 2.3988625461721584e+00
      - -1.0274924894988546e+00
      - 2.4200338309955178e+00
      - -9.3957973129304251e-01
      - 2.3436690411824701e+00
      - -8.3413869198114554e-01
      - 2.4016272440692772e+00
      - -7.3803390685787928e-01
      - 2.6489279345960317e+00
      - -6.5753030959862890e-01
      - 2.7230789843036556e+00
      - -5.5729441865796159e-01
      - 2.7807386585459200e+00
      - -5.7583697513025900e-01
      - 2.7054962744231963e+00
      - -6.7606169000788707e-01
      - 2.4303926037241044e+00
      - -7.3961429912162924e-01
      - 2.4642336133237954e+00
      - -8.2220103745088302e-01
      - 2.5673213037900831e+00
      - -8.7516728740868133e-01
      - 2.5518000186996397e+00
      - -8.7761583163835777e-01
      - 2.5172275581441363e+00
      - -9.0021948121106254e-01
      - 2.4253145798537306e+00
      - -9.3629419400313274e-01
      - 2.3299045379584906e+00
      - -9.5005227839678807e-01
      - 2.2641894428736533e+00
      - -9.5970840782301026e-01
      - 2.2195176043557634e+00
      - -9.7103879933002069e-01
      - 2.2094112469665235e+00
      - -1.0147207065033774e+00
      - 2.1989063847130135e+00
      - -1.0635074277343350e+00
      - 2.1987517812130473e+00
      - -1.1042723445219111e+00
      - 2.2069371412007928e+00
      - -1.1088166914287485e+00
      - 2.2189554354676599e+00
      - -1.0534626579406425e+00
      - 2.2524919494572186e+00
      - -9.9328968032310905e-01
      - 2.3310560288741833e+00
      - -9.4933179243458632e-01
      - 2.4136426474980470e+00
      - -9.0384640305518726e-01
      - 2.5190178254470759e+00
      - -8.7373816108716496e-01
      - 2.5882992726092038e+00
      - -8.2026645135145093e-01
      - 2.6650068176856303e+00
      - -7.8902208313540234e-01
      - 2.6495983698975887e+00
      - -7.4595566077055464e-01
      - 2.5993566551061544e+00
      - -7.2794959569913120e-01
      - 2.4929575333103089e+00
      - -6.9813657903441206e-01
      - 2.5263917082527061e+00
      - -6.5905507384185624e-01
      - 2.7034254514193341e+00
      - -6.0600902701449000e-01
      - 2.7396637795980814e+00
      - -5.3465113942815556e-01
      - 3.1327580765679857e+00
      - -3.6490223478549483e-01
      - 3.1058924080052948e+00
      - -5.1650228039927071e-01
      - 2.5862927685337858e+00
      - -5.8599308887398716e-01
      - 2.6316103262586217e+00
      - -5.9217336077258409e-01
      - 2.6446779939872243e+00
      - -5.6258222660067769e-01
      - 2.6268316934711087e+00
      - -5.4473884285086072e-01
      - 2.6111194499743675e+00
      - -5.4603408692166344e-01
      - 2.5733404267416553e+00
      - -5.9387920668408456e-01
      - 2.4650737138068131e+00
      - -6.6036662930976819e-01
      - 2.3308654189337674e+00
      - -7.0205402057034272e-01
      - 2.2381216191289379e+00
      - -7.3661928882130445e-01
      - 2.1814046629563451e+00
      - -7.7162541753938496e-01
      - 2.1421197917626946e+00
      - -8.0705081536912260e-01
      - 2.1420271490329665e+00
      - -8.5344397294441565e-01
      - 2.1504097171249263e+00
      - -8.4368588043788684e-01
      - 2.1941055335099771e+00
      - -7.8592112943555792e-01
      - 2.2939517116966859e+00
      - -7.2134997572318038e-01
      - 2.4541126865521385e+00
      - -6.5172969503954614e-01
      - 2.6561285290620238e+00
      - -5.7567889137545802e-01
      - 2.8223158378481070e+00
      - -5.0804033037930851e-01
      - 2.9395395685748422e+00
      - -4.6720467047423059e-01
      - 2.9856908753553388e+00
      - -4.5462189226199623e-01
      - 2.9190388389024067e+00
      - -4.7063911597486979e-01
      - 2.8272295035176058e+00
      - -5.1257473972874501e-01
      - 2.6997680912624782e+00
      - -5.3113661072377072e-01
      - 2.6546398629245092e+00
      - -5.4151835316788011e-01
      - 2.8994725904325249e+00
      - -5.0031785552376040e-01
      - 2.8442144231262900e+00
      - -4.1349053409476383e-01
   output_scale:
      - 5.2631578947368418e-01
      - 4.9999999999999994e-01
      - 5.2631578947368418e-01
      - 4.9999999999999994e-01
      - 5.2631578947368418e-01
      - 4.9999999999999994e-01
      - 5.2631578947368418e-01
      - 4.9999999999999994e-01
      - 5.2631578947368418e-01
      - 4.9999999999999994e-01
      - 5.2631578947368418e-01
      - 4.9999999999999994e-01
      - 5.2631578947368418e-01
      - 4.9999999999999994e-01
      - 5.2631578947368418e-01
      - 4.9999999999999994e-01
      - 5.2631578947368418e-01
      - 4.9999999999999994e-01
      - 5.2631578947368418e-01
      - 4.9999999999999994e-01
      - 5.2631578947368418e-01
      - 4.9999999999999994e-01
      - 5.2631578947368418e-01
      - 4.9999999999999994e-01
      - 5.2631578947368418e-01
      - 4.9999999999999994e-01
      - 5.2631578947368418e-01
      - 4.9999999999999994e-01
      - 5.2631578947368418e-01
      - 4.9999999999999994e-01
      - 5.2631578947368418e-01
      - 4.9999999999999994e-01
      - 5.2631578947368418e-01
      - 4.9999999999999994e-01
      - 5.2631578947368418e-01
      - 4.9999999999999994e-01
      - 5.2631578947368418e-01
      - 4.9999999999999994e-01
      - 5.2631578947368418e-01
      - 4.9999999999999994e-01
      - 5.2631578947368418e-01
      - 4.9999999999999994e-01
      - 5.2631578947368418e-01
      - 4.9999999999999994e-01
      - 5.2631578947368418e-01
      - 4.9999999999999994e-01
      - 5.2631578947368418e-01
      - 4.9999999999999994e-01
      - 5.2631578947368418e-01
      - 4.9999999999999994e-01
      - 5.2631578947368418e-01
      - 4.9999999999999994e-01
      - 5.2631578947368418e-01
      - 4.9999999999999994e-01
      - 5.2631578947368418e-01
      - 4.9999999999999994e-01
      - 5.2631578947368418e-01
      - 4.9999999999999994e-01
      - 5.2631578947368418e-01
      - 4.9999999999999994e-01
      - 5.2631578947368418e-01
      - 4.9999999999999994e-01
      - 5.2631578947368418e-01
      - 4.9999999999999994e-01
      - 5.2631578947368418e-01
      - 4.9999999999999994e-01
      - 5.2631578947368418e-01
      - 4.9999999999999994e-01
      - 5.2631578947368418e-01
      - 4.9999999999999994e-01
      - 5.2631578947368418e-01
      - 4.9999999999999994e-01
      - 5.2631578947368418e-01
      - 4.9999999999999994e-01
      - 5.2631578947368418e-01
      - 4.9999999999999994e-01
      - 5.2631578947368418e-01
      - 4.9999999999999994e-01
      - 5.2631578947368418e-01
      - 4.9999999999999994e-01
      - 5.2631578947368418e-01
      - 4.9999999999999994e-01
      - 5.2631578947368418e-01
      - 4.9999999999999994e-01
      - 5.2631578947368418e-01
      - 4.9999999999999994e-01
      - 5.2631578947368418e-01
      - 4.9999999999999994e-01
      - 5.2631578947368418e-01
      - 4.9999999999999994e-01
      - 5.2631578947368418e-01
      - 4.9999999999999994e-01
      - 5.2631578947368418e-01
      - 4.9999999999999994e-01
      - 5.2631578947368418e-01
      - 4.9999999999999994e-01
      - 5.2631578947368418e-01
      - 4.9999999999999994e-01
      - 5.2631578947368418e-01
      - 4.9999999999999994e-01
      - 5.2631578947368418e-01
      - 4.9999999999999994e-01
      - 5.2631578947368418e-01
      - 4.9999999999999994e-01
      - 5.2631578947368418e-01
      - 4.9999999999999994e-01
      - 5.2631578947368418e-01
      - 4.9999999999999994e-01
      - 5.2631578947368418e-01
      - 4.9999999999999994e-01
      - 5.2631578947368418e-01
      - 4.9999999999999994e-01
      - 5.2631578947368418e-01
      - 4.9999999999999994e-01
      - 5.2631578947368418e-01
      - 4.9999999999999994e-01
      - 5.2631578947368418e-01
      - 4.9999999999999994e-01
      - 5.2631578947368418e-01
      - 4.9999999999999994e-01
      - 5.2631578947368418e-01
      - 4.9999999999999994e-01
      - 5.2631578947368418e-01
      - 4.9999999999999994e-01
   inv_output_scale:
      - 1.8999999999999999e+00
      - -9.4999999999999996e-01
      - 1.8999999999999999e+00
      - -9.4999999999999996e-01
      - 1.8999999999999999e+00
      - -9.4999999999999996e-01
      - 1.8999999999999999e+00
      - -9.4999999999999996e-01
      - 1.8999999999999999e+00
      - -9.4999999999999996e-01
      - 1.8999999999999999e+00
      - -9.4999999999999996e-01
      - 1.8999999999999999e+00
      - -9.4999999999999996e-01
      - 1.8999999999999999e+00
      - -9.4999999999999996e-01
      - 1.8999999999999999e+00
      - -9.4999999999999996e-01
      - 1.8999999999999999e+00
      - -9.4999999999999996e-01
      - 1.8999999999999999e+00
      - -9.4999999999999996e-01
      - 1.8999999999999999e+00
      - -9.4999999999999996e-01
      - 1.8999999999999999e+00
      - -9.4999999999999996e-01
      - 1.8999999999999999e+00
      - -9.4999999999999996e-01
      - 1.8999999999999999e+00
      - -9.4999999999999996e-01
      - 1.8999999999999999e+00
      - -9.4999999999999996e-01
      - 1.8999999999999999e+00
      - -9.4999999999999996e-01
      - 1.8999999999999999e+00
      - -9.4999999999999996e-01
      - 1.8999999999999999e+00
      - -9.4999999999999996e-01
      - 1.8999999999999999e+00
      - -9.4999999999999996e-01
      - 1.8999999999999999e+00
      - -9.4999999999999996e-01
      - 1.8999999999999999e+00
      - -9.4999999999999996e-01
      - 1.8999999999999999e+00
      - -9.4999999999999996e-01
      - 1.8999999999999999e+00
      - -9.4999999999999996e-01
      - 1.8999999999999999e+00
      - -9.4999999999999996e-01
      - 1.8999999999999999e+00
      - -9.4999999999999996e-01
      - 1.8999999999999999e+00
      - -9.4999999999999996e-01
      - 1.8999999999999999e+00
      - -9.4999999999999996e-01
      - 1.8999999999999999e+00
      - -9.4999999999999996e-01
      - 1.8999999999999999e+00
      - -9.4999999999999996e-01
      - 1.8999999999999999e+00
      - -9.4999999999999996e-01
      - 1.8999999999999999e+00
      - -9.4999999999999996e-01
      - 1.8999999999999999e+00
      - -9.4999999999999996e-01
      - 1.8999999999999999e+00
      - -9.4999999999999996e-01
      - 1.8999999999999999e+00
      - -9.4999999999999996e-01
      - 1.8999999999999999e+00
      - -9.4999999999999996e-01
      - 1.8999999999999999e+00
      - -9.4999999999999996e-01
      - 1.8999999999999999e+00
      - -9.4999999999999996e-01
      - 1.8999999999999999e+00
      - -9.4999999999999996e-01
      - 1.8999999999999999e+00
      - -9.4999999999999996e-01
      - 1.8999999999999999e+00
      - -9.4999999999999996e-01
      - 1.8999999999999999e+00
      - -9.4999999999999996e-01
      - 1.8999999999999999e+00
      - -9.4999999999999996e-01
      - 1.8999999999999999e+00
      - -9.4999999999999996e-01
      - 1.8999999999999999e+00
      - -9.4999999999999996e-01
      - 1.8999999999999999e+00
      - -9.4999999999999996e-01
      - 1.8999999999999999e+00
      - -9.4999999999999996e-01
      - 1.8999999999999999e+00
      - -9.4999999999999996e-01
      - 1.8999999999999999e+00
      - -9.4999999999999996e-01
      - 1.8999999999999999e+00
      - -9.4999999999999996e-01
      - 1.8999999999999999e+00
      - -9.4999999999999996e-01
      - 1.8999999999999999e+00
      - -9.4999999999999996e-01
      - 1.8999999999999999e+00
      - -9.4999999999999996e-01
      - 1.8999999999999999e+00
      - -9.4999999999999996e-01
      - 1.8999999999999999e+00
      - -9.4999999999999996e-01
      - 1.8999999999999999e+00
      - -9.4999999999999996e-01
      - 1.8999999999999999e+00
      - -9.4999999999999996e-01
      - 1.8999999999999999e+00
      - -9.4999999999999996e-01
      - 1.8999999999999999e+00
      - -9.4999999999999996e-01
      - 1.8999999999999999e+00
      - -9.4999999999999996e-01
      - 1.8999999999999999e+00
      - -9.4999999999999996e-01
      - 1.8999999999999999e+00
      - -9.4999999999999996e-01
   weights:
      -
         - -8.2542028694131642e-01
         - 9.1682716210767767e-01
         - 3.7711621389900346e-01
         - 1.0962578058351771e+00
         - 2.6369595282144270e-01
         - 8.9759374241027179e-01
         - 2.8785136409696838e-01
         - -2.7016519072935319e-01
         - -1.0815673323058229e-01
         - 7.1533806127448740e-01
         - -1.4400214392021822e+00
         - -1.9127418762998433e-01
         - -5.1271386428263932e-01
         - -1.7524421768050476e-02
         - -6.7790811950640772e-01
         - 7.4629056061885787e-02
         - 3.6308748037789973e-01
         - -7.3088807054735494e-01
         - 1.4637262751652230e-01
         - -3.8084143269638410e-01
         - -1.8453950262363444e-01
         - -2.9615940725622963e-01
         - -7.4662559184105137e-01
         - -3.4736250026003179e-01
         - 1.1583944823943841e+00
         - 6.3271750032633067e-01
         - -1.6425470556386390e-01
         - -1.7346542278294344e-01
         - 2.3308860337684917e-01
         - 1.2177964099452554e+00
         - -2.6887414933640868e-02
         - -1.1666660172323335e+00
         - -6.2048356450876896e-01
         - -1.2173409007788071e-01
         - -1.0516823508243027e+00
         - -2.7349728352863761e-01
         - -6.2037626061592188e-01
         - -1.2533064247808774e+00
         - -5.2844914159320189e-01
         - 7.6955589737009417e-02
         - 3.3771919488144159e-01
         - 4.4555458364403111e-01
         - 1.1837840305565768e+00
         - 6.8918052271161756e-01
         - -6.8804253423051820e-01
         - -4.0170650917965445e-01
         - 9.6527398177718260e-01
         - -2.6981988245763316e-01
         - 3.9950876189268869e-01
         - -5.4549053919993373e-01
         - 8.0687101565258712e-01
         - 6.6038403030152892e-01
         - -1.5883579067455550e-01
         - -1.7633225290884949e-01
         - 2.7128963258028316e-01
         - 1.0740662426878806e+00
         - 9.5263709394737654e-03
         - -1.9808989208859956e-01
         - 1.2224302825044810e-01
         - 6.4278945751747793e-02
         - -2.3236990356403031e-01
         - 7.8947545956903153e-01
         - 9.3893841377068310e-01
         - -2.7874321503816035e-01
         - -1.6785936831382458e+00
         - 7.8388105909515249e-01
         - 2.8803391745525780e-01
         - -4.6658811950030343e-01
         - -3.9463499594007079e-01
         - 8.4358951069613020e-01
         - 3.9691815031874932e-02
         - -7.6946982152161270e-01
         - 8.9849783204480105e-01
         - 4.2600784233135486e-01
         - 4.8257022808811550e-01
         - 5.0927787979819908e-02
         - 3.6337261627744827e-01
         - -2.4186840602165663e-01
         - -6.1389841548680257e-01
         - -8.2455463049416589e-01
         - -3.4633901651532623e-01
         - -4.1437340293333935e-01
         - 3.6954518474597342e-01
         - -2.6503652884225576e-01
         - 1.9475634620739468e-01
         - 7.2830100534743114e-01
         - -1.9778599531233004e-01
         - -9.5191053833826034e-02
         - -5.2082031931194227e-02
         - -6.7947848003235001e-02
         - -7.1970144771546065e-03
         - 8.0889975367256159e-02
         - -1.6100196688199755e-01
         - 5.6970828967633391e-01
         - 3.7934019843226818e-01
         - 2.9681780558219922e-01
         - -1.2981575729792505e+00
         - 5.4800418548380392e-01
         - -8.5629083750016177e-01
         - -2.1567469991214616e-01
         - -7.2139504356835707e-02
         - 9.4288017276630975e-01
         - 2.0619259920664362e-01
         - -8.9518297729373786e-01
         - 1.5652875722944773e-01
         - 1.8224059244767938e+00
         - -4.5265934851828937e-01
         - -5.4551976940349700e-01
         - 4.9862185656844149e-01
         - -4.7356393593289754e-02
         - 2.7582643402175044e-01
         - 3.4033024525523986e-01
         - 9.7024093773452591e-01
         - -7.2779451940516915e-01
         - -9.3908350431854126e-01
         - -1.1420458193824801e+00
         - 7.1533894758840355e-01
         - 3.1092085527497543e-01
         - 1.0152979882893456e+00
         - 4.1258893372593375e-01
         - 1.2254982123935529e+00
         - -8.2238432779116688e-01
         - -7.4609623499006339e-01
         - -5.3760746274565940e-01
         - 4.9475433830949833e-01
         - 2.1004684899027271e-01
         - 8.6741298971867353e-01
         - -1.0376402771485385e+00
         - -2.5874846712334870e-01
         - 1.7924317238972753e+00
         - 3.9581241947965434e-01
         - 6.9096358770499422e-01
         - 4.9094258222496368e-01
         - 8.9880859418523662e-01
         - -8.8629513485142239e-02
         - 5.1995317453033663e-01
         - -4.1126418358894073e-01
         - 1.4057952237981813e-01
         - -1.1324638030234206e+00
         - 3.7481526283860211e-01
         - -3.2924937433639674e-02
         - 5.4129133396535367e-01
         - -8.1625852674977062e-01
         - 3.5985093772590621e-01
         - -5.1963037285400859e-01
         - 3.0947546445248547e-01
         - 2.5292695850901842e-02
         - 1.6158904002259486e-01
         - 4.4157235202130807e-01
         - -1.6888272159186077e-02
         - -4.8564449161030582e-01
         - 3.5436937893744458e-01
         - 8.8459791752669759e-01
         - 7.3286150396279537e-01
         - -1.3829809478912627e-01
         - 3.7752255558387571e-01
         - 4.2415101876602840e-01
         - 8.7011209805266370e-03
         - -4.5770551054410011e-02
         - -6.3811249618056765e-01
         - 2.1848305406431673e-01
         - 2.2337954264668264e-01
         - -5.5776853922547748e-02
         - -2.3232946835238991e-01
         - -4.2642325348804200e-01
         - -1.0044055755680328e+00
         - -6.1560521284982805e-01
         - -1.4160840341232328e-02
         - -2.8898459120062114e-01
         - 8.2185383721138805e-01
         - 9.8133318395437830e-01
         - 7.2260857460952366e-01
         - -3.2194862981796019e-01
         - 1.6628959175625369e-01
         - 9.9758505480310655e-01
         - -5.3287650701280817e-02
         - 8.1616052091640423e-01
         - -3.8778018806062836e-01
         - 5.9744024285416963e-01
         - 4.8230639067917247e-01
         - -3.2771739796134736e-01
         - -1.1624594552448354e-01
         - 7.3956359150858486e-01
         - 8.5852579932071771e-01
         - -2.3341695336425833e-01
         - -1.1369723930102162e+00
         - 3.6817334751070774e-01
         - 6.5154852613325417e-02
         - -2.6583177203722341e-01
         - 6.1790528357596008e-01
         - 8.2782238896415761e-01
         - -7.1127192055859290e-01
         - -8.6967437606327835e-01
         - 1.3910388146414643e+00
         - 1.6587295128931540e-01
         - -9.0091637124302260e-01
         - 4.8773030362694862e-02
         - 9.5965962305608377e-01
         - -1.4885359175338383e-01
         - -6.4707586590769606e-01
         - 3.0008174884580863e-01
         - 9.9212306690815122e-01
         - 3.1858257282724733e-02
         - -8.6517922346880896e-02
         - -2.2756201846736257e-01
         - -8.0328529572505492e-01
         - -4.8445413414580651e-01
         - -8.9441873901700875e-01
         - -4.3317884507555401e-02
         - -4.3238308094370093e-01
         - 3.7298626751632308e-01
         - -3.5581962174301923e-01
         - -1.0077405172750722e-01
         - 8.8607457460819405e-01
         - 4.9471455248373730e-01
         - 4.0108914571898935e-01
         - 2.8050307488723891e-01
         - -1.7810862450198306e-01
         - 1.1420663080911132e-01
         - -4.9301129338293830e-02
         - 7.5575265981911999e-01
         - 3.9115547455178168e-01
         - -1.4659586104086067e-01
         - 8.0552946979016212e-03
         - -7.0655007475156828e-01
         - 4.1797313392350011e-01
         - -8.8897320559233872e-01
         - 8.9319654954162983e-03
         - -5.8048309741230431e-01
         - 2.1655723204961502e-01
         - -1.9008524979841726e-01
         - -5.4505618404336864e-01
         - 1.8299121622922332e-01
         - 9.5014231007036865e-01
         - 8.8704633136530056e-02
         - -1.2905291752877956e-01
         - 4.9465652028801421e-01
         - 4.8215351985563204e-02
         - 1.4647424304559131e-01
         - 7.8091069602307703e-02
         - 1.0768948385911792e-01
         - -3.1669344845399994e-01
         - -5.3260979418725463e-01
         - -9.4786212291191030e-01
         - -2.2819648145274835e-02
         - 3.9165835347082334e-01
         - 1.2765368842320168e+00
         - -2.6420574317454126e-01
         - 1.2267783136170882e+00
         - 1.0182316971290966e-02
         - -8.8899138091379981e-01
         - -3.8188752831850936e-01
         - 6.2951431968930061e-01
         - -1.6564583808378516e-01
         - 2.6533396107463691e-01
         - -4.4164425968836296e-01
         - 1.0228803467422267e+00
         - 1.6392995490079616e+00
         - 6.3384297760332209e-01
         - 4.6998411610087798e-01
         - 4.9959833732894149e-01
         - -6.2180754981576117e-02
         - -6.6132612841537686e-01
         - 7.1580272265695655e-01
         - -2.0863000551458885e-01
         - 1.1071479762293766e-01
         - -7.5686861516389747e-01
         - -1.1667422926978874e-01
         - 3.1411206660581775e-01
         - 7.5508639277357770e-01
         - -2.6593404738384302e-01
         - 6.3435026065422073e-01
         - -5.8113829870414524e-02
         - 1.7335055711969458e+00
         - 2.9461268309985217e-01
         - 4.7890746447158061e-01
         - 9.9321729140642290e-01
         - 1.9310794027989941e-01
         - -1.4422908884048646e+00
         - 6.4386414874262421e-01
         - -1.5937855804891715e-01
         - 8.9250737221176735e-01
         - 2.0946075589214971e-01
         - 7.6644326399449447e-01
         - 5.0086147408612725e-01
         - -1.5423663315810829e-01
         - 3.8166951272964517e-01
         - -2.2063581856424219e-01
         - 3.9576550001463801e-01
         - 1.0656624272693117e-01
         - 5.6633231582151145e-01
         - 3.3548348148352686e-01
         - -6.3719273547649524e-01
         - -1.2005517314213217e+00
         - 3.7229740285894314e-01
         - -3.2345110857810572e-01
         - -8.6365264739049696e-01
         - 5.1987458057060387e-01
         - 3.1197616576136317e-01
         - 5.5672555953783709e-01
         - -2.9971649970763958e-01
         - 6.5193769193973106e-01
         - 3.3472860840026458e-01
         - 1.9319955752984025e-01
         - 6.3594920270821043e-01
         - 2.3294807596610823e-01
         - 6.4458674599768706e-01
         - 3.7420170980602796e-01
         - -1.0007630863186936e+00
         - -4.2427406376151799e-01
         - 6.1612470545682418e-01
         - 2.2100231941326129e-01
         - -8.8170072260537524e-01
         - -1.6281217835608579e+00
         - -3.2854591603860206e-01
         - 2.9043053858639956e-01
         - 3.2913854107733664e-01
         - 3.1467630039952915e-01
         - 6.0701356237476500e-01
         - -1.4971397736965180e+00
         - -8.0096717885558444e-02
         - 1.2718639247168402e+00
         - -2.6599467713332137e-01
         - -9.4742363546434372e-01
         - 5.3946562997730430e-01
         - 3.1099745798915379e-01
         - -5.1293243833583054e-03
         - -3.9167328712374960e-01
         - -3.6508688070260997e-01
         - 9.6875208632267817e-01
         - 7.2559701658908876e-02
         - -1.5825175772735786e-01
         - -2.1306590249056212e-01
         - -1.0373611264290949e+00
         - -5.1221095152183083e-01
         - -6.7345967343876623e-01
         - 4.4792242436713292e-01
         - -3.3030773359104548e-01
         - -1.7198573430880090e-01
         - -6.2716192083359079e-01
         - 7.5731621516896178e-02
         - 1.6259793628273771e+00
         - 1.2838245644524506e+00
         - 9.9224566836465411e-01
         - 1.0188253363594678e-01
         - 1.7461204131419428e-01
         - 3.0118988658360385e-01
         - -6.8107314448911327e-01
         - 2.0056560801570020e+00
         - -5.6480408624450396e-01
         - -6.3148727371133984e-01
         - -3.1561615492224360e-01
         - 1.5778736695305249e-02
         - 3.6283894783788934e-01
         - -7.9369542865655873e-01
         - 6.7598385969102370e-01
         - -1.1110884645773234e+00
         - -3.2643332437214573e-01
         - -5.6166661361336148e-02
         - 3.1028420392503586e-01
         - 3.8786953557201304e-01
         - 5.5372142617810094e-01
         - -1.1816122175095550e-01
         - 1.5854348972861623e-01
         - 6.7406104384101009e-02
         - 4.5504980398173037e-02
         - -5.3506786570144793e-02
         - -2.1769650364901766e-01
         - -3.3250489262814198e-01
         - -4.8361809412703405e-02
         - 7.6599160072648453e-01
         - -5.4144177644211455e-01
         - 1.0326180231525983e-01
         - 1.7402438656784214e-01
         - 1.5278638641341060e+00
         - -6.3397365434485486e-01
         - 7.8367100431530667e-02
         - 7.0482287975386870e-01
         - -5.3778400828122463e-01
         - 3.2587352887844251e-01
         - 6.5842345770228194e-01
         - 4.0031032123583901e-02
         - -3.7579101723774960e-01
         - -1.6277636204895862e-01
         - 1.2236086064158733e+00
         - 1.0567712983553827e+00
         - 4.3659799705376279e-01
         - 3.2777216025069023e-01
         - -9.7625833006659724e-02
         - -3.7653600637386947e-01
         - -9.8643050834810941e-01
         - 1.5486085669742078e-01
         - -7.2708609437284399e-01
         - 7.3290102748419950e-01
         - -9.5415418536295893e-01
         - -2.6488016941974846e-01
         - -3.8367564836476409e-01
         - 4.7968625924635228e-01
         - 3.9951354759795860e-01
         - 7.9761544235331228e-01
         - -7.7356579141862647e-01
         - 1.7282984320489676e+00
         - 1.8551916823959730e-01
         - 8.4670072317750067e-01
         - 3.8481040458345184e-01
         - -4.8671127600522679e-01
         - -1.3475469525896815e+00
         - 5.3406332693986047e-01
         - -1.0525304099131612e+00
         - 9.0856901545026825e-01
         - -2.7564028542619140e-01
         - 3.9828065096726234e-01
         - 3.2403271586003007e-01
         - 6.8536167582386121e-01
         - 2.7838841881160653e-01
         - -1.8820734721688304e-01
         - -7.3028734890546987e-01
         - 5.9202970564078339e-01
         - 5.9048596651021057e-01
         - 6.8167568250116206e-01
         - -3.7560766449729210e-01
         - -1.7451948782002542e+00
         - 1.7022780797607839e-01
         - 5.1257545293430781e-02
         - -9.6957842678551376e-01
         - 4.7512575539458773e-01
         - 6.1533203404637649e-01
         - 5.2621393156037499e-01
         - 7.3231187179487414e-02
         - 2.6977144563580763e-01
         - 4.3394295554755608e-01
         - 3.5190841938805834e-01
         - 5.8723192050518869e-01
         - 7.2185753628103755e-01
         - 8.4731290643393020e-01
         - 9.1110415612076034e-01
         - -6.6450097065655334e-01
         - -3.0143398160276452e-01
         - 4.6970171871670963e-01
         - 1.3372184208217366e-02
         - -5.3916133535778010e-01
         - -1.2320818527252329e+00
         - -5.0467233005580747e-01
         - 5.4596322921012241e-01
         - 5.5563747646517625e-01
         - 1.3799982646630266e-01
         - 5.7862659691578622e-01
         - -1.7132484976864311e+00
         - 5.5242509538322915e-01
         - 1.1269434600359229e+00
         - 7.6445558720618634e-01
         - -5.8359660918829359e-01
         - 6.5126974216971723e-01
         - 2.0265758764765379e-01
         - 7.1999039894190306e-02
         - 1.1266851288215411e-01
         - -3.8531265345401117e-01
         - 2.2921795804589176e-01
         - -9.8859378118145436e-02
         - 5.4158906068620016e-01
         - -2.9046938100035502e-01
         - -1.0280714712635095e+00
         - 8.5417895327310644e-02
         - -4.3461652717972749e-01
         - 7.5604231228747798e-01
         - -5.3653316085861114e-01
         - -4.8579281795467021e-02
         - -6.6135178728560307e-01
         - -1.4403754362854954e-01
         - 1.7674132381023937e+00
         - 9.5339102352961858e-01
         - 4.1255037605306638e-01
         - -5.2992762191747735e-02
         - 8.0106643405258894e-03
         - 3.9935970350169037e-01
         - -6.7982194422546505e-01
         - 2.1201865103899036e+00
         - -6.3721538419502965e-01
         - -6.1377522337750923e-01
         - 3.0918692440522261e-01
         - -2.8278668513733596e-01
         - 8.4525152800319325e-01
         - -1.1577950603999034e+00
         - 4.8586141471503536e-01
         - -1.3695569223628694e+00
         - -1.0568601278962389e-01
         - 4.6542081109095967e-01
         - 2.5083286394253477e-02
         - 2.3449892491825167e-01
         - 5.9662165966389846e-01
         - -3.4465653691717318e-01
         - 1.0021965421648380e+00
         - 6.0201923022785209e-02
         - -1.5221864595286155e-01
         - 5.0096837238555636e-01
         - 1.3510129572682217e-01
         - -6.1791340973597331e-01
         - -7.4352922662988550e-03
         - 9.0353777015158454e-01
         - -6.1165003340122037e-01
         - 9.6097094852204606e-02
         - -2.5733929890732327e-01
         - 1.7457558642998985e+00
         - -4.6223521523528918e-02
         - -5.3763789739618462e-01
         - 5.4466734473846423e-01
         - -8.1683030075653373e-01
         - 1.1254315194769191e-02
         - 3.4026309766460844e-01
         - 5.5993419381478754e-02
         - -3.9012466595831452e-01
         - 1.6668882408668428e-01
         - 8.6687714550122053e-01
         - 8.9612796300011566e-01
         - 3.6567539953714878e-01
         - 2.9735767064236007e-01
         - -3.8505402005357892e-01
         - -8.3091171194128163e-02
         - -5.2623039133925842e-01
         - -2.7205490117471875e-03
         - -2.2437861799317471e-01
         - 1.0393655040097363e+00
         - -7.8068702922421640e-01
         - -5.0744504230343868e-01
         - -5.6839787915888562e-01
         - 5.2858202967151457e-01
         - 1.2318016735936321e-01
         - 6.4396001155279192e-01
         - -5.8099342221759087e-01
         - 9.2536522933206644e-01
         - -7.4979468208679775e-02
         - 1.0472819268946045e+00
         - 3.2950902343493965e-01
         - -5.2490423877140391e-01
         - -1.0941404072274705e+00
         - 2.4645636866818296e-01
         - -1.1501680350651813e+00
         - 6.8466898617846639e-01
         - -3.7429069273445215e-01
         - 1.4674607837453957e-01
         - -3.2603217070258095e-01
         - 8.5080462997915285e-01
         - -3.9432134645509787e-01
         - -3.3169608420069129e-02
         - -1.9812151196831149e+00
         - 3.5317787304698106e-01
         - 1.2271822218223136e+00
         - 9.1579245087139338e-01
         - -3.1456543943034698e-01
         - -1.9894818092326314e+00
         - 2.1128689421316701e-01
         - 6.5993434272224449e-01
         - -8.0829274061695089e-01
         - 2.3603427824718423e-01
         - 7.8512107970511502e-01
         - 1.5723144139901715e-01
         - -1.1605558870806655e-01
         - 5.7571362054512631e-01
         - 3.1399507910331620e-01
         - 3.6209936103851026e-01
         - 1.0653056120564277e+00
         - 4.5459061450137306e-01
         - 1.1944146390427766e+00
         - 8.7054388750795264e-01
         - -6.4435660990478066e-02
         - 4.5999246898379829e-02
         - 5.5431987905113089e-01
         - 1.3311816527264919e-01
         - -4.0191990605204159e-01
         - -6.7280244410888879e-01
         - 2.4854713272084808e-01
         - 5.8530710856704893e-01
         - 4.3384123132507957e-01
         - -2.2490241919682720e-02
         - 6.1302802209837948e-01
         - -6.8675150324653711e-01
         - 2.7038158804695089e-01
         - 2.7954120838180763e-01
         - 8.4506488793291501e-01
         - -2.3296897243773043e-01
         - 6.7207600426568836e-01
         - 5.1146784249757216e-01
         - 2.2898153977403568e-01
         - 3.7564908068279362e-01
         - -6.5636214284316860e-02
         - 2.0482325112891792e-01
         - 2.6394477790905965e-02
         - 5.9600451605623650e-01
         - -4.7841761937497435e-01
         - -5.6368351728100252e-01
         - 2.5277325987220767e-01
         - -2.0542970677514294e-01
         - 7.5850895257751139e-01
         - -2.1041198076010531e-01
         - 2.5839195174112922e-01
         - -4.4878877824585733e-01
         - -6.1391967371125522e-01
         - 1.8914046688811605e+00
         - 1.0927302049040453e+00
         - -3.1336669733197597e-02
         - -3.3238175301280037e-01
         - 7.3080682017764978e-02
         - 8.9044144246416390e-01
         - -2.3848730400254345e-01
         - 1.6841937241231868e+00
         - -4.8083833057882208e-01
         - -1.6181846645945466e-01
         - 5.7279672416709182e-01
         - -2.9263799015350261e-01
         - 7.8379588985169191e-01
         - -1.6819130760833689e+00
         - 7.4703609207810417e-01
         - -1.3137112506514663e+00
         - 1.2467741347412452e-01
         - 1.6355340080845976e-01
         - -6.4128138386181432e-01
         - 1.3984972974268362e-01
         - 2.1278516023490002e-01
         - -1.3554605649318216e-01
         - 1.0975502292933708e+00
         - 2.2278096177324236e-01
         - -3.3004749045364656e-02
         - 7.9810443330895908e-01
         - 2.1295658153623745e-01
         - -2.3873993266493901e-01
         - 1.3550002616942958e-01
         - 3.8585071251574254e-01
         - -5.3315960316942312e-01
         - 1.0932608377296789e-01
         - -6.2550691446268591e-01
         - 1.3000702804674473e+00
         - 5.5264669251195730e-01
         - -6.7354458658914362e-01
         - 4.6412863108787716e-01
         - -1.3911414740925643e+00
         - 1.1386475159344622e+00
         - -5.9846258558857857e-01
         - -1.0351749551897746e-01
         - -1.8639384754843804e-02
         - 2.6323135708996459e-01
         - 3.0381873539636378e-01
         - 1.8043258621672864e-01
         - 1.8385180018192634e-01
         - 3.9661460207133142e-01
         - -4.9389432071373203e-02
         - 4.5378217139539789e-01
         - 1.2875580994467242e-01
         - 3.8032211340594985e-01
         - 4.6086518657056863e-01
         - 1.1720830383503504e+00
         - -1.6376250915949123e-01
         - -1.1368287630199944e-02
         - -1.1964719329022580e-01
         - 5.5621930932944275e-01
         - -2.8632622642306338e-01
         - 2.5932377869279732e-01
         - -4.6700589897405603e-01
         - 3.1375865120315560e-01
         - -5.3185453893071899e-01
         - 9.5054266943553656e-01
         - 2.3269358791327804e-01
         - -1.1528504021623885e-01
         - -1.0273349105590839e+00
         - 2.6560159623013108e-01
         - -1.0544523081869963e+00
         - 8.3708670292611365e-01
         - -6.1290551544921978e-01
         - -7.5772568208289370e-01
         - -5.9892368908160187e-01
         - 3.8665010404337025e-01
         - -7.3194767833849661e-01
         - -7.0301531408203916e-02
         - -2.0583743035595297e+00
         - -6.4444398157068128e-01
         - 9.0920689852374692e-01
         - 8.8661003632354574e-01
         - -5.1846151859663414e-01
         - -1.6315099189910045e+00
         - 3.3827169963337861e-01
         - 4.7639756661437299e-01
         - -6.7065159758361959e-01
         - 1.7673655309962660e-02
         - 7.7248289704276840e-01
         - -2.1050217906346982e-01
         - 1.8312023013648035e-01
         - 2.5739966425909949e-01
         - -1.6944202569598843e-01
         - 6.2746162456061583e-01
         - 9.6962212721088048e-01
         - 6.9348814590728480e-01
         - 5.6936872409913508e-01
         - 1.0018588209723160e+00
         - 2.1468238526131686e-01
         - 1.8725228099834307e-01
         - 5.5277769648055364e-01
         - 4.8546970533997985e-01
         - -3.1857227595343829e-01
         - -2.2872345420106664e-02
         - 6.8644406255056589e-01
         - 4.4431417690102609e-01
         - 6.8577744216474579e-01
         - 1.7835005218625816e-01
         - 9.4634830201667852e-01
         - -9.9791582878429241e-01
         - -3.3833498336210899e-01
         - -1.4893322780978635e-01
         - 3.7351204914163577e-01
         - 1.1193552620862326e+00
         - 4.8696910588951126e-01
         - 9.1622019824533951e-01
         - 5.1293191985509168e-01
         - 8.7140465270032319e-01
         - 3.5349275450257789e-01
         - 8.2553685833400378e-02
         - 1.6115416792891540e-01
         - 3.5791230929375423e-01
         - -5.1994903461644237e-01
         - -2.5560095114910025e-01
         - -1.2542470362140687e-01
         - -6.6181986272983939e-01
         - 2.4244948359866222e-01
         - 6.4609288878013385e-02
         - -4.0574973274270248e-01
         - -3.5437734915085178e-01
         - -1.5517488184541274e-02
         - 2.2876341885602645e+00
         - 1.2368566278005084e+00
         - 9.5497261988381613e-02
         - -2.8772168647787211e-01
         - 6.5600822614064580e-02
         - 9.7394256922794387e-01
         - -4.0757504828790127e-02
         - 1.2904229638071678e+00
         - -2.8835526079341506e-01
         - 5.4765286023497221e-02
         - 2.0638644896280450e-01
         - 3.9401648868127422e-02
         - 7.4721526763377066e-01
         - -1.6098006921299328e+00
         - 9.0842501110704577e-01
         - -8.4500992646824480e-01
         - 4.6797613181571307e-01
         - -4.1259902514190749e-01
         - -6.8071138016169286e-01
         - -6.4109838235149444e-02
         - 2.9594733385455152e-01
         - -1.3647539369102751e-01
         - 9.9830548502489180e-01
         - 5.9375322460803570e-01
         - 2.0105468410725510e-01
         - 6.2552964662357857e-01
         - 1.6025960171520354e-01
         - 6.1934950095281915e-01
         - 1.5744073976068795e-01
         - -3.3428294274677035e-02
         - -3.2791440860438831e-01
         - 6.5289097715716848e-01
         - -6.6262491250289035e-01
         - 1.1915985242599971e+00
         - 4.4452069259093679e-01
         - -4.8657282121286483e-01
         - 4.5048372290390597e-02
         - -8.2676443818784373e-01
         - 8.2064678669994950e-01
         - -3.4002271900400055e-01
         - 2.1995392182746012e-01
         - 7.0646131662123091e-01
         - 3.1162608687418360e-02
         - -1.6874429494771159e-01
         - -2.9523624542780191e-01
         - -8.0571490485886035e-02
         - 3.6845620378268817e-01
         - -4.6974878589096519e-03
         - 9.9129765169923101e-01
         - 3.0760320388266343e-01
         - 6.6141492117041722e-01
         - 4.7826949162179855e-01
         - 1.2487364227779820e+00
         - -2.7419659024850507e-01
         - 6.1090450399902585e-01
         - -6.6670674378528513e-02
         - 1.5710603226205208e-01
         - -5.5481092659157116e-01
         - 6.6283663893866682e-04
         - -6.9755656233456631e-01
         - -3.9412510072670826e-01
         - -6.0991564158568690e-01
         - 6.7114105489381026e-01
         - 4.4063882111170216e-01
         - -1.4897260063502363e-01
         - -2.3921175422203103e-01
         - 2.5463050055832609e-01
         - -6.5060175806095388e-01
         - 9.1340765479686725e-01
         - -2.1225959321239291e-01
         - -1.0845742738732722e+00
         - -6.4975566153223585e-01
         - 3.9274909437128258e-01
         - -5.9986360695668917e-01
         - -3.1122254993894405e-01
         - -7.5883099616770444e-01
         - -1.1033829962395052e+00
         - 6.9349400813120088e-01
         - 7.0093542853700619e-01
         - -1.3661034130015315e-01
         - -1.1982722597674020e+00
         - 2.0924286261784353e-01
         - 9.4359086956410390e-02
         - -9.1802109574877366e-01
         - -2.3521511716610768e-01
         - 5.0827984338293586e-01
         - -4.7099784432174868e-01
         - 4.2452811409219693e-01
         - -1.0952976007926618e-01
         - -5.3135629290224451e-01
         - 7.6654458057160946e-01
         - 8.1431166129569932e-01
         - 7.9182714451524427e-01
         - 7.2394844695126637e-02
         - 8.3774552148173198e-01
         - -2.5559584532992386e-02
         - 2.4380058376332789e-01
         - 3.8485860686502577e-01
         - 1.0120045270316833e+00
         - -1.3696268486410135e-02
         - 9.0087890457949604e-01
         - 9.6812315125891468e-01
         - 7.0569615938136743e-01
         - 1.4335105808874138e+00
         - 5.6034087655141722e-02
         - 7.1757999002585460e-01
         - -4.9272611864499749e-01
         - -4.5938088034918839e-01
         - 1.0086069150974517e-01
         - 1.6861164835090928e-01
         - 1.6857529559428102e+00
         - 2.0743035603518456e-01
         - 1.0138718773718483e+00
         - 5.3460443774473554e-01
         - 7.5432355699617359e-01
         - 5.9792982660044425e-01
         - -1.6506801150428838e-01
         - 4.0736723198249131e-01
         - 2.3686431363029819e-02
         - -4.0272391244500821e-01
         - -7.9532412744329067e-02
         - -1.6082682204106480e-01
         - -1.0506193771480625e+00
         - -2.2812957512932128e-01
         - -2.4865752748651462e-01
         - -4.0038932561143675e-01
         - -5.2958537986864895e-01
         - 5.0836909843035176e-02
         - 1.4741645701701318e+00
         - 1.0348659722323170e+00
         - 5.5677072107095910e-02
         - -3.9883617667368576e-01
         - -1.4060600003350707e-01
         - 8.7064798075577088e-01
         - -9.4407028147228900e-02
         - 8.2630081096001606e-01
         - -2.3284752693527214e-01
         - -1.1517282711986272e-01
         - -3.1566158116030485e-01
         - -8.2198455145599078e-02
         - 3.6420810285373284e-01
         - -1.4428230306440644e+00
         - 9.4411120378060998e-01
         - -7.7297101237186183e-01
         - 6.6307363620347481e-01
         - -7.3881684832507510e-01
         - -3.3779106516306739e-01
         - -1.5204294048511102e-01
         - 4.0660198122023838e-01
         - -6.5603285396671329e-01
         - 3.7529858931491528e-01
         - 7.2013338992079057e-01
         - 2.0134294630107510e-01
         - 9.0931794132988009e-01
         - 9.2824426110757474e-02
         - 1.8577467069880718e+00
         - 5.1585187150826017e-01
         - 3.5736276569354825e-01
         - 1.8948707516428226e-01
         - 1.1395652984613962e+00
         - -7.3158916308024557e-01
         - 1.0176027018562870e+00
         - 2.8432481262470688e-01
         - 1.6045475559291092e-01
         - -2.8223410056431653e-01
         - -2.2581429189664406e-01
         - 6.1690387194906182e-01
         - 4.1415678735074368e-01
         - 4.1295169542419485e-01
         - 4.5652249875634165e-01
         - -6.2288214215916715e-01
         - -1.7127212704318218e-01
         - -4.1929935999797846e-01
         - -2.8781278471943539e-01
         - -1.6066734959433218e-01
         - -5.8198348834663494e-01
         - 1.2520868634576057e+00
         - 5.9417348963543948e-02
         - 4.0316776580881258e-01
         - 5.6820825991359514e-01
         - 8.9783242933582619e-01
         - -2.4977072924946900e-01
         - 6.8333463497811386e-01
         - -4.8421895425334766e-01
         - -1.7706871336641855e-01
         - -1.9508105295041656e-02
         - -9.9437203285317032e-03
         - -4.1870221427698256e-01
         - -7.7762916563749918e-01
         - -4.6424789936650018e-01
         - 3.3623396654943033e-01
         - 6.3245827629907847e-01
         - -3.9300448503844643e-01
         - 2.1671455309603366e-01
         - -5.4493231859999358e-01
         - -5.4486739221502756e-01
         - 5.4868047241739903e-01
         - 4.7102326247904031e-01
         - -6.6512976145461722e-01
         - -8.4395413144779596e-01
         - 6.0345551252626506e-01
         - -2.8130458326244490e-01
         - -5.0292562841221256e-01
         - -6.5394353476261560e-02
         - -7.2698791648620964e-01
         - 2.0210197658912724e-01
         - 5.1251769152580029e-01
         - 6.4803996278866161e-01
         - -1.0553686430959031e+00
         - 1.5058569654957682e-01
         - 4.1275244126713723e-01
         - -4.5850505511347134e-01
         - -2.7521013231950431e-01
         - 3.6348747772230061e-01
         - -2.9089713829846386e-01
         - 6.5094533410526045e-01
         - 2.4004363920052718e-01
         - -8.3387424702252055e-01
         - 6.4507455022875948e-01
         - 2.4208409144952869e-01
         - 2.4491574258655538e-01
         - -3.0781091365584962e-01
         - 9.6203557390043448e-01
         - -9.3037898213443626e-01
         - 1.3738378939376217e-01
         - -2.1013187482489776e-01
         - 1.2182634453884982e+00
         - 1.5898815814326686e-01
         - 1.4780001307549853e+00
         - 7.0902688442887996e-01
         - 8.2451624444428517e-01
         - 1.8011973849459342e+00
         - 1.4099356366656265e-01
         - 4.1923976309237942e-01
         - -3.0838195363255211e-01
         - -3.3763784601792252e-01
         - 4.0686282358443759e-01
         - -4.8729596987273893e-01
         - 1.2987118042692050e+00
         - 2.1007389496913501e-01
         - 6.7608269569266566e-01
         - 5.0081560472979214e-01
         - 1.2365159690165270e-01
         - 4.5662050586066366e-01
         - 3.3448330056525016e-01
         - 1.9063117965595919e-01
         - -1.8472635255648057e-01
         - -2.0714066092363673e-01
         - 3.3387405510283585e-01
         - -1.7949237806564911e-01
         - -1.1813885204514774e+00
         - -4.4336280068988804e-01
         - -5.7562567874933435e-01
         - -2.6308200473656013e-01
         - 2.7525550237121742e-02
         - -9.6641283183992499e-01
         - 6.4385236741708873e-01
         - 9.0693134934292574e-01
         - -2.4035954086555691e-01
         - -5.4914738635472471e-01
         - -1.8325829460799875e-01
         - 1.0637746554660401e+00
         - -2.1320394627734485e-01
         - -9.0526840985907686e-01
         - -3.5159833829356463e-01
         - -3.5345020558846330e-01
         - -5.4208484403225038e-02
         - -5.0448825216492221e-01
         - -1.7163978868422822e-01
         - -7.0272135527359492e-01
         - 5.1812218612676908e-01
         - -8.5134711653233797e-01
         - -2.5966137807956050e-02
         - -2.7224378693562251e-01
         - 1.1082006983602399e-01
         - -9.6022892373319346e-02
         - 2.0564888638614992e-01
         - -5.7730781591843228e-01
         - 8.6624010708010990e-01
         - 5.4108371893718454e-01
         - 2.8927927475413995e-01
         - 3.7036391036774513e-01
         - -4.0279670459341652e-02
         - 1.6783018151672333e+00
         - 2.5484613012374141e-01
         - 6.1862151355561301e-01
         - 6.0473317762769430e-01
         - 8.8413252693256295e-01
         - -9.4341297912621336e-01
         - 8.0012417906666189e-01
         - 1.0576701836746143e+00
         - 4.5660147986468874e-01
         - 2.6368640047835579e-01
         - -1.9917871318039790e-01
         - 6.6306026615292579e-01
         - 5.4794566054675165e-01
         - 4.3854350493284672e-01
         - 2.6791338845784340e-01
         - -9.6727182552332214e-01
         - -4.1388606980761061e-01
         - -3.5292186153949928e-01
         - -8.0004914843268327e-01
         - -7.7343802977086162e-01
         - -8.4866613894939735e-01
         - 9.2157098012156158e-01
         - -2.8934273052099574e-01
         - 3.1013366268605252e-01
         - 1.5561606269865338e-01
         - 5.8895992702592725e-01
         - 2.4378816750610380e-01
         - 5.2501954630789460e-01
         - -1.1289246550979695e+00
         - -1.5732592542340734e-01
         - 7.5905205212179389e-02
         - -5.2014240781881570e-02
         - -1.4334144110789759e-01
         - -6.5732921953071022e-01
         - -9.1501136802355043e-01
         - 3.4029831278411132e-01
         - 6.3715248208096975e-01
         - -5.8701244691664634e-01
         - 4.6107326125227355e-01
         - -6.0733657618538450e-01
         - 3.2516173816478749e-01
         - 3.6387174896471819e-01
         - 5.3537782124062294e-01
         - 2.0660028805752240e-01
         - 4.3924407364776358e-01
         - 4.6522527108485001e-01
         - -3.1843555274470925e-01
         - -6.3186846801181795e-01
         - -6.2440548592235433e-02
         - -5.0766934493889404e-01
         - 7.0379218979742830e-01
         - 6.2463309604632078e-01
         - 4.4301416480278122e-01
         - -5.0854223141654675e-01
         - -3.4266973849382693e-01
         - 6.9843614118786612e-01
         - 1.4479358068048148e-01
         - 3.8758140061581114e-01
         - -3.8992974243656564e-01
         - 1.1456733480075190e-02
         - 7.7176996582550850e-01
         - 5.3608462084430675e-01
         - -4.6277123665706577e-01
         - 5.9656288984732098e-01
         - -3.4278171353511638e-01
         - 1.8360984778720219e-01
         - -1.3579072299989223e-01
         - 6.0166684457917641e-01
         - -1.0399538897529281e+00
         - 2.5892692122201599e-01
         - 3.4538316483285603e-01
         - 1.3721843184522051e+00
         - 5.6495738895989034e-01
         - 4.6393246764307078e-01
         - 3.6525719887001534e-01
         - 9.7201362619062848e-01
         - 9.3409355832409047e-01
         - 1.6767967271778791e-01
         - 2.1937719884880233e-01
         - -8.1678092904861410e-01
         - -2.9113834588969734e-01
         - 2.4474234028190939e-01
         - -7.5479242132888946e-01
         - 6.7386269454475511e-01
         - 1.0420993860898813e+00
         - 2.0795414748948027e-02
         - 5.5083312969832621e-01
         - -3.6580414229792385e-01
         - 5.3163799116588450e-01
         - 7.6191307378604756e-01
         - 3.5813179930358491e-01
         - -2.7514005705982453e-01
         - 1.3351390631452448e-01
         - 3.4283983948768754e-01
         - -2.3778057470834099e-01
         - -9.6331878642804947e-01
         - -6.4747130584460488e-01
         - -8.2936765366253529e-01
         - 6.9371737864171154e-02
         - -2.2644881685043036e-01
         - -1.4427647212061343e+00
         - 1.7631402474749003e-01
         - 3.8153288495108884e-01
         - -3.9792318493180584e-01
         - -3.9356752924080640e-01
         - -7.3614919612660057e-01
         - 1.0190610549715877e+00
         - 1.0193042465033957e-01
         - -2.1853618525530134e+00
         - -1.4643613419155066e-01
         - -8.3655163913266850e-01
         - 3.9634456005864860e-01
         - -4.8769801485059028e-01
         - 1.6837160094361459e-01
         - -3.3799679026194562e-01
         - 4.6229110702378928e-01
         - -5.9676954290735018e-01
         - -4.6529439201855272e-01
         - -2.9583809417410073e-01
         - 5.2439877781736526e-02
         - -2.9799364856245486e-01
         - 3.0831062742886928e-01
         - -5.4137724506392766e-02
         - 1.6593873540105863e+00
         - 4.2173680315024653e-01
         - 2.9428160449672364e-01
         - 3.6194554969307641e-01
         - 3.0001371430184187e-01
         - 5.5619923692087470e-01
         - -9.4722669888127928e-02
         - 6.8678466670042415e-01
         - 5.5337600137125442e-01
         - 2.7485362222609255e-01
         - -1.0022087141766078e+00
         - -2.1357931483844111e-02
         - 5.2293881079488325e-01
         - 1.8149171667747849e-01
         - 2.9217265786442503e-01
         - -8.9767669799762695e-02
         - 2.4312395083043675e-01
         - 5.1773441774107787e-01
         - 8.8757588044302727e-02
         - 1.0168088207045667e-01
         - -1.1227779471515640e+00
         - -5.4994469914679400e-01
         - -2.2420453396381247e-02
         - -1.1254928095429568e+00
         - -1.4492358641178136e+00
         - -3.6122806371942184e-01
         - 4.6330415726927443e-01
         - -3.0010853018080447e-01
         - 3.2151335259897540e-01
         - 1.1481269606988130e-01
         - -1.2697611657356200e-01
         - 6.3492801724479142e-01
         - 3.8091531252961669e-01
         - -9.7871414717143101e-01
         - -1.6798224876234122e-01
         - 3.0293946057688559e-01
         - -2.5290180581087514e-02
         - 5.7983067787277916e-02
         - 1.3833226650618896e-01
         - -9.2667097977440738e-01
         - 8.9985664329731352e-01
         - 6.1338693634399177e-01
         - -5.8705957105619322e-01
         - 1.4656547107430698e-01
         - -1.7360476394590457e-01
         - 1.1398434954957544e+00
         - 6.1333488224716826e-01
         - 5.0108414094045683e-01
         - 3.4516168592263635e-01
         - 1.2186894786298910e+00
         - -1.3702879032480364e-01
         - 3.5873020267929996e-02
         - -4.1567973964441528e-02
         - 5.8836393352838490e-01
         - -5.9678362599795820e-01
         - 1.7681688644149003e+00
         - 7.6513932724642819e-01
         - 6.8015896775350271e-01
         - -4.3230945703474982e-01
         - -9.4441861222523224e-02
         - 6.0682322626636698e-01
         - 7.2857712912378658e-01
         - 2.9241186424596466e-01
         - -4.3026389135574683e-01
         - 7.9483325550882486e-02
         - 1.1516875097404462e+00
         - 1.1663300015696603e+00
         - -1.4066310918030045e-01
         - 5.2132822005236767e-01
         - -2.8222288214790664e-01
         - -2.4336299506355763e-01
         - 6.2533752326604020e-02
         - 8.9282740237891359e-02
         - -1.1812332790548514e+00
         - 7.0733219060115460e-01
         - 7.8616016516474174e-01
         - 1.3945288861865508e+00
         - 3.6146725276466746e-01
         - -3.7157616678410588e-01
         - 6.2441026480290984e-01
         - 8.3227421745751984e-01
         - 2.2250513149038573e-02
         - 4.9322705210078910e-01
         - -1.1714065030698762e-02
         - -7.1060390337411061e-01
         - -1.7156433058458934e-01
         - -1.9984009161959385e-01
         - -7.6971322759632455e-01
         - -1.1133508557375930e-01
         - 1.3474216966079162e+00
         - -1.2047185434062361e-02
         - 6.4827566446970430e-01
         - -9.9808347140461717e-01
         - 1.7423949462485380e+00
         - 8.5695168554489154e-01
