-3.15249
1.60406
-3.57027
-1.06431
-1.78075
-5.72992
6.65894
-2.20591
-12.1506
16.0106
-2.38112
4.19925
1.12308
-0.0165004
-7.77848
3.10677
-9.61242
-0.262642
-5.47055
-7.54563
-4.6637
-8.30611
-0.836907
3.07362
5.09832
2.68765
0.406568
1.88149
1.73469
-1.38113
0.41004
-0.800383
0.811885
0.698308
-2.90542
-4.0406
1.1645
-0.734722
0.486366
1.24054
-3.3456
0.956095
-4.64671
0.53585
-2.95502
-1.91321
-0.192458
-5.89968
-2.2811
-1.979
-1.46796
-2.19154
-4.58857
-3.70185
-0.947135
-0.292313
-2.63773
-2.96654
-2.6427
-1.67122
-6.07808
-1.59878
-5.27543
-2.2432
-6.23478
-4.05398
-4.19226
-4.12831
-3.64161
-2.11378
-4.0488
-5.62851
-4.74671
-4.25207
9.49848
-1.57798
-1.394
-4.18624
-2.91924
0.591686
-5.43423
5.14223
-1.41726
-4.90197
-0.88802
-7.38204
-12.9593
9.51795
4.5557
-6.0502
-4.61834
-1.54085
-2.8072
-1.74947
-2.58914
-3.91243
-4.23197
1.61543
-4.39864
-2.53546
-6.21702
-7.24351
0.24713
7.01153
-1.23863
-4.63631
-2.83678
2.20972
-2.18268
-2.98717
0.740576
6.73877
10.0157
8.79527
-0.487498
-5.65514
0.492952
-4.29289
2.18335
-4.68881
-2.91635
4.6885
-3.6433
-7.36694
-0.540646
-0.701637
-3.24815
-1.3081
0.062368
-1.15804
-2.78258
0.490217
-0.901756
-0.203092
0.675931
-0.411569
-0.155094
0.48682
-2.51779
0.763577
2.15355
0.250614
-0.88439
0.650386
-3.20625
-0.312396
0.464189
-0.855422
0.242969
-2.01992
-0.302916
1.0431
1.63889
-0.344715
0.141961
1.13299
-1.13163
-2.15401
-0.695165
-3.1933
-2.44451
-0.0289376
-1.58429
-1.69645
2.21986
-0.559878
-0.803023
-0.603828
-1.21869
0.662953
-1.33682
-0.714553
0.513965
-0.173183
1.31753
-2.18347
-0.183034
-0.627244
-1.25163
0.00235098
-0.544519
0.92702
0.252469
2.38684
-0.799682
-0.244382
2.32907
-0.208454
-4.01516
-2.84875
3.1802
1.73339
-3.27324
-4.02142
1.65755
2.12526
2.71434
0.500252
-3.9683
-4.70624
-3.434
-3.38023
-2.48954
-0.142866
1.59149
2.68001
-1.92979
1.58214
0.541111
0.562494
0.733521
1.60739
0.185335
3.0403
-1.33984
-2.80556
1.30684
-2.84479
0.0933766
-3.00252
1.40845
-0.821285
-4.19847
0.51334
-5.43948
-2.97001
-0.670245
-4.22315
-0.126743
1.63751
1.73002
0.286137
-2.50541
1.55122
-0.830414
2.19978
-0.528527
2.28445
-3.29747
-1.42482
3.57058
2.49981
-1.49789
-1.55721
-1.82482
0.710808
1.2571
0.437839
7.62763
-1.66779
5.41478
2.39775
0.112941
-2.69592
1.60504
-0.480508
-1.36465
-0.809152
-1.48675
-1.34292
0.77455
0.756148
4.62453
2.58758
-3.15471
-1.65277
-3.2671
-3.81373
-1.65216
-2.37679
-1.4238
-1.16769
-0.569622
4.27932
0.659416
-4.48735
3.13346
2.0377
-2.74773
-0.817037
-6.93768
-3.17619
-1.27871
0.950209
-0.134652
0.25
-0.407007
-0.407585
3.76079
-1.1335
4.69205
-1.33227
-6.01451
-1.26183
0.972017
0.345919
0.450151
-1.26239
-1.8847
-1.80314
3.60113
-0.850231
-2.8569
-3.2209
-0.721499
-1.37628
-2.88189
-1.05126
6.10927
-3.49708
0.314109
-0.99012
-0.556925
0.240575
-1.02115
-1.38437
-0.702717
-2.12067
0.331306
-0.550959
0.456625
0.539417
-1.48516
-2.75501
-0.493066
-0.284032
-0.658689
-1.65989
-0.779143
0.507375
0.0817136
-1.20777
-1.21175
-0.806836
-0.577457
-1.81879
-1.64656
0.114755
-1.88096
-1.65737
-1.79772
-4.25402
-1.12535
-1.12254
0.714998
0.331819
-1.46686
0.0685877
-1.72698
0.163346
-1.44671
-2.08698
-0.566975
-0.153468
-1.29855
-0.130911
-0.170512
-0.0758549
-1.31325
-0.3591
-0.390809
-0.539837
-1.49222
-0.774184
-0.417712
-0.996612
-0.739938
-0.915453
-0.825347
-0.467728
0.169484
0.0357896
-0.716657
-1.15162
0.256265
0.35206
-1.34043
-2.02372
-0.754353
-0.432504
-0.763229
0.0997783
-1.71904
-0.506898
-1.43665
-1.30797
-0.167052
-1.2991
-1.39725
-0.812993
-1.09231
-0.083811
-0.621849
0.398497
-2.1331
-0.433469
-0.0185076
-1.2324
-1.94776
-0.0387134
-1.30223
-0.355663
-1.2501
-1.57095
-1.88994
0.407737
0.871494
-1.03221
-0.304133
-0.256289
-1.62144
0.14216
-1.00313
-0.575906
-1.10906
-1.56697
-0.435169
-0.891071
-0.363821
-1.45287
-0.259038
-0.183609
0.0681574
-0.656189
-1.8923
-0.786672
-1.98403
-0.25909
-0.98302
-0.0489897
-1.27522
-0.179173
-0.379523
-1.59806
-1.49041
-1.59224
-1.98083
-0.973691
-1.23453
-2.46429
-0.768447
1.38855
-0.417429
-1.86019
1.07701
-0.288507
1.01091
-0.604615
-0.395019
-0.920277
-0.423555
-1.03039
-1.34219
-2.13011
0.659008
0.857883
0.681577
0.0887492
0.232677
-3.57955
-0.772551
0.0931146
-6.52153
-2.2024
-1.58568
-0.0226275
0.445318
1.11653
0.634316
-0.443837
-1.78578
0.16471
-0.0654725
0.947065
-0.176573
-0.894514
-0.304409
-2.39294
-2.4195
-0.0628158
0.901622
-0.810018
-1.21196
1.43639
-0.680735
-3.15035
0.551708
-2.24572
-0.951766
2.08717
-0.991221
1.74438
0.428848
-0.644375
-2.25431
-1.66666
0.846383
-0.498606
-0.851501
0.497766
-0.234539
-0.388925
-0.675598
0.152413
-1.01576
-0.46624
-0.469035
0.595608
-1.40801
-0.091574
0.407533
0.339145
0.115143
0.117934
-0.936613
-0.855484
-0.01577
2.57354
-0.170411
-0.048039
-0.115863
0.784033
-1.06209
-0.124352
0.730771
0.062008
0.55697
-0.093211
0.17214
0.45794
0.648409
0.81746
-0.188976
0.46323
-0.483254
-0.554364
-0.600638
-1.02191
-0.406074
0.642497
-0.824436
-0.245509
-0.125645
-2.51316
0.269386
-0.433368
-0.974183
0.182473
-0.052792
-0.719022
0.176024
-0.01738
-0.069778
-0.974051
-0.042197
-0.579312
-0.120202
-0.753699
2.23656
0.524081
-2.69941
1.06903
-0.557165
-1.93228
-0.550057
-0.638306
-0.661989
-3.59383
-4.60932
0.0106097
0.088378
-1.20232
-2.61077
-2.05121
-2.33005
-3.61023
-2.66303
-3.31784
0.95272
-3.22423
-1.46637
4.129
-2.2357
6.24863
3.31276
-1.15987
-1.03547
-0.855017
1.6559
-1.33593
-3.22324
6.93495
-0.499322
-0.575086
1.08129
-0.279453
-3.28407
-3.43023
1.43581
-1.70175
-3.00163
-3.03092
-4.00208
-1.40688
-0.943056
-2.94627
0.139194
-6.80515
1.48589
-3.38509
-3.11347
0.807153
-4.26968
-1.75309
1.11021
1.07371
1.86055
-3.54679
1.70538
-2.61091
0.38612
-1.42371
0.620909
0.219591
-0.335826
-1.07483
-1.21268
-0.76834
-0.712604
-1.02117
-1.47733
-0.740567
-0.108124
0.0291376
-0.704983
-1.72627
-0.11457
-0.945933
-0.907045
-0.306527
-0.178923
-1.39071
-1.77403
-1.87438
-0.77413
-1.15732
-2.52891
-0.367181
-0.840688
-0.839135
-0.652186
-0.636107
-0.679303
-0.805842
-0.849114
-1.43271
-1.14742
-0.345395
-0.754446
-1.90383
-0.550041
-0.240025
-1.36451
-2.46477
-0.368924
-1.64875
-0.545303
-0.273798
-0.349069
-1.62669
-1.1869
-1.47822
-0.289668
-1.1826
-0.735719
-1.24683
-0.125501
-2.01948
0.402625
-1.51048
0.138281
0.196573
0.917177
2.6839
-1.48145
-1.9006
0.242182
-2.4852
-0.874092
0.730115
-0.478433
0.341209
2.98979
-0.207228
-0.960642
-0.786886
-1.79545
0.468037
-1.15394
-2.65145
-2.56082
1.09576
-0.0536562
-1.31218
0.51171
0.520404
-1.06893
0.580938
1.8297
-0.12256
-0.841604
0.0614182
-1.61741
-2.08415
-0.237612
-2.23862
-0.714635
-2.45581
0.402627
0.156281
-2.32949
-3.30321
-1.54701
-4.52857
0.767505
-0.458805
1.61495
0.246465
-3.50475
-2.1159
-0.0442582
0.714257
-0.0206146
-0.29125
-1.18269
-2.09853
-0.341247
1.98958
-1.42816
-1.60664
0.647215
-0.240176
2.56337
-0.216409
5.30194
-3.76655
2.72849
-0.0791943
2.73692
-2.55867
-1.45932
1.77953
4.50328
5.09251
2.21015
0.726618
-0.610295
1.54801
3.9954
-1.65365
0.396071
-3.35197
-1.6588
-0.674749
-2.39074
-0.877406
-0.65303
0.503832
-2.26021
5.54316
0.853781
-4.21364
-4.11575
-1.79745
-0.0906245
-2.74885
-0.77741
-0.655898
1.03643
1.71714
-1.22517
-1.96666
-2.75688
-0.377787
-1.91414
-1.358
0.48609
1.8736
-2.62144
1.26189
-4.95554
-5.68489
-0.874971
6.20369
-1.38235
4.55577
-1.59994
-2.54727
3.27229
5.43769
1.11461
-1.51464
-2.22777
5.19255
1.6943
-4.06907
-2.54745
-4.41246
-2.20509
1.65151
-1.994
0.504139
-1.55731
-2.91688
-1.94163
1.20678
-4.14884
0.126104
1.07465
-3.73092
-1.60878
-3.01653
-0.862336
-2.20808
-0.412649
-1.07681
-2.73709
-2.11489
2.39923
-0.83538
-3.47992
-0.683688
-3.30785
2.41777
-1.79097
-1.72072
-2.50267
-2.71007
-1.67238
-2.67407
0.16193
4.14679
-2.40142
-1.04756
-4.84853
-6.42715
-2.9745
-3.13324
-1.20718
-1.61179
-0.464363
-0.479926
-0.622989
-0.571276
2.2327
-1.23498
-1.3323
-1.87866
-1.83148
-8.78138
-0.644367
-2.90078
1.07318
-1.48202
1.72631
-1.87827
1.12424
1.60996
2.24323
0.212137
-0.626363
-3.50431
1.1259
1.37733
-1.2489
-2.49158
-0.547286
-1.11976
1.42476
-0.366345
0.693418
-2.00944
-0.172672
0.334622
-1.80076
0.746278
-0.349982
1.1306
0.194895
7.33669
-0.0967037
-0.395129
3.74742
-0.167758
-1.543
-1.75597
-1.87604
-0.309493
-0.507748
-2.9537
-0.990616
-2.24609
-0.808343
-0.0920509
-1.36351
-0.0763672
-0.13146
2.57895
0.975247
1.022
1.17003
0.934589
1.01997
0.726033
0.543999
-8.27127
-0.191842
0.617988
-7.06649
0.349526
-3.00951
-0.138629
2.0847
1.7922
-0.121088
-2.50202
-1.91997
-0.276571
-0.901674
0.216317
-1.12682
0.914158
-2.35874
-1.85297
-0.33994
-2.67857
0.170406
1.48183
0.198209
-1.89561
3.1203
-0.897385
0.923753
-0.764265
-1.47575
-0.375152
-0.962793
-3.97955
-0.213743
-0.946361
-0.847576
-1.23635
1.83004
-1.16436
-0.301854
-3.22101
1.05429
1.29656
-0.376024
1.53513
-0.0677605
0.119338
-0.865233
0.232696
-0.921242
-2.2073
0.979188
0.0630635
-4.86144
-2.58711
-2.56909
-0.298581
-1.63425
1.18086
-3.17366
-1.39422
-1.81574
-3.30194
-0.0564952
-0.859101
0.0644885
1.75928
-2.12345
-1.37748
0.622626
0.592301
-2.45628
-3.28657
0.37335
2.16068
-1.02908
-2.49064
0.011152
0.0994869
0.684792
-3.15726
-0.694967
-3.83525
-1.46134
-2.22136
0.208013
0.0295418
-0.138256
0.366794
2.52382
-5.27157
-0.338685
-0.28672
-0.781732
0.250567
0.285727
0.702307
0.33717
0.164682
-0.311833
-0.956981
-0.604991
-1.51227
-6.94261
-0.33698
-1.38555
-1.0906
-0.673325
-0.998132
-0.753743
0.212769
-0.423931
-0.611109
-0.878868
0.279291
-0.252977
-0.229665
-0.818936
2.34842
-1.3905
0.788777
-0.486505
-1.62066
0.133022
-1.72668
-0.986284
-2.14565
-1.01667
-1.23442
-0.830613
1.44808
-0.322507
-0.607923
-0.287573
0.137852
-0.288279
-0.320669
0.655358
0.279616
0.18101
-0.753064
-1.19937
0.266774
-0.269271
-1.04424
-2.39727
1.55319
-1.24291
-0.907444
1.22454
-0.642625
-0.769173
-1.87783
-3.16367
-1.0819
-2.8071
-1.00367
0.20755
-1.84741
1.4839
1.0761
-2.02428
-1.43251
0.516628
-1.41891
-0.780637
0.709492
-1.36634
1.89036
-0.895647
-1.13224
-3.5072
3.00094
-0.0857414
-0.636456
-0.087911
-0.663458
-0.3947
0.772723
0.579686
-1.47344
0.448117
-1.33855
-2.5666
-2.7005
4.59649
-0.167383
-0.9781
-1.97563
-0.884759
-1.15282
1.27264
-0.923835
-3.32082
0.410016
-1.31533
-0.390367
-0.336881
-1.35907
0.174547
1.62785
-0.344064
-1.33996
3.6849
-4.18548
-0.989366
0.76152
-1.94751
-4.12625
-0.476376
-0.530047
-4.67301
-0.324714
-4.7476
-1.99491
-1.23127
-1.93302
-0.533909
-1.52177
1.55174
2.31571
-1.16211
-2.80596
2.08882
-4.17545
-0.243492
-3.13856
10.0832
-0.994811
-6.5949
0.495917
0.0153963
-2.8647
-0.724252
-3.19387
-0.975244
-2.33317
-4.68462
0.278333
-2.06772
-4.37576
0.207181
-1.02225
-1.35735
-1.90641
-1.98951
0.289385
-0.434823
-1.42194
-1.23306
-2.05587
-2.75557
-2.69012
0.898208
2.46143
-1.67461
-0.77437
-1.37667
-2.36981
-0.67219
-2.93546
-1.2107
0.881505
-6.27782
1.73508
9.40295
-7.28877
-3.98769
3.65559
-4.17801
0.717232
-3.86961
-5.43895
3.84424
-1.3476
-5.77743
0.607031
-5.5802
-0.60497
-5.45445
2.21328
12.0839
5.62684
-6.70259
-4.22468
14.1567
8.09831
-4.33528
4.02262
-1.42281
-4.99523
-7.21643
-1.9219
3.91633
7.04922
-5.34734
-6.84292
-2.96393
-0.386357
5.30335
0.436418
-4.87461
4.94452
-1.74051
-9.59814
-6.58918
1.0235
-6.73916
1.26215
-1.53243
-7.83263
-0.573535
4.27433
-2.456
-4.32084
-4.41062
-2.20309
-5.54683
-2.14886
-3.14601
5.29178
-0.0736433
0.0696491
-2.27265
-5.01061
0.969669
-0.568911
0.102017
0.106396
0.147765
-1.23264
0.0135832
-0.32331
-0.0937299
-0.881058
-0.97961
0.278089
0.504208
-0.96407
0.205071
-0.149682
-0.0369943
-1.37208
-1.20366
0.1359
-0.729686
-1.05847
-2.02728
-1.60075
-0.00727257
-2.17454
1.13824
0.152211
-1.35547
-0.853168
-1.46878
-1.51683
-0.849194
-0.770352
-1.1041
-0.879239
-1.54693
-0.981357
-1.32415
-0.302176
-0.152483
-0.302331
-1.04801
-1.4476
-0.323666
-0.749023
-1.27923
-0.867968
-0.971975
-1.3459
-0.882241
2.14441
-0.938746
-0.917819
-1.01161
-0.59902
-0.764733
-0.0219567
0.188109
-0.50385
-0.563005
-1.01952
9.2612
-5.20141
-0.262122
2.8366
2.5598
3.7849
5.0248
-4.20786
2.84992
3.41821
-0.339005
2.61505
2.61525
-3.47057
6.78074
-4.00196
3.90609
-3.9268
3.88679
2.93252
2.72455
5.22914
-0.88953
1.84144
0.828599
4.73862
0.177924
-5.63368
-5.98406
-0.789144
-3.40896
-1.62464
-4.20311
-3.21055
1.07371
2.2483
-1.63192
-0.779434
-2.07436
0.379227
-6.79159
-3.76309
11.4849
0.13865
-6.99558
-0.00131297
-4.11512
-4.61313
-0.480273
-0.143362
-1.74097
3.53246
-3.68458
2.54158
2.61696
2.94981
2.25306
-2.02368
-7.01907
-0.894605
-8.61026
2.35229
1.26809
1.11543
-2.28734
-0.800004
-1.23324
1.23345
-1.11125
-3.36258
-0.0542599
-0.164069
-1.07042
-0.745464
-1.06331
-1.39385
-1.11028
0.15442
-1.1675
-0.358697
0.799905
-1.08795
-0.868568
-0.280863
-0.729565
0.684598
-0.130963
-1.44051
-0.0967013
-1.0858
-1.63434
-2.96969
1.95665
0.630691
-1.35985
1.48759
-0.351949
-0.203895
0.822869
-3.2272
-0.912674
1.62531
-0.835687
-0.971108
-0.901624
-0.131233
0.842419
0.6034
-0.179664
0.23465
-0.696809
-0.0904207
0.0594656
-1.43933
-1.58307
-0.0668541
-0.319942
-1.10338
-0.143914
-1.37051
2.01875
-0.877501
0.677715
-1.07946
0.398578
-4.10875
-1.81162
-1.31917
-4.62255
-2.2043
4.60054
5.07343
-0.630053
-2.70517
5.26724
-2.10196
1.56052
7.92033
-3.46662
6.53156
4.13707
1.75607
-2.61397
-4.6587
0.198452
-6.37705
-2.33696
4.98619
-0.821873
3.02982
4.36933
-7.09217
-1.5814
-7.30276
-5.82349
4.92162
-2.77405
1.56495
-1.44141
-1.68035
1.57208
-0.663519
4.70343
4.12729
-3.53001
3.4186
-4.57051
3.74781
-1.50604
-0.683226
-2.65614
3.85276
0.35073
4.03182
-2.30591
-4.93333
-3.35298
0.324799
4.01196
-2.94202
-1.17312
-2.20589
-3.10007
0.320984
-3.15452
-5.30862
-6.44021
0.0714682
-4.71159
-1.5177
-2.7708
4.69135
-3.74715
-1.71247
-3.15803
-3.05862
2.52567
-0.720033
-1.3966
-2.53354
-3.05572
-2.71359
-3.26051
-1.18499
4.30736
4.79914
-1.63615
2.66156
1.68596
2.58785
1.06405
-6.01039
-3.46472
1.21616
-2.18074
-3.47785
2.70161
0.847994
-2.16749
1.48402
-0.908194
-0.541263
-2.94345
-0.726878
3.82731
-4.01773
-0.813099
1.86906
-3.79954
-4.25838
4.29744
0.714119
0.829189
1.46145
-1.15193
-2.46708
0.0947824
2.26174
-3.14103
-0.311506
3.61648
1.72614
-0.193347
1.45234
-3.35894
-0.238338
-4.48711
3.86899
6.15695
-3.7527
2.02607
-3.19337
3.68471
-3.09348
-1.23776
-1.15777
2.50926
2.576
5.41629
-0.845865
-0.217558
1.23572
-2.34923
1.72738
2.86388
-0.862998
-4.22672
-2.76115
0.772614
-1.86992
-2.65189
-2.83056
-0.417749
2.34777
2.20986
-3.2159
-2.96988
-4.96984
-0.283578
1.49931
2.31291
-1.43955
-0.363114
1.16919
-1.70947
0.0610182
3.15486
2.65881
2.91824
2.39883
2.98299
4.28368
-3.08179
-0.997032
-2.21837
-1.37741
-2.89889
-0.196864
-1.56147
-2.08249
3.03881
-0.396232
4.18058
-5.2343
3.52335
-3.14994
-4.36445
-1.94706
-4.41717
3.30202
2.84197
0.213612
-0.102368
-0.256173
1.03413
0.69974
0.908614
2.56052
1.44415
0.917707
1.16581
0.492922
-0.503963
1.07315
2.40782
1.17534
1.71113
1.33684
5.07981
0.496321
-0.485936
-0.162747
-0.646303
-1.55674
1.06248
-1.3006
0.577917
0.503585
-2.47405
-1.39663
-0.94782
0.276537
0.460605
0.129032
1.58396
-0.182228
-0.29674
-0.821936
-1.78159
0.674498
-1.61246
2.67531
-4.16339
-0.828085
-6.43755
-1.154
1.7449
0.0343497
-1.97353
-0.484025
-1.95455
-2.44219
1.54942
1.23069
-1.09955
-2.81008
-0.171357
-2.80514
2.14379
-1.59819
2.37627
0.343075
-2.68629
-2.3818
-0.269817
6.74415
-4.74875
2.77636
-2.96092
-3.12571
-2.38242
-2.82156
-6.12933
-2.30431
-3.765
-1.77145
-3.62832
-2.01058
-6.01393
1.81464
-1.5873
-2.50985
-4.10885
6.27777
1.03794
3.74922
-0.306426
3.39792
-1.15051
-6.36649
1.32113
-2.35709
-2.85458
-4.12317
-3.83486
-0.0354955
-3.05746
1.86164
0.685683
-0.904144
-5.06188
-2.09348
0.786506
-4.8368
-2.71225
-2.51682
5.17082
0.916886
-2.66587
-5.02153
-0.827141
1.26457
1.75349
3.51323
-3.94571
1.07896
-6.81485
4.38204
-1.2786
2.58915
2.30975
2.69327
5.98473
-4.83658
-0.0789777
-1.8961
-0.69544
-2.09825
-0.184619
1.31586
-0.50442
-5.56771
-1.1429
2.59501
-0.740642
0.000648116
1.03253
-3.29144
-1.87238
-2.38062
-2.33025
-0.313422
0.455018
-1.07485
-1.02229
-2.2178
0.197753
-0.353871
-0.443472
0.67538
-0.44578
-2.22413
-0.073188
-1.73966
-0.167267
-2.09498
-0.512738
-1.5767
-0.855408
-0.744249
0.0657171
0.663314
-0.814724
0.307342
-0.19697
-2.99926
1.33711
0.669309
2.22613
0.451153
-1.37853
-1.7462
-0.0850924
1.27598
0.34437
0.819447
-0.33425
0.586446
-1.78413
-1.70791
-0.339277
-1.21206
-0.0704783
0.0879233
-0.337308
0.601445
-0.147097
-1.57598
-0.480376
0.267292
0.16688
-0.899218
-1.0725
-2.39937
-1.07285
-0.266036
-2.74605
-0.716564
-0.0210979
0.662901
-0.889321
-1.71804
-0.0292679
-1.07489
0.47657
-0.554639
-1.51415
-0.0711585
-0.125155
-0.892257
-1.41226
-1.07061
-0.360888
1.02214
-1.3952
-1.30594
-1.16242
-1.94863
-1.74067
-2.68236
0.0728546
-0.981523
0.337387
-1.00433
-0.285418
-1.75745
-0.85064
-0.906367
-0.862471
0.42276
-0.792473
-0.427395
-2.3897
-1.83789
-1.05421
-0.847641
-0.471311
-0.981783
-1.1082
-1.76724
-0.894794
-0.6163
-0.572528
-0.749322
0.632779
-0.416164
0.161882
-0.38669
0.376344
-0.498425
-0.178822
0.829054
-0.254265
0.192312
0.812341
-0.129457
0.423153
-0.887403
0.766551
0.967676
2.01209
-0.394294
-0.590651
0.765778
0.357965
-0.455513
0.388575
-0.667547
0.757052
0.093852
-0.733827
-0.27248
0.966617
0.897709
0.332086
0.26211
0.635389
-0.499791
0.649485
0.358767
-0.380706
0.0893865
-0.448443
0.673483
0.666242
0.123754
-0.253709
-0.89384
0.575307
-1.01343
0.952707
-0.421435
-0.0258097
-0.286457
-0.508231
0.213275
0.340454
0.161039
0.707042
0.78624
0.537153
-0.0584491
0.681563
-0.255521
-0.186202
-0.0204363
-0.624521
-0.993021
-0.660134
-0.542271
1.01471
0.296386
0.721696
-0.523712
-0.969176
1.03799
0.85652
-1.93175
-0.406771
0.547709
-1.88125
-0.078693
-0.06712
1.28337
-0.71475
-0.587443
1.25753
-0.092469
0.533646
-0.0334
-1.30128
0.021901
1.48975
0.789192
-1.21364
-0.368813
1.34768
-1.3314
-1.80263
-1.25698
-1.02397
-1.69383
-0.800451
-1.79106
-0.350294
0.0204571
-1.78534
0.637143
0.191628
1.1796
-0.906714
-0.493751
1.0227
0.529458
-0.866951
-0.0309207
-1.93044
-1.21929
0.574099
1.16562
-1.02254
1.55161
-1.30738
0.517248
1.03085
0.48491
0.267518
-1.58166
-1.17939
-0.90532
-1.47883
0.242983
-0.582888
-1.80592
-2.49175
-1.45263
-1.40737
-0.874674
-2.34228
3.05485
0.107129
-1.82873
0.968924
-0.455202
0.22001
3.00816
-0.419581
5.17295
1.15667
0.940452
-2.2597
-0.797058
-1.11553
-5.22169
-3.61238
-0.791909
0.587205
-2.7788
0.369708
-1.81901
-1.15898
-2.71071
4.57603
5.75683
0.532576
-0.783781
-0.262317
-2.11955
-2.1937
0.975291
3.54897
-0.409132
-1.40398
6.14799
-2.00473
-2.06363
-1.44956
0.0788705
0.609252
4.3513
-2.80709
-1.66301
-0.242558
-2.86456
-0.108156
0.756545
4.51243
-3.82636
-0.29377
0.398092
-1.86648
-2.79787
-0.990481
-3.36119
-1.33942
-0.474736
-1.55072
-1.87661
-1.9064
0.482012
1.45417
-2.4106
0.287735
0.131533
-1.41398
0.0235787
1.02841
0.757559
-1.67106
-0.729315
1.78811
-0.442603
2.13247
-0.274344
-1.72326
-1.03534
-0.667209
-1.30211
-1.53368
-2.59154
1.81776
-0.971699
-1.18503
-2.33049
-0.918721
-0.930778
-1.23486
-0.973859
0.210777
0.149771
-1.51586
0.417605
-2.15233
0.247327
-1.72021
-0.510609
-2.82869
0.0140894
-3.46636
0.0422032
-1.71426
-1.40337
-0.749563
0.0665633
-2.25656
-1.0756
-2.18567
1.5976
-0.313173
-1.94821
-0.474991
-1.40553
-1.67132
-0.252372
-1.82596
0.520021
-1.44835
-1.20651
-2.85231
-0.278882
-1.51364
-0.390161
0.113922
2.17815
-0.692163
-0.353593
2.01987
-1.37871
-0.715473
1.80534
-1.64876
-2.00184
0.318771
3.349
-2.84971
-0.121403
-0.459088
-1.57554
-0.826507
-1.84895
-1.29605
-1.17403
-2.58572
-1.97257
3.32199
-0.140658
-0.869341
0.634949
-1.4966
2.26273
-1.34485
0.354105
0.163372
-0.679665
-1.37044
0.929826
2.08964
1.50345
-1.56
-0.129961
1.766
-1.79027
4.0724
-0.045423
0.104047
-1.32237
0.922195
-0.652525
-1.13727
-0.293325
0.747645
-1.43256
-0.362306
0.340343
-1.09504
-1.29669
-0.444255
-1.35771
0.500165
-1.69804
1.60208
-0.443329
-2.2854
1.15862
5.7905
-2.07204
0.160933
0.829275
-3.34808
-0.0871303
-0.781824
-0.498359
3.86747
0.653345
-6.80818
-0.759465
3.82556
-2.27914
-0.462828
-0.0814687
-2.16698
-0.795204
-0.528883
-0.0963724
1.87732
-1.34417
-4.36905
-2.69703
0.78659
1.11418
3.52992
-0.480754
-0.784558
2.3662
1.0229
0.467078
0.103242
-0.307672
-3.72089
0.460258
-4.59654
-2.4696
-6.15563
0.686814
-1.98709
-1.07945
-0.382613
-0.147338
-2.01221
-1.45025
-3.10423
-0.423647
1.96746
-1.09451
-1.31212
1.23902
-2.15423
-1.88576
-3.3069
0.429596
0.230623
-0.860964
1.46198
-3.17663
-0.222193
-0.455344
0.713229
-2.25197
-0.315415
-0.143941
-2.22307
-0.0683283
-1.9791
-0.470843
0.128577
2.26854
-0.157315
-0.969145
0.681826
0.678763
-2.60502
0.219553
3.23128
-0.773547
0.37714
-0.136966
0.811103
-0.849945
-2.36202
-1.0001
-1.18291
-2.44047
-1.23585
-1.52649
-0.207126
-0.895015
-2.24723
-1.82411
-1.9135
-3.87651
-3.03852
-1.97669
-1.60392
-1.44258
0.539712
0.14762
-2.52856
-1.25488
4.79957
-1.24671
-1.23661
-1.03882
-0.654937
-0.761807
-2.65467
0.870451
2.00497
-0.348098
0.404733
1.72416
0.250784
0.237673
1.83243
-2.73547
-7.2703
-3.43878
-4.56023
-5.56034
-4.38479
-4.20848
-6.29181
-4.249
-0.697392
-2.9983
2.08097
1.72961
-11.8856
-5.77108
1.94132
-7.71847
-5.44733
-4.92888
-0.501601
-2.81057
-3.38528
-2.46421
-4.68378
5.20051
-1.59926
4.25071
7.33716
4.51133
8.05688
3.58277
4.43384
5.93748
-3.44259
2.64986
0.149579
0.429242
1.29891
4.87692
4.38924
3.18297
3.38563
4.59598
6.84805
0.218091
4.58828
-4.17603
1.12616
4.65141
-1.08574
5.77323
8.20408
2.56595
4.01863
3.52391
2.73507
-6.86653
2.81328
1.22152
3.02598
6.11008
2.2464
-0.0494804
-6.38293
6.18861
5.15223
8.83775
-4.74066
-5.14807
3.74115
5.18395
-6.08464
-4.61404
0.82666
-6.14501
6.50911
-3.56461
-8.42691
-0.209754
8.17681
-8.26652
-5.46332
2.89737
-2.21868
-6.79699
2.02111
-7.14576
-2.62117
5.61282
-1.01067
-6.93658
7.27297
5.32054
5.74627
2.4569
-3.22819
3.49779
-1.88255
-3.75057
-1.00106
-3.38331
6.11793
2.3491
-8.63238
-5.81622
3.84071
-0.350533
4.13389
-4.84582
1.05105
-4.18996
2.80936
7.82821
6.57415
2.68991
-0.952124
5.11503
-2.75587
5.32357
9.72302
2.0989
6.03403
2.13359
-1.92441
-1.49431
-1.36023
0.622906
3.11883
0.798701
-3.45512
1.31802
0.575932
-0.554296
1.17693
-0.353217
1.36081
-3.06175
-1.65388
0.339494
-3.34336
-0.36985
-0.148874
0.219816
-0.702381
1.70865
1.10902
-3.30251
1.63727
-2.38279
-1.03529
2.49281
-1.61238
-1.86808
-2.65339
-1.48368
-2.43837
0.611426
-1.53659
0.21806
-2.28672
-0.691677
-0.00375451
1.94807
0.50458
1.32257
-1.31056
-2.63102
-1.66212
-0.532302
2.07434
0.0163521
0.190557
-1.30708
0.73147
-2.09558
0.189059
-1.79392
-2.63177
-0.351204
-1.45246
-1.43908
2.13083
-0.506523
1.28159
2.11081
0.202943
1.41549
-1.1112
-0.780464
0.910029
-1.48341
-1.79509
2.09629
-1.02143
-0.435566
1.77688
0.371776
0.504779
0.238427
-1.44915
0.0792752
1.90669
4.0015
-1.47322
1.08077
0.458304
0.104416
-0.249038
2.59204
0.321095
2.62397
-3.94543
2.80682
-1.38747
3.53402
2.51726
-2.10007
-2.65911
1.43813
0.186119
-0.507665
0.674888
0.162814
-0.339459
0.286336
0.551592
-0.745621
4.88232
2.53397
-3.12211
1.24914
0.469031
0.00172411
-1.04896
-5.32851
1.63265
-2.39763
-0.48264
-0.384752
-1.21133
-0.227617
1.93456
-0.20335
-1.29412
-2.66608
-0.654554
1.00986
-0.439444
0.079954
-1.00749
0.606603
-0.741606
0.090441
-1.5423
0.01333
-0.258936
0.502356
-0.31302
0.110398
-0.901454
0.070914
-1.18134
-1.04615
-0.039733
0.810966
0.675599
0.0286458
-0.546216
-0.064354
-0.196562
0.288313
-0.427909
-0.240826
-1.17746
0.392936
-0.410582
-1.43569
-1.01906
-2.01815
-2.01542
-0.258548
0.288889
-0.823321
-0.749456
0.00347504
-0.075746
-0.715525
2.53952
-0.893848
3.99518
-0.040894
0.66032
-0.413207
-0.076265
0.5682
-0.945327
-0.402488
-1.11747
-0.606725
-1.67485
-1.31443
-0.953117
-0.201239
0.756474
-0.828892
-0.053204
0.147825
-1.13834
-0.417704
1.06943
0.399744
1.97114
0.670378
-0.489173
-0.249087
-0.682299
-0.07874
-0.17084
0.076237
-0.469929
0.362049
0.490914
1.1747
-0.433787
0.46045
0.329316
0.218143
-0.528533
-0.411123
-1.03289
0.723515
0.48013
-0.592291
0.106641
-0.793199
0.327331
-0.204541
-1.35348
-0.630494
-0.86991
-1.61031
-0.36775
0.383505
-0.793753
0.516225
-0.466982
0.161775
-0.854039
-0.371213
0.0115771
2.59951
-0.75372
2.39969
-0.471824
0.319226
-0.243653
0.145342
-0.64117
-0.80593
0.770575
-0.456573
0.441554
-1.21283
-0.702744
-0.321573
-0.640946
-1.19277
-0.042115
0.57425
1.82126
-0.248682
0.397172
-1.17198
0.663914
2.23477
-0.0481155
1.17237
0.450398
0.245554
1.56561
1.79306
-0.443558
-0.221908
0.0789971
-0.15841
0.112387
0.269772
-0.469164
-1.39323
-0.0139601
0.0483812
0.289094
-1.23979
-0.981031
0.388184
-1.52783
0.701465
1.22122
-0.271894
0.0486405
-0.153987
0.0313747
0.253246
0.65765
0.312076
0.614168
-0.494867
0.629855
0.297265
0.945597
0.0459543
-1.15346
-1.0515
0.246524
-1.16566
0.147083
-1.08666
-0.0124263
0.213395
0.337559
-0.780426
0.155837
0.0944611
0.299379
-0.787569
-0.150961
-0.565282
-0.883552
0.769208
-0.463458
0.628062
0.908308
0.158768
-1.14206
-1.66306
-1.10777
-1.25165
-0.0479779
-1.74381
-1.48363
-1.26923
0.422675
-0.615543
-1.6805
-0.216474
-1.51257
-1.4517
-1.42057
-0.87035
-1.33971
-0.835137
-0.33212
-0.440765
0.000854815
0.365003
-0.470441
-0.738575
-0.51085
-0.203848
-0.43455
-0.925362
-0.891971
-0.456587
-1.70597
-2.25908
-1.40032
-0.0443138
-0.71973
0.289121
-1.24806
-1.25446
-0.344256
-0.74937
-1.13784
-2.23971
-0.962077
-1.25258
-1.64338
0.0777042
-1.41817
-0.301718
-0.871403
-0.36663
-0.132559
-2.02014
-1.94288
-0.982537
-0.272626
-1.03987
-0.956596
-1.37706
-1.24824
-0.259993
-0.122109
-1.51903
1.1754
0.28239
2.51835
1.01237
1.34923
2.02907
1.67724
0.762718
1.03902
1.89293
2.39231
0.939863
1.68008
1.36483
0.0462638
0.869645
0.609953
-1.92696
2.49579
3.59085
0.774852
-5.98054
1.07562
-0.733445
-2.68858
-1.86974
1.83097
-0.0258243
1.16454
0.785446
-0.520719
-3.61567
-3.31529
-0.259997
0.141173
1.35829
1.40536
-0.742355
-0.0485096
1.15444
-1.3185
0.37778
1.05304
1.233
2.2414
-3.3523
-0.404307
-3.13695
2.69418
-4.82498
-1.80784
3.92647
1.26649
-0.117571
-1.73818
0.431268
-0.688245
-0.586972
1.36604
-4.5251
3.79972
2.16773
-0.415634
-1.15521
-1.0715
-1.21614
-0.384095
-0.204941
0.206083
-0.203318
-0.464733
-0.307576
-1.43524
-0.0258623
-1.1234
-1.28332
-0.694521
-0.0621388
-0.363632
-0.176389
-0.681786
0.100614
0.630403
-0.699201
-0.510475
-0.905336
-0.0486089
-1.64823
-1.81392
-0.553146
-1.39711
-1.10766
-1.77235
-1.77336
-1.04746
0.430802
0.153249
-0.582741
-1.03597
-0.966668
-0.671191
-1.62117
-5.75002
-1.01887
-1.73688
-0.84201
-0.350306
-1.3923
-1.6501
-1.48075
-0.11163
-0.428235
-0.328633
-0.727973
-0.379173
-1.7332
-1.47749
-1.16188
-0.791341
-0.966607
-0.792545
-0.20368
-1.15568
-1.46892
-0.674838
-0.918733
0.0560618
3.21336
-0.0134939
-0.463111
-0.488577
-4.53933
0.605297
0.722214
-3.32762
0.507195
-0.003836
-0.602351
-0.240652
0.0303158
-1.47074
1.17843
0.386426
1.15194
3.01081
0.80493
-0.778632
0.429232
1.68365
0.27607
-1.81026
0.620128
-0.95808
-0.0764563
0.539438
0.758803
-0.295418
1.23152
0.639224
-0.683047
-1.97511
0.570487
2.38625
-0.127606
-1.45478
-2.2938
0.296165
1.43326
-0.236437
0.410089
0.319616
-0.229318
0.32791
-3.49616
-0.374087
0.74668
-0.586797
-0.832783
-1.74843
-1.07404
-1.15386
3.02607
0.582824
-1.9144
0.364442
0.370976
-0.201435
-0.40887
-0.586136
-0.885575
-0.77133
-1.70299
-1.34463
-1.17021
0.205132
0.432726
-0.0442862
0.735876
-0.00987484
0.259216
-0.26264
-1.74241
-0.965719
-1.20137
-0.990137
-0.0881808
-0.441145
0.0813485
-1.81951
-0.820569
-1.63761
-0.651071
-2.05999
0.509623
-1.5819
-0.302464
-1.49404
-1.8005
-0.636411
-0.997027
0.479703
-0.930138
-1.08052
-1.01339
-0.759874
-0.516056
-1.49503
-1.97679
-1.48398
-0.53074
-0.481166
-1.18512
-0.265458
-0.833582
-1.15434
-1.80259
-0.0723622
-1.03932
-1.34447
-0.240564
-2.00906
-1.21376
-1.66333
-0.209353
-0.932724
-1.55153
-0.465584
-1.12023
-0.0531371
-1.29034
1.12577
0.00185742
0.276193
-0.581978
-0.327304
-0.555767
0.0842451
0.336463
0.180609
-0.838609
0.815942
-0.0250844
-0.106836
-0.344922
-0.550903
-1.00615
-0.472464
-0.801802
-0.0219133
-1.07317
-1.80087
-1.6845
-1.42743
-1.23848
-0.54639
1.0015
-2.39579
-1.23201
-0.634948
-1.16763
-0.771003
-0.597601
0.821444
-0.302995
-0.986714
0.15408
0.40691
-1.78205
-1.7002
-0.121395
-1.05023
-0.583626
-0.754564
-0.989408
-1.98353
-2.14194
-1.11582
0.478452
-1.97738
-0.80735
-1.85569
-3.02755
-0.140836
0.724492
-0.545982
0.0637446
-0.359106
-1.53762
0.219063
-1.05185
-0.973406
-2.02839
-5.73467
1.27272
-1.04117
-3.89305
-0.00410507
1.58418
-2.50498
-3.44632
4.93317
-1.20853
6.53163
0.567603
-2.91272
-1.66526
0.816333
-5.9609
-2.08203
-2.82696
-0.910136
-4.32378
-7.25355
-0.36969
-6.43138
-0.286355
-6.5923
-4.44451
3.78932
-1.37489
-6.58
-5.10825
-3.11506
3.32716
-0.252695
-2.24772
2.95421
3.79459
8.03486
1.26417
0.338713
-2.35443
-1.69327
-4.01568
-2.96592
-3.61916
1.66861
-2.54581
-1.26319
0.30336
6.27173
-5.32125
-2.15446
-3.46594
-1.93529
-2.8444
-3.25355
-3.12538
-3.38362
-2.46759
-2.91896
-1.68351
-1.12672
-0.697908
-0.699639
-1.13534
0.49703
-0.934168
-1.24803
0.920966
-0.974155
-0.004937
-0.449846
-0.529036
-0.655697
-0.659872
0.601407
0.789655
-0.512307
-0.631566
-1.65549
-0.938947
-0.890657
-1.59104
-0.197365
-0.071294
0.622601
-2.29497
-0.249198
0.222242
-1.63212
-0.3866
-1.04464
-0.915857
3.71088
-0.562053
-0.008802
-1.28073
0.701798
-0.264452
-0.35264
-0.718025
9.86571
-0.456772
-0.19502
0.277861
-1.60424
-0.951818
-0.528069
-0.139669
0.672993
-0.953973
0.504617
1.2278
0.684598
-1.14062
-2.8749
-1.28375
-0.928343
-1.07734
-0.33474
-1.54892
-0.074701
-0.527444
-5.39867
3.70466
-5.34792
4.31457
-4.18856
-2.48536
-2.07762
5.7903
-4.93549
-3.55757
-6.37084
-1.51276
-0.915691
2.06595
3.13656
-3.78905
-3.34052
-0.970228
-9.06968
-3.2427
0.137961
-2.36915
-3.24105
-2.24436
-1.88489
-1.93473
-2.08618
3.5847
-6.99911
2.73342
-2.93894
-2.55657
0.568622
2.99038
-2.1325
0.649411
-3.94458
0.234086
-3.00311
1.96029
2.11092
-3.21869
1.16332
-3.28728
6.25647
-2.10527
2.93865
1.02867
-1.44497
-4.00042
0.172708
-2.30549
1.61451
1.06435
-1.939
3.60314
-0.00696218
3.4647
3.00809
-1.19059
2.8507
-3.10919
-2.16523
-1.90487
2.95275
-1.8473
-0.471299
2.28762
-2.49118
0.03579
-1.34735
-1.42025
0.257933
-1.3025
-1.49258
-1.56608
-2.34441
-1.8041
-0.823285
2.01451
-2.51767
3.01491
-0.799214
0.246125
-1.13682
-1.75101
-1.48514
3.55875
-2.50593
-0.274047
3.09514
-0.540035
0.814069
-2.20428
-4.76252
-0.260053
-1.94032
-1.22051
0.073746
0.157834
-1.07122
-1.39734
4.22936
-0.180136
5.23793
1.11902
0.696516
1.21073
-1.6225
0.291813
0.784607
-0.184185
1.30285
4.68817
-2.30446
-0.932073
5.20445
-1.34518
-0.680482
-1.9136
-2.2081
0.912661
-1.19717
-2.28467
-1.05465
-4.37305
1.70931
-4.58275
0.471801
4.222
0.0977292
-4.62202
2.56692
2.26018
-2.09223
-0.350715
1.76586
-2.81789
-3.04448
-1.02789
0.083636
3.21941
3.31744
2.17406
-5.41318
-1.18149
-0.36964
-0.302046
1.21368
-1.0958
2.29089
-5.3126
0.368953
-2.86326
-0.0665309
-0.73643
2.47859
-1.4955
-0.109981
-0.938387
-0.444751
1.10938
0.575491
2.05232
-4.07358
-3.28576
2.15144
3.18399
7.94674
0.136635
-2.30902
-1.10138
-4.02085
0.360784
0.322609
1.52171
-2.65671
1.30092
-1.2102
-1.87959
1.13705
-1.34081
0.556081
-2.0153
-2.86417
1.76311
0.26375
0.312504
0.761451
0.422631
-0.699506
-1.59528
-0.560501
0.106836
-0.185389
0.349759
-0.705903
-0.481455
-1.8094
-0.14531
0.171854
-0.368974
-0.594716
-0.345868
-0.829493
-0.335288
0.133247
-1.60858
-1.56592
-1.79456
2.21254
-2.88798
1.10733
-1.50624
0.158829
0.043374
-0.832558
0.248875
0.636125
-1.77278
-0.441684
-0.629086
-0.817435
-0.665716
-1.55476
-0.110859
-1.84001
4.5741
0.638353
-2.96963
-1.29243
0.398951
-1.61849
2.62453
-0.758205
-1.12962
2.14384
-1.85457
0.37348
-0.258706
-1.74093
-0.312219
0.132954
-1.39092
-0.414449
2.97127
0.06556
-1.15962
-1.20781
-0.855101
-3.19041
-1.58939
1.7648
0.0977927
-3.69923
-2.59296
-1.62613
0.548458
2.69796
0.204274
-0.463416
-2.42733
-2.10165
-2.02962
-1.00625
0.63861
0.0441018
3.85303
-1.62685
-2.46339
0.0115585
-0.0842396
-1.37811
0.894038
-3.80025
-3.61156
-1.85695
-2.17313
4.29328
-0.956728
-1.53379
-0.513599
-0.425441
-1.44382
-0.227632
-1.43453
0.47863
1.89468
0.180265
1.28755
-0.362416
1.16351
3.10131
0.16196
-0.575445
5.66955
-1.0407
3.11103
3.99517
-0.543695
-0.367174
0.702867
2.75599
2.71505
-1.07669
-2.82188
-4.00514
0.00502136
2.19381
-0.43239
0.385395
-0.645793
-0.295587
0.457014
0.142179
-1.4897
0.260543
-0.0443781
-0.242158
-1.35053
-1.18175
0.519144
-0.0441584
-0.932315
0.148535
-0.231556
-0.0840661
-0.736368
-1.55946
0.102864
0.269838
-1.37619
-1.19938
-0.732572
-0.54665
-2.49432
-0.798927
-0.646131
-1.56281
-1.26436
3.45987
-2.5728
-0.667087
0.482333
-0.644802
0.738802
-0.0207131
2.29128
0.2727
0.363979
-1.60304
-1.68177
-2.62782
0.0404938
0.175564
-0.372447
-0.735443
-0.0953129
-0.320187
-0.00566875
-1.66296
1.86779
-1.10659
-1.50678
-0.848031
-0.869061
-0.0416491
-1.3566
0.270537
-0.995209
-0.740746
-0.272285
0.602508
5.92851
0.252968
1.92701
0.895195
4.00857
-1.60809
0.470611
0.047816
-3.17394
-1.23227
-0.181263
2.08355
-1.3483
-3.82654
-3.46662
0.737695
0.093895
0.604011
-1.88713
-0.547201
3.94484
-0.823776
-1.43595
0.481921
3.38286
-8.87428
-1.9625
-0.104645
7.34162
0.208298
1.21809
-0.0144889
-0.525683
-1.13773
1.61923
4.65204
-0.452164
-1.23492
0.786921
2.23816
0.640579
-1.98075
-1.25978
-0.411703
-0.994752
6.02971
-2.22952
2.19792
0.733799
1.1246
-1.09725
-3.28902
-3.91938
-0.767739
0.430512
-5.20955
0.744199
-0.958102
2.25783
0.385369
-0.793727
1.43775
-0.522315
-2.50429
-0.115798
-1.05662
2.12983
0.115115
-2.88463
-2.1944
-0.39228
0.438827
-1.52565
-6.10775
-3.82239
1.95017
-0.587766
-2.05038
-2.44668
-2.21386
1.55578
0.880771
4.44055
2.2458
1.10986
2.38195
0.370289
-1.06215
1.19163
2.77186
-3.93093
2.30308
0.205324
0.742046
1.64477
-1.42258
-0.810521
-0.408785
3.20874
-2.61367
-1.65342
-4.61803
1.04093
0.115884
-2.68352
-0.544531
-0.936581
1.39588
5.32247
-3.35539
-0.0191037
1.20089
0.147385
0.0496945
-2.47616
2.66359
-1.77745
-2.47401
0.58809
-0.261713
-1.11761
-0.0265864
-0.69843
-0.181531
0.210898
-0.854857
0.243008
0.432476
-0.434164
-0.876823
-0.596752
0.199742
-1.04918
-1.20293
0.163228
-0.428116
-0.590106
-0.812201
-0.196974
0.156332
-0.910458
1.22862
0.48308
0.646171
-0.174568
-1.77592
-0.769992
0.174832
-0.324476
-0.644511
-0.526167
-0.944756
-0.821351
-0.854291
-1.22985
-1.76519
-0.243915
0.686653
-3.13532
-1.39746
-0.672077
-0.462963
-1.43174
-6.04046
-2.18742
-0.07186
-1.63496
0.212805
-1.45764
-1.52226
-0.582926
-1.36314
-1.33102
-0.746306
-1.69569
-0.855544
-0.714305
-0.782053
0.0779532
-0.186479
-0.7514
-0.407831
-1.17247
-1.24192
-1.04909
-1.77514
-0.0985509
1.07459
-1.33318
-0.0695203
-1.49424
-0.25298
-0.941142
0.0856249
-1.31281
1.36348
-0.518477
-13.0942
-0.880719
0.389237
-2.27162
-1.68335
-0.399839
-0.502385
-0.992285
1.05278
-0.198846
-2.05838
1.06353
-0.354117
-2.95851
1.74946
-0.734623
0.811505
1.68467
0.893819
-1.51434
0.0700966
-0.0247603
-0.729994
-0.249762
-0.202475
-0.0770545
-0.0155593
-1.76681
-3.29755
-1.01231
-2.61628
-1.31434
-1.00143
0.903472
0.617745
1.72766
0.00366627
0.310175
0.0877003
1.91853
-1.57984
-0.786735
0.626064
1.2868
0.0561759
-0.915677
-1.98668
1.60711
-1.57031
-0.675806
0.013082
-1.04337
-1.13899
-0.430753
0.154189
-1.05595
-1.26913
-0.0798748
-0.666242
0.408154
0.0206151
-0.832143
-1.01361
-0.666596
-0.259293
-1.46252
-0.6132
-1.46995
0.265362
-0.546932
0.519805
-0.638362
-1.94468
-1.20388
-0.633099
-0.58782
-0.644685
-0.337692
-2.0584
-0.555694
-0.999067
-1.41481
-1.43224
-1.28329
-0.483763
-0.966358
-0.102214
-0.524588
-1.68427
-1.03146
-1.26688
-1.53806
0.068063
-0.892832
-1.02067
-0.681428
-0.373088
-0.743912
-0.830119
-1.26244
-1.09628
-0.612044
-0.529898
-2.05812
-2.02811
-1.34115
-0.735566
-0.0674847
-0.266119
-0.932161
-0.65552
-1.15775
1.74979
-0.535879
-2.31299
-0.679492
1.46931
-1.46875
2.2113
-1.88164
0.444131
-0.9073
-0.988099
0.309069
-1.68486
-2.69908
1.67111
-0.819558
2.75885
-0.0155552
-1.72595
-1.10344
3.81198
1.94762
-2.12767
-0.703793
0.657444
-2.05232
-1.57098
-1.63324
-3.68008
-0.0600663
-0.933268
-2.55302
1.41824
-0.523195
-0.815745
0.11318
-1.0677
-0.00693046
2.22083
-2.60218
-1.75274
-0.303226
1.60616
-0.581683
-1.52253
-0.346377
-0.756684
0.597289
-0.96175
-0.804229
-3.40783
-1.62414
2.07946
-3.30125
1.20869
-0.865821
-0.295705
-1.94654
-3.1554
-0.467462
-2.37609
3.04844
-7.15155
5.5999
11.0016
1.83002
9.1712
-4.0942
-11.8551
-2.12924
-5.40908
-3.39442
-5.00935
-2.4981
-0.726904
-6.01113
11.1529
-8.60926
-8.41393
4.87933
-5.90591
-1.37537
-4.66534
-1.93615
-1.8272
-2.66218
-2.13098
-3.23802
-0.477333
1.58385
5.17817
5.41052
3.11876
2.32939
3.54321
-0.898467
-2.56819
-2.17526
-0.595821
2.22759
-1.89748
-2.06719
5.75569
0.0809136
11.1934
-2.35661
3.25274
0.942225
6.39481
1.2126
-3.3697
-2.2198
2.69982
-0.987685
5.08366
-4.11085
-4.81346
-5.31806
-2.72388
2.55809
5.1305
-3.89691
4.39826
-6.89394
-2.01385
-1.23628
1.22502
-1.5074
-1.99855
-2.50447
-0.311969
-1.01074
-0.857127
-1.65757
0.429343
0.819811
0.584078
1.19649
-1.66619
-1.42906
1.32449
-1.31481
1.36621
-0.004457
-0.48487
-2.02431
-1.85678
-0.480519
1.30852
-3.32494
0.0592397
0.353548
1.04393
1.13197
-3.38588
-0.444248
1.82031
-2.16015
0.151087
0.280431
1.64012
-0.394507
0.475703
1.10276
0.141272
0.532104
-2.05897
1.86932
-0.141887
1.16784
-2.66678
0.329406
-0.391767
0.575218
-1.90267
-2.9306
-2.73303
-1.60361
-2.81767
-1.92219
-0.530822
-1.65808
-2.3318
-1.35828
-2.006
2.21225
-0.592708
-3.50662
-1.49112
-1.83109
0.817961
-1.97025
-1.72836
-1.87581
-0.855186
0.408307
-1.54191
-0.427662
-0.706041
0.608018
3.02684
0.687387
-0.0485789
-0.449654
0.266023
4.89024
-1.47108
-1.44519
-2.22326
0.0450704
-3.29067
0.447893
4.95473
-0.262915
0.525374
-2.45842
-1.51153
-2.74845
0.983374
-2.03465
0.711642
-2.38876
-3.90052
-0.35827
0.819335
-2.50211
-1.36903
-0.896151
-1.07846
-0.747868
0.56578
0.558499
-5.25339
-1.71769
-0.594992
2.3919
2.31102
1.28893
-1.37786
0.700227
-3.12709
-0.617756
-1.91804
-2.03457
-0.513731
3.84886
0.875615
-0.838889
-2.93559
0.591306
3.26314
1.66458
3.39768
3.04629
2.12849
1.27208
-0.070324
-0.32349
-2.13928
-0.918959
-2.01759
3.65847
2.76273
-2.2671
2.90571
0.217555
-1.40439
1.15439
-4.08846
-1.5385
-1.9958
-1.00987
-1.00592
-1.43438
-0.537939
-3.06345
1.45516
-6.58307
1.34717
0.96275
1.52755
-0.609655
-1.80497
-0.544372
-0.220302
-0.969184
-0.687073
-1.62124
1.43497
-1.36596
1.95402
-0.0324333
0.449828
-0.725258
-3.51527
-1.30996
-0.025908
-1.77554
-1.2874
-1.65902
5.30193
4.00275
-1.32064
-2.20465
0.365044
2.49569
3.67382
-0.823451
1.58514
-1.82243
-0.873109
-2.43939
-2.13233
0.0884458
-1.47611
-0.5167
-2.48884
4.0514
-0.383931
-0.0847089
-0.827047
-1.1078
-0.241438
5.63224
-0.0776564
3.87406
1.53507
0.917565
-1.92254
-1.58987
-0.014683
-1.01543
-1.2314
-0.620413
-1.48287
-2.41335
2.93926
-4.06978
-0.741122
-2.10023
-1.30516
2.82501
-1.11604
-1.49959
-0.74256
-2.35497
-1.48115
-0.0634448
1.01594
0.144447
-0.232292
5.05233
-0.500935
0.588908
-2.72944
0.598593
-0.0907782
-1.17517
-1.30653
-1.13393
-0.350076
-0.887918
-1.74286
-1.2897
-0.571175
0.0928175
-1.02322
-1.2608
-1.70808
1.8138
-2.62103
-3.33558
-5.78489
3.35574
-2.70322
2.06157
-5.57371
-4.12375
-2.01557
3.87162
-5.01225
-7.24146
-1.18729
1.54829
1.82078
3.93802
0.176454
1.22038
4.93686
-3.15802
-2.06348
1.34377
4.3394
-0.838566
1.79778
-2.16489
-4.75135
-3.81192
-1.13501
2.56189
-4.4374
1.41188
-2.51041
1.06024
2.62808
1.8397
0.979916
0.716133
-0.66829
-1.33048
0.651852
2.97011
1.91604
1.67028
2.13843
1.89785
2.1746
-0.66047
0.9544
1.48731
2.66311
-2.42368
-1.68275
-3.8646
4.4744
4.39568
-5.30724
3.90767
-0.295981
3.35111
0.542349
-3.60402
-6.01008
2.55942
-3.30848
-3.83102
-1.05851
7.49854
-1.66377
7.1196
-2.91558
-2.22213
-3.34044
0.105774
-10.4698
-1.11396
-2.64017
2.18849
-0.693425
-0.547887
-8.54508
-0.914536
-1.51863
-4.82676
-3.47222
2.86801
-2.96349
-1.34236
-4.48053
-7.24981
-6.59332
-3.06255
1.44948
-2.04997
-2.28719
-5.00412
-2.75139
0.840739
-1.12799
1.25766
12.1002
-0.378666
-7.15443
8.34552
-1.44373
-1.71216
-2.43884
-5.12634
-1.44677
-1.74883
2.42573
-0.755707
-3.27825
13.1957
5.80399
-3.5556
-2.19211
8.50538
-1.11996
-3.68625
6.11994
0.645322
-4.40282
-3.64004
-3.41598
-3.45365
0.639281
0.0881663
-1.08338
0.92086
0.399852
2.65723
0.393576
-1.5728
-0.108414
0.313324
0.438045
0.0535222
1.60936
-0.906873
-1.10438
-0.0713869
-0.555271
0.922417
0.131959
5.05367
1.66426
0.227277
-0.624282
-0.0244709
-0.787632
4.22393
-2.98984
-0.0188045
-0.340516
0.0303804
-0.886791
-1.85782
0.247596
-0.0305459
0.530118
-0.225909
-3.21755
-0.657735
-0.264238
-0.470287
-0.227862
0.308191
-0.0279566
-2.08446
-0.0478881
-11.1103
0.537084
0.502682
0.649217
-0.659745
0.0419524
0.662295
-1.38921
1.18376
1.44543
0.547562
-0.202679
0.874349
-1.07123
4.40186
-0.709202
-0.5641
-8.17738
-4.35938
-6.06187
-3.87638
0.00215224
4.16737
5.7378
-0.837092
-4.44245
-1.55867
-5.26997
-3.59155
-1.12234
-3.87114
5.54057
1.72016
4.14139
-3.62242
-1.43362
-3.70218
-8.66515
-3.33331
10.8897
-5.15496
-2.8764
-6.85481
-1.76919
-9.78533
8.80769
4.40006
-0.556879
-1.58497
7.75483
-2.72762
-2.96592
-1.27512
-4.08259
-0.76603
-5.00373
-4.35148
0.124267
2.31334
2.9376
-3.22054
-5.22381
1.11671
7.96336
4.62552
-2.95637
-0.993132
-3.67638
2.44024
7.35324
1.6039
3.33275
-2.82429
-1.20185
-4.18849
-12.9907
0.295632
-7.05079
11.1663
-1.41129
0.394314
-1.41021
1.2315
-0.92268
1.06026
0.0756445
-0.0580249
-1.52617
-1.73949
-2.69007
-0.117523
-1.46926
0.458015
-1.07549
-0.701958
0.518427
-1.6101
-0.487568
1.2172
1.03629
-0.709089
-0.855174
-0.221476
-0.0679556
-0.686926
-2.19496
1.48538
2.13795
0.0760608
-0.0337661
-0.189195
-1.00085
0.0179062
-0.583205
0.0458494
-0.049116
0.512616
1.54925
-1.03987
-0.367938
-0.893748
-0.966379
-1.49406
0.442539
-0.619229
-0.800331
3.39342
0.0165485
-0.340003
1.55987
-0.638511
-0.89101
0.342435
-1.92654
-1.78315
-0.755908
-0.437648
0.932326
-0.355197
0.853035
0.276539
4.9971
-9.21248
2.49341
-5.25825
5.08724
-2.59122
8.46118
-4.24407
3.56494
2.24637
-8.34003
2.63409
3.2529
6.63684
4.27411
8.18178
6.79001
1.37948
3.19378
-2.5238
-9.83428
-3.15212
-5.14163
-2.05135
-1.09425
-0.0259459
1.7139
6.38471
2.76414
7.1999
4.53523
3.92263
6.44215
-6.10928
3.26661
-4.22779
6.87726
2.10995
-3.66582
-5.38554
2.75887
5.27557
6.0398
8.04199
5.33395
1.13014
-13.6546
-4.53519
-1.28149
-5.0924
-1.3883
5.17833
8.05837
-2.38452
-2.37531
-6.26667
-0.394053
2.34962
7.01409
-0.0281934
3.16323
-0.662989
-2.32978
3.07444
-1.56196
-3.53535
-2.96993
-2.55968
-1.6135
-4.22784
-1.84363
-1.64669
-4.17891
-0.902017
-2.88186
-2.24042
-1.57001
-2.51377
-2.04226
-2.29063
-2.89945
-2.57056
0.203093
-0.516658
-2.98085
-2.29833
0.758322
-2.4731
1.8481
-5.1943
-1.09346
4.30062
-1.5642
-1.68737
1.96694
-1.13074
0.260042
-1.37131
-3.54262
1.26648
-2.99738
-2.82975
0.294763
-2.97648
4.53022
-1.53297
6.45299
-0.916772
0.406838
-0.652575
-1.0377
-1.34591
-3.03435
-1.65821
-0.680062
-2.11378
-2.02505
-0.0488883
-1.21454
3.71674
-0.959098
-3.0271
-3.87999
0.425769
-0.29302
-3.09624
-2.11712
-4.84425
-1.4971
-2.03194
-1.76999
-0.822739
-0.64153
0.177478
1.26798
-0.442164
-2.00004
-0.658062
0.0242775
-1.84619
-0.0262554
-0.601492
-2.55644
-1.30298
-2.08421
-3.5868
-0.19212
4.69431
-2.33053
4.14711
1.72061
0.0271602
-0.637495
-1.04883
-1.61478
-1.32568
1.36464
-0.718559
0.089006
1.81518
2.49726
-1.07497
0.0928107
-2.11492
-2.14764
-1.58823
-1.8591
1.94799
0.0179919
1.67001
-2.04794
5.44302
3.3108
3.59415
-1.10405
-3.04777
0.867615
-1.69054
2.05548
-0.670847
5.44795
-2.9064
-2.19313
2.1899
-0.628218
-2.76626
0.194243
-0.82524
-0.712904
0.0838954
-0.577615
-1.01965
-0.641169
-0.594894
0.182013
-1.48962
-0.826209
0.707298
-0.768803
0.0341436
0.267767
-0.278234
0.053408
-0.359644
-1.36276
-0.119672
-0.469245
-0.82191
-0.600656
-0.391399
-0.185529
-1.45382
-2.14002
-1.005
-0.432274
-1.80492
-1.55135
-1.62575
-0.256078
-0.516053
0.413555
-0.831092
-0.350479
-1.25707
-1.72091
-0.41138
-1.4689
-2.10151
-0.218473
0.165235
-1.6624
-2.32178
-1.0256
-0.861121
-0.972806
-0.426009
-1.39231
-1.36501
-0.334775
-0.858091
-1.18033
-0.960855
-0.775201
-1.81143
0.132655
-1.80008
-0.356466
-1.38922
0.567311
-0.639683
0.0249538
-1.3477
-0.0992379
-0.556179
0.0176068
0.168674
-0.585142
0.430652
-1.22639
0.801958
-1.03303
-0.835501
-1.40896
-1.37366
-1.01377
-0.891961
0.465798
0.140744
0.176425
-1.32263
-1.91325
-1.15836
-1.61132
-0.930821
-0.641252
-0.797647
-0.893446
-0.583928
-2.07607
-1.47738
-1.83135
-0.707871
0.220172
0.373944
-1.39221
-0.0145611
-1.19065
-0.0339962
-0.7284
-1.64197
-1.75801
-0.905637
-0.0457553
-0.839507
-1.63372
-0.304833
0.369753
-1.48059
-1.01331
-1.4839
-0.30612
-1.27483
-1.22769
-0.13384
-0.360599
-1.84013
-1.00814
-1.87218
0.0731793
-1.33357
-0.931374
-0.989452
2.71725
-1.6886
-0.397889
0.528559
0.665099
-1.56962
-0.0860369
0.157044
-2.1571
-0.255033
1.21117
-2.74051
1.65529
-1.29942
0.756751
-1.18194
0.199259
1.89529
-1.62263
-0.464002
0.431905
-0.991575
-0.927782
-0.0369169
-1.54101
-2.78181
0.0356215
0.0977797
-3.51125
-3.32566
-1.17901
-3.54094
0.478808
-1.19625
-1.87497
0.483485
-1.59799
-2.35643
0.576855
-1.65742
1.56256
-1.61197
-2.2085
0.93131
-2.06768
-2.39048
-0.428841
-2.53973
0.0999084
0.635275
-0.729746
-0.0741221
1.54153
1.36783
-0.69575
-1.34877
-2.5909
-0.143665
-1.8302
0.680003
-0.0719391
0.222758
1.09622
0.267153
-0.914151
1.58151
-0.00724717
-1.39018
-1.1585
-1.27465
0.739716
0.0675137
3.04324
-0.489532
-0.935054
0.400397
-1.32472
-0.426158
0.73384
-8.34152
1.18214
-0.833607
-0.938905
-0.785165
0.781585
0.0320301
0.58631
-0.219943
0.643398
0.616272
-3.30473
-2.3574
0.910814
-0.0747028
-0.485676
0.356526
1.72322
0.0522651
2.56583
0.439256
0.634699
-1.91141
0.52501
0.154793
-0.75163
0.640476
1.26556
0.511379
-0.408534
0.188713
-2.04006
-0.980863
-1.2886
-0.246878
-1.14292
-0.483991
-1.29263
-0.201112
-2.23443
1.22391
-0.440759
0.285416
-0.934216
-1.03221
0.256015
-1.1955
-0.50111
-0.549903
-0.289694
-0.908236
0.234346
-0.593291
-0.549382
0.224953
-0.209709
-0.00076026
0.550874
-1.16307
-1.5943
-0.224983
-0.0568398
-0.230515
0.69978
-0.413761
-1.51579
-0.143701
-0.25928
-1.10104
-1.27827
-0.734612
-1.3578
-0.836383
-0.463353
-1.65307
-2.35111
-1.3236
-0.764859
-0.00822445
-1.5895
0.386524
-2.01821
-0.000233989
-4.93565
-1.29782
-1.51694
-0.400307
-1.51331
-0.644357
-1.13408
-1.53557
-0.343669
-1.37658
-1.69409
-1.12318
-1.26178
-1.87804
-0.428016
-1.05127
-0.961465
-0.0639393
-0.852256
-1.76455
-0.377687
-0.534136
-0.1166
0.666452
-0.429884
1.2116
0.173412
-1.06763
-0.701658
-0.005592
0.532705
-0.186566
-0.795763
0.740741
0.279097
-0.960085
0.411024
-0.016424
-0.261715
0.71766
-0.46296
-0.880906
-3.11286
3.16978
-1.5884
-0.220157
2.32127
-0.148398
-0.191122
0.24036
0.420673
-0.668861
-0.841854
-0.012663
-0.27864
-0.0239
0.167981
0.235769
-1.2529
0.60552
-0.383608
-0.818312
-0.641257
0.459909
-0.277035
0.015826
0.159068
-1.28681
3.88812
2.634
-0.542989
-0.719113
3.41105
-0.88064
-0.789796
-0.265095
0.251267
-0.748467
0.298023
0.471668
-0.299282
-0.961379
-0.585717
-1.57266
2.0444
-0.651136
-3.02177
-1.08703
-0.471074
-2.62453
-0.0685041
-0.285184
0.411769
-0.130985
-2.27459
-0.131467
0.364824
2.2582
0.911105
-0.149437
1.55206
-2.48485
2.29039
0.69613
-1.23483
-2.05235
0.0198907
-0.911707
-2.39038
-1.85426
2.82978
-2.69275
-6.60489
-0.712075
-3.35083
-0.774142
1.56793
0.126998
-0.7131
-1.81281
-2.72682
0.646812
-0.000630966
-0.133056
-0.760477
-0.543644
4.41334
0.0909284
0.308658
-0.362707
-2.79776
-2.03626
-0.973468
-0.546001
-1.67592
-2.95252
0.850919
-3.43603
-1.38445
-1.86546
-0.536368
-0.567285
0.327442
-2.19387
-3.54652
-0.0601873
0.329352
-1.14173
-1.73674
-1.05162
-1.32849
-1.76928
-0.667676
0.67795
0.0117583
-0.060118
-0.383416
0.224472
-0.499322
0.561108
1.04842
0.973729
0.764065
0.11974
-1.66692
-1.28562
-0.429058
-2.97718
-1.09882
1.40757
-0.582168
5.73644
0.54749
0.773307
2.26069
-3.87293
1.06883
0.987302
5.47368
0.523218
-0.00585943
-1.76874
-0.726465
-1.75776
1.46337
-1.63754
-0.537274
0.27788
-3.32228
-0.468885
3.58686
0.25979
1.05671
4.20536
0.0636303
-1.78896
-0.582483
-8.19146
1.06044
-0.0158466
0.570681
-1.50565
-0.568848
-0.405425
-0.630789
0.934968
-0.0522762
0.814589
-0.961487
-1.25792
1.7252
-0.901797
-0.853073
-1.36085
-0.466438
-1.00996
0.145323
-0.603078
-1.73097
0.306627
-0.71942
1.03499
-1.08861
-0.306959
0.677616
-1.3785
-1.1529
0.599469
0.664554
-0.155744
-2.71338
-1.5848
0.428178
-0.579728
-1.66371
-1.39746
-2.64025
-1.64471
-1.99207
-0.0735195
-1.41407
-1.24108
-0.16236
-0.812867
0.827068
-0.711212
-0.384005
-0.956927
-0.708016
-1.89401
-1.27994
-1.38314
-0.78371
0.210955
-1.69901
0.318769
-0.307169
0.59157
-1.2654
-1.65881
-1.64605
0.242644
-1.2943
-1.57513
-1.81262
0.29714
-1.29814
-0.0404156
-1.06036
-1.05855
-2.59653
3.85912
-3.62331
2.15522
-1.6957
-2.44223
-4.06122
4.29208
-3.16205
-2.79041
1.64874
-0.665976
-4.61044
0.882647
-2.29807
-3.11811
3.10435
-1.99117
-3.13548
3.49239
3.90912
5.01185
0.718218
-1.77426
0.255105
-1.38922
-2.52905
8.54843
3.06722
5.58016
2.52048
-1.31661
-2.38269
3.31829
-1.09296
-0.0566018
-1.92235
-0.371535
-2.21833
-5.18805
4.04959
0.284119
-1.4919
-1.07416
-7.55516
-1.03929
1.98797
3.07042
0.191295
0.293776
2.86481
1.16975
1.65799
-1.11433
-1.65544
-0.603481
-3.26676
-0.90106
1.7041
-0.267444
-1.65665
1.08614
-4.24517
0.11891
3.54684
0.828124
0.452281
3.12545
8.99399
-3.33589
2.74793
0.741991
-4.77082
1.12443
2.00749
-2.5481
2.57716
-0.158117
-8.93075
0.388865
4.16256
-5.02048
-1.97163
-2.99926
-0.444562
-2.33976
-1.96916
-1.9432
-0.72112
1.92436
0.99352
0.444442
1.11039
4.29402
2.56071
-1.54546
2.42171
-0.394235
2.33668
-0.866831
-2.68144
-1.524
0.849417
-5.4345
0.262697
-3.58657
5.10532
0.157019
0.022253
-1.15333
0.494945
-3.5535
0.631403
0.637247
-4.00627
-3.06087
-1.65711
-5.29613
-0.003633
2.02493
3.72926
-1.8486
-4.08025
-1.98797
4.65927
-3.6166
4.77199
-3.99549
3.79225
-3.37377
2.93
4.08514
2.10073
6.06659
-3.35916
-0.929121
0.269323
3.75229
5.46545
0.11206
4.16865
-2.68746
3.90342
6.6439
-5.94815
-0.316023
-0.687243
-4.87512
-1.80796
-1.79632
4.37148
-3.67743
-6.35276
-0.216707
-3.68169
-2.56539
0.750534
-1.98759
-0.28696
-2.43212
-3.87987
-1.08106
-1.74982
0.138723
2.0375
-0.17871
4.96059
1.46778
-5.12891
-1.20458
-4.59353
-1.44415
0.164263
-2.80082
-2.40487
-3.23468
2.90233
4.08171
-3.10644
-0.69018
2.11732
-0.676561
1.90301
-1.74793
0.388068
1.12559
-0.713878
0.38081
-2.5962
-0.33009
-1.86476
-0.64597
-0.612525
-2.71315
-1.36587
-1.68311
-4.43876
-1.51921
0.0589223
-0.577503
-2.16125
1.04113
-0.432912
-0.214113
-2.5568
-3.78921
1.62683
-0.332191
1.16927
-2.50344
-0.00189814
-2.11757
0.121763
-3.13826
-0.750215
0.381785
6.1439
4.24668
2.24557
-0.596397
-1.75025
0.993805
-2.07239
0.800413
0.762127
0.781105
-0.265426
-3.4224
-0.969343
1.70957
-1.25766
3.00092
-3.45805
0.511806
0.375218
0.0540533
-0.107285
-1.19564
-1.50792
-1.1951
-0.00718569
-1.67162
0.425407
6.38122
-4.33499
-1.3073
-0.796253
-1.01369
0.257804
-1.08015
-0.724536
-2.26571
-1.19311
-2.13459
-1.04911
1.04587
-0.134033
-1.91462
-2.04296
0.412043
-1.1487
-1.01966
-1.68047
-1.19579
-1.36341
-0.843609
2.04862
-0.855256
1.88487
-1.48896
-1.81375
-0.771465
-0.914554
-3.34121
-0.662763
-2.08696
-4.26858
-0.219027
0.738589
0.469068
7.97931
1.69842
-0.266605
-1.43329
0.287192
1.40745
-0.0868575
-0.596619
-3.58268
-0.474699
-2.60836
-1.16332
0.654654
0.0969113
-0.698683
-0.0895319
-0.0507245
-0.55386
-0.269781
-2.36232
-2.05027
-1.845
1.54132
-2.00679
0.0984568
-2.62737
-1.70343
-1.27109
-2.44647
-1.08286
-1.64137
0.133322
-1.86845
0.745505
-1.34582
-1.72096
-1.27421
-0.425016
-1.07418
-1.26159
-2.61817
-0.682309
0.557812
-1.0104
-1.3276
-1.46557
-1.03646
-3.47779
-0.851828
-3.95077
-0.515108
-12.7447
-2.55857
-2.59726
15.9392
-11.2652
-3.64925
-0.0130315
0.220645
0.0177178
-1.58973
-1.12267
-0.25115
0.229272
-0.506985
-0.645594
-2.27494
-0.466946
-4.33006
-0.41759
-0.880701
-1.87462
-0.215799
-1.90204
-2.00796
2.07439
-1.03237
-7.14857
-2.79719
-2.80637
4.2862
-4.66463
-0.055803
-1.09844
-5.75422
-0.402945
-1.49551
-2.19217
-1.00923
10.4404
-0.674602
-0.865805
0.100694
-0.593292
0.978588
-0.595206
-1.27143
-1.32625
-0.974549
2.02565
-1.01597
-0.104708
0.314592
0.439457
-1.24096
0.761526
-1.77028
0.35903
-1.00358
-0.197462
0.159095
-1.83765
0.442768
0.610985
-0.648964
0.273327
0.100378
0.324763
0.104699
0.439443
7.03561
-0.05475
-0.342954
-0.740412
-1.0569
0.73866
0.314754
-0.435516
-0.138893
0.029598
0.279983
0.243931
-2.56768
0.406346
-2.9356
0.290477
0.589693
0.12821
-0.474204
-0.113089
0.469784
-0.868253
0.126749
-0.350348
-0.294952
-0.82705
-0.935286
-0.864317
-0.031681
-0.550298
-2.07727
0.394352
-0.231321
-0.486298
-4.13347
-1.34267
-1.57093
-3.22037
-0.542136
-2.09156
-3.19429
0.156783
-0.733445
-3.29414
-0.575193
-0.649909
-3.07409
-0.967382
-2.32417
-1.27664
-0.806967
-2.39696
-2.79527
-2.46269
-3.93652
-13.288
-1.48414
-0.47374
-4.22145
-6.23722
-0.862342
-2.48287
-2.18904
-1.73948
-1.21315
-0.0146001
4.64186
-2.78389
-0.185053
8.18942
-1.13509
-1.40064
-1.20867
-0.339026
3.6509
-1.34954
-4.73044
0.72282
-4.2028
-0.363976
-3.87616
14.258
-0.659015
-1.13188
-1.85224
9.2027
-1.57601
-3.15833
-3.60216
-6.32157
-0.275883
-1.76498
-1.73796
-2.62103
-2.00922
-2.99808
0.394595
-0.583462
-0.987986
-1.23672
0.213471
-0.713911
-0.582299
0.831591
-0.475269
-1.27924
-0.482553
-0.944688
2.15696
-0.766716
-0.343596
-1.34384
-1.20735
-0.0793332
-0.911589
0.210733
-0.408433
-2.42994
-1.66699
-0.755449
-0.296393
-0.687199
-1.37086
0.292663
-0.78015
-1.45776
-1.3253
-1.72864
-0.783615
-0.977887
0.42564
-0.378603
-1.32661
-0.195117
0.0696035
0.118789
-0.91109
-1.18941
-0.195874
-0.235357
-0.710847
-1.49995
-0.236535
0.671228
-0.0725085
0.781648
-0.580446
0.122652
-1.72975
-0.502898
-0.378228
-0.393664
-1.35112
-1.62054
-0.17532
-0.224415
-0.565232
-0.63308
-0.144391
-2.77469
-0.553868
-0.218328
-0.064654
0.0952058
-0.774415
1.27258
-0.367004
0.37541
2.05398
0.28469
-0.39903
1.83367
-0.424572
-1.05457
-0.896061
-0.993309
0.0705119
-0.0802144
-0.841844
0.127324
0.608566
-0.64261
-1.12483
1.548
2.45171
-3.59905
-1.09925
-0.311703
-1.32584
1.12804
-2.67299
-2.67734
0.0591216
-0.104187
-1.2417
-0.398345
-1.62844
0.480301
-6.90856
0.329992
-0.0130475
-1.38745
2.12266
1.2478
-0.557892
-0.868916
2.93841
-1.47641
-2.74259
-2.53298
-1.40683
-0.505909
0.168602
-0.329191
-1.51253
0.492421
-0.0209118
-0.569154
-0.783252
-0.771218
-6.30102
-2.29699
3.17086
-0.321815
-6.57453
6.52634
5.83398
-3.42553
-4.78601
-3.38947
-3.25619
2.13278
0.137735
-5.46487
-0.856513
5.8322
5.5492
6.39485
-10.6013
6.1877
2.30253
3.98603
1.50769
12.1885
5.42895
3.22827
-3.32156
-6.25027
-4.96447
-8.28739
-6.42658
-5.22495
-4.77119
-4.67415
2.09649
2.65085
-6.40319
-2.54091
10.1328
-7.51123
-3.64625
-1.99826
-2.80562
-5.08777
-5.09089
3.19049
0.0889663
5.13083
1.09144
-9.9174
4.30532
-4.37372
-2.4852
5.51455
3.63125
-9.5145
0.717271
-4.46419
-4.05684
1.51858
-3.70491
-7.28386
-3.47614
0.268827
5.60257
-2.02262
-4.54365
2.1159
14.3793
-2.08867
-1.1039
-3.32958
-0.0600859
-1.82913
-2.97846
0.630775
7.19204
6.26439
-14.2102
7.23866
-3.87935
-7.72137
2.12636
-0.580774
-5.28647
-4.49203
-1.92303
4.61051
-2.25601
-5.73989
9.36982
7.54242
-4.61635
-3.72698
-13.3707
-2.87985
-2.1447
0.471534
-3.12846
0.714477
-2.23103
-2.4452
11.4223
3.71829
5.8937
-3.46489
-4.66463
-1.9527
3.84249
-3.054
-2.23453
-2.40323
-1.30981
3.92846
9.31158
-2.65176
6.3365
-3.89887
-1.81472
-2.32836
-7.91077
3.38609
-5.03031
-3.67638
-0.447966
0.63594
0.476953
-0.218796
-0.114561
0.592819
1.40797
-2.13078
-0.421957
0.313277
-2.49909
0.0175033
1.12366
1.55747
0.00892925
-5.41598
0.793923
-0.469373
0.779213
0.313655
1.05542
2.73378
-0.519706
0.272888
0.715124
-0.661145
-2.48608
0.437801
1.26603
2.31811
3.11147
-0.923317
0.533782
2.05194
0.0816639
5.35548
2.72397
1.03024
-0.265651
1.05854
-1.28432
-0.855714
-0.638136
1.15481
-0.147171
-0.0981908
0.611087
-2.72834
0.487909
2.35406
2.0285
2.63628
-0.788507
0.314392
1.78943
-2.95695
0.403279
0.496587
1.31573
-1.7588
-0.35399
3.1843
-0.88826
4.87437
-1.56757
1.15986
-1.24996
-2.03781
-0.436741
3.91281
-0.478957
-0.118659
4.56859
2.2025
2.50672
3.28465
2.54397
3.9667
-0.874423
3.12293
-4.1127
-3.30246
-0.334711
-3.07613
-1.3342
-2.89787
-0.262934
-0.675246
1.95346
4.6823
1.08575
2.71871
0.831601
1.97183
-3.77351
1.65789
1.41821
-0.0473346
0.1888
-0.589003
2.7847
2.84219
-0.0942859
3.11563
-2.77472
0.883319
-6.29739
-0.779377
1.25766
1.30524
-0.370595
-2.5267
-0.720183
-3.01701
2.03669
0.0772241
-3.90861
-1.55983
0.836184
-1.07537
-0.307661
-0.274265
5.58062
-4.66368
-7.97082
-7.09013
6.71919
-3.53876
-4.04444
-1.20628
-5.15758
-7.91708
-6.46832
-5.77845
5.33209
-0.442115
-1.02562
-1.33118
-6.91544
0.646427
-1.79
3.76002
9.64172
6.85044
-4.83057
7.30521
1.41221
6.68311
2.38734
3.54826
-2.60891
-5.00968
12.7577
-2.1098
2.99324
3.39516
-1.26648
-7.02454
0.43893
-3.80382
6.6224
2.3875
-4.81853
-5.67055
-4.41584
3.40952
-8.73132
1.62592
8.61069
2.27053
-6.32437
3.11566
3.03247
5.59914
-0.690572
7.45442
-5.91046
1.3926
5.51126
1.68341
-4.17398
-6.10369
-5.12136
2.20944
-2.21959
3.36946
2.61071
-1.36334
-0.672809
-0.186566
-0.203799
-1.51822
-1.20287
-2.35229
-0.513565
-0.754893
-1.61569
-0.0675713
-1.28832
-0.759935
-1.04662
-0.60216
-1.63744
-0.658075
-0.758657
-1.63352
-1.00708
-1.82359
0.520489
-0.957346
-0.714737
-2.43968
1.47764
-0.770282
-1.07994
-1.92001
-1.35282
0.455075
-0.324418
-0.445024
-0.2779
-0.474795
-2.37885
-0.452869
-0.474096
-0.607933
-0.866147
-1.8323
-1.22019
-1.8147
1.22076
-0.570112
-1.07751
-0.88803
0.0350885
-0.126952
-0.815771
0.10753
-1.45404
-2.56268
-0.689563
0.162112
-0.359385
-0.00525494
2.25114
-0.339651
1.32348
-0.62101
0.235403
-0.183651
-0.238804
-2.02735
-0.64082
-1.33525
-1.60586
-0.150489
-0.806186
-0.320556
-0.255962
0.655207
-0.787832
-1.55557
-0.71264
-0.240137
-1.38569
-0.773601
-0.333038
0.105774
-0.996051
-0.690839
-1.16036
-1.47556
-0.0396806
-0.703505
0.197956
0.237698
-0.727059
-1.0524
-1.51212
-1.08885
-0.66514
-2.21424
-0.159529
-1.10262
-0.684875
-0.157823
-1.86856
-1.70515
-0.777743
-0.495087
-0.958009
0.39194
-0.806629
-0.23806
-2.03514
-1.58182
-0.207063
0.0234343
-1.10015
-2.10247
-1.13741
-2.6754
-0.0459482
-0.28834
-0.620668
0.0138251
-0.609236
-1.45719
0.116023
-1.2199
-1.42321
0.627393
-1.55962
-0.86044
-0.868582
-2.78375
-4.48161
0.693661
-0.347845
0.250063
-1.20886
-0.53391
-2.86702
1.75574
-1.60295
-2.90382
3.92984
-1.67192
-3.18386
2.53155
-0.936909
2.95016
1.02028
-0.205793
-0.451067
-2.49215
1.617
0.952902
0.774232
1.39941
-0.115687
-1.86121
3.48183
1.25339
-1.18454
-1.22912
-0.249157
0.882302
-1.96619
-1.41691
0.346989
0.992098
-1.66719
-1.58102
-0.0360806
1.58939
0.137294
1.74142
-0.889231
-1.06806
0.768269
0.456885
-0.0895713
0.220785
-3.09667
-0.242374
-0.849019
-0.925819
-1.28081
3.50263
-0.127379
-1.84233
1.06574
1.69935
-2.23633
1.34165
-0.906918
-1.89308
-1.7098
0.290081
-1.85224
-0.554272
-2.30505
-0.620658
-3.44241
-1.69499
-1.21032
2.15109
-1.16688
-0.813051
0.0128347
-1.45457
-2.13267
0.425581
2.81812
4.51826
0.799798
6.57451
-2.35063
1.97891
0.753933
1.53014
-0.357865
-0.710255
-1.61471
-0.336663
-1.0525
-0.608188
-0.0259957
-0.574716
-2.21553
0.37429
2.2156
-0.778509
-0.622692
-1.12604
-0.016504
-0.123838
2.60987
-1.61992
0.246971
-5.82635
1.03818
-9.64236
0.445968
-0.430972
0.0986344
-0.91914
-1.18053
0.4139
1.13174
0.763084
-1.26955
-1.18154
-4.26145
8.36794
-3.28449
-4.41683
-3.74044
4.77831
-2.65236
9.18439
-1.39561
-2.09317
-0.13849
-3.5323
3.65976
-2.66641
-4.993
-1.63425
-3.03888
-7.72425
-6.10662
-4.44319
-7.68225
-6.71873
-3.70996
7.06359
6.66548
-9.24232
4.83422
-4.91727
-2.25745
-1.02403
-6.91982
-5.98977
-3.29687
-5.77871
-3.25199
-2.65193
-1.38629
0.71795
-5.17665
-7.5683
-4.72191
-3.05069
0.950947
-7.06787
2.18478
2.6557
-5.06901
-4.06229
1.12573
1.39752
1.213
-1.04836
-0.418072
2.81098
0.472208
0.939963
-3.19851
11.9471
-6.76006
-3.99757
-3.21921
-4.21768
-6.18644
-6.30893
-3.70674
-6.43074
-4.86761
-7.99775
-3.61917
7.47306
-3.30958
-5.05961
7.52544
-1.88067
-1.0916
-12.3689
-1.22573
-5.97655
-3.75664
-5.89842
0.26569
-5.38606
-11.5193
9.48385
5.68166
0.416405
6.24129
-8.39742
3.33276
3.48348
-1.14471
-4.42196
0.267341
6.35059
-3.26437
7.24588
-2.20705
-2.49976
5.75167
-1.35721
11.2032
7.86888
-1.11655
8.20569
-0.815722
10.205
-1.01784
-3.42565
-7.37552
3.90888
-0.821147
6.08085
6.34408
-3.64778
-3.29602
-2.46997
-5.26501
-1.34937
-1.28631
-3.2383
-4.14719
-3.27994
0.272015
-8.65328
-7.60422
5.31561
-6.91007
8.66091
-8.32835
0.890267
-3.56555
0.711159
7.20762
2.26946
5.49548
4.86111
-3.16781
-6.72522
-4.68839
-3.2645
-3.74773
8.50742
-7.79778
-11.061
-7.57709
-2.56345
5.2546
7.40153
2.49067
11.5634
1.61469
-5.13854
-2.8459
-4.16856
5.76142
7.59347
-3.83316
3.01387
4.58738
0.20321
5.90056
2.99824
-0.813722
-4.4462
-2.54174
-7.25009
-4.21301
-7.06664
-5.31677
-1.68765
-5.01951
-1.75741
1.37636
6.47014
0.285032
9.01414
-0.810173
-4.49571
-10.2798
-5.25256
-0.0844112
-1.34521
-5.0276
1.53305
-3.33373
-4.44682
0.662368
-5.26042
6.27179
5.53803
-0.332393
-4.62948
3.89338
7.85312
-3.19004
-4.33117
-3.02231
-3.41032
-1.41772
6.04067
-1.87002
-4.74269
7.48866
-4.06951
-5.38106
-5.32828
1.35782
-2.94707
3.23531
-1.71004
-1.01723
0.665961
4.31384
-11.5361
3.3848
-10.3256
-7.4487
-1.83097
0.595312
2.39786
-2.55548
0.260182
4.07242
-2.776
-3.59015
1.99643
2.94687
-2.08413
-1.22397
4.40107
-5.96235
-2.56292
-0.651345
-1.96428
-1.37896
-1.82336
-2.08303
-2.07207
11.2253
2.83911
-4.34293
-3.04241
5.30584
-3.86145
5.58856
-3.08078
12.8572
-3.76208
-3.30489
-3.66016
-4.94034
-4.74098
12.717
6.0321
-3.63597
-7.0963
-3.20634
-3.84428
2.52333
-3.02313
0.756248
-1.1391
-4.27656
-1.87052
-6.22828
-2.38614
-5.85641
-4.27866
-0.628746
-2.83975
8.92853
-4.88836
4.43147
-5.19948
-0.146416
-6.71979
-2.86317
-4.5094
-6.95204
9.01138
-6.46597
3.41858
-3.93212
1.44929
4.05312
-1.73238
-1.55136
-1.27939
-0.835282
6.04259
-1.99112
8.83648
-8.28836
-1.96929
-4.57334
4.50995
3.95611
-2.36329
-1.93996
-8.72922
-4.78753
-2.73474
-2.95505
-4.0602
0.165595
-5.60795
-4.57381
7.04532
-9.32208
5.69041
4.12738
2.66831
0.327671
2.36303
2.14352
-4.61868
-5.51997
-3.44987
3.15152
0.691035
0.127579
-2.77531
2.8996
-5.79454
-6.93102
5.10259
4.1663
-1.71724
4.67585
-4.91199
-1.27828
6.09655
7.37711
-5.90983
-2.79684
0.766694
-1.37246
-3.77355
1.48093
-0.120501
-5.60315
-5.61963
-1.39864
-8.20154
-3.0742
1.16069
-2.43163
0.406819
2.85587
8.15286
7.09139
-1.92387
4.95068
-6.56035
-3.53441
3.73377
4.4794
-4.92392
-3.91055
5.4849
0.434576
-2.43138
-5.73186
-5.23219
-4.81183
-2.66903
1.80317
0.718678
-1.70857
-4.89208
-1.04404
-0.723164
1.50432
-2.62259
2.50157
0.601565
2.19141
1.49303
3.3707
-1.5277
1.73954
1.28658
-1.14713
0.200186
-0.747098
2.39308
3.47728
-1.89031
2.40175
-0.511938
2.16125
0.81848
1.94044
-2.75024
-0.532695
0.106402
-0.291589
-1.61525
1.16169
-2.40909
1.38461
-3.33582
-0.758171
-0.869861
1.20001
-0.701592
-0.178811
1.42954
0.63707
-0.716491
-0.415394
0.560264
-1.42004
-1.81127
0.899126
2.4907
0.020189
-1.82905
-3.92009
-1.6946
-0.83057
0.051851
-3.57788
3.70949
3.05878
1.29949
-0.727884
-3.6045
-0.433201
-0.358794
0.764948
-2.35981
0.612189
0.179118
0.712543
0.136839
-0.0835164
-0.538672
0.149698
-0.49075
0.363187
-0.245777
-0.817832
0.839805
0.354488
-0.598553
-0.067248
0.846266
-0.412603
0.170537
-0.079931
-0.388015
-0.236949
0.5021
0.697457
0.448984
0.75313
-0.000766018
0.90883
0.606757
-0.825134
0.627734
-0.524391
0.0932555
0.306616
0.292032
-0.559157
-0.855067
-0.568781
0.817849
0.16599
0.479913
0.880957
0.515102
-1.03239
0.484071
2.38491
-0.120529
0.668607
0.400549
-0.000387986
-0.932852
0.101645
-0.17799
-0.783456
0.859856
-0.0774662
-0.810242
0.506749
0.669645
0.728898
-0.405459
-0.226064
0.200787
0.396118
0.824913
0.486798
-1.11281
-0.0681423
-0.545236
-0.419569
-0.953532
-0.973523
0.276782
-0.975129
-0.420217
-0.347645
0.293582
-0.676319
-0.51015
-1.13065
-1.66559
-0.94942
-0.344428
-1.15877
-1.21158
0.409358
-1.25784
-0.537288
-0.0667657
-0.845665
-0.263101
-0.902502
0.556914
-1.62527
-1.45125
-1.61316
-1.22986
-0.131257
0.74805
0.519335
0.127629
-3.69376
-1.14373
-1.20755
-0.41194
-2.03914
-1.12889
-0.0366449
-0.135489
-0.451331
-0.0917775
-0.737721
-0.65701
-0.372395
-0.858924
-1.5642
-1.55625
-0.829507
-1.9723
-1.53855
-1.36186
-0.795486
-0.489807
-0.0773037
-1.90264
-0.762492
-0.908118
0.629864
-1.67126
0.711342
-1.23997
0.346281
-1.54849
-1.15159
-0.675508
-1.06472
-1.15785
-0.605289
-0.964677
-1.18009
-1.42343
-0.951091
-1.52132
-0.767328
-0.884241
0.347278
-0.712145
0.891401
-0.478294
-1.23473
-1.47201
0.19232
-1.696
-1.92832
-0.855917
-0.410101
-0.369423
-1.62218
-2.62002
-1.75452
-0.928055
-0.635124
0.527844
-0.305836
-0.711927
-1.34657
-0.584139
-0.966245
-1.9525
-0.940901
-0.353318
-1.01671
0.0247196
-0.434351
-0.108256
-0.559555
-0.174307
-0.255326
-1.46184
-1.78323
-1.71246
-0.27153
-1.03519
-1.50903
-1.41816
0.0400466
-1.84294
-0.258883
-0.273786
-3.36151
-0.0378848
-0.662315
-0.448074
-0.586337
-1.4169
-1.56332
0.522955
-0.822078
0.0900241
-2.42377
0.541136
-1.07371
-0.0122284
-0.735171
-0.0114872
-2.34789
-0.223933
-2.12494
-0.497825
-0.937296
0.141773
1.1317
-0.701344
-1.53828
-0.874034
-0.302998
-2.51184
-0.893371
-0.494014
-1.05625
-0.73101
-0.445096
-0.710136
0.473327
-1.45678
-1.65534
0.0890694
-1.98438
0.701713
0.216653
-1.01071
-0.281209
-0.963739
3.37664
1.74774
-0.182617
-0.0984172
0.0492974
0.301159
3.29401
-0.593659
-0.620664
1.60257
-1.80924
3.37364
-0.856398
1.32665
-1.38812
-0.135696
0.32439
-1.51339
-11.1428
-3.42217
-8.41541
-3.69403
-6.22147
-8.83232
-1.61395
-1.45879
-3.65966
2.88898
-1.19195
-1.74877
1.8457
-4.02179
5.28253
-7.589
0.156697
-3.18265
-8.20572
-4.75612
-7.84469
-2.58804
-2.81119
-5.69526
-2.72647
2.50825
-4.94688
-6.57608
6.49602
-10.4398
-4.64255
-0.170422
6.95989
-1.84911
-1.82369
1.53811
-2.97737
-0.747138
-2.09537
-3.90026
14.2949
-0.869678
9.13258
-1.89712
-7.89698
2.2558
-4.1542
-4.80278
-1.94165
4.31654
0.632871
-1.91916
-14.2396
5.43012
-0.183755
9.76397
-5.80738
1.4793
-8.09782
2.21894
-6.87962
-7.85355
3.36909
-5.24939
-3.87111
-8.3218
6.98272
2.22903
-6.7863
-7.75724
3.17656
3.65719
3.53193
1.11778
1.54551
-4.58697
-5.35687
-5.1026
1.35288
0.106923
3.81997
4.59933
-5.55837
-1.49648
0.639513
1.60642
0.280739
0.782984
1.10361
-12.3035
-1.14432
-3.42361
5.53811
-0.716778
-1.89862
-4.81901
1.73507
-3.55653
0.313214
-0.151194
-0.178221
1.38792
-0.721229
0.837813
-3.29284
3.37957
7.53409
0.102453
-3.70325
0.504273
-0.36622
-0.725285
1.29382
-2.07164
-4.30418
3.63366
3.27275
-0.426994
-0.0429224
-5.78941
-6.41772
-0.151965
7.1115
-6.01116
-3.16794
4.17669
5.10603
-0.374147
3.28441
0.691536
-3.00052
2.88014
-2.3704
-7.03
2.96544
0.829933
1.92108
3.81731
6.15671
4.21286
-0.0855607
1.79239
-2.56143
0.426655
0.197773
1.35331
4.09249
-3.6102
-3.84093
-0.11125
3.24626
7.03365
6.79666
1.85181
3.38377
1.4296
-3.06591
0.0058966
1.12639
-5.92086
2.33511
-0.261735
-1.88802
2.36956
6.54886
5.46754
-5.34682
-1.87369
-3.05351
-1.74871
0.587425
-2.34144
0.151026
-2.07762
1.55608
2.23964
1.00854
-4.61094
1.83665
4.04566
4.48114
2.2532
5.35517
1.30508
7.3778
-1.3166
1.05405
-0.869228
-1.93087
3.3633
-0.152262
3.61753
0.579662
-1.62579
-0.607746
0.450047
0.300666
-0.420169
4.03551
0.132206
-0.697467
1.82569
1.66533
0.3296
0.870749
3.38368
1.82841
-8.69133
2.31245
2.91896
-4.87146
-1.0953
-0.00883455
1.84628
2.26303
0.204352
-0.978474
0.00930409
0.13946
-1.91007
0.730093
2.40559
1.56585
0.130677
-0.213227
2.04136
-0.80482
-1.40634
0.147971
1.1566
1.56784
-0.248387
-4.81225
-3.60396
-2.91729
3.55255
-7.22189
5.02951
0.27359
3.96079
3.27135
1.06643
1.17702
0.545981
1.54277
-1.22677
0.261132
2.50914
-1.20634
-1.06165
1.43916
-0.761862
-1.13158
0.0598272
-0.622417
1.03259
0.397204
-1.7208
-1.40603
-0.88824
0.116064
-0.0190004
-2.26642
-1.12777
-0.638112
0.355323
-0.715778
-0.815572
0.71043
0.712672
-1.65343
0.00148564
-1.58139
-0.936794
0.193903
-1.3816
4.41854
1.60893
0.525978
0.440583
-2.16632
-2.07393
-0.765162
0.79542
0.400654
-1.08806
0.323309
-1.28168
-0.0413994
-3.63707
-0.543029
-0.35698
-0.94823
0.707536
0.0566057
-0.686198
0.272364
-0.946105
-0.351789
-0.431193
-1.94678
-0.152064
-1.05046
-0.417062
-1.12338
-0.411912
-2.03079
0.0692417
-0.868064
0.353688
-7.76203
4.60799
5.60872
3.98643
10.3374
5.61203
9.29631
-2.82686
7.96511
5.9033
4.11649
-0.563888
-2.75328
-7.59712
-3.55704
-8.49477
4.65668
-3.54255
-3.30603
6.69123
8.9843
4.87837
2.02622
-6.97676
0.665007
-3.42924
0.604626
-1.3889
3.56651
-9.36073
9.97079
-10.1308
2.09227
-2.41897
-2.185
-3.53118
3.57718
3.25443
1.10735
-3.29496
-7.91404
-4.08488
9.63084
-3.42504
-4.56183
-3.15516
2.44434
-3.01894
1.15825
-5.66971
-0.0592661
3.37012
0.366284
-4.9195
-3.03722
-4.90326
2.589
-4.52942
6.6525
-5.0849
-8.6431
-3.85047
3.76187
-0.645564
1.14511
0.330518
2.77416
-2.17083
1.19483
0.462511
1.59575
2.24535
-2.30172
-0.503214
2.09721
1.33977
2.46109
1.7502
1.57784
-0.017649
-0.666561
-2.29716
-3.42298
-1.32049
-0.585788
-1.92865
-1.28579
-1.52763
2.15935
-2.93066
-4.30704
2.12783
-1.07628
-0.455935
-0.444054
-1.87611
-1.23172
0.072124
-1.50059
0.376666
-2.41854
-1.86593
2.02164
-0.144994
3.43366
-0.978672
-1.34514
-0.650219
-2.88094
-0.17553
0.821323
-2.52442
-1.35768
-0.97425
-0.039844
-1.41243
-1.27458
-0.647127
-0.428976
-0.417259
-1.18144
-1.61087
-1.57749
-2.0154
0.624186
2.96362
2.39456
-0.465904
-0.70837
-1.16737
-0.481069
3.19673
-0.151244
-0.291863
-4.63151
-0.544976
-0.738108
0.109712
-0.857242
-0.786156
1.07936
0.58875
-0.780588
-0.983026
-0.11523
2.51576
-1.79916
-0.66345
0.132114
-1.59036
0.979568
-1.92724
-1.68588
-1.7228
-0.538246
-0.425287
-1.03398
-2.44049
-0.208954
-4.4998
-3.0275
2.08493
0.784364
-1.39231
0.638896
-1.88365
-1.62435
-1.88471
-1.52452
-1.06326
0.229103
-5.79758
3.99124
-1.22863
0.632268
-1.46438
-0.361448
0.285216
-0.58238
1.12051
-0.696693
-1.55494
0.553972
-1.61675
-0.922253
-1.69821
-2.79044
-0.721222
-1.56946
-2.36863
-1.5667
-2.12447
-3.21414
-1.75774
-0.822475
-1.44953
-2.93697
-1.20352
-1.13341
-2.36714
-4.24055
1.53312
-2.45279
-0.197741
-3.23088
-3.01185
-3.54692
-2.10478
-3.32086
-2.18193
-0.529449
-1.06478
-1.61224
3.61526
3.44018
4.12447
2.04455
0.235578
2.13407
-2.03215
-1.50925
-1.24287
-1.88368
-0.915509
-1.06726
-0.630803
2.80766
1.30824
-4.23527
-0.124762
-0.619897
2.04502
1.93995
4.01106
-0.324625
-1.25317
0.419157
2.90631
-3.91683
-2.29975
1.37676
-1.42821
-0.349767
-2.4827
-3.95729
0.83749
-2.96493
-2.00906
-3.50927
3.2035
0.308627
2.17027
-3.09221
3.26503
5.82074
-2.22031
1.35631
0.13964
3.1955
-1.88768
-0.0777709
-3.22734
0.476841
3.8966
-5.69888
0.260027
-0.150039
-3.08712
3.73212
1.42264
-3.00036
-1.47649
3.55806
-1.87392
-6.66696
-2.87296
2.26666
1.95505
-2.79809
-1.23279
-4.98557
-2.00134
-2.5382
1.47411
-0.991067
-1.21626
2.87745
-1.55618
2.46917
-3.01886
4.78694
-1.74159
-2.84705
-1.76393
2.993
1.71256
-0.504448
-0.186712
-0.629679
2.73547
2.58894
-3.46283
2.69845
-1.78582
-0.772249
-1.57414
-4.62323
-1.67383
-1.73486
3.08351
1.85995
-0.390866
1.43575
-0.214221
-2.16523
0.080392
1.58184
-0.518276
0.495747
0.487267
-1.15116
-0.775721
0.473995
0.668543
1.22031
0.119188
0.551324
-0.542061
0.122281
0.611414
1.38814
-0.617304
0.908573
-0.537727
-0.306187
1.28187
-0.417198
-1.66049
-2.61446
1.77266
-1.68273
-1.76005
-1.87007
-2.71321
0.192357
-1.06891
-2.01738
0.299502
-1.98296
-2.03988
1.05017
-1.63265
0.779168
-2.45796
-1.88008
1.02884
0.125154
-0.569532
0.413537
-0.663083
-2.39656
0.43471
0.228455
0.310311
0.456235
1.7544
0.719506
1.35145
-2.38509
-0.675302
-1.37051
0.817865
-0.77037
-1.87435
2.33766
-0.105832
1.195
-1.64488
-1.60972
-0.339612
-0.983072
0.245447
-0.0494131
-0.147811
-0.695823
-0.621461
4.128
-1.8717
-0.699931
-2.39817
-0.484432
-0.156338
-1.42654
-1.09128
-0.791734
-0.751762
-1.39095
1.14625
0.14392
-6.87201
-3.34616
-3.89023
0.562457
0.58849
-0.14468
-0.576717
0.220615
0.384154
-1.65516
0.232953
-0.431764
-0.724501
-0.162173
-0.0271844
-0.765194
0.00308491
5.16669
-1.3949
-0.710464
-0.738128
-0.553089
-0.220278
-0.527925
-0.89634
-0.710982
1.48834
5.14414
5.30526
-1.08789
2.79267
-1.99944
0.129266
-0.0476019
-1.07517
-7.68148
-4.84616
6.13255
1.18245
-2.00857
9.41471
2.4253
-0.93307
4.54828
5.45483
-6.74013
2.05605
3.52957
3.90457
3.43067
-4.56422
6.21047
8.10474
7.1821
4.34935
-9.4459
0.969635
-1.59557
-2.19154
-1.53969
-2.37309
2.016
-6.43891
3.83266
-5.42925
0.714846
5.05154
1.47075
-0.889997
1.23312
-5.61258
4.09511
-1.6391
-2.45546
-2.86502
-2.58874
-2.5357
-3.04817
-1.35488
-9.01342
3.71248
-4.07069
-1.7801
2.60294
-2.88697
1.31034
-0.434812
-5.78656
10.2209
-4.9644
-7.80284
2.26138
9.02154
9.84251
-1.04676
-7.56174
-3.91731
