-1.952450
0.237369
-2.995015
-1.367723
-1.981371
-3.221501
6.541589
-1.187684
-8.371275
11.815048
-0.869457
-1.479030
0.425571
0.023065
-5.292791
2.761402
-7.896741
1.189336
-3.422361
-5.501168
-3.262428
-3.811441
-0.345464
1.981183
2.675115
0.185751
-0.258430
2.039238
1.366456
0.326324
-0.646779
-0.601479
0.976042
-0.117889
-3.064453
-2.424501
0.149879
0.947344
0.697504
1.132702
-3.269404
0.787802
-4.656212
0.024228
-0.738040
-0.752317
0.882472
-2.940670
-0.056628
-0.964342
-2.493318
-1.447464
-3.612458
-1.706826
-0.225330
-0.305465
0.641192
-1.940969
-2.410792
-0.339627
-3.577793
-1.173465
-3.880682
-2.008389
-3.593478
-3.054314
-2.684547
-2.486503
-1.592177
-0.512169
-1.916946
-3.826014
-2.375484
-3.383706
6.493267
-0.587004
-0.846710
-1.929289
-1.988039
1.818829
-2.262964
3.555805
-0.627671
-3.729854
-1.807978
-4.837657
-10.159264
5.252572
3.628414
-3.671730
-3.362801
-0.805490
-2.906599
-0.895740
-2.306166
-2.319418
-3.833101
0.442879
-2.391318
-1.018513
-4.162575
-4.570427
1.188374
3.689695
-1.138335
-2.464972
-1.460207
1.265524
-1.988099
-1.797666
0.889590
5.430449
7.995684
6.546907
-0.231005
-3.899163
0.546434
-2.141861
0.630564
-2.353958
-1.997960
2.841592
-2.243129
-2.689261
-0.382262
-0.834571
-0.120285
-0.807641
-1.178099
-0.176232
-1.205070
-1.230996
-0.972430
-0.014450
0.274572
-0.786414
0.116653
-0.207419
0.037587
-1.042929
0.135835
-0.870735
-0.915016
-0.562023
-0.260017
-1.203477
-0.577693
-1.050716
-0.534356
-0.120476
-0.604047
0.742203
-0.894921
-0.383676
-0.673629
0.779198
-1.187597
-0.658525
-0.602468
-1.090668
-0.827156
-0.314203
0.191908
0.491883
-0.567814
-0.622109
0.009329
-1.405788
-0.938799
-0.187911
-0.251310
-0.837322
-0.874202
-0.310534
-0.245109
-2.802646
-0.131575
-1.099782
-0.917635
0.163883
-0.183199
0.466236
0.702772
-0.333284
-1.039395
0.251226
2.620355
0.094745
-3.898360
-2.565396
3.412223
1.899752
-3.170926
-2.934637
1.864053
2.410488
2.953393
0.582825
-4.079943
-4.097648
-3.007882
-2.920744
-2.280062
-0.086405
1.836712
2.804836
-2.018945
1.732869
1.058168
0.872778
0.716933
2.448817
0.472833
3.096342
-1.261796
-3.060618
1.617578
-2.597348
0.522722
-2.767415
1.450394
-0.595488
-3.482073
0.651168
-5.378579
-2.707394
-0.350520
-3.757207
0.188066
1.874703
2.122424
0.379537
-2.547522
1.716909
-0.508388
2.291158
-0.342175
2.633082
-2.738624
-1.051358
3.800925
2.760375
-0.755086
-1.285912
-1.638419
1.144663
1.440667
0.755594
7.645120
-1.666146
5.283196
2.788314
0.112941
-2.695909
1.709475
-0.480463
-1.333695
-0.809152
-1.486395
-1.318547
0.774511
0.756165
4.624657
2.625342
-3.154706
-1.652770
-3.267097
-3.813730
-1.565911
-2.376788
-1.423799
-1.167691
-0.569622
4.295168
0.659420
-4.487346
3.133169
2.037705
-2.747734
-0.817037
-6.937683
-3.139571
-1.278701
0.845299
-0.112517
0.251413
-0.407007
-0.407578
3.802808
-1.133502
4.956022
-1.332266
-6.014511
-1.259193
1.025164
0.345920
0.450156
-1.262835
-1.585402
-1.751287
3.638043
-0.850231
-2.856904
-3.220896
-0.576452
-1.376276
-2.881886
-0.566904
6.265820
-3.496245
0.605391
-0.596428
-0.184951
0.459705
-0.786807
-1.189300
-0.441630
-1.814883
0.538574
-0.265730
0.697379
0.622308
-1.380846
-2.437305
-0.029189
0.111418
-0.449211
-1.330989
-0.566079
0.635290
0.104078
-1.057043
-0.694814
-0.464517
-0.594046
-0.977423
-1.366535
0.170690
-1.620175
-1.224904
-1.534559
-3.339794
-0.696074
-0.886882
0.757234
0.600927
-1.022832
0.298613
-1.413088
0.426006
-1.126986
-1.620956
-0.252166
0.025873
-0.906143
-0.037515
-0.145876
0.089835
-0.987119
-0.267719
-0.010822
-0.191203
-0.915956
-0.350258
-0.187371
-0.736051
0.059899
-0.644154
-0.638922
-0.033596
0.353044
0.353544
-0.437740
-0.757922
0.628272
0.570887
-1.106078
-1.828933
-0.493336
-0.126673
-0.555962
0.384977
-1.478179
-0.424006
-1.332366
-0.989669
0.296793
-0.903708
-1.187785
-0.447397
-0.847150
0.044066
-0.600111
0.548785
-1.616131
-0.091021
-0.035118
-0.398355
-1.659945
0.017324
-1.041354
0.076961
-0.940109
-1.004921
-1.459230
0.643391
0.913729
-0.761119
0.122627
-0.026296
-1.307911
0.404855
-0.684528
0.040680
-0.794437
-1.329776
-0.042806
-0.797989
-0.339177
-1.287615
0.132942
-0.092241
0.370036
-0.368183
-1.316050
-0.362752
-1.753837
-0.001014
-0.183201
0.221767
-1.093005
-0.121933
-0.278436
-1.280490
-1.199125
-1.198545
-1.363315
-0.759430
-1.000188
-2.427860
-0.545832
1.694379
-0.210185
-1.574963
1.317828
-0.205616
1.115080
-0.738206
-0.034935
-0.524807
-0.417931
-0.794398
-1.097429
-2.281351
0.681315
1.008612
1.198633
0.431500
0.216089
-2.742795
-0.484611
0.141315
-5.071899
-1.807002
-1.347312
0.544478
0.513204
1.352186
0.676552
-0.174729
-1.352119
0.394814
0.248416
1.209725
0.192363
-0.287541
-0.347712
-2.155765
-2.027549
0.030582
0.926255
-0.644328
-0.819982
1.527767
-0.300736
-2.850332
0.763681
-1.883126
-0.748464
2.346999
-0.191525
1.961742
0.316111
-0.210512
-2.070969
-1.349010
0.846383
-0.498606
-0.851501
0.497766
-0.234539
-0.388925
-0.675598
0.152416
-1.015761
-0.466240
-0.469035
0.595609
-1.408014
-0.091574
0.407533
0.339145
0.115143
0.117934
-0.936613
-0.855483
-0.015770
2.574553
-0.170408
-0.048039
-0.115850
0.784033
-1.062093
-0.124352
0.730771
0.062008
0.556970
-0.093211
0.172141
0.457940
0.648409
0.817460
-0.188976
0.463234
-0.483205
-0.554364
-0.600638
-1.021907
-0.406074
0.642497
-0.824436
-0.245509
-0.125545
-2.513292
0.269386
-0.433368
-0.974179
0.182473
-0.052792
-0.719022
0.176024
-0.017380
-0.069778
-0.974051
-0.042197
-0.579312
-0.120202
-0.753699
2.902072
0.857992
-2.376581
1.389691
0.523452
-1.135698
2.439218
-0.326768
-0.650396
-0.922336
-1.668173
0.452501
0.813986
-0.392828
-2.522751
-2.811759
-2.457476
-1.841151
0.299441
-2.341614
-1.112555
-3.869014
0.102342
2.834300
-2.203732
2.328871
3.963868
-1.440406
-0.116889
-1.395735
1.894425
-0.941897
-3.477914
2.751047
0.448102
-0.368866
0.032086
0.014525
-1.168687
-0.842628
1.312696
-2.210756
-3.012363
-0.810690
-4.731494
-1.294778
-0.964714
-2.789912
-0.972527
-3.488735
-0.094622
-1.319429
-2.426107
0.074707
-4.652361
-1.484129
-0.761206
0.174305
2.169947
-2.107938
-0.710838
-1.722116
0.677385
-1.034988
0.992916
0.438735
-0.101477
-0.882006
-0.951962
-0.462511
-0.505436
-0.737151
-1.236325
-0.657684
-0.003818
0.347521
-0.241105
-1.330804
0.094908
-0.579777
-0.661963
-0.180953
-0.156564
-1.239981
-1.256994
-1.531639
-0.790719
-0.359246
-2.240987
-0.311136
-0.579744
-0.406518
-0.341453
-0.068992
-0.249958
-0.570191
-0.806878
-0.544215
-0.702975
-0.130820
-0.440557
-1.641478
-0.248259
0.376960
-1.284066
-2.227578
0.023466
-1.566060
-0.520667
-0.108110
0.042819
-1.535314
-0.808649
-1.129668
0.286592
-0.758671
-0.505386
-0.986282
0.674328
-1.748157
0.589053
-1.076630
0.321846
0.514269
0.428536
-0.475037
0.216223
-0.788997
0.252509
-0.722279
-1.044912
1.188111
0.266729
0.601420
0.736608
-0.179576
-1.476752
-0.982630
-0.179812
0.321226
-1.442609
-0.437014
-1.025245
-0.166787
0.733075
-1.053075
-0.626743
-0.935203
-1.475213
-0.105197
0.233640
0.392133
-0.141622
-0.870425
-0.235275
-1.187492
-1.137240
-1.167090
-0.621177
-0.355117
0.366465
0.285024
-0.787815
-1.299047
-0.581541
-4.093360
-0.474600
-0.274491
0.526203
0.659136
-1.745152
-2.127763
-0.348305
0.475583
0.193851
-1.258199
-1.276713
-0.045731
-0.087160
0.386845
-0.704478
-0.427576
-0.167279
-1.127436
0.683864
0.533746
6.732674
-3.368006
3.808602
-0.401802
1.060170
-2.805762
-1.446138
-0.520576
4.272797
5.000318
0.635505
0.209865
-1.796107
0.045489
4.720632
-2.074231
-1.338602
-2.005447
-3.699469
-1.674070
-3.756812
-1.179119
-3.167242
0.914229
-2.208694
3.688946
0.980920
-2.339037
-4.879784
-2.095766
-3.283405
-3.303215
-2.358173
-1.846806
0.507773
1.960826
-2.356951
-0.001555
-2.329235
-3.092080
-2.637593
-1.809256
-1.042761
1.760412
-6.438868
-0.217630
-3.184986
-2.877127
-0.663464
5.263169
-1.331652
5.038217
-3.289320
-2.283626
4.429336
5.660440
0.654152
-1.514772
-3.068182
4.405505
-1.643286
-3.521289
-2.504863
-4.051582
0.061580
-0.053212
-1.376565
0.127346
-1.570205
-0.542459
-2.301374
-1.371753
-0.880200
0.418815
4.015532
-1.140366
-1.205802
-0.482911
-1.124582
-0.996199
-1.961798
-1.280818
-0.668302
-2.355921
1.936786
-0.534762
-2.062481
-0.105951
-2.300778
-0.160502
-0.863989
-1.144994
0.120492
-0.914240
-0.973940
-2.732436
0.050710
3.231203
-2.626043
-0.728844
-2.834830
-3.536372
-0.801360
-1.831384
-2.786109
-0.371421
0.012010
-1.407292
-1.895487
-0.892239
-0.092891
-1.578995
-1.520282
-0.950345
0.374347
-7.716573
-0.852873
-3.966078
-0.361681
-1.783662
-0.680967
-1.604890
-0.663096
-0.624146
2.571064
0.409581
-0.068029
-1.312683
1.211152
-0.497159
-1.206506
-2.351407
-0.715166
-1.012911
1.617186
-0.326104
0.576521
-1.750967
0.250178
0.609827
-1.676120
0.247274
-0.369557
0.344394
-0.784365
3.081543
-0.131668
-0.208895
2.236964
0.797524
-1.552632
-1.911923
-1.103796
0.090031
-1.226812
-2.552648
-0.525722
-2.259714
-0.766434
-0.053560
-1.233509
-0.276341
-0.642638
2.867261
1.215224
1.637170
1.507964
1.166040
1.415756
0.807769
-0.484818
-4.540650
0.106988
0.707216
-5.371458
0.352862
-2.691203
0.278280
2.300666
2.053318
0.171713
-2.387765
-1.873413
-0.402239
-0.873320
0.402129
0.925082
-0.790134
-0.482944
-1.267497
0.523239
-0.431101
1.073085
-0.856678
0.986418
0.041957
0.044532
-0.247437
1.206908
0.694982
0.154864
0.015499
-0.758422
-0.143914
1.372769
1.134470
0.489835
0.144779
1.321321
0.876613
1.104808
-1.393490
0.408213
0.182581
1.570307
0.627447
-0.023803
-0.340289
-0.854051
0.127255
-0.684057
-0.705494
-0.477637
-0.582601
0.848548
0.989034
-1.622111
-0.785306
-0.187888
0.147011
0.209216
0.080972
-1.732412
-2.367154
0.164107
-0.004464
0.391084
2.358315
-1.100019
-1.026347
-0.054376
1.084866
-0.603197
-0.983453
-0.047866
1.147420
0.713629
0.414935
0.286380
0.311299
1.025346
-2.183923
-0.932589
-2.351010
-1.219714
-0.642430
0.407555
0.253999
-0.009735
0.449021
1.199733
-1.753991
0.044228
0.113803
-0.731303
0.254091
0.372431
0.446275
0.309338
0.249899
0.109050
-0.703653
-0.686659
-0.675759
-1.194837
-0.276571
-1.443205
-0.682858
-0.370736
-2.081248
-0.701181
0.177361
-0.382021
-0.263830
-1.471259
0.506912
-0.357504
-0.028439
-0.879129
0.245650
-1.120013
0.406938
-0.140957
-0.506394
-0.013723
-1.714890
-1.082245
-1.670874
-0.749515
-0.980565
-0.315805
0.506644
-0.233112
-0.464707
0.173872
-0.596912
-0.184478
-0.687718
0.012148
0.514947
0.472292
-0.359368
-0.827360
0.485918
-0.034922
-1.146970
-2.136185
1.859019
-1.190858
-0.622228
1.465348
-0.561604
-0.905965
-1.559448
-2.699788
-0.686428
-2.606744
-0.641649
0.433196
-1.858882
1.506269
1.226828
-1.522577
-1.089759
0.499841
-0.811512
-0.579301
0.765537
-1.105400
2.322979
-0.584914
-0.565126
-3.137814
3.236598
-0.043923
-0.367348
0.356558
-0.433353
-0.080811
1.035384
0.899195
-0.856455
0.762926
-1.101355
-2.174192
-2.534449
4.621121
-0.001904
-0.588804
-1.926244
-0.549592
-0.889703
1.848900
-0.500343
-3.213293
0.668204
-0.525052
-0.119296
-0.150453
-1.663041
0.358112
1.945585
-0.140388
-1.197955
-1.242875
-4.508142
-0.784487
0.956570
-2.622535
-3.936704
-0.269115
-0.244818
-4.461040
-0.272746
-5.006989
-2.289864
-1.372489
-1.751651
-0.864207
-1.255009
1.463129
2.443616
-1.169383
-2.655517
2.605878
-3.879687
-0.260080
-2.972159
10.371179
-1.141859
-0.029743
0.111304
0.025082
-2.443448
-1.351108
-3.003247
-0.933894
-1.939895
-4.598353
0.715201
-1.974582
-4.310425
0.200825
-0.498814
-2.066605
-1.691369
-1.609963
0.253157
-0.394791
-1.243882
-0.868390
-1.994167
-2.376294
-2.422534
-0.407359
2.885351
-2.114160
-0.299910
-0.583089
-2.219440
-0.795273
-2.613467
-1.127669
1.112002
-2.024859
1.294581
6.753550
-4.851647
-2.368644
1.411683
-2.914154
2.251178
-2.910027
-2.687364
3.812028
-0.615330
-4.048355
1.475107
-3.797318
-2.960650
-3.263063
0.067455
7.242405
5.494915
-4.043836
-4.273513
9.797146
6.629045
-3.586286
5.350637
-0.989870
-4.083295
-1.901244
-2.145050
2.662357
5.761149
-1.908170
-5.460801
-2.173474
-0.653891
3.729890
-0.779658
-2.634577
4.499920
-1.359157
-6.894856
-3.860519
2.656783
-0.635887
2.547688
-0.995873
-4.886045
0.415495
3.552501
-2.738944
-4.324848
-3.332695
-2.201170
-3.322014
-0.910411
-0.924240
2.710711
0.250431
1.404902
-2.303414
-2.845670
1.260951
-0.193070
0.391218
0.325540
0.382113
-1.037568
0.274670
-0.017115
0.113538
-0.595829
-0.794885
0.360981
0.608517
-0.645699
0.668948
0.245791
0.172406
-1.005927
-0.989961
0.262754
-0.707514
-0.895401
-1.561380
-1.258431
-0.023931
-1.333142
1.426165
0.208256
-0.994292
-0.420562
-1.158066
-0.949715
-0.463700
-0.534829
-1.061866
-0.610125
-1.111585
-0.756021
-1.011165
-0.310458
0.146968
0.314652
-0.789906
-1.210408
-0.014250
-0.655706
-1.255746
-0.702274
-0.580181
-1.261025
-0.511346
2.493044
-0.369506
-0.493902
-0.781284
-0.338458
0.035058
0.246948
0.374535
-0.069994
-0.379440
-0.701772
1.983928
-0.030327
-1.870856
1.685751
-2.350931
0.475501
2.951721
-2.165662
0.431159
1.199520
-0.791983
1.022355
-0.475840
-1.180315
1.674673
-2.319148
1.411687
-1.901701
0.359086
0.864835
-0.258833
1.316244
-0.892068
-0.900968
1.007812
0.853121
-0.490941
-1.376735
-4.649681
0.545954
-2.073408
-0.436633
-3.646685
-2.413611
0.752216
1.337985
-0.830257
0.216141
-1.393458
-0.205687
-2.517475
-0.906856
6.531141
0.221208
-4.692430
-0.060858
-0.784414
-1.384868
0.728306
-0.736116
-1.311769
1.329297
-0.996039
0.961775
-2.737200
1.374183
-0.028951
-1.398119
-1.609977
-0.532960
-2.687823
0.730905
1.559349
1.202782
-1.851285
-0.441188
-1.030577
1.402857
-1.019059
-2.795304
0.152906
0.106860
-1.499327
-0.684944
-1.091442
-2.425349
-0.921371
-0.662005
-0.958922
-0.353396
1.045123
-1.242369
-1.138298
-0.223088
-0.213444
0.930522
-0.161699
-0.609041
0.031113
-1.689830
-1.541750
-2.283493
0.808846
1.149732
-0.961494
1.384410
-0.309980
-0.001346
0.890544
-0.458136
-0.759073
1.809205
-0.384685
-0.572200
-0.851102
0.105674
1.234649
0.695156
-0.536279
0.144175
-0.606415
0.000960
0.210721
-1.098307
-1.346569
0.300820
-0.096935
-0.846450
0.651824
-1.122192
2.204973
-0.444145
0.836661
-0.855137
0.689860
-4.279486
-1.731990
-1.458616
-4.436024
-2.516212
4.812687
5.379255
-0.549932
-2.538558
5.508120
-2.020422
1.625802
8.238714
-3.018253
6.927032
4.346549
2.122226
-2.515581
-5.254714
0.155029
-6.282315
-1.890921
5.328936
-0.838467
3.871216
4.657270
-7.057513
-1.320455
-7.105023
-5.535284
5.488739
-2.364565
1.800538
-1.399460
-0.910039
2.016545
-0.585253
5.017292
4.389947
-3.235778
4.035590
-4.512523
3.985009
-1.113630
-0.703147
-2.438751
4.018449
0.741377
4.123194
-2.169045
-5.225804
-2.776993
0.748725
4.242304
-2.684936
-0.379019
-1.935855
-2.915664
0.746640
-2.970956
-5.052188
-6.148932
0.465164
-4.343483
-1.299457
-2.536451
4.886426
-3.486071
-1.406636
-2.950759
-2.773392
2.766633
-0.637143
-1.292303
-2.215222
-2.591845
-2.318112
-3.051232
-0.818833
4.552573
4.927058
-1.613864
2.812291
2.203016
2.930603
1.047466
-5.168964
-3.176840
1.272203
-1.923446
-3.045229
3.012342
1.415109
-1.746728
1.719675
-0.865958
-0.272181
-2.498986
-0.496770
4.141203
-3.774892
-0.503694
2.486051
-2.587142
-4.021190
4.689853
0.807519
0.853825
1.627145
-0.760052
-2.375698
0.474787
2.610377
-2.564767
0.112420
3.846825
1.986702
0.638477
1.723663
-3.172512
0.195518
-4.303543
4.186750
-0.617373
-0.466881
0.073933
1.122697
0.364584
0.405025
0.507402
-0.378363
-0.454440
-0.333793
2.112953
0.724831
-0.288613
0.146511
0.106560
-0.598017
-0.930394
0.146257
-1.104911
-0.488816
-0.477853
0.667779
-0.190741
-1.188914
-0.208830
0.282807
-0.760689
-0.226350
-0.657174
-0.859482
0.327565
-0.262464
-0.823415
-0.104256
-0.141791
0.552053
-0.295949
-0.121017
-0.204974
-0.091628
0.936549
-0.861489
-0.300457
0.955154
-0.973788
0.523064
0.539469
-0.488902
-0.892119
1.216283
-1.172813
-0.707848
-0.372985
0.879469
0.089214
0.258942
0.199295
0.265624
0.004281
0.453820
-0.980681
0.157889
2.903673
1.393894
-0.092310
-0.180995
1.571295
0.971115
1.172046
0.280611
1.509294
0.933823
1.475154
0.499071
1.114251
1.635918
2.499899
1.874744
1.716811
1.665679
5.680537
0.563906
0.183393
-0.077332
-0.715347
-1.551854
0.819355
-1.300577
0.703697
1.940966
-2.473911
-1.391870
-1.058717
0.486091
0.552333
0.081522
1.585445
-0.075852
0.772831
-1.087482
-0.177101
1.444098
-1.553162
0.374188
-4.163391
-0.610863
-6.436458
-1.153994
1.574567
0.283030
-0.790277
-0.255905
-1.534676
-2.356138
1.715527
1.256616
-1.090903
-2.788781
-0.373119
-2.792614
2.320953
-0.867996
3.434927
1.581212
-2.686291
-2.381800
-0.269816
6.922873
-4.748751
3.334374
-2.960920
-3.125711
-2.382421
-2.821555
-6.129331
-2.304310
-3.764416
-1.770575
-3.628317
-2.010577
-6.013931
1.791544
-1.587303
-2.475073
-4.108851
6.403478
1.134583
3.764462
0.415270
3.542069
-1.332265
-6.366492
1.321129
-2.357092
-2.854582
-3.863241
-3.834859
0.017892
-3.057458
2.143165
1.614996
-0.904122
-5.061881
-2.093417
0.786506
-4.836801
-2.712249
-2.516824
5.171082
1.454498
-2.665866
-5.021514
-0.794752
1.923225
2.892887
3.725228
-3.945710
1.949075
-6.814855
4.382088
-0.771632
2.589491
2.332302
3.514445
6.180283
-4.836583
-0.594627
-0.759848
-0.802967
-1.289316
0.415688
0.067714
-0.317730
-1.777625
-0.592413
-0.513137
-0.467399
0.120645
-0.532738
0.322734
-0.931711
-0.981535
-0.792509
-0.908344
-0.627245
0.274837
0.368407
-1.211580
0.281387
-0.675766
-1.431014
-0.764328
-0.559398
0.281567
-0.285247
-1.401268
-0.045164
-0.621121
-1.112474
0.305537
-0.629891
-1.409261
-0.619918
0.647612
-1.316447
-0.881876
-0.288358
-1.167137
-0.473499
-0.093486
0.032760
-1.005068
-0.623942
-1.449312
-0.859689
-1.353849
-0.598049
-1.964221
0.436150
-0.123042
-0.005280
-0.319213
-0.426097
-0.202339
0.451660
-0.270565
-0.325964
-0.313169
0.144184
-1.182560
-0.108369
0.486419
0.401201
-0.704145
-0.811609
-2.093667
-0.865578
0.019193
-2.505407
-0.633684
0.083219
0.981284
-0.425443
-1.322796
0.180208
-0.708731
0.721788
-0.426722
-1.491922
0.078495
0.391895
-0.549519
-1.436499
-0.229220
-0.072948
1.078182
-1.134269
-0.873377
-0.851927
-1.381512
-1.311337
-2.446640
0.115091
-0.711266
0.781798
-0.774015
0.027861
-1.494881
-0.531246
-0.290426
-0.548174
0.659957
-0.400098
-0.333995
-2.365155
-1.671979
-0.662231
-0.756263
-0.091344
-0.633460
-0.531949
-1.343312
-0.664454
-0.355739
0.227310
-0.478205
0.819207
0.017689
0.345431
-0.068940
0.383679
-0.496553
-0.178818
0.829200
-0.254258
0.192343
0.812355
-0.139142
0.423169
-0.887397
0.766610
0.967795
1.318300
-0.394242
-0.590643
0.767892
0.357980
-0.455427
0.388889
-0.667403
0.757826
0.093961
-0.734958
-0.272164
0.966736
0.898091
0.332447
0.262123
0.635202
-0.499779
0.649607
0.357541
-0.392638
0.091391
-0.448443
0.675404
0.666279
0.123234
-0.253020
-0.893751
0.577311
-1.013341
0.952722
-0.421462
-0.024535
-0.283169
-0.513835
0.213426
0.339703
0.162340
0.703053
0.786308
0.537153
-0.058226
0.683094
-0.189966
-0.185935
-0.020069
-0.624517
-0.990595
-0.660128
-0.537205
1.014728
0.296386
0.721696
-0.523715
-0.969176
1.037987
0.856531
-1.931764
-0.406766
0.547709
-1.881244
-0.078692
-0.065428
1.283390
-0.714750
-0.587442
1.268535
-0.092469
0.533646
-0.004861
-1.292767
0.024357
1.489758
0.789192
-1.213599
-0.199064
1.347674
-1.331402
-1.802626
-1.256983
-1.023973
-1.693829
-0.800450
-1.791055
-0.350294
0.022532
-1.785339
0.637144
0.191628
1.189299
-0.906714
-0.493745
1.023161
0.529459
-0.866950
0.050752
-1.930443
-1.219208
0.574115
1.165622
-1.004874
1.583733
-1.307381
0.567518
1.124465
0.487309
0.268044
-1.581659
-1.179386
-0.905321
-1.478834
0.243280
0.602088
-2.175182
-0.043560
-0.759296
-1.060601
-0.711529
-1.087582
1.049270
0.291452
-0.509497
-1.228955
0.291317
-0.142026
-0.531999
-0.262009
-1.135786
-0.262555
0.109938
-0.201454
0.359797
-0.528160
-1.559541
-1.226022
-0.599225
0.378788
0.364710
-0.294019
-0.727948
-1.211378
-0.074090
0.045886
1.116697
-0.184834
0.066583
0.320196
0.117147
-0.965563
-0.869685
0.560552
0.120959
0.636361
2.330478
-1.093212
-2.019923
0.135491
0.084046
0.694968
2.182738
0.017025
-0.033268
-0.104988
-0.692917
-0.195226
0.277073
0.260090
-1.468591
-0.721582
0.436247
-0.715302
-1.439577
-0.545922
-1.156026
-1.048134
-0.082019
-1.178735
-1.657690
-1.672235
0.677085
1.715253
-2.104771
0.495002
0.416762
-1.173099
0.106470
1.132730
1.075941
-1.207182
-0.333842
1.997592
-0.076448
2.377684
-0.146426
-1.700899
-0.884759
-0.150152
-0.959356
-1.550267
-1.750120
2.105704
-0.915654
-0.924098
-1.897870
-0.609629
-0.363663
-0.805512
-0.738203
0.253013
0.420455
-1.071395
0.648868
-1.838459
0.509988
-1.400811
0.106369
-2.514480
0.251286
-3.073954
0.135603
-1.689753
-1.237685
-0.357579
0.157944
-1.876559
-0.727049
-1.609413
2.021527
-0.082832
-1.687653
0.324844
-1.134209
-1.484888
0.181484
-1.642397
0.837776
-0.849139
-0.834515
-1.842815
0.442021
-1.514316
-0.190929
0.537643
1.992584
-0.775019
-0.734309
1.987443
-1.268234
-0.967160
2.014662
-1.565192
-2.065693
0.222191
3.131001
-2.789451
-0.992274
0.242798
-1.372165
-0.391568
-1.595839
-1.344484
-0.540957
-2.628824
-1.401595
3.631363
0.341939
-0.034106
0.587627
-1.468829
2.506607
-1.205309
-0.139491
0.590039
-0.465117
-1.260698
1.497787
2.942863
1.067819
-1.132507
0.125916
2.459926
-0.110381
2.902655
-0.072483
0.490410
-1.521402
0.583674
-0.763077
-0.627703
-0.604490
0.610711
-0.851011
0.180208
0.098628
-0.896539
-1.059309
-0.517312
-1.098470
-0.573122
-1.548332
0.733699
0.274135
-1.960315
0.938685
4.690472
-0.510021
-0.570468
-0.089961
-3.732065
0.246039
-1.001650
0.123817
1.768085
-0.065534
-4.813782
-1.129899
2.174117
-2.157100
-0.916126
-0.654564
-1.352168
-0.737028
-0.944941
1.141896
2.057921
-1.032000
-1.963781
-0.464495
1.227931
1.380365
3.416472
-0.593331
-0.760458
2.027953
-0.730377
0.520857
0.028277
-0.612656
-2.319589
-0.461795
-2.929728
-0.624848
-2.785787
0.672576
-1.268162
-0.648349
-0.317927
-0.459488
-0.357773
-2.638126
-1.591746
-0.015157
0.681257
-0.423641
-0.207560
1.702762
-0.749266
-0.810153
-2.319567
-0.366621
0.144331
0.203633
0.194652
-0.535971
-0.782701
-1.383673
0.669362
-0.491934
0.564786
-1.100701
-0.529003
-0.183223
-1.117429
-0.353321
0.071103
0.396736
-1.399154
-0.895464
-0.823901
-1.058632
0.128271
-0.269389
-0.111764
-0.926471
-1.008345
0.012400
-0.053012
-0.397628
-0.443808
-0.738525
-0.901704
-1.978060
-1.125223
0.438595
0.449916
-0.736884
-1.580085
-1.026037
-0.391945
-1.243255
-0.749892
-0.586106
-0.223798
-0.375259
-0.667625
-0.378275
-1.551843
-0.271021
0.584621
-0.290346
-1.117070
-0.978187
-0.089315
-0.031461
-1.291218
-1.487268
0.424870
-0.279729
0.625537
-0.240376
-0.743613
0.346229
0.557942
-2.831525
-5.078796
-2.816826
-2.978822
-5.159401
-3.586177
-2.989787
-4.421589
-4.078567
-0.438761
-2.327500
1.873799
2.555103
-7.825348
-4.301355
1.654322
-5.579497
-3.053115
-4.530805
-0.293800
-3.254023
-1.992912
-2.680921
-3.855542
5.049876
-1.334699
4.274776
6.009491
3.767447
6.845609
2.874093
4.150763
4.958957
-2.577889
1.646499
-0.387114
0.754342
1.212144
4.885241
3.426436
2.129007
1.821868
3.807806
6.438589
0.732239
2.466995
-3.976007
0.046443
3.448402
-1.960350
4.975119
5.651271
1.327854
3.526762
2.687179
-0.066121
-5.208886
0.857809
1.688215
3.105837
4.056821
1.944556
0.511121
-6.178923
4.680168
4.558961
5.060113
-3.814788
-2.611613
2.324710
3.618738
-4.541000
-1.721095
1.037868
-3.387963
1.429871
-3.402953
-5.757294
1.352003
3.687892
-7.446511
-5.680536
1.887963
-2.598554
-5.759160
3.249936
-7.743437
-1.278481
3.489207
-2.433857
-4.062253
4.695574
4.271279
4.631704
1.042346
-2.547986
2.035416
-0.784414
0.768345
1.126599
-1.514898
4.536425
2.978637
-5.818624
-3.987414
2.439187
0.702146
2.526021
-2.687722
0.464234
-3.142618
2.739488
5.704314
4.583743
2.642657
-1.537607
4.347815
-0.728908
4.727767
7.177628
0.310866
4.731864
1.374893
-1.633129
-1.100632
-0.988226
0.842050
3.353179
0.993774
-3.194029
1.623853
0.783200
-0.269067
1.417810
-0.270339
1.465122
-2.743364
-1.190000
0.734967
-3.133878
-0.003694
0.096339
0.338240
-0.680017
1.859383
1.626075
-2.963870
1.620685
-1.547669
-0.747352
2.548856
-1.351451
-1.435458
-2.342656
-0.916561
-2.009038
0.847085
-1.494350
0.841249
-1.842254
-0.464439
0.310134
2.210730
0.823007
1.939552
-1.019066
-2.393820
-1.269714
-0.439302
2.098979
0.182042
0.582540
-1.215832
1.111475
-1.795883
0.765319
-1.370766
-2.401470
-0.090762
-0.652646
-1.167753
2.317259
-0.072667
1.465151
2.428563
0.380720
1.651311
-1.944555
-0.802157
0.790588
-2.512483
-3.252798
1.019535
-1.047728
-1.003612
0.216967
0.340792
0.459728
-1.534001
-1.289575
-1.704666
2.042978
0.864273
-2.347188
0.886606
0.072326
0.221272
-0.582756
0.631448
-0.121493
1.126722
-1.536804
2.824464
-2.276639
3.773617
2.383957
-1.710726
-2.774187
-0.279815
0.217918
-0.478111
0.119838
-0.210228
-0.663247
-0.388577
0.181837
-0.027333
5.129233
0.625524
-3.028494
0.944501
0.398859
0.066642
-0.496690
-4.171109
0.458115
-1.205830
-0.108225
-0.280938
-1.931828
-0.300866
0.772783
-0.706855
-1.863675
-0.944870
-0.902971
-0.385376
-0.439444
0.079954
-1.007487
0.606603
-0.741605
0.090441
-1.542299
0.013330
-0.258934
0.502356
-0.313020
0.110398
-0.901454
0.070914
-1.181315
-1.046151
-0.039733
0.810966
0.675603
0.029235
-0.546212
-0.064354
-0.196562
0.288313
-0.427909
-0.240510
-1.177463
0.392936
-0.410579
-1.435693
-1.019057
-2.018150
-2.015418
-0.258548
0.288889
-0.840820
-0.749456
0.003778
-0.075746
-0.715525
2.539912
-0.893848
4.014546
-0.040894
0.660343
-0.413205
-0.076265
0.568200
-0.945327
-0.402488
-1.117469
-0.606504
-1.674847
-1.314303
-0.953117
-0.201234
0.756476
-0.828892
-0.053204
0.147825
-1.138335
-0.417704
1.069605
0.399744
1.971598
0.670378
-0.489173
-0.249087
-0.682011
-0.078740
-0.170840
0.076254
-0.469928
0.362193
0.491642
1.178645
-0.433786
0.460453
0.329536
0.218143
-0.528523
-0.411123
-1.032457
0.723515
0.480131
-0.592291
0.106641
-0.793199
0.327363
-0.204538
-1.353446
-0.630496
-0.869910
-1.610309
-0.367638
0.383507
-0.793751
0.516475
-0.466715
0.161776
-0.854039
-0.371206
0.026815
2.612828
-0.753716
2.396522
-0.471824
0.319391
-0.243653
0.145342
-0.641169
-0.805930
0.770575
-0.456573
0.441614
-1.209932
-0.702737
-0.320981
-0.640936
-1.192766
-0.042114
0.574345
1.821267
-0.210340
0.064062
-0.725525
0.066189
0.438468
0.173828
-0.140467
0.566397
0.334819
0.513250
0.581899
-0.209023
-0.067602
0.183837
-0.350843
0.127394
0.348064
0.176798
-0.681939
-0.513865
0.192870
0.199754
-0.877210
-0.451847
0.127953
-1.265695
0.693264
0.976915
-0.444685
-0.433299
-0.158856
-0.214912
0.495976
0.813057
0.206386
0.651489
-0.491676
0.499883
0.389024
0.503214
0.509032
-0.441103
-1.005324
-0.072635
-0.689640
0.529416
-0.767670
0.159775
0.139987
0.619836
0.341374
0.060228
0.693736
0.555657
-0.468415
0.381894
-0.179880
-0.384676
0.640390
0.256329
0.639512
0.518621
0.045996
-0.850781
-1.269762
-0.735831
-1.032283
0.186369
-1.548870
-1.222544
-0.963562
0.629938
-0.330411
-1.439508
-0.133586
-1.408288
-1.133326
-0.956695
-0.474924
-1.130231
-0.468986
-0.086925
-0.313986
0.020709
0.515708
0.046593
-0.396424
-0.527452
0.636747
-0.147958
-0.869380
-0.630716
-0.023973
-1.395244
-1.691972
-0.971217
0.191310
-0.677510
0.569919
-0.803804
-1.024259
-0.030375
-0.486725
-0.818510
-1.622759
-0.649525
-1.015438
-1.251108
0.170553
-1.393529
-0.135179
-0.479771
-0.271451
0.247233
-1.671613
-1.366617
-0.558656
-0.042380
-0.779362
-0.157191
-1.105746
-1.061817
0.173790
0.061456
-1.201323
-0.101797
0.611557
0.683806
0.697264
0.214069
-0.057300
1.207672
-0.223838
0.179108
0.690941
0.586142
0.690247
1.101533
0.040906
-0.096570
1.184067
0.269819
0.316178
-0.502935
1.831538
0.868622
-2.459275
1.052627
1.103311
-1.764651
-1.333005
0.608382
-1.484671
0.458594
-0.415736
0.882709
-0.596090
-1.895128
-0.887180
0.061943
0.669937
0.808153
0.146048
0.446291
1.016288
-0.352940
0.157009
0.569236
-0.474628
-1.459302
-1.344098
-0.008550
-1.713405
0.202234
-2.035453
-0.981227
1.110108
1.497602
-0.416751
-0.430575
0.418844
-0.943679
0.464894
-1.788245
-1.525182
3.158127
0.844766
-0.186180
-0.762071
-0.704480
-0.997488
-0.152840
-0.010269
0.466853
0.102512
-0.257497
-0.030692
-1.194365
0.056967
-1.068064
-1.001189
-0.235454
0.329605
-0.153957
0.165006
-1.057135
0.052201
0.650525
-0.548562
0.006582
-0.562854
-0.065301
-1.133285
-1.525982
-0.501870
-1.673172
-0.727977
-1.462615
-1.216961
-0.368091
0.666461
0.195485
-0.148508
-0.591501
-0.840256
-0.357459
-1.366247
-2.157570
-0.401973
-1.576229
-0.604058
-0.352418
-1.446630
-1.625181
-1.366124
0.280325
-0.376331
0.051229
-0.361006
0.196918
-1.340835
-1.751055
-1.227834
0.008086
-0.875408
-0.606115
0.229940
-0.972116
-1.242547
-0.410139
-1.059042
0.108131
2.955429
0.033374
-0.622198
-0.701486
-4.155282
0.640083
0.759218
-3.611884
0.358291
0.227030
0.561842
0.021822
0.250926
-1.138534
1.101011
0.499578
0.485546
2.247758
0.974458
0.247647
0.651297
1.090543
0.550806
-1.111598
0.511317
-0.963044
0.320334
0.448684
0.956120
-0.011411
1.182576
0.527999
-0.181792
-2.174643
0.803678
2.281835
0.280341
-1.248401
-2.162957
0.370544
1.268943
-0.022337
0.399125
0.277680
-0.464576
0.708195
-3.607923
-0.456018
0.639163
-0.109858
-0.615165
-1.542804
-0.490855
-0.365272
2.269995
0.780100
-1.732556
0.234439
0.290774
0.089847
-0.016228
-0.215271
-0.666491
-0.537005
-1.507548
-1.083548
-0.861537
0.412397
0.717952
0.196580
0.818761
0.092776
0.577603
0.201207
-1.346949
-0.756242
-0.835270
-0.745648
0.038108
-0.418829
0.231458
-1.302646
-0.477828
-1.654412
0.190204
-1.772208
0.565667
-1.320974
0.130152
-1.183477
-1.233411
-0.207237
-0.792491
0.521939
-0.661096
-0.636927
-0.783278
-0.446050
-0.253399
-1.175372
-1.360104
-1.169171
-0.293543
-0.088738
-1.091420
-0.240838
-0.667111
-0.762885
-1.711232
0.307431
-0.690712
-0.768211
0.183012
-1.778725
-0.953201
-0.863502
0.061536
-0.746300
-1.117436
-0.282021
-0.823266
0.238145
-0.896649
1.497777
0.221001
0.510542
-0.386906
-0.066217
-0.249937
0.291513
0.621692
0.421326
-0.755717
0.920259
0.293296
0.357042
0.050531
-0.341425
-0.639993
-0.227246
-0.686506
0.000449
-0.922411
-1.283822
-1.341755
-1.444021
-0.397056
-0.258449
1.057546
-2.134845
-0.799427
-0.324215
-0.600504
-0.338181
-0.361943
0.863680
-0.033887
-0.542253
0.384161
0.720794
-1.519983
-1.381263
0.495568
-0.750526
-0.346429
-0.364460
-0.896048
-1.958909
-1.976192
-0.723835
0.569751
-1.597377
-0.458714
-1.279427
-2.604900
0.089505
0.985054
0.253855
0.335047
-0.172678
-1.103764
0.402628
-0.734093
-1.042689
-1.745687
-2.219888
0.055399
-1.067589
-2.391033
-1.100946
-0.440513
-1.489023
-1.429652
1.894793
-0.716907
2.254881
-0.042358
-0.439732
-0.753730
0.422599
-3.638549
-1.127393
-0.920900
-1.296849
-4.661985
-3.603296
-1.285052
-4.934016
-0.465285
-4.077218
-2.336659
-0.596052
-1.227972
-2.179579
-3.142014
-0.550167
0.461083
0.337485
-0.654241
1.338035
0.160987
4.820114
-1.346696
-1.103941
0.250468
-1.404715
-1.620844
-1.346949
-1.074175
0.216864
-0.848377
0.089535
-0.215212
3.835504
-2.017590
-1.487446
-1.303807
-1.596559
-0.556962
-0.483918
-2.860936
-2.008182
-2.544108
-0.630708
-0.637286
-1.026933
-0.651484
-0.709605
-1.143897
0.570887
-0.913686
-1.104720
0.921126
-0.974097
0.079020
-0.433469
-0.527985
-0.505741
-0.664556
0.735986
0.823151
-0.457940
-0.509703
-1.112278
-0.172956
-0.623796
-1.322310
-0.151402
0.035523
0.732826
-2.054067
-0.193777
0.333495
-1.775866
-0.333406
-0.986060
-0.923592
2.366964
-0.561977
-0.008798
-0.969745
0.724109
-0.261828
-0.308299
-0.632826
5.994344
-0.456596
-0.139223
0.320066
-0.979961
-0.968105
-0.584640
-0.522217
0.672904
-0.890070
0.036291
0.419451
0.687849
-0.263316
-2.170018
-1.015061
-0.915146
-1.038003
-0.341411
-1.235028
-0.015800
-0.599951
-5.193910
4.098353
-4.927743
4.533715
-3.960631
-3.477647
-2.050871
6.096134
-4.890710
-3.354555
-6.212872
-1.466976
-1.067082
2.384337
3.600411
-3.397773
-3.133958
-1.062423
-9.054782
-3.236184
0.160325
-2.312739
-3.112920
-1.930340
-1.959002
-1.915894
-1.977924
3.640742
-6.895022
3.166034
-2.746698
-1.907215
0.997917
3.226043
-2.094319
0.918442
-3.653847
0.464193
-2.694479
2.222952
2.430649
-2.619253
1.478131
-3.053898
6.648856
-2.221053
2.963284
1.160431
-1.056675
-3.978232
0.356032
-2.505426
2.190766
1.487117
-2.668972
3.863696
0.773968
3.735764
3.194502
-1.168098
3.034268
-2.835981
-2.165233
-1.904865
3.019317
-1.847298
-0.471298
2.295097
-2.491175
0.035788
-1.347341
-1.420252
0.257933
-1.302468
-1.492550
-1.566078
-2.344460
-1.804097
-0.823285
2.014506
-2.517196
3.015197
-0.799214
0.246125
-1.121384
-1.751008
-1.485138
3.559208
-2.505926
-0.274047
3.937578
-0.477144
0.814074
-2.204282
-4.762495
-0.260053
-1.940313
-1.220560
0.073752
0.282998
-1.071223
-1.397337
4.621557
-0.180136
5.362748
1.119015
0.696516
1.210752
-1.622501
0.291816
0.784609
-0.184185
1.302851
4.705598
-2.304456
-0.932073
5.225586
-1.345182
-0.680432
-1.913601
-2.208098
0.913662
-1.197170
-2.284666
0.670197
-1.217024
-0.702174
-0.203306
-1.054637
1.056395
1.013620
-0.085411
0.162414
-0.143702
-0.553860
-0.535587
-1.065893
-0.487947
0.031903
-0.721065
-0.574924
-0.829476
-0.945974
0.111207
0.858951
-1.776817
-0.329118
-0.193035
0.103288
0.598564
0.257381
0.761359
-0.811529
-1.018042
-0.526915
-0.667940
-1.081450
0.669117
0.096855
0.092691
-1.304435
-0.831871
-0.494420
-0.126601
-1.600604
0.248447
-1.572676
0.418895
0.395922
0.051194
-1.934143
-0.644836
-1.022214
-1.739896
-0.923286
-1.627096
0.255547
-0.846668
-1.776993
-0.293643
-0.751930
-0.079072
0.332898
-1.674123
-0.665215
-0.607168
0.263750
0.312504
0.761451
0.422631
-0.699506
-1.595281
-0.560501
0.106836
-0.185389
0.349759
-0.705817
-0.481455
-1.809397
-0.145311
0.171854
-0.368974
-0.594716
-0.345868
-0.829490
-0.335288
0.133247
-1.608582
-1.565924
-1.794557
2.212538
-2.887976
1.107339
-1.506242
0.158829
0.043374
-0.832558
0.248711
0.636139
-1.772774
-0.441684
-0.629086
-0.817435
-0.665716
-1.554758
-0.110859
-1.840012
4.662694
0.638353
-2.969634
-1.292429
0.398951
-1.618486
2.696642
-0.758204
-1.129621
2.143905
-1.853977
0.373480
-0.258706
-1.740925
-0.312219
0.132955
-1.390924
-0.414449
2.971530
0.065561
-1.159621
0.326538
-0.654810
-0.542092
0.024651
0.176698
-1.501229
-0.673199
0.242400
0.000291
-0.522481
-0.769489
-0.222589
-0.971887
-0.523973
-0.602392
0.208174
-0.413132
0.225164
0.456626
-0.015337
0.334778
-2.805113
-1.783462
-1.043512
-1.451387
-0.595812
-0.707702
-0.587744
-1.074919
-0.504676
0.147124
-0.462153
0.049311
-1.143958
-0.333366
0.233038
-0.286191
-0.615849
-1.824758
-1.477542
0.104443
0.072020
0.571933
-0.915444
-0.032593
-1.020347
-0.775498
3.384686
-0.656961
1.965635
3.039245
-1.016358
0.728000
-1.114980
0.026850
-0.026107
0.365257
-0.903626
0.241317
-0.197348
-0.402881
-0.363029
0.357864
-0.718302
0.200025
0.544394
0.095838
-1.478877
0.667879
0.652764
-0.222635
-1.014068
-1.255992
0.755874
0.022628
-0.893297
0.302801
-0.140696
-0.259298
-0.380227
-0.963521
0.321250
-0.007537
-1.394604
-0.920344
-0.516482
-0.481652
-1.068357
-0.752359
0.039680
-1.563929
-1.397871
-0.305416
-1.728156
0.046321
0.617232
-0.608702
0.626585
0.213460
0.081142
0.250086
0.301145
-1.139736
-1.228133
-1.988104
0.103787
-0.166249
-0.369381
-0.494950
0.076271
-0.227502
0.014298
-1.353810
-0.307026
-0.977534
-1.507533
-1.217511
-1.076061
0.328376
-1.226944
0.639258
-0.512367
-0.634794
-0.140766
-0.587726
6.162958
0.359322
-2.079885
-0.177946
-1.012733
-2.901029
-4.567795
-0.462277
0.218646
-2.308947
-0.313706
-1.302536
-2.584070
-3.695058
-3.484508
-2.076741
-0.440903
-1.378226
-0.834439
-2.965185
4.382650
-1.379008
-1.466805
-0.616907
-0.615623
-0.107101
-2.162356
-0.099998
7.520696
0.857785
-0.899654
-0.583201
-0.655139
-1.102865
0.101703
-0.176734
-0.387843
-1.485351
-1.398505
2.016156
-0.367607
-2.416968
0.607104
-0.578240
-0.650490
5.844902
-3.022227
-0.056016
-0.469772
-0.658723
0.785448
-2.893864
0.173772
-1.334852
-1.048536
0.684202
-0.754045
-1.576931
0.443822
-0.652517
-2.854957
1.000210
-0.955054
-2.543067
0.489405
-0.600879
1.418300
0.471971
-1.813790
-0.746462
-0.698350
-0.304657
-1.494973
-3.182552
-1.855313
-0.883815
0.237699
-0.765113
-1.597087
-1.109381
3.004520
-0.060298
1.780894
1.621299
1.693802
0.957974
-0.239830
-1.165821
1.136556
1.723776
-1.205553
0.965673
-0.432735
0.959950
1.157712
-1.434561
0.407426
0.173658
-0.364525
-1.970907
-1.113508
-2.017065
0.272589
-1.072368
-2.448282
0.113805
-0.513062
1.407608
2.771642
-0.676726
-0.747272
1.047831
0.657705
-0.148954
-1.562841
1.338324
-1.157926
-0.973432
-0.480124
0.141093
-0.261264
0.850039
-0.301484
0.108048
0.086414
-0.708942
0.394364
0.674407
-0.275597
-0.662817
-0.294290
0.406538
-0.783181
-1.021875
0.245866
-0.648363
-0.302887
-0.539517
0.140117
0.364926
-0.714150
0.766409
0.579422
0.624918
-0.026991
-1.268272
-0.495793
0.099753
0.240876
-0.361512
-0.581354
-1.406294
-0.927414
-0.530505
-0.737382
-0.679540
-0.008301
0.728082
-1.123573
-0.953510
-0.684660
-0.200485
-1.172348
-0.880292
-1.571444
-0.085705
-1.397762
0.120504
-1.536142
-1.550202
-0.423261
-0.967484
-1.161529
-0.542609
-1.466718
-0.352087
-0.344622
-1.074867
-0.607078
0.605739
-0.857715
-0.221315
-0.830593
-1.060451
-0.994908
-1.768916
-0.474694
1.552345
-1.654302
-1.012942
-1.549903
0.079379
-0.648764
-0.179357
-1.283227
-0.252427
-0.488965
-7.087876
-0.627055
0.853092
-1.879450
-1.522534
-0.033809
-0.287214
-0.935593
1.134916
-0.179500
-1.871834
1.405712
-0.704771
-2.132860
-0.331908
-0.679282
1.072448
2.117286
1.204545
-1.006754
0.498941
-0.499961
-0.702685
-0.127654
-0.398540
0.156388
-0.661951
-1.748748
-2.977630
-0.495263
-2.299193
-1.092748
-0.609027
0.996711
0.543520
1.891910
-0.520823
0.386799
-0.042516
2.264336
-1.003581
-0.313622
0.856405
1.545077
0.042264
-0.801129
-1.872546
1.960003
-1.688199
-0.747819
0.304354
-0.649650
-0.766985
-0.211131
0.388531
-0.860880
-1.012449
0.225857
-0.458974
0.693342
0.261496
-0.749265
-0.909295
-0.348216
0.204573
-1.067181
-0.403721
-1.103806
0.510577
-0.419196
0.542528
-0.487656
-1.427631
-0.861255
-0.699228
0.253560
-0.356905
-0.281645
-1.797460
-0.123100
-0.688341
-0.847667
-1.002895
-1.046789
-0.441527
-0.697242
0.342257
-0.294498
-1.370594
-0.768251
-0.946954
-0.921080
0.382857
-0.655637
-0.628259
-0.588029
-0.348192
-0.578239
-0.438147
-1.170852
-0.716286
-0.263419
0.046351
-1.634204
-1.797942
-1.080602
0.064270
0.199322
-0.079691
-0.498306
-0.471956
-0.840013
2.041072
-0.142183
-1.940985
-0.460348
1.703657
-1.403006
2.472391
-1.606591
0.651399
-0.622071
-0.747256
0.391961
-1.580544
-2.381577
2.134991
-0.424085
2.968330
0.350599
-1.480728
-0.988701
3.834349
2.098351
-1.610617
-0.362230
0.640856
-1.211057
-1.283051
-1.577199
-3.419132
0.372551
-0.622535
-1.985902
1.847587
-0.288150
-0.773509
0.382288
-0.717888
0.223179
2.534721
-2.399847
-1.433001
0.313757
1.920971
-0.344487
-1.130651
-0.253111
-0.732048
0.762980
-0.569782
-0.712871
-3.219873
-1.275505
2.655720
-3.007659
1.439032
-0.605259
0.504133
-1.675247
-2.968973
-0.033598
-2.192522
3.366198
-2.868738
-1.974092
7.207367
-0.423202
2.893883
-2.560839
-7.203930
1.601936
-1.909299
-1.030518
-1.807511
-1.785238
-1.004009
-1.253927
7.516310
-3.581597
-3.940961
6.471196
-2.702702
-3.375282
-4.123263
-0.845581
-1.471382
-1.804041
-0.976992
-2.467174
-0.077474
-2.041442
4.003241
0.144280
-0.750291
0.866446
3.261784
-0.745412
-1.899224
-0.950903
-0.940194
-0.109791
-0.306393
-0.584670
5.316613
2.509274
4.547757
-2.078410
-0.941817
0.535397
4.742803
1.345525
0.088855
-0.923571
1.108012
-1.780064
3.714873
-2.515209
-1.957458
-3.309706
0.317770
-1.681873
3.494856
-2.446853
-1.117518
-3.561871
-1.722633
-0.842581
1.597023
-1.311210
-1.764205
-2.309397
-0.050882
-0.704911
-0.649922
-1.372343
0.669693
0.902703
0.688395
1.514873
-1.202314
-1.033586
1.533971
-0.948654
1.611431
0.123461
-0.462517
-1.873585
-1.339724
-0.137768
1.291927
-2.483510
0.347181
0.409593
1.304877
1.564590
-3.075150
0.122867
2.249654
-1.924495
0.193323
0.546192
2.084588
-0.164404
0.789592
1.365420
0.460997
1.149090
-1.744173
2.106513
0.250522
1.261235
-2.642145
0.495097
0.000216
0.666599
-1.522665
-2.659398
-2.156773
-1.179683
-2.587328
-1.661672
0.269016
-1.386755
-2.145373
-0.924421
-1.822432
2.530000
0.900615
-0.353976
1.359470
-0.302864
0.898607
1.008900
0.148332
-1.421241
-0.278521
0.512576
-1.999022
-0.621639
1.153312
1.242765
1.393466
-0.572087
0.430848
-1.230365
1.210496
1.528011
0.526775
-0.812763
-1.860463
-0.951058
-2.750610
0.399881
0.864355
0.431172
0.658224
-0.049845
-1.460638
-1.701308
0.846930
-2.798677
0.877473
-0.420882
-1.354420
-0.968804
0.200980
-1.461709
-0.763135
0.316152
0.457577
-0.274416
1.771288
-0.335398
-4.104236
-1.768257
0.433452
0.687981
1.838858
1.062685
0.396637
-0.222185
0.571311
0.483946
0.143914
-1.627615
0.510031
-0.228180
0.993784
0.161159
-2.935593
0.591306
3.223428
1.664583
3.431969
3.400335
2.132784
0.445520
-0.070324
-0.323490
-2.139284
-0.918959
-1.712461
3.449930
2.801573
-2.267103
2.905718
0.410441
-1.404391
1.202133
-4.088462
-1.538503
-1.995604
-1.009870
-1.005915
-1.434380
-0.251033
-3.063454
1.989703
-6.583069
1.347177
1.124482
1.601255
-0.609655
-1.804975
-0.544372
0.331344
-0.952893
-0.687073
-1.621232
1.475999
-1.304913
1.956485
-0.032375
0.450088
-0.722780
-3.515268
-1.309962
0.136834
-1.775100
-1.120310
-1.659020
5.320589
4.621497
-1.320634
-2.204649
0.345885
2.492459
3.674533
-0.823459
1.585182
-1.822429
-1.067763
-2.681618
-2.171150
-0.226061
-1.391192
-0.409528
-2.941036
4.357223
-0.458262
0.075871
-0.662667
-1.055191
-0.174356
5.950624
0.204820
4.236127
1.714081
1.281317
-1.845660
-1.952550
-0.698955
-1.013792
-1.208637
-0.321275
-1.691025
-1.866995
3.221259
-4.069832
-0.595368
-1.996890
-1.097581
3.392128
-1.376454
-1.473974
-0.755772
-1.092082
-1.036696
-0.209117
1.280430
0.403288
-0.228575
5.669318
-1.155332
0.826105
-2.335261
0.690257
-0.072455
-0.943066
-0.915754
-1.042547
0.095547
-1.321301
-1.651946
-1.291417
-0.417231
-0.724658
-0.245059
-0.991584
-1.534949
2.329993
-2.481043
-3.580349
-0.343986
-1.277648
0.172101
1.078949
0.221697
-2.264073
-0.422939
3.093971
1.500189
-0.837901
-0.516277
0.725482
1.699423
2.877230
-2.399901
0.706143
1.994146
-1.095135
-0.364338
-2.187701
1.661440
0.555581
0.955921
0.531210
0.734547
-1.463228
-0.700241
-1.577250
-1.164473
1.725725
-0.533030
0.166217
-1.119307
2.066252
1.195782
-0.645743
0.265359
-0.795217
-0.834195
-0.202606
2.505689
0.677089
0.476025
1.396298
0.326427
-1.096966
-0.316797
0.360620
0.199376
-0.387205
-0.395055
-1.707837
-0.759436
1.442781
0.152190
1.282164
-0.880741
0.695043
-1.219668
-0.580805
-0.757846
-1.040200
-2.410525
-2.121929
-1.823303
2.535035
-0.947733
4.100676
-1.742939
-1.905481
-1.963010
-0.434514
-5.743806
-0.371870
-2.857689
0.604706
-0.701321
-0.319314
-5.900878
-1.091908
-2.495554
-3.834184
-2.162821
1.587723
-2.170701
-1.247854
-4.828249
-5.897300
-5.571071
-1.015650
1.847891
-1.009196
-1.258740
-1.961382
-1.525918
1.468243
-0.692047
-0.200477
8.574899
0.223848
-4.951486
6.333919
-0.202842
-1.126070
-1.347838
-2.333812
-2.259322
-1.818426
0.999347
-0.963813
-0.029468
9.309231
3.298700
-2.878233
-1.404697
6.842613
-0.288876
-4.469527
-0.800181
-2.504537
-2.773266
-1.935083
-2.278199
-1.548246
0.888320
0.471398
-0.685015
1.135109
0.453815
1.192674
0.433916
-1.512094
-0.077078
0.463030
-0.027540
0.101405
1.714308
-1.058870
-0.651502
0.299851
-1.079746
0.310889
-0.443354
3.299942
1.643439
-0.195579
-0.537944
0.137613
-1.135250
1.748532
-1.162962
0.092313
-0.449401
0.464582
-0.745830
-1.293269
0.272544
0.193901
0.543774
0.042513
-2.497408
-0.706453
-0.163482
-0.909391
-0.199056
-0.774160
0.003352
-1.560289
-0.102255
-8.006722
0.562126
0.372023
0.814477
-0.635886
0.268749
0.736856
-0.824401
1.772538
1.517061
0.536327
-0.218639
0.395694
-0.969202
2.307948
-0.684558
-0.747635
-6.442240
-2.714580
-0.923323
-3.077523
1.185263
5.180868
5.899961
-0.286689
-2.960428
-2.064299
-4.075756
-2.920398
-1.238700
-2.493726
4.741177
2.963046
4.744034
-1.824254
-1.459366
-1.216175
-6.430441
-1.976129
7.492828
-3.990850
-0.874420
-3.498977
-2.159341
-6.748727
4.579499
4.144120
-0.871660
-0.973014
6.119728
-2.320538
-2.475190
-0.479793
-2.676464
0.925551
-5.988856
-2.596584
2.097614
0.825850
2.256472
-2.086862
-1.213059
-0.815568
6.625209
3.569300
0.602587
-0.756110
-2.609065
1.543121
7.661004
1.227150
3.532836
-3.255114
-0.485001
-2.516676
-8.699787
0.277203
-4.566574
8.284282
-1.146325
0.787812
-1.038198
1.449972
-0.688331
1.198285
0.327785
0.247803
-1.322153
-1.483120
-1.669109
-0.034669
-1.365087
0.776392
-0.611611
-0.363203
0.712687
-1.244308
-0.244768
1.341437
0.908924
-0.558360
-0.339988
0.121271
-0.084547
0.148866
-1.939554
1.541430
2.398898
0.508679
0.276967
0.377445
-0.571854
0.253559
-0.540993
0.144745
0.395197
0.742231
1.863106
-0.830898
-0.048207
-0.276762
-0.654292
-1.256863
0.834948
-0.521034
-0.775695
3.561897
0.408502
-0.255820
1.939847
-0.311104
-0.314750
0.755837
-1.699140
-1.563766
0.043527
-0.166323
1.118753
-0.047907
1.036600
0.519123
3.271004
-7.050637
1.054795
-3.148288
2.682861
1.055582
5.119749
-4.056154
1.461603
2.946469
-6.064406
1.775205
3.049157
3.493163
2.610061
3.214039
4.179320
1.475233
1.887023
1.409970
-7.112651
-2.614962
-3.589365
-2.904629
-1.552499
0.325316
0.978463
5.496742
1.711803
4.184695
1.929156
2.772257
3.585080
-4.816084
2.038112
-3.478889
5.325080
-0.361838
-2.743409
-4.383700
1.338040
4.281942
4.721079
5.487441
3.162237
2.558869
-7.293159
-2.305901
0.043962
-2.063591
-0.158058
2.639166
4.450129
1.866971
1.464974
-3.966437
0.126832
4.136028
4.638131
1.705983
2.836511
-0.009403
0.366744
0.109212
-0.558103
-1.601164
0.138034
-1.064199
-0.752150
-1.478827
-0.415266
-0.778625
-0.339541
-0.823039
-0.599055
-0.769253
0.365183
0.039092
-0.036800
-0.886247
-0.472436
-0.679364
0.111202
-0.225702
-1.554831
-0.713040
0.669465
0.046018
0.493163
0.946255
-1.316450
0.015487
-0.025951
-0.698009
0.081082
-0.390458
0.415163
-0.160343
-0.933238
0.128490
-0.101928
-1.067670
-1.326746
-1.142526
-0.522971
-0.163700
-0.137415
-0.327807
-1.650537
-1.283961
-0.824614
-0.476962
-2.146916
-0.726655
-0.168457
-0.623896
-1.416147
-0.011289
-0.863293
0.158859
-0.004393
-1.065379
-0.617805
-0.798256
-1.189227
-0.435794
-0.983922
-0.901724
-0.581155
-1.243773
0.079207
-0.037484
-0.252417
-0.507409
-1.232075
-0.416795
-0.947651
0.057000
1.259463
0.853732
0.391438
-1.250288
0.297889
-1.720838
0.183273
-2.342051
-1.035738
1.006235
-1.411893
1.517620
-0.698359
-0.837801
-0.609959
0.149013
-0.394981
-0.852785
0.670040
-1.102089
0.349182
0.426938
-1.523200
-0.589662
-0.569479
-1.439372
-1.736618
-0.712528
-1.957645
0.751129
-1.081238
1.530136
-1.323080
3.099959
0.694978
0.805634
-0.140359
-1.491241
0.394445
-0.164227
-0.126417
-0.626163
-0.117783
-1.524174
0.162461
1.149392
-0.292497
-0.870088
0.485525
-0.431596
-0.340902
0.303039
-0.343266
-0.824578
-0.380087
-0.289435
0.389277
-1.204439
-0.585361
0.790190
-0.664501
0.352512
0.731645
0.117239
0.262886
0.006501
-1.117572
0.008240
-0.446883
-0.671181
-0.083608
-0.048677
-0.202117
-0.612406
-1.853551
-0.948955
-0.171333
-1.372298
-1.240622
-1.058559
0.173260
-0.280598
0.455791
-0.561970
0.093684
-1.026883
-1.407024
-0.148854
-1.149140
-1.484565
0.096331
0.402432
-1.271644
-2.228363
-1.000962
-0.695431
-0.581081
-0.334645
-1.012477
-1.016381
0.241485
-0.434167
-0.949987
-0.700318
0.024635
-1.541549
0.319083
-1.366227
-0.172901
-1.071716
0.858415
-0.246093
0.395393
-1.128978
0.134949
-0.360926
0.278656
0.474324
-0.377887
0.715743
-0.985530
0.884847
-0.928933
-0.517121
-0.945084
-0.978202
-0.804294
-0.525816
0.710987
0.265188
0.198552
-1.173338
-1.396209
-0.816139
-1.628768
-0.089763
-0.353599
-0.741612
-0.632706
-0.151313
-1.765354
-0.910221
-1.402222
-0.472275
0.262404
0.644428
-0.948388
0.215445
-0.877457
0.227833
-0.406882
-1.025011
-1.446052
-0.668441
0.346571
-0.746768
-1.609153
-0.136468
0.761674
-1.372892
-0.661282
-1.135720
0.270140
-0.852291
-0.997377
0.098964
0.437862
-1.570207
-0.821719
-1.438581
0.256729
-1.015818
-0.640092
-0.595683
3.089258
-1.469455
-0.254818
0.723632
0.926186
-1.251270
0.121231
0.442273
-1.917345
-0.172141
1.315431
-2.422128
2.119170
-0.903944
0.966229
-0.815779
0.444477
2.023203
-1.600262
-0.313273
0.948068
-0.648825
-0.944370
0.804509
-1.275713
-2.725764
0.296565
0.530397
-3.201605
-2.758603
-0.749664
-3.071432
0.521044
-0.927203
-1.431154
0.713586
-1.285079
-2.094047
0.896580
-1.138967
1.877372
-1.374770
-1.816096
1.024710
-2.043048
-2.226611
-0.036967
-2.448351
0.479900
0.983556
-0.153486
0.349804
1.771870
1.628392
-0.007029
-1.077442
-2.411894
0.290187
-1.709938
0.997758
0.119642
0.573287
1.439871
0.512105
-0.767214
0.101760
0.083991
-1.156537
-1.143993
-1.047346
0.764046
0.062728
3.067217
-0.155611
-0.586185
0.763258
-1.331189
-0.442236
0.736150
-5.217661
1.237963
-0.622356
-0.942564
-0.442522
0.395943
0.189605
-0.920768
-0.158864
0.903938
1.030366
-1.807280
-1.108415
1.262548
0.333262
-0.506296
0.610056
2.257377
0.289056
2.879642
0.630894
0.948936
-0.696609
0.837119
0.150781
-0.354035
0.145985
1.290193
0.591907
-0.027060
-0.025013
-0.692512
-0.588091
-0.712400
-0.393772
-0.938801
-0.572648
-0.735587
0.043314
-2.297806
0.335538
-0.184593
0.524377
-0.795207
-0.640967
0.088004
-0.976494
-0.234952
-0.355741
-0.094143
-0.604220
0.441590
-0.380970
-0.310820
0.307772
-0.265801
0.346539
0.747069
-0.850474
-1.388596
-0.003577
-0.872558
-0.199629
0.713475
-0.263161
-0.998820
0.195014
-0.289912
-0.360670
-0.991033
-0.910621
-1.189361
-0.635039
-0.261532
-1.353741
-1.094522
-1.079534
-0.723013
-0.090095
-1.145492
0.362184
-1.708855
0.262295
-1.434544
-0.813351
-1.381143
-0.159770
-1.491982
-0.737238
-1.082134
-1.478898
0.086731
-1.319077
-1.320278
-0.817017
-0.678865
-1.488158
-0.933463
-1.328637
-0.161958
0.009555
-0.697785
-1.459129
-0.192640
-0.408091
-0.116600
0.666468
-0.429884
1.211600
0.173414
-1.067631
-0.701658
-0.005659
0.532705
-0.186566
-0.795763
0.740741
0.279097
-0.960061
0.411024
-0.016424
-0.261715
0.717660
-0.462960
-0.880905
-3.112854
3.169946
-1.588401
-0.220147
2.321273
-0.148398
-0.191112
0.240360
0.420675
-0.668861
-0.841854
-0.012663
-0.278640
-0.023900
0.167981
0.235769
-1.252876
0.605522
-0.383549
-0.818312
-0.641257
0.459909
-0.277035
0.015826
0.159068
-1.286810
3.888167
2.633993
-0.542974
-0.719113
3.411053
-0.880640
-0.789796
-0.265095
0.251267
-0.748467
0.298023
0.471668
-0.299282
-0.961379
-0.585717
-1.572658
2.717293
-0.079598
-2.649982
0.486539
-0.207357
-2.198944
1.694969
0.776589
0.475100
0.030191
-2.250831
0.051022
1.293362
3.044249
1.089311
0.567182
3.434753
-2.475485
2.537294
0.864271
1.446995
-1.987509
0.558119
-0.667267
-2.025788
-1.874438
2.256139
-2.909226
-6.502185
-0.753208
-3.228399
-0.759835
4.186896
0.978538
-0.764952
0.343985
-2.380593
0.681043
0.367795
1.599439
-0.517943
-0.442085
4.132246
0.650675
0.033081
-0.569504
-2.633081
-1.990865
-0.530437
-0.452741
-1.594027
-2.808683
0.745198
0.902153
-1.388085
1.077089
-0.885716
1.204665
0.805252
-2.102288
-3.219952
0.726302
-0.841251
-0.221160
-1.488719
-0.118628
-1.677772
-1.923350
-1.913121
-0.218387
0.131326
-0.168072
-0.051158
0.182089
-0.630196
0.220478
-1.605082
0.370459
0.972218
-0.298834
-2.032098
-1.344344
-0.759331
-2.910946
-0.742416
1.187637
-0.600023
2.855291
0.438722
-1.678484
2.501762
-1.180193
-0.052970
1.177265
5.866917
0.234627
0.033397
-0.927502
-0.492783
-0.099238
1.775518
-1.639098
-1.314648
0.874832
-3.095990
-0.212805
4.131791
0.222754
0.987138
4.371094
0.410760
-2.058199
0.239683
-4.935018
0.519340
0.072276
0.465700
-1.460377
0.075399
-0.163666
-0.830446
-0.664389
-0.214615
0.678301
-0.670205
-0.864220
2.097208
-0.682653
-0.618764
-1.165772
-0.205355
-0.704131
0.352591
-0.317849
-1.490223
0.389518
-0.615106
1.353376
-0.624731
0.088512
0.887094
-1.012341
-0.908223
0.727387
0.686918
-0.005015
-2.196325
-1.242050
0.411590
0.261696
-1.375814
-1.341418
-2.379308
-1.212092
-1.681339
0.493596
-0.984756
-1.100267
-0.120124
-0.543762
1.271537
-0.481104
-0.070116
-0.694267
-0.388291
-1.277715
-0.965132
-1.145939
-0.391301
0.304355
-1.674374
0.484028
0.084815
0.682951
-0.885392
-1.310222
-1.069786
0.666570
-1.063958
-1.314570
-1.012811
0.568466
-1.111708
0.392130
-0.876814
-0.801092
-1.356510
-0.095103
-2.030798
1.810042
-0.635436
-0.015736
-0.494285
3.098916
-1.369604
-1.256991
0.448254
-0.405136
-3.613597
0.857871
-0.424510
0.259618
1.922195
-0.120042
1.255318
0.478541
3.340129
3.512311
-0.989110
-1.082400
-1.460029
1.268963
-1.404711
4.623250
1.490460
1.006776
1.002319
-0.690744
-2.439349
2.553453
-0.343490
0.950184
-1.262325
-0.321787
-0.889029
-1.918736
0.358839
0.278179
-0.996190
-0.665854
-6.231316
-1.572610
0.854228
2.213567
-0.376280
0.834082
1.379645
-0.357534
1.400498
0.056156
-0.254510
0.520517
-0.353477
0.670728
1.520740
0.102304
1.478639
0.180630
-4.245175
1.195671
3.379843
0.828174
0.452282
4.108178
9.191162
-3.334441
2.748970
0.861392
-4.769931
1.124575
2.013949
-2.548099
2.577164
-0.158111
-8.930754
2.148975
4.298871
-4.595415
-1.971626
-2.999257
-0.366369
-2.339491
-1.702054
-1.943052
-0.680543
1.929969
1.059604
0.444442
1.245087
5.215659
2.560714
-1.545458
2.421706
-0.176371
2.459736
-0.825594
-2.681439
-1.524004
0.849417
-5.434504
0.272325
-3.586569
5.105350
0.155262
0.023980
-1.153334
0.540246
-3.553501
0.413521
0.673328
-4.006266
-3.060868
-1.657107
-5.296125
-0.003524
3.486287
3.764685
-1.848556
-4.080254
-1.987969
1.447420
-1.741444
3.517554
-1.043770
1.737087
-2.276423
1.805203
1.576941
1.100576
2.541470
-2.549086
0.200835
0.566052
3.259761
2.959466
-1.033401
2.661684
-1.690893
1.936830
4.289158
-4.689018
-2.727786
-1.194149
-2.682571
-1.195324
-0.925882
2.376961
-3.012763
-2.194757
1.559935
-2.451245
-1.570285
0.471415
-2.031701
0.175237
-1.495792
-1.212706
-0.971612
-1.284851
-1.194745
1.009293
-1.154151
1.726680
1.114570
0.696716
-1.528026
-6.280899
-2.351021
0.491721
-2.702682
-1.853543
-1.822842
1.385649
3.980507
-3.119011
0.053788
-0.772145
1.039106
0.469534
-0.867393
1.024755
-0.060334
-0.542760
-0.954056
-2.203400
-0.847311
-1.973116
-0.578704
-0.688332
-1.053129
-1.472179
-1.481083
-1.439387
-1.582303
-0.263057
-0.762454
-1.796892
0.313646
-0.658658
0.069793
-2.687246
-4.210834
0.004563
-0.450266
0.334439
-1.988848
-0.000184
-1.759284
-1.356833
-3.519503
-0.308140
-0.172680
6.451861
4.802382
2.654171
-1.890620
-1.766260
0.376307
-1.668160
0.813676
-0.173716
-0.260833
0.292291
-2.141236
-0.810256
-0.187755
-0.898765
3.094320
-1.584540
0.160871
-0.359978
-0.324739
-0.602462
-2.324077
-1.003707
-0.941669
0.035825
-1.999021
0.823931
6.649770
-4.133011
-1.071827
-1.113990
-1.199803
0.824020
-0.153297
-1.070536
-1.344849
1.280855
-1.482266
-0.060485
-0.853237
0.141334
-0.841000
-0.065735
0.589277
-0.557288
-0.625798
0.589855
0.314591
-0.455556
-0.207800
-0.578212
-0.084700
0.743961
-0.043977
-1.184164
0.051777
-0.050598
-0.510602
-2.657976
-0.534359
-0.425037
0.652539
1.445620
0.002179
1.019837
0.604364
-0.500753
0.433730
-0.386376
-0.953485
-0.075409
-0.077385
-0.391005
-0.083988
-0.993428
-0.729617
0.264409
0.922624
-0.035939
-0.910965
0.686034
-0.224866
1.850204
-0.877775
-0.146158
-1.127074
0.045165
-0.006474
-0.122343
-0.071067
-1.138165
-0.456677
0.097745
-0.869244
-1.537228
0.390157
-1.726107
1.190206
-1.187691
-1.740138
-1.211670
0.594586
-0.847541
-0.743580
-1.780605
-0.620542
-1.428128
-1.009112
-1.188445
-1.303037
-1.035200
-1.819883
0.119324
-2.640935
-0.494604
-6.482527
-1.580250
-3.111550
9.934596
-5.343607
-2.587782
0.137863
0.233377
0.017593
-1.049464
-0.303183
-0.539936
0.558939
-0.460018
-0.364979
-0.897330
-0.657422
-2.874318
0.022025
-0.543354
-0.953336
-0.215799
-1.778227
-0.932647
1.168417
-0.857401
-4.452916
-0.170444
-1.637571
3.482967
-3.852141
-0.055803
-1.206809
-3.213680
-0.752616
0.747521
-1.829018
-0.972430
8.617599
-0.464670
-0.380619
0.100694
-0.438239
0.996313
-0.595205
-1.240057
-1.300275
-0.966986
1.585755
-1.015968
-0.104708
0.330456
0.439590
-1.236862
0.632754
-1.732857
0.359117
-1.003569
-0.007780
0.159095
-1.822907
0.442768
0.610985
-0.648964
0.332894
0.100378
0.324763
0.263801
0.439443
7.181180
-0.054738
-0.335258
-0.740409
-1.056771
0.738660
0.315019
-0.435516
0.169213
0.026778
0.534585
0.243931
-2.567671
0.411403
-2.935588
0.290483
0.589693
0.128210
-0.405721
-0.113089
0.611500
-0.868253
0.362899
-0.350348
-0.289062
-0.777428
-0.935286
-0.864317
-0.031402
-0.550298
-2.077245
0.394352
-0.231321
-0.486298
-2.791762
-0.671576
-0.226663
-4.996888
-0.527708
-0.643203
-1.538171
0.200248
-0.003592
-1.333803
0.175071
-0.459790
-1.535784
0.231339
-0.960256
-0.232928
-0.280914
-0.023829
-0.244929
-0.674956
-2.891141
-9.231695
-0.301500
-0.188577
-2.845482
-1.277924
-0.306991
-0.936840
-0.934425
-1.623627
-0.083365
0.717516
2.822737
-1.871429
-0.175702
6.742036
-0.966631
0.643087
-1.784536
0.243944
1.568845
-0.369709
-2.276865
0.732090
-1.163563
0.431393
-3.669818
10.998935
-0.421026
-1.156084
-1.390806
2.285610
-0.779964
-1.542059
-3.099669
-6.104806
-0.549148
-0.740070
-0.920471
-0.218120
-1.442904
-0.514465
0.685877
-0.189766
-0.615981
-1.017574
0.447820
-0.518838
-0.321212
1.137420
-0.268001
-0.994007
-0.241672
-0.861796
2.261276
-0.448334
0.120282
-0.948369
-0.997877
0.286820
-0.666373
0.324259
-0.386069
-2.279347
-1.149935
-0.412698
-0.312983
0.154225
-1.082921
0.348708
-0.519206
-1.025142
-1.014563
-1.161500
-0.355317
-0.742228
0.467876
-0.109500
-0.882139
0.034678
0.383481
0.381450
-0.591331
-0.572543
0.108987
0.001840
-0.320865
-1.406577
-0.211915
0.836890
0.319474
0.873029
-0.200446
0.471288
-1.153485
-0.086238
-0.147887
-0.133102
-0.551278
-1.349223
0.011108
0.209440
-0.381668
-0.315325
0.255434
-0.956234
-0.711838
0.190386
0.573575
-0.343059
-1.035934
-0.666435
-0.196455
0.452083
0.471267
0.445248
-0.919702
-0.423052
-0.094793
-0.231725
-0.193945
-0.538443
0.261651
0.310440
0.192060
-0.587226
0.330261
0.414187
-0.974660
0.674618
-1.261154
0.041197
-0.649756
0.419201
0.063609
-0.146111
-2.292905
-0.535285
-0.055523
0.276801
-0.541168
0.438632
-1.071182
-0.561898
-7.459767
-1.212177
-0.110336
-0.347266
-0.048321
1.035536
-0.464873
-1.493036
-0.646886
-0.289613
-1.522870
-1.502840
-0.624760
-0.892283
0.091498
0.297550
-0.853625
-0.468581
0.552135
-0.198395
-0.225786
-0.551545
-4.923945
-0.789051
2.247319
1.599970
-6.925491
4.197599
3.015000
-1.694380
-3.738143
-2.113993
-3.367243
2.544550
-0.259947
-3.099084
-1.052251
3.177541
3.649583
2.467486
-7.381580
5.276936
1.973133
3.652036
1.927027
6.719192
3.804190
4.419456
-2.602807
-5.008844
-2.730708
-4.487164
-4.284084
-3.368016
-3.929385
-3.593136
2.728431
1.461846
-4.675017
-0.380011
6.618296
-4.062595
-2.563892
-1.546774
-1.546380
-3.838112
-3.931072
2.381883
1.821817
4.338292
-0.762732
-7.212547
2.910198
-5.078275
-1.512220
4.179441
2.851195
-7.382164
-0.379699
-3.245922
-3.423107
1.635569
-3.339613
-5.283337
-1.243161
-0.997373
-0.648070
-3.003264
-1.752484
-0.508454
1.591368
-0.563544
-0.485003
-1.754591
-0.817128
-0.129956
-2.496228
-0.424551
2.566528
0.745583
-3.171903
0.010542
-1.129485
-1.463290
0.987592
-0.133985
-1.375335
-1.376537
-0.763903
-1.580854
-0.337531
-3.543313
1.963056
2.631014
-1.422204
-2.608896
-5.540922
-1.415530
-1.356597
-0.517106
-2.175374
-0.813370
-1.552009
-1.466295
5.814171
0.970024
3.096617
-1.729312
-2.724522
-1.167415
1.559475
-0.686524
-0.562500
-0.671403
0.029005
0.555513
3.697848
-1.072884
2.946429
-0.461014
-0.094899
-0.807300
-4.027135
0.875721
-1.640724
-0.411098
-0.855527
-1.352206
0.524823
-0.300741
-1.061989
-0.050823
0.546412
0.089881
-0.625622
-0.624705
-0.289967
-0.364202
-0.268275
-0.032458
0.119026
-1.240487
-0.786705
-0.124179
0.837305
-0.494065
0.069203
-0.662404
-1.568140
-0.425232
-0.607705
-2.054396
-0.873230
-0.826834
1.516284
-0.042554
0.993498
0.658654
-0.143229
0.355460
0.086654
3.216456
2.615117
-0.385838
0.133876
-1.288020
-2.024415
-0.812629
-1.198181
0.196960
-0.438804
0.245772
-0.881864
0.149752
0.166255
-0.786573
1.815027
1.984004
-0.651998
0.564725
-0.465474
-2.041980
-0.448645
0.425081
1.394915
-2.139523
-1.157182
-0.129455
-1.061370
0.764778
-0.271769
1.087915
-0.332832
-0.415746
0.218046
2.470214
0.040305
0.275795
0.964499
1.241676
1.181862
0.995000
0.679246
1.530311
0.483801
0.547930
-1.827136
-0.995265
0.975948
-0.494432
-0.328652
-1.361140
-0.219659
-0.233136
-0.976767
1.047517
-0.093474
1.101832
-0.260969
0.458486
-2.056924
-0.000148
0.468249
0.709742
-0.644670
-0.707230
1.657665
1.136236
0.288444
0.087897
-0.066410
0.110726
-1.175596
-0.553181
0.217615
0.688509
0.066973
-0.192322
-0.095996
-0.879720
1.091233
0.655164
-0.790921
0.706601
-0.323240
-0.577400
0.071178
0.364184
0.898353
-1.055312
-1.643333
-2.155773
3.195518
-3.540191
-1.875516
-1.055325
-1.578016
-3.382890
-3.376499
-2.258594
2.606238
-0.099870
-0.699473
0.058134
-3.359799
1.105099
-1.273726
2.757755
3.268255
3.558926
-1.963830
4.030663
0.534544
2.029659
1.462272
0.371750
1.599521
0.426747
3.394370
-2.042437
1.817772
1.568632
-0.231514
-3.457223
0.915396
-2.884554
2.446966
-0.489954
-3.990594
-1.940419
-2.330986
1.458367
-3.065407
0.852095
1.262672
2.559416
-2.417473
1.509225
-0.771731
2.766914
0.115675
3.863705
-2.700540
1.228324
0.207034
0.739564
-0.469417
-3.889366
-0.999427
0.948928
-2.208682
3.733764
2.901988
-1.060784
-0.300914
0.032578
0.030213
-1.323152
-0.941840
-1.701048
-0.306297
-0.469664
-1.377540
0.015218
-1.184017
-0.502453
-0.582746
-0.206773
-1.427966
-0.292012
-0.513439
-1.506759
-0.985113
-1.674330
1.037544
-0.674165
-0.731373
-1.598252
1.762822
-0.714237
-0.832732
-1.487401
-1.042142
1.022190
0.104927
-0.209365
-0.235928
-0.205687
-1.945114
-0.222045
-0.415492
-0.345272
-0.546422
-1.215321
-0.905811
-1.577507
1.613136
-0.476723
-1.121595
-0.722820
0.378241
-0.035571
-0.613513
0.456166
-0.877777
-2.139026
-0.459304
0.422674
0.440383
0.266071
2.437567
0.094147
1.507047
-0.303255
0.526657
0.210045
0.133203
-1.809118
-0.406471
-1.140173
-1.345699
0.155341
-0.598918
-0.035332
-0.015081
0.738099
-0.683515
-1.237200
-0.248762
0.155336
-1.176221
-0.407446
-0.087820
0.233692
-0.973915
-0.540110
-0.643307
-1.132815
-0.056269
0.137921
0.485897
0.293743
-0.466115
-0.619785
-1.201386
-0.521737
-0.235809
-1.978642
-0.117293
-0.835130
-0.240407
0.072246
-1.554668
-1.442490
-0.458018
0.121899
-0.643201
0.629137
-0.414220
-0.144661
-2.010573
-1.416135
0.184919
0.114815
-0.720147
-1.753862
-0.561148
-2.257155
0.184379
-0.027888
0.179166
0.285150
-0.422808
-1.023338
0.299588
-0.902151
-0.553995
1.264834
-0.333836
1.004424
-0.022029
-0.951667
-1.408050
0.140130
-0.161268
-0.351847
-0.724467
0.171231
-0.573905
0.998158
-0.513777
-1.636665
1.748803
-1.784377
-2.192273
0.127974
-0.910489
2.247410
0.460744
-0.320024
-0.464724
-1.836381
0.410673
0.655002
0.803511
0.049309
-0.513827
-0.733050
2.202824
-0.153572
-0.690188
-0.029778
0.428657
0.902090
-1.292243
-0.411009
-0.785292
0.247320
-1.456297
0.056510
-0.117019
0.903864
-0.245811
-0.569317
-0.841576
-0.184083
0.170475
-0.739641
-0.398747
-0.461951
-1.648723
0.929367
0.556889
-0.726200
-0.360508
1.230091
-0.127527
-1.596038
-0.071875
2.093048
-2.196846
0.968526
-0.877827
-1.772691
-1.887741
0.588257
-1.645098
-0.651753
-2.706612
-0.668072
-3.468065
-1.388056
-1.315715
2.546561
-1.111804
-0.779104
0.057876
-1.469962
-3.155466
0.576071
3.334185
0.208381
0.751533
0.276126
-3.439704
1.993346
0.189960
1.962753
-0.099585
-0.225050
-0.124687
-0.525306
-1.017578
-0.816863
-0.878946
-0.481259
-1.959463
-0.094097
2.534636
-0.183725
-0.408876
-1.059927
0.711365
-0.140106
2.634454
-1.582690
0.610700
-0.520098
1.617866
-2.347617
0.980427
-0.709107
-0.554285
-0.655922
-0.572715
0.684209
1.091472
-0.188142
-1.174043
-1.033211
-3.173001
5.120440
-3.128149
-3.697570
-3.038114
2.687435
-1.953046
5.265104
-2.021298
-1.529536
-0.676073
-2.740569
5.040139
-3.493756
-2.301018
-2.332504
-2.139257
-4.580202
-4.565344
-0.847188
-4.015973
-4.221483
-3.992061
6.607522
6.061230
-7.349347
3.262659
-3.125382
-1.804292
-2.219174
-5.036777
-3.457492
-2.234857
-4.597806
-2.694137
-0.584566
0.335485
0.389906
-3.471048
-4.667428
-2.986478
-2.083711
1.387247
-4.332960
-1.990692
2.248676
-2.755955
-3.626166
0.684615
2.968987
0.952507
-0.673603
-0.656452
3.937562
-1.699106
0.581745
0.214458
7.435231
-4.241609
-3.840209
-2.491560
-2.361466
-5.136418
-3.749126
-2.916532
-4.763663
-4.967026
-8.745079
-3.044468
5.562280
-2.904549
-3.709642
5.751014
-1.723321
-1.734735
-7.731374
-1.118310
-3.802222
-3.927073
-3.850603
0.851471
-4.506466
-8.403231
7.618177
2.540579
-1.382568
5.123323
-5.926360
3.063769
3.416704
-0.809869
-4.242705
-1.875733
2.985671
-1.854819
5.696815
-2.002910
-1.591116
4.034747
0.760644
6.998036
5.529791
-1.115304
4.721398
-0.780787
6.095145
-2.176746
-2.354428
-4.258753
3.670489
-0.240450
5.017826
4.628390
-3.432277
-2.986763
-3.493005
-4.517023
-0.582821
-0.743392
-1.576682
-3.696110
-2.378080
-1.803625
-3.074615
-3.978429
2.739858
-5.852787
5.682708
-4.863106
-2.034998
-3.277463
0.331593
4.680816
1.039729
3.190082
3.711228
-1.994727
-5.031593
-3.977728
-3.430053
-2.213255
4.539250
-6.831013
-8.253131
-5.713968
-3.585898
4.442997
5.845961
0.522325
7.830623
0.578807
-4.913304
-2.558510
-2.848862
5.728580
5.994683
-2.090680
2.121968
4.318523
-1.007085
4.498528
0.218978
-3.363207
-2.613652
-1.284454
-4.996931
-2.829746
-5.312906
-4.112704
-0.685885
-3.504736
0.379923
-0.830855
5.096804
-0.165123
7.613132
-0.930457
-2.137966
-7.051282
-4.599329
-0.478616
-3.181344
-3.671737
0.906831
-4.347751
-2.597463
-3.243875
-1.272790
3.723815
4.177373
-1.946241
-2.829715
4.123622
4.396725
-3.371433
-3.307259
-1.023100
-1.490138
-2.115222
4.494272
-1.095813
-5.570360
5.781192
-1.291446
-4.221230
-4.995003
3.979569
-2.569466
2.187475
-1.841265
-0.587803
-1.418022
3.579766
-3.411080
1.705878
-5.692386
-3.820630
-2.890100
1.491224
3.747443
-1.621546
0.556359
4.558089
-0.554351
-2.940799
1.982957
3.902196
-3.339861
-2.064831
5.577977
-4.352793
-2.089346
0.459782
-2.402202
0.661900
-1.675101
-2.373198
-0.100777
7.793350
1.944192
-2.346767
-3.329389
-0.284409
-2.942648
5.838107
-2.759968
6.573978
-1.751973
-3.012298
-1.554364
-3.189580
-2.167451
8.781097
4.319011
-2.507364
-2.957459
-2.608878
-2.055148
0.298413
-2.470725
0.285024
0.051199
-1.777663
-2.390441
-4.089748
-4.311771
-3.669809
-2.493259
-0.386342
-0.006997
7.300205
-4.962045
1.926482
-5.627865
0.889371
-5.554562
-1.922548
-3.038107
-4.076245
7.285646
-3.100016
4.401767
-3.542841
-0.447752
2.338549
0.082776
-2.275420
-2.754832
-0.562579
4.499240
-1.161022
6.778326
-5.257918
-2.349412
-1.199201
1.555768
-0.241550
-3.119535
0.008333
-6.692315
-2.602771
-2.240601
-3.362671
-1.147955
0.498057
-2.887204
-3.051485
6.914923
-4.936142
6.141867
0.408774
1.922191
0.360741
1.840986
1.641026
-3.322227
-4.093424
-1.198312
0.574989
-0.592385
-1.035494
-1.509187
2.836911
-1.924884
-2.130553
2.596760
2.497648
-2.641969
2.612512
-3.837274
-3.051164
2.714694
4.319112
-3.122226
-2.992659
0.942850
-0.244870
-2.455443
-0.245880
-0.994490
-3.796675
-2.338865
-0.047519
-3.372166
-2.326485
0.521486
-3.266159
0.031303
2.091135
5.827268
3.575035
-0.761640
1.879549
-4.594454
-1.622086
1.003683
4.323412
-3.691485
-0.350024
3.750129
0.136308
-1.780525
-4.039538
-3.417162
-3.250863
0.014377
0.373622
-0.067313
-0.216701
-3.715485
-1.338224
-0.900548
1.506739
-2.622591
2.502142
0.601571
2.191409
1.493034
3.370838
-1.380851
1.739585
1.286580
-1.020733
0.200186
-0.383014
2.393079
3.477275
-1.890312
2.520636
-0.511938
2.169814
0.870814
1.940445
-2.750235
-0.459285
0.106413
-0.291589
-1.615250
1.251317
-2.409092
1.384614
-3.335825
-0.758172
-0.869861
1.200014
-0.701589
-0.120303
1.429563
0.796596
-0.707405
-0.415394
0.573089
-1.420038
-1.811269
0.899126
2.506909
0.020189
-1.829054
-3.920091
-1.694599
-0.829288
0.051851
-3.577882
3.709488
3.058784
1.299495
-0.727884
-3.604501
-0.431306
-0.358794
0.764948
-2.359807
0.612189
0.179119
0.712566
0.136841
-0.070605
-0.539117
0.153333
-0.490564
0.483353
-0.245776
-0.817832
0.839815
0.354480
-0.598534
-0.067205
0.846355
-0.218280
0.170538
-0.034825
-0.388012
-0.236944
0.502140
0.700626
0.448984
0.753138
-0.000763
0.908831
0.606852
-0.825130
0.627734
-0.450159
0.094026
0.306696
0.292032
-0.557543
-0.854967
-0.568781
0.807333
0.166014
0.479962
0.880957
0.515098
-1.043466
0.484097
1.439495
-0.120526
0.668611
0.400543
-0.000374
-0.932833
0.101903
-0.177989
-0.783603
0.859859
0.000296
-0.807395
0.506754
0.670383
0.728948
-0.405459
-0.225288
0.200845
0.396119
0.825137
0.778080
-0.719102
0.303641
-0.326092
-0.185233
-0.758475
-0.712436
0.582580
-0.767861
-0.134989
-0.106791
0.376474
-0.572124
-0.191988
-0.666774
-1.270118
-0.739947
0.021716
-0.913740
-1.083667
0.431722
-1.107113
-0.020243
0.275983
-0.862253
0.578298
-0.614589
0.612957
-1.366766
-1.018648
-1.299594
-0.662887
0.298602
0.983708
0.561571
0.397072
-3.250321
-0.914192
-0.893663
-0.149554
-1.713948
-0.511981
0.277914
0.101615
-0.059197
0.001587
-0.713085
-0.491320
0.019393
-0.767666
-1.184205
-1.207629
-0.253247
-1.548376
-1.308226
-1.101484
0.004357
-0.218649
0.109115
-1.468798
-0.578931
-0.590368
0.921001
-1.277561
1.083319
-1.020985
0.580622
-1.353715
-0.890554
-0.369631
-0.857454
-0.872629
-0.364413
-0.881793
-1.075806
-1.105085
-0.487215
-1.125866
-0.557850
-0.518086
0.592400
-0.584378
0.913713
-0.328177
-0.721192
-1.129266
0.175439
-0.854591
-1.640780
-0.799875
-0.149145
0.063191
-1.311454
-2.052904
-1.324373
-0.692468
-0.592888
0.797238
0.142314
-0.481814
-1.032984
-0.321518
-0.646187
-1.335532
-0.626121
-0.116121
-0.624390
0.118103
-0.409773
0.057450
-0.167559
-0.083495
0.124866
-1.113174
-1.206976
-1.288544
-0.041281
-0.774636
-0.708812
-1.146861
0.226466
-1.409177
-0.075323
0.043844
-0.925833
0.349053
-0.277319
0.236284
-0.171989
-0.656770
-1.054234
0.251976
-0.424233
0.498986
-1.300414
0.759435
-0.261358
-0.751692
-0.287398
0.648579
-0.349644
0.407975
0.712469
0.624971
-0.457587
-0.734151
0.489023
-0.995804
-0.910993
0.009332
0.082636
-1.180077
-0.638739
-0.444430
-0.819550
0.250300
0.061144
-0.814514
0.539650
-0.629821
-0.822117
0.302273
-0.386818
0.552515
-0.359795
-0.638889
0.627184
-0.543837
-0.599988
1.064640
-0.552420
-0.506819
0.443455
0.020523
3.191343
-0.907576
0.150297
0.158432
-0.673067
1.785484
0.897279
0.505281
-0.996272
-0.864452
-0.279486
-0.683592
-7.396307
-1.529447
-4.634333
-3.332249
-3.463545
-6.361346
-0.200382
-0.546403
-1.234867
-2.591953
-0.931515
-0.992319
-0.264204
-3.950602
0.355495
-5.178354
-1.454664
-1.924321
-3.850589
-1.545193
-3.603959
-1.980492
-1.385976
-3.715895
-2.202141
3.940234
-2.805403
-4.455630
5.143282
-7.431367
-3.530541
0.207500
3.981421
-1.159849
-1.510859
1.787429
-2.065051
0.676722
-1.911055
-2.823186
9.869669
-0.259564
6.326598
-1.286647
-6.671262
1.285574
-5.048889
-3.417547
-0.053323
2.469608
-0.797048
-3.805447
-10.374237
4.220082
0.377421
7.146764
0.455445
-0.354165
-5.841177
0.888912
-6.028403
-5.512329
2.620017
-3.833740
-2.921417
-3.761441
6.469021
3.073108
-5.291055
-5.527079
2.736204
2.796119
4.984278
1.012207
3.465544
-3.390166
-3.635505
-4.929530
2.921591
0.390347
4.016872
4.296910
-3.671120
1.505535
2.937672
2.847076
0.625140
3.161791
2.160097
-8.770136
-0.763680
-2.897388
2.747451
-0.925799
-1.571296
-4.121496
0.987220
-2.339522
2.532796
-0.749572
0.061787
4.916294
-0.251784
0.041078
-1.505186
4.583244
6.917533
0.493663
-2.986693
1.114859
0.677477
0.990329
-1.372880
-0.776080
-3.569044
2.297520
5.298108
-0.697998
-1.002949
-4.191816
-4.063161
-0.543020
5.628141
-3.006120
-5.000379
4.263439
5.478025
-3.391064
3.468919
1.004823
-4.666403
2.729022
-3.236772
-3.535672
2.671448
0.846941
0.064032
4.003567
6.619311
4.500179
-3.856722
2.158544
-3.539108
-2.045531
-4.569053
-2.388846
2.908483
-3.134241
-1.684547
0.113338
3.078826
7.079486
7.057601
2.279903
3.694501
1.996711
-4.715537
-1.510716
1.168168
-1.426987
2.147932
-0.309697
-3.353991
-2.676334
6.430270
6.084527
-8.528447
-1.826959
-3.954743
0.447080
-0.191245
-2.943364
-0.582423
-2.591451
-0.654069
2.289470
1.584797
-2.236293
0.707987
-2.335721
-0.821946
-0.664447
5.541589
1.554658
7.561233
-4.822630
0.354788
-0.124005
-2.028149
0.956426
-0.771757
-0.055970
-0.027291
-2.895544
-0.818242
0.025063
-0.972806
-0.867972
1.394254
0.231006
-0.480431
0.810545
0.111657
0.276528
0.220389
0.217342
0.701013
-2.404394
-0.065639
0.471654
0.403880
-4.200842
-0.001395
0.490399
2.380813
-1.271138
-1.195353
-1.249193
-0.086730
0.113967
0.765197
0.827736
0.318072
0.150850
2.250272
-0.101045
-0.943010
0.073858
-0.684672
0.131752
0.278176
0.786932
0.775083
3.004851
-0.819330
1.124024
-3.609529
5.871379
-0.764700
1.695099
0.448334
0.279339
-0.788514
0.046857
0.717463
-0.984010
-0.817077
0.049396
-0.921229
-0.667956
1.811168
-0.739317
-0.958190
-0.201927
-0.365456
1.338176
0.490533
-1.480062
-1.232477
-0.805584
-0.489895
0.299289
-1.803861
-0.842248
-0.455391
0.721479
-0.497931
-0.691604
0.725646
0.035772
-1.711997
0.356182
-0.410768
-0.098422
-0.153625
-1.343986
4.679480
2.041550
0.886717
0.765153
-1.858468
-0.966621
-0.722927
0.267114
0.845097
-0.863564
-0.067102
-1.102785
0.278312
-2.269853
-0.228684
-0.140938
-0.556221
0.784756
0.073149
-0.844965
0.556340
-0.760479
-0.888090
-0.107642
-1.370518
-0.027066
-0.911268
-0.177653
-0.189145
-0.140631
-1.844353
-0.719645
-0.790426
-0.297786
-4.883041
3.091366
4.394236
2.746089
6.261292
3.471980
6.160515
-1.612218
4.655121
3.912821
3.758117
-2.023314
-0.684506
-4.737883
-0.433308
-6.591087
3.220774
-3.414303
-4.645683
0.785983
4.973797
4.477081
-1.312965
-5.938225
-0.297606
-2.902450
0.098041
-3.392508
3.934600
-8.368070
7.371955
-5.498490
3.391116
-1.901750
-2.429869
-1.433768
4.958333
0.508005
1.140938
-0.159303
-7.206920
-2.778172
6.635175
-3.082847
-3.237941
-1.473402
4.608923
-2.899366
0.394707
-5.333881
0.915053
0.422431
-1.253958
-4.283059
-1.904207
-3.385759
-0.585886
-2.504777
6.417582
-2.969144
-4.828354
-5.239322
3.761873
-0.645564
1.145114
0.330519
2.774162
-2.170830
1.194834
0.462700
1.595754
2.245469
-2.301721
-0.503214
2.097942
1.339768
2.461095
1.750298
1.577838
-0.017649
-0.666561
-2.297162
-3.422981
-1.320489
-0.585785
-1.928652
-1.285786
-1.527627
2.177926
-2.930665
-4.307042
2.127829
-1.076275
-0.455935
-0.444054
-1.876108
-1.231721
0.072124
-1.500589
0.376666
-2.418541
-1.865932
2.021642
-0.144985
3.433659
-0.978672
-1.345141
-0.650219
-2.880935
-0.175530
0.821329
-2.524425
-1.357681
-0.974250
-0.039832
-1.412432
-1.274579
-0.647127
-0.428966
-0.417259
-1.181444
-1.610872
-1.577491
-2.015399
1.400714
-0.282940
0.786876
1.363028
0.781955
-0.540209
0.574056
-0.856554
0.370685
0.205235
-1.261719
-0.309324
0.552747
0.130577
-0.133882
0.566755
0.376634
-0.602207
0.466850
-0.348492
1.231096
1.972139
-0.468954
0.207729
-0.315244
-0.579354
0.262746
0.087113
-0.893341
-0.967197
-0.143728
-0.398224
0.871458
-0.235451
-0.186398
-4.148781
-1.296703
-0.572751
0.996585
-0.534458
-0.425969
-1.183196
0.428018
-0.758237
-0.086350
-1.197252
0.770837
-4.407573
0.015024
-1.021268
0.877854
-1.428768
-0.775515
0.591347
-0.297969
2.126236
-0.206594
-0.965639
0.392414
-0.798333
0.978408
-1.098797
-2.499159
-0.327526
-1.197454
-2.151029
-1.332350
-1.929420
-2.953053
-2.097049
-0.615209
-1.164303
-2.696093
-1.120623
-1.030489
-2.048755
-3.776669
1.928598
-2.243309
0.168415
-2.987548
-2.931791
-3.524553
-1.954054
-2.803807
-1.839192
-0.546037
-0.223350
-1.634023
3.671309
3.701121
4.557086
2.355288
0.802693
2.563420
-1.798150
-1.467010
-0.973760
-1.539878
-0.685453
-0.753369
-0.388948
3.127381
1.925222
-3.920466
0.112435
-0.227488
2.138418
1.964586
4.176750
-0.010907
-1.161797
0.799163
3.254951
-3.340574
-1.875911
1.607104
-1.167650
0.450025
-2.346842
-3.772495
1.271346
-2.781362
-1.691302
-3.217991
3.597197
0.680634
2.389418
-2.859825
3.460103
6.081828
-3.091775
1.563574
0.424869
3.435673
-1.804953
-0.028706
-2.963535
0.940719
4.292076
-5.489407
0.626183
0.059777
-3.220657
3.754473
1.573369
-2.491490
-1.142604
3.541466
-1.032499
-4.022195
-2.816916
2.527604
2.387668
-2.487360
-1.993539
-5.230260
-1.882296
-2.496235
1.743223
-1.405016
-0.986181
3.191341
-1.386452
2.788881
-2.555493
5.101752
-1.534432
-2.547880
-1.773868
3.017640
1.878248
-0.686033
-0.306965
-0.542526
3.084106
3.161237
-3.183036
2.928793
-1.627541
-0.060873
-1.322629
-4.557448
-1.575051
-1.789853
3.401100
1.859946
-0.390573
1.435745
-0.214218
-2.165228
0.080393
1.694042
-0.518276
0.495747
0.488411
-1.151161
-0.751498
0.473995
0.668543
1.220413
0.156926
0.551324
-0.542061
0.122281
0.611432
1.388143
-0.617304
0.908573
-0.537727
-0.306187
1.297720
-0.417198
-1.660485
-2.614463
1.772661
-1.682729
-1.760053
-1.870068
-2.713207
0.192357
-1.011542
-2.017381
0.300859
-1.982957
-2.039883
1.050175
-1.632654
0.779442
-2.457959
-1.880079
1.028909
0.125154
-0.569530
0.413537
-0.663083
-2.396559
0.434711
0.228455
0.310312
0.456367
1.754410
0.719541
1.351452
-2.385088
-0.675302
-1.370513
0.817872
0.181723
0.570620
-0.217548
0.256732
-0.156026
-0.896738
-0.457255
-0.103444
0.129354
-0.537556
-0.649169
0.104373
0.329293
0.052352
0.869425
-0.996868
0.374767
-0.048834
-0.372482
0.343010
-0.181538
-0.659512
-1.135773
-0.680707
0.298036
-0.668798
-0.313788
-1.123994
-0.383627
-0.554638
-0.448478
0.064652
0.110896
0.081410
0.080993
0.645682
-0.436664
0.454599
0.018750
-0.581075
0.317972
-0.337006
-0.536850
0.022855
-0.370897
-0.317393
-0.105018
-0.664409
0.242727
-0.613893
-1.340775
-0.181058
0.339527
0.585426
1.939014
1.327895
-0.078001
0.628061
-0.003383
0.794179
0.142953
0.348754
-2.550634
-1.202135
2.893445
2.223528
-2.626308
4.220213
0.661038
-0.388089
1.496649
1.075490
-4.787243
0.990641
1.681553
1.754961
-1.613709
-3.184799
4.221148
4.260275
-1.041587
1.368920
-3.447206
1.742066
-1.363156
-2.447246
-2.046727
1.082981
0.908660
-3.435047
2.515119
-2.134916
0.996166
4.767448
0.800088
0.170293
1.169952
-2.059152
3.246919
0.128453
-1.194929
-1.991640
-3.599844
-4.392118
-2.026779
-0.971982
-3.269065
1.689391
-2.518078
-1.210189
0.247926
-1.460276
1.247618
-2.030414
-1.612792
5.132435
-4.765949
-3.809486
-0.743498
4.846429
5.146953
-1.480648
-1.400932
-2.479817
