3.17234
0.88765
0.4611
-1.33142
0.799805
0.701322
1.72225
0.647163
0.83584
-0.533347
-0.100915
0.461852
2.3939
0.0213629
-0.403864
0.965987
0.771021
1.19967
-1.90029
0.400758
-1.34762
0.13609
0.41952
1.72028
-0.872267
-1.8868
1.2309
-0.763051
0.362873
-0.352857
0.642711
0.961038
-0.0515411
-0.275892
1.07019
-0.420417
4.64744
0.263807
1.26313
-0.271628
0.639706
-0.992291
-0.371189
0.279131
-0.579185
0.287694
0.471275
-0.601097
-0.216845
2.6259
-0.907641
0.388737
-0.267663
0.00623409
0.473864
0.872104
-0.634922
0.842193
-0.675185
-0.410023
0.888669
0.970361
0.730269
1.85681
1.34567
0.997406
-0.787083
0.577909
-0.413573
-0.670629
0.380537
2.60159
1.3442
-2.01177
1.31602
0.881999
1.07522
0.0221106
0.917414
0.440962
-0.117718
-0.790863
-0.767247
1.57565
0.187772
-0.613211
-2.21709
-1.37161
1.01216
1.59232
-0.85356
-0.411494
2.36611
-0.633167
-0.316566
-1.66253
0.498858
-0.193859
-0.384136
1.8555
0.570804
0.0994638
-0.247316
-0.411504
2.19617
0.659368
1.93489
-1.0895
-1.94488
3.74939
-0.631477
0.287475
1.06576
0.420389
0.211195
3.15819
-2.37159
2.26351
-1.09049
1.05762
-1.46363
-0.772504
-1.18029
2.73975
1.32209
-0.678186
-0.422808
-0.442853
-0.476897
-0.468779
0.948422
-0.401758
0.268205
-0.570164
0.339681
-0.301959
0.542147
0.704877
0.775682
-0.044375
0.030397
0.585607
0.709455
-0.413783
0.361777
-0.636941
0.737838
-0.609168
0.360923
-0.119453
-0.620888
-0.32961
0.55582
-0.738143
0.137765
0.284502
-0.748825
-0.058536
0.664652
0.417445
-0.518892
0.056766
-0.170604
0.613685
-0.847647
0.267106
-0.485503
0.64512
-0.307575
-0.93951
0.944394
-0.227004
-0.48648
-0.388635
0.362388
0.967344
-0.39425
0.25148
-0.131844
-0.355429
-0.428798
-0.38369
0.227614
0.489349
-0.587194
0.530855
-0.532747
0.918391
-0.611549
-0.3055
0.06757
0.753403
-0.754929
-0.769151
0.565281
0.662455
-0.856437
-0.83782
0.37899
0.933712
-0.412196
0.872673
-0.330342
-0.85662
0.66978
0.622108
-0.950864
0.281694
-0.056034
-0.826589
0.948361
-0.103278
-0.756699
0.595862
-0.541842
-0.178172
-0.251541
0.305255
0.456144
-0.953183
-0.376244
-0.59281
0.829946
-0.703595
-0.467802
-0.59812
0.611488
-0.1222
0.34194
0.315022
0.833791
-0.638955
0.33608
0.317463
0.922725
0.653299
0.239639
-0.104682
0.436428
-0.97003
-0.625099
0.633584
0.965086
-0.313191
-0.7415
-0.325093
-0.997009
0.371666
-0.048038
-0.082402
-0.393274
-0.337301
-0.520906
-0.986388
-0.350729
0.453336
-0.377648
-0.7697
0.486053
-0.79436
0.409998
-0.762437
0.842459
0.537264
0.607703
-0.11634
-0.262833
-0.298602
0.526582
-0.978514
0.253067
0.525362
0.459806
-0.551425
-0.032412
-0.633034
-0.939388
-0.977904
0.856986
0.654825
0.974974
-0.986999
0.48416
0.571141
0.039004
-0.239639
-0.713972
0.443325
-0.642312
-0.310627
-0.230483
0.404261
0.572789
0.754746
0.430751
0.884514
-0.364524
0.372642
0.209302
0.499359
-0.603858
0.90362
0.290667
-0.107062
0.321919
0.748093
-0.932186
0.101752
-0.344015
0.118476
-0.923274
0.999939
0.331441
-0.451016
-0.28438
0.389611
-0.049564
0.206556
0.562962
-0.701886
-0.856864
0.064701
-0.894952
0.044375
-0.382103
-0.99646
-0.312946
0.637734
-0.785082
0.898126
-0.50235
0.070988
0.27675
-0.243301
0.403162
0.070988
0.6475
-0.026247
0.440212
-0.131905
-0.386498
-0.242691
-0.217604
-0.451932
0.098273
-0.20448
0.991332
0.548495
-0.577245
0.223646
0.365196
0.862052
-0.05408
-0.045657
0.198315
-0.490631
-0.104376
-0.566136
0.762437
-0.15571
-0.296039
0.886346
-0.176341
0.252762
0.158945
-0.891229
0.507111
-0.190075
-0.315083
0.88012
-0.678752
-0.544406
-0.935543
0.044619
-0.844229
0.252945
0.914607
0.335103
-0.936581
-0.709638
0.228163
0.995849
-0.359458
0.791735
-0.704206
-0.730941
-0.182872
0.995056
-0.681682
0.807911
-0.129952
0.364036
0.02289
0.076054
0.470793
-0.306415
-0.404016
-0.199841
0.581456
-0.327352
0.245315
-0.466032
0.010499
0.466459
-0.297198
0.398889
-0.558384
0.88073
-0.018068
0.062809
-0.252945
-0.329549
-0.299152
-0.980468
-0.600745
0.55643
-0.714887
0.232009
-0.207776
-0.490447
-0.638711
-0.799915
-0.714155
-0.130684
-0.345236
0.518586
-0.214735
-0.145089
0.703717
-0.016358
0.667765
0.034792
-0.297809
0.314839
-0.130318
-0.685039
0.784899
-0.448941
0.94714
-0.990295
-0.935482
0.186108
-0.080327
-0.44357
0.738082
0.104071
0.714216
-0.562107
0.568699
-0.621315
-0.983397
0.874016
-0.938046
-0.001953
-0.651712
-0.154978
0.644937
0.577672
-0.824147
-0.98944
-0.839895
-0.875481
0.869987
-0.915827
-0.008362
-0.085515
-0.67686
-0.771593
-0.87072
-0.455411
0.041751
0.031435
0.489166
0.22505
-0.478911
-0.371483
-0.201001
-0.629128
0.720442
0.530489
0.363609
-0.442593
-0.554111
-0.278704
-0.97943
-0.098822
0.458219
-0.411524
-0.398828
0.929683
-0.886224
0.247146
0.206189
0.000794
-0.645425
0.821583
-0.387902
-0.662638
-0.142282
0.246231
-0.882378
-0.264604
-0.842337
-0.850821
-0.855216
0.012147
-0.446133
-0.620765
0.905939
-0.745956
0.615821
0.740768
0.449857
-0.071293
0.098089
-0.502472
-0.600317
0.921931
-0.921138
0.209669
-0.305927
0.563145
-0.867363
-0.536593
0.645059
0.70268
0.35079
-0.940426
-0.375328
-0.099615
0.022706
-0.779528
0.693768
0.792102
0.78966
-0.620765
0.483245
-0.307575
0.082891
-0.886101
-0.356955
-0.499786
-0.339498
0.788073
-0.830434
-0.034182
-0.946286
0.460966
-0.075627
0.384728
-0.263627
0.630837
0.656534
0.779589
-0.171336
-0.629128
0.842337
0.632912
0.14985
-0.576024
-0.347128
-0.767076
-0.570103
-0.184276
-0.636147
0.695416
-0.505341
-0.449796
0.518525
-0.276567
0.23561
-0.049808
-0.84252
-0.831594
-0.822621
-0.796069
-0.572301
-0.545749
-0.543979
-0.317707
-0.117805
0.926936
-0.981139
-0.413172
0.783922
-0.807422
0.860587
-0.506562
0.726302
0.506989
-0.894159
-0.647378
-0.117256
-0.723128
0.753708
0.509064
0.196911
0.738998
-0.107612
0.30318
-0.172618
0.875175
0.201917
-0.181774
0.158762
0.630349
0.55173
0.332967
0.691571
0.49234
-0.489593
-0.955136
0.123299
0.49826
-0.422633
-0.374962
0.934078
-0.27144
0.949521
0.167613
-0.212293
0.352622
-0.364646
0.096136
-0.937252
0.2867
-0.269304
0.589941
-0.175792
-0.471403
0.66508
0.09168
-0.451077
0.230056
-0.765733
-0.53934
0.918757
-0.430202
-0.768907
0.331685
0.990722
-0.509492
0.485076
-0.755478
-0.939816
0.360862
0.125313
-0.894647
0.527437
0.626259
-0.120918
0.542208
-0.920222
-0.489837
0.217359
0.71739
0.50412
0.829213
-0.83959
0.16041
0.439602
0.98297
0.557163
-0.818104
-0.61515
-0.816822
-0.352316
0.432766
-0.728194
0.983764
0.726057
-0.830739
0.917536
-0.827931
0.710432
-0.210462
0.668193
-0.910517
-0.56168
0.200269
-0.453031
0.436855
0.495697
0.578649
-0.781786
0.632546
-0.606788
0.091864
0.080205
-0.216322
0.904779
0.13514
-0.200574
0.332723
0.375816
-0.347494
-0.400598
-0.557834
0.81963
-0.898004
0.615211
-0.819142
0.609046
0.627663
-0.373253
0.572667
-0.420436
-0.999329
0.484649
0.571446
0.355124
0.894403
0.53818
0.024171
0.707868
-0.949155
0.381371
-0.315022
-0.232863
0.907587
0.227065
0.342306
-0.112251
0.241104
-0.777513
0.121589
0.990783
-0.605506
-0.980895
-0.973082
-0.810169
0.648904
-0.091864
-0.216932
0.515473
0.300861
0.835927
-0.959714
-0.45181
0.011353
-0.390283
0.006226
-0.223769
0.985229
0.608741
0.564488
-0.513215
-0.454618
0.309711
-0.05463
0.005493
-0.335042
-0.056766
0.009217
0.096441
-0.982238
-0.409693
0.205396
-0.665995
0.11164
-0.966856
0.270036
0.261002
-0.934261
-0.32729
-0.275774
0.143014
-0.404261
0.824513
0.235793
0.134286
0.76732
0.706159
-0.093878
0.665385
0.082586
-0.570836
-0.453519
0.866325
0.461088
0.306659
0.004029
0.837392
0.677226
0.789904
0.601477
0.580052
-0.182628
-0.653421
-0.247391
0.400354
-0.680156
-0.406702
-0.183605
0.597937
-0.842031
-0.006531
-0.748947
-0.748031
-0.268449
0.434963
0.132149
-0.08167
0.026674
-0.001099
0.095953
0.04816
-0.391198
-0.767564
0.771715
-0.05756
-0.990722
-0.762193
-0.23622
-0.945859
0.069523
0.890435
0.248367
-0.549655
0.804431
0.497772
-0.755783
-0.753281
0.347922
-0.786425
0.623695
-0.172008
0.543307
0.517243
-0.077397
-0.334859
-0.260026
-0.928096
-0.984984
0.543551
-0.639504
-0.72447
-0.287249
-0.986999
0.798938
0.814015
0.353598
0.874077
-0.785937
-0.468473
0.440029
-0.49002
-0.219923
0.930843
-0.608252
-0.118232
0.955869
0.612586
0.473784
0.992981
0.336874
0.970823
-0.03821
0.641336
-0.348349
0.45358
0.61045
-0.732283
0.46536
0.702985
-0.517366
0.715437
-0.848074
-0.113654
-0.793689
0.711042
0.700116
-0.468534
0.71855
0.882195
-0.088201
-0.821583
0.56052
-0.878716
-0.44064
0.159739
0.786303
0.111091
0.061283
0.822438
0.54703
0.821034
0.24031
0.503937
-0.586706
0.790209
-0.274126
0.574376
-0.501434
0.007569
0.564304
-0.142404
0.445706
0.201978
0.59696
0.743759
0.338949
0.355368
0.172313
-0.694439
0.605384
0.250504
0.751389
-0.268205
-0.034487
0.867179
0.970335
0.388207
-0.501495
-0.562412
0.722822
-0.178905
-0.117439
-0.024416
0.824391
0.01471
0.873344
-0.910456
0.821217
-0.785876
0.083745
-0.105231
0.506073
-0.371849
-0.872917
-0.166148
-0.296466
0.322896
0.185192
-0.778124
-0.112128
0.619178
-0.93481
0.325398
0.194226
0.307331
-0.192028
-0.211072
-0.611671
-0.010377
0.908136
0.223158
0.35488
-0.134957
0.211317
-0.23622
0.667643
0.26735
0.549167
-0.582982
-0.194897
0.269914
-0.825124
-0.997925
0.572423
-0.330465
-0.937313
-0.49588
-0.707196
0.661356
-0.867729
0.64921
0.331685
0.51761
-0.537936
-0.48471
-0.485747
-0.416835
0.553256
0.990844
0.001587
-0.099799
0.70683
-0.107978
-0.815479
0.773118
0.576756
-0.44479
0.161265
0.588476
0.960996
0.712446
0.357932
-0.798938
0.893731
-0.535006
0.857657
0.198987
0.100653
0.168345
0.997986
-0.640786
0.880059
0.037966
-0.198987
0.608741
-0.527986
-0.708356
0.798083
-0.19978
-0.020936
-0.360923
-0.189526
-0.381615
0.899103
0.931087
0.251541
-0.073491
-0.665263
0.782152
-0.49118
0.86724
0.941281
0.978148
0.972349
-0.970335
0.674235
-0.519014
-0.731673
-0.003784
0.401453
-0.155527
-0.735335
-0.420802
0.440518
0.851614
0.405909
-0.937069
-0.916133
0.188061
0.944333
0.761582
-0.824208
0.962949
-0.372032
-0.794787
-0.198254
0.889581
-0.592321
0.269304
0.153879
0.939083
0.726607
-0.44479
-0.365013
-0.720869
0.953427
0.340231
-0.737106
-0.689495
-0.476042
0.403589
0.438381
-0.386803
-0.648538
0.046329
0.138497
0.616065
0.068547
0.61338
0.598975
-0.199414
-0.33547
-0.167124
0.546359
0.253739
0.079595
-0.715742
0.044253
0.379296
-0.682354
0.307636
0.015077
-0.416957
-0.357138
-0.333211
0.499786
-0.257096
0.418849
-0.720564
0.719038
-0.723799
-0.843924
-0.674235
0.997009
-0.382409
-0.671061
-0.951962
-0.388818
0.919673
0.523897
0.55521
0.63102
0.788134
-0.517243
-0.057438
-0.194104
0.865653
-0.396753
-0.958494
0.568516
-0.92541
-0.541476
0.110419
-0.788317
0.333944
-0.100958
0.77849
-0.694439
-0.440579
0.298907
-0.442898
0.414088
-0.236648
-0.490997
-0.769822
-0.824635
-0.936886
0.080571
0.43478
-0.191662
-0.586767
-0.680767
0.746506
0.106208
0.871757
-0.264726
-0.418849
-0.017518
0.214979
0.449612
0.2256
0.628884
-0.287615
0.119819
-0.69096
-0.650186
0.873711
0.948727
-0.970701
0.134957
0.981139
0.336141
0.445096
-0.967894
-0.780321
-0.260575
-0.853446
0.384423
0.218031
-0.698041
-0.381188
0.992126
-0.189709
-0.185436
-0.392541
0.263444
0.835134
0.571141
0.802112
-0.583837
-0.21913
0.681499
-0.852591
-0.207776
0.091986
0.403589
-0.902704
-0.652139
0.947018
0.057743
-0.878777
-0.617164
-0.677287
-0.914179
0.777818
0.569859
0.155588
0.8167
0.667338
0.347067
0.412684
-0.498382
-0.424525
0.737167
-0.11341
-0.817921
0.121284
0.653971
0.524507
0.951718
-0.779222
-0.239944
-0.895257
0.174388
0.680645
-0.061954
-0.925044
0.224257
0.231704
-0.563267
0.360984
0.305011
0.318257
-0.243118
0.962034
-0.084356
0.952329
0.336202
-0.856437
-0.47769
-0.053043
-0.901117
0.040225
0.000183
0.842276
-0.069279
-0.51938
0.406885
-0.16688
-0.858573
0.848563
0.650797
0.015809
-0.020631
-0.209241
0.616432
0.261124
-0.741928
0.585973
0.30904
-0.969175
-0.840017
0.98529
0.581578
0.447049
0.276994
-0.661356
-0.994323
0.927974
0.952878
0.819203
0.450833
-0.297076
0.988403
0.556308
0.931087
-0.480864
0.77263
0.493255
0.286089
0.851126
-0.097723
-0.221571
0.254959
-0.072331
0.351889
-0.49472
-0.492095
-0.112434
0.256913
-0.388451
0.1974
-0.623817
-0.626503
0.751999
-0.409144
-0.103278
0.275774
0.95532
-0.651285
0.226759
0.353842
-0.120125
0.008668
-0.78496
0.675822
0.47885
-0.760056
-0.731124
0.77495
0.887749
-0.570408
-0.15455
-0.574803
0.347922
-0.836965
-0.740463
0.467985
-0.022645
0.162058
0.120918
-0.248733
0.201184
0.24147
0.711713
0.245804
-0.34432
-0.150766
-0.381066
-0.601904
-0.623329
0.749924
-0.066777
-0.214308
-0.913935
0.415309
0.325581
-0.865592
-0.61161
0.685345
-0.683452
0.762437
0.690045
0.259965
0.049197
0.511506
0.653177
-0.413355
-0.122627
-0.769578
0.998474
-0.295916
0.084783
0.87072
-0.533419
-0.394311
0.043521
-0.742294
-0.246353
-0.314839
-0.872063
-0.39834
-0.769639
-0.173167
0.694439
-0.192334
-0.739486
-0.297626
-0.560764
-0.349997
-0.071782
-0.162241
0.449857
0.872246
-0.011536
-0.988219
-0.742416
0.274858
-0.147165
0.549594
-0.79082
0.854789
0.422633
-0.927852
-0.534945
-0.943112
-0.417811
0.267228
-0.059391
-0.797168
-0.834646
-0.760178
0.500458
-0.843618
0.206372
0.009766
0.719648
0.291217
-0.71153
-0.285906
-0.476592
-0.179454
-0.19624
0.080693
-0.981444
0.554111
0.934139
-0.26735
-0.171214
0.14161
0.168162
-0.111823
0.245865
0.868583
0.16627
-0.983275
0.510529
0.064457
-0.215284
-0.984557
0.534334
0.187084
0.073125
0.466886
0.37545
0.644937
-0.943112
-0.458707
-0.219069
0.420436
0.117683
0.107306
0.107795
-0.443203
-0.216932
-0.390099
0.935726
0.570286
-0.259965
0.282305
0.683086
-0.149545
0.882866
0.251541
-0.459562
0.112312
0.20857
0.100897
0.031984
-0.039797
0.373497
-0.547336
-0.481597
-0.371116
0.721419
-0.86779
-0.045352
0.962095
-0.402857
-0.523286
-0.787279
0.691937
0.758469
0.351157
-0.715315
-0.918208
-0.303241
-0.566319
-0.324055
0.995483
0.682415
0.33315
-0.696759
-0.547214
0.342977
-0.899164
-0.791247
0.738815
0.590856
0.699994
-0.597021
-0.876579
0.710371
-0.006714
0.149362
0.259232
-0.582677
0.814747
-0.997803
-0.684551
0.70445
-0.316365
-0.087835
0.914729
0.283342
-0.2726
-0.291033
0.931392
0.437954
-0.627175
0.277239
-0.783312
0.099432
-0.630043
-0.265092
-0.687725
-0.042666
0.710371
0.929134
0.213331
-0.582799
-0.998108
0.559788
0.246231
-0.780443
-0.135628
-0.754135
0.121528
0.530733
0.90539
-0.1551
-0.774889
0.318745
0.842276
0.338583
0.210462
-0.172252
-0.669719
0.597876
-0.046573
-0.037966
0.060673
-0.660563
-0.065983
0.392114
0.69035
0.585973
0.105292
0.197095
0.16627
-0.057926
-0.68626
0.854239
-0.992614
0.000671
0.332845
-0.611976
-0.894586
-0.810535
0.571812
0.493499
0.607764
-0.628273
0.523653
-0.557651
0.445218
0.513886
-0.986877
0.589514
0.066593
-0.268937
-0.691326
-0.712873
0.943051
-0.97473
-0.840689
0.023683
-0.596167
-0.973448
0.820546
0.595984
-0.632485
-0.949155
0.130501
-0.869377
0.52939
0.786852
0.700177
-0.234939
0.568638
-0.076115
0.278398
-0.199658
0.938107
-0.965513
-0.644204
0.14045
0.797717
0.022645
-0.930538
-0.171275
0.655497
-0.549045
0.470488
0.493988
0.278154
-0.940243
0.217543
-0.479949
0.433071
0.789965
0.759263
-0.249954
-0.974425
0.621376
0.066227
0.538363
-0.806873
0.54172
0.977721
-0.037539
-0.08167
0.955503
-0.777635
-0.991638
0.724837
0.847342
0.179454
-0.459684
-0.982726
0.011842
-0.561497
0.868217
-0.3713
0.662394
-0.775865
0.725508
-0.863273
0.730696
-0.254288
-0.530306
0.512727
0.171275
-0.464872
-0.681865
0.664469
0.581701
-0.163645
-0.569065
0.436916
-0.548679
-0.892877
0.654459
-0.368248
-0.646951
0.697247
0.737411
0.60929
-0.613319
-0.235671
-0.16804
-0.965696
-0.809131
0.491851
-0.906855
-0.669474
0.832509
-0.331929
0.187206
-0.597693
0.887933
-0.306415
0.52353
0.190258
0.028627
-0.92541
0.021486
0.62046
0.422511
-0.531282
0.225233
-0.488982
0.26442
-0.6569
-0.422084
0.998474
-0.251969
-0.691265
-0.33077
-0.955197
-0.207959
-0.806873
0.267839
-0.408533
-0.168162
-0.086614
-0.048526
-0.082219
-0.008912
0.212843
0.147287
-0.229445
-0.055912
-0.676555
-0.605323
-0.17451
-0.217726
-0.383568
-0.356406
0.042483
-0.802905
0.303729
-0.599951
-0.521455
0.291766
0.252457
-0.467802
0.120308
0.33431
0.975645
0.548801
0.29787
-0.235183
-0.139169
-0.837209
0.24385
-0.23091
0.699933
0.953366
-0.640481
0.730574
-0.418483
0.936275
-0.250198
-0.125618
-0.790087
0.859366
-0.409205
-0.584752
-0.288165
-0.969236
0.892083
-0.478789
0.99414
-0.50296
-0.785082
-0.593054
0.71446
0.379174
-0.087957
0.868095
0.928585
0.182995
0.446805
-0.43069
-0.525117
-0.105597
-0.640908
0.399683
-0.839651
-0.328633
-0.562412
0.20564
0.809864
-0.05286
-0.339254
0.216383
-0.759751
-0.2444
-0.528902
-0.527132
0.224623
0.091741
-0.056949
-0.426906
-0.494842
-0.879937
-0.591772
0.046145
-0.078923
-0.95709
0.100653
0.668315
-0.288836
-0.558384
-0.617286
0.032106
0.055362
0.902521
0.1175
0.683025
0.91656
-0.259049
-0.2538
0.133553
-0.754135
-0.364402
0.63688
0.070195
0.614234
0.984618
-0.736312
-0.936886
0.331014
-0.202405
0.781969
-0.906611
-0.885247
0.935787
0.558933
-0.792224
-0.623329
-0.489471
-0.7744
0.61631
-0.820668
-0.743332
0.809437
0.542453
-0.06519
-0.310444
0.511628
-0.858939
0.902338
0.859977
-0.30788
0.794238
0.550388
-0.480376
0.623878
0.098334
-0.156137
-0.490569
0.578527
-0.143563
-0.480315
0.18214
-0.192456
-0.614662
0.413355
-0.327046
0.979979
0.45297
0.898309
0.831227
0.639138
-0.844229
0.501679
0.622963
0.242874
-0.948178
-0.241836
0.820546
-0.653421
-0.14161
-0.63572
0.788378
0.494598
-0.970335
0.696393
0.179821
0.380028
0.525972
0.754013
0.356284
0.837881
0.085638
-0.407923
0.341452
0.231398
-0.685284
-0.696454
0.12336
0.796741
-0.094854
0.61515
-0.883355
0.505646
0.293414
0.158945
0.597449
-0.988281
0.074651
0.483062
-0.077153
0.24031
0.481902
-0.138375
-0.650919
-0.814808
0.245071
-0.030458
-0.740829
-0.523897
-0.859366
0.48178
0.61338
-0.723555
0.546115
0.661967
0.434231
0.077397
-0.690289
-0.999145
-0.859244
-0.052677
0.250381
0.969236
-0.458646
-0.197766
-0.402246
-0.055301
0.299762
0.257157
0.68742
-0.620643
-0.313618
-0.377281
0.221083
-0.734176
0.427455
0.608497
0.407373
0.968077
-0.536593
0.29555
-0.707502
-0.523042
-0.568516
0.942074
0.595862
-0.844595
-0.318318
0.181957
-0.638955
0.033083
-0.358115
0.182262
0.737289
0.714826
0.342123
0.31844
0.20033
0.964903
0.912165
0.932735
0.529207
0.029787
-0.136239
0.736678
-0.15217
-0.238906
-0.028993
-0.579137
0.046512
0.602576
0.56052
0.03406
-0.10578
-0.49826
0.024171
0.694134
0.155222
-0.188549
0.367637
0.194043
-0.978087
0.240554
0.605628
-0.935543
-0.823292
0.91894
0.818226
0.656351
0.794909
-0.362083
-0.320881
-0.195569
-0.198193
0.329183
-0.730269
-0.362815
-0.303241
0.843985
-0.009827
0.091802
0.254776
0.096136
-0.619056
0.699994
-0.57932
-0.369224
-0.332723
-0.794848
-0.292865
-0.318867
-0.161936
0.575047
-0.591894
0.776048
-0.926631
-0.030458
-0.05756
0.960935
-0.668681
0.230422
-0.362266
-0.305194
-0.092108
-0.548923
-0.730574
0.485137
-0.218153
-0.807972
-0.335287
-0.676616
0.557712
0.902948
0.686932
0.984557
-0.182018
-0.88604
-0.090277
0.251419
-0.300922
0.960203
0.297076
0.128365
0.501862
0.598852
-0.802234
0.104865
0.149362
0.085332
-0.029726
0.532686
-0.694012
-0.732283
0.547946
0.179027
0.968077
0.263688
0.258683
-0.98236
0.340048
-0.918635
-0.788744
-0.678935
-0.191296
-0.051517
-0.439907
-0.88427
0.827077
0.909662
0.961362
-0.936886
-0.479399
0.256363
-0.467192
0.829396
-0.169993
0.351889
0.631813
0.004944
1
0.41244
0.758957
-0.361411
-0.771104
0.808033
0.906611
-0.553562
0.291705
0.44595
0.658671
0.759324
0.946774
-0.202039
-0.641641
0.271135
-0.058903
-0.864799
-0.345663
0.650613
0.426173
0.532442
-0.26204
-0.921687
0.59519
-0.796496
-0.415064
-0.227126
0.356406
0.733199
-0.486907
-0.433498
0.854239
-0.236343
0.369346
0.595678
0.649515
0.703107
-0.342428
-0.834463
-0.626503
0.013795
0.921077
0.855094
0.66685
0.646829
0.690533
0.9201
-0.785021
0.182506
0.311848
0.062138
-0.304035
-0.759141
0.965025
0.621742
0.448575
-0.275774
-0.813831
-0.739791
-0.322896
-0.545993
-0.792407
-0.807483
-0.996521
0.764817
-0.574986
0.033083
0.179393
-0.382409
-0.692669
0.317463
-0.229384
0.796069
0.060001
0.762498
-0.372215
-0.254288
-0.645486
-0.673076
-0.046695
0.621925
-0.562717
0.135995
0.77965
-0.894342
0.929866
-0.669658
0.669291
-0.446744
-0.367942
-0.094854
0.450894
-0.961607
0.643655
0.598303
0.802112
-0.146493
-0.887872
0.892938
-0.506989
-0.971495
-0.0752
-0.804676
-0.897394
0.433681
-0.347739
0.25148
-0.980468
0.024782
-0.94006
0.863517
0.541232
-0.202344
-0.501862
-0.029665
0.882561
-0.989807
-0.517427
0.154123
0.908198
0.23793
0.780565
0.634011
0.398828
0.822926
0.311665
0.811573
-0.333822
-0.719526
-0.820912
0.42947
-0.672832
-0.774461
-0.858939
-0.594641
-0.9483
0.380333
-0.163096
-0.595373
-0.90539
-0.773302
-0.921138
0.213575
-0.573643
0.86663
-0.475981
0.97589
0.272844
0.650308
0.035952
-0.644998
0.878594
-0.861869
-0.948239
0.685406
0.304706
0.956235
0.265092
0.172679
-0.925044
-0.891351
-0.062992
0.209669
-0.518769
-0.689312
0.150278
-0.134041
-0.637551
-0.097845
-0.684368
0.617103
-0.832082
-0.093267
0.245804
-0.626076
-0.880913
0.797961
-0.892755
0.875664
0.281084
0.534151
-0.435085
0.508027
0.356406
-0.573765
-0.571019
-0.389367
0.01471
0.399805
0.119514
0.334554
0.569981
-0.786486
0.259354
0.112922
0.817066
-0.801624
-0.291461
0.808094
-0.15803
0.077764
-0.647439
0.596228
-0.383141
-0.56754
0.957517
-0.346396
0.192334
0.373375
0.402735
-0.294757
-0.699689
-0.017518
0.607215
0.500092
-0.820057
0.087102
-0.542636
-0.726485
0.437588
0.92773
-0.946774
0.262406
-0.244949
-0.716902
-0.417811
0.331075
-0.741317
-0.384179
0.134774
-0.224989
0.359946
-0.201795
-0.225539
0.362083
-0.11866
-0.015931
-0.826589
-0.325826
-0.719038
0.187145
0.127632
-0.186962
0.786303
-0.871208
-0.737289
-0.469023
-0.749741
-0.081914
-0.755051
-0.149545
-0.455716
-0.873833
-0.192944
0.234206
0.296832
0.817921
-0.095953
-0.631508
-0.206739
0.102484
-0.689678
-0.377098
0.848501
-0.232802
0.970457
-0.752915
0.463896
0.554294
0.415797
-0.630349
-0.916987
0.646097
-0.43832
-0.140512
-0.74327
0.918879
-0.805713
-0.887078
0.530672
-0.470915
-0.537875
-0.169993
0.368858
0.394372
0.684063
-0.159861
-0.075749
-0.869316
-0.214063
0.042239
0.469938
-0.989623
0.67918
0.520234
-0.697919
0.500824
-0.108039
0.8966
0.929439
0.9483
-0.231154
-0.013184
0.358787
-0.030703
0.547397
0.81786
0.292498
-0.889214
-0.373131
0.070805
-0.953122
-0.657633
-0.658304
0.013551
-0.992858
0.9436
-0.45004
-0.016847
0.42892
-0.65275
0.351523
-0.518464
0.400537
-0.495819
-0.752609
-0.052188
-0.221876
0.327596
0.05347
-0.732345
-0.094732
-0.216383
-0.120247
0.084539
-0.069157
0.18861
-0.510773
-0.026369
0.536532
0.275652
-0.651956
0.541598
0.887627
-0.407068
0.679302
-0.485198
0.618141
-0.202344
-0.16688
0.878594
-0.335348
0.405481
-0.713361
-0.871635
-0.240615
-0.439175
-0.415919
0.699261
0.396081
-0.611365
-0.468534
0.630715
-0.918513
0.490631
0.957883
-0.465483
0.684551
-0.851798
-0.645242
0.925105
-0.305622
-0.203504
0.708112
-0.024965
0.203382
0.328084
-0.16743
-0.239883
-0.577245
0.7932
0.524202
0.05408
-0.451871
-0.944333
0.840017
0.737228
-0.216688
-0.030031
-0.179515
0.880425
-0.661967
-0.362266
0.965269
-0.432094
-0.789477
-0.688213
0.775194
-0.479216
-0.432522
0.504975
-0.326314
-0.417201
0.534212
-0.130684
-0.3807
-0.86663
-0.792346
-0.592382
-0.27791
0.48825
0.704999
0.578954
0.176341
0.350241
0.058292
-0.138863
-0.177501
0.374718
0.771654
0.333516
-0.34957
-0.090338
0.848807
0.840933
-0.443753
0.974669
0.107367
-0.697491
0.666117
0.53995
-0.409876
-0.272111
0.538241
0.169993
0.886529
-0.497711
-0.442959
0.091436
0.176585
0.504059
-0.169261
-0.24971
0.810779
0.616493
0.90539
-0.080327
-0.763413
-0.802905
-0.392236
0.420436
0.086126
-0.933895
0.330342
0.518159
-0.764756
0.576756
-0.931209
0.058109
0.649393
0.330403
-0.472319
0.401086
-0.174815
0.098944
0.603247
-0.777818
-0.355674
0.516328
-0.441189
0.236282
-0.551853
-0.898004
0.203931
-0.089788
-0.851187
-0.820424
0.389428
0.227858
-0.812855
-0.748337
0.131844
-0.433803
0.151193
-0.605201
0.678997
0.749252
0.867363
0.236343
-0.170421
0.338522
0.776476
-0.924556
-0.180553
0.225722
-0.592199
0.712263
-0.914118
-0.412318
0.763352
-0.455411
0.224684
0.267594
-0.576451
0.499115
-0.55051
-0.355735
0.190502
-0.64512
-0.130684
0.052554
0.076421
0.025392
-0.106818
0.816578
0.45358
-0.640847
-0.922359
-0.04114
0.176891
-0.976744
0.727706
-0.351706
-0.508942
-0.969481
-0.436794
0.448086
-0.46414
0.474516
-0.23384
0.427028
-0.738632
0.033022
-0.282732
0.197644
0.566075
-0.194958
0.738082
-0.058903
-0.530672
-0.958921
0.148202
-0.515962
0.133309
-0.668986
-0.047122
-0.511872
-0.457425
-0.188793
-0.529634
0.815602
-0.341329
-0.046206
-0.785326
0.132576
0.858268
0.500885
0.343649
0.814625
-0.530489
0.104987
0.986266
-0.786669
-0.780748
0.239822
-0.238296
-0.648904
-0.598608
-0.057743
-0.197766
0.102118
-0.41836
0.949887
-0.408228
-0.074651
-0.350607
0.794421
-0.065556
-0.789416
-0.969969
0.415492
-0.636574
-0.699872
-0.130196
-0.143563
-0.69505
0.248794
0.00531
0.60398
-0.692486
0.384423
0.531649
0.135506
-0.349203
-0.267655
-0.219984
-0.764268
-0.354453
0.365318
0.51822
-0.354453
0.937679
-0.258988
0.186047
0.604956
0.128426
0.091619
0.97882
-0.14686
0.023927
-0.074284
-0.409632
-0.350974
-0.174388
0.706281
-0.570103
-0.627724
-0.425014
0.766954
-0.8778
-0.729964
-0.835561
-0.470976
0.107367
0.910273
-0.772752
0.082158
-0.850943
0.904352
0.218946
-0.81023
0.567234
-0.53763
-0.997925
0.784105
0.003723
0.342733
-0.751389
0.010743
0.537814
-0.242019
0.969908
-0.112128
0.960386
0.801502
-0.511689
-0.360313
-0.978942
0.955075
-0.835989
0.769578
-0.538485
-0.758164
0.186413
-0.067265
-0.355551
0.585973
-0.254593
0.673442
0.594702
-0.058903
-0.105597
-0.913203
0.261796
-0.247452
-0.583959
-0.530001
0.818409
-0.687786
0.00586
-0.976988
0.805591
-0.428188
0.083257
-0.336019
-0.060856
-0.02527
0.545382
0.019044
-0.611976
0.870781
-0.226332
-0.348349
-0.661967
0.074528
0.207776
0.591955
0.653238
-0.868278
-0.202466
0.229262
0.447232
-0.145456
0.647134
0.631203
0.377892
0.688519
0.162486
0.350241
-0.523897
-0.525056
-0.984435
-0.21858
0.323506
0.170176
-0.762376
0.133431
0.388757
0.083501
0.753159
-0.924861
-0.66215
-0.802051
-0.331868
-0.879204
0.129341
0.135689
0.625587
-0.184276
0.706403
0.329671
0.538363
-0.214735
0.09986
0.965452
0.014588
-0.290057
-0.246231
0.254898
-0.213392
0.288409
-0.114143
-0.395349
0.456327
0.251114
-0.30434
0.241043
0.869255
0.488189
-0.766709
0.854789
-0.569676
-0.648477
-0.259843
-0.172069
-0.326009
-0.802966
0.275285
0.605628
0.399255
-0.774278
-0.560825
-0.226393
-0.3149
0.6898
0.008179
0.406946
-0.90307
-0.47708
-0.709577
0.249283
-0.603491
0.460783
-0.981444
-0.712141
0.068547
-0.289996
-0.411402
0.284868
-0.023744
0.232497
0.459867
0.828053
-0.541476
0.704206
-0.47299
0.464262
-0.819508
0.212843
-0.721785
-0.523164
0.050845
-0.243911
0.549472
0.870598
-0.482268
0.603247
-0.309833
0.124947
0.55698
0.582372
-0.04877
0.28145
0.662638
0.356223
0.908136
0.923579
-0.844534
0.748459
0.731307
0.614662
0.120002
-0.8167
-0.882561
-0.644632
-0.71855
0.301532
-0.306781
0.622963
0.139352
0.813221
-0.29671
-0.445279
-0.335287
-0.346762
-0.202649
0.839651
0.878472
-0.50119
-0.273576
0.877861
0.619484
0.712812
0.76207
-0.22621
-0.182384
-0.224135
0.650552
-0.276994
0.583104
-0.73088
-0.084905
-0.644143
-0.576207
-0.529879
-0.681865
0.601416
0.905573
0.624428
-0.704328
-0.367393
-0.935482
-0.044375
-0.822255
0.456815
0.887994
0.47647
-0.994323
0.712568
-0.828053
-0.337728
-0.239944
0.236282
-0.927913
-0.948483
0.811268
-0.038821
-0.342855
0.833669
0.404627
-0.289752
0.779405
0.48764
-0.005738
0.446621
0.573949
-0.465238
0.236159
-0.456876
-0.100531
-0.533602
-0.545749
0.63456
-0.967222
0.910273
0.391748
0.613319
0.930049
-0.902948
0.059757
-0.666484
0.365745
-0.308368
0.496673
0.583654
-0.734847
0.048343
-0.750412
-0.109076
-0.460966
-0.044375
-0.608558
-0.278337
-0.264909
0.931575
-0.114936
-0.362815
0.818715
0.1316
0.108283
-0.029909
-0.605323
-0.066471
-0.649087
0.582128
-0.316609
-0.740585
-0.902582
-0.733138
0.562778
-0.300616
0.907221
-0.640542
0.989379
0.497711
-0.295855
-0.884331
0.111091
-0.534701
-0.709333
0.422999
-0.61631
-0.119209
-0.10517
-0.593786
-0.996521
0.441372
0.566746
0.490814
-0.030764
0.327535
0.233901
0.484405
0.085088
0.444119
0.230361
0.241653
-0.782152
0.898431
0.110053
0.472746
0.120796
-0.220106
-0.441738
-0.740463
0.135201
-0.696637
0.21327
-0.159189
0.085027
0.377281
0.210279
0.229567
-0.325948
-0.339681
-0.739059
-0.774767
-0.29964
0.16981
-0.91949
0.382775
0.399133
-0.498077
0.974791
0.500519
0.226943
0.72917
-0.600378
0.191601
0.400476
0.034426
-0.693158
-0.901544
-0.499054
0.147653
0.085882
-0.684612
-0.541964
-0.35549
-0.083013
-0.420314
-0.77556
-0.828786
-0.653299
-0.204297
-0.544528
0.657999
-0.101569
0.452847
0.503876
0.582311
0.530672
0.501129
-0.955747
-0.653238
-0.244827
0.245559
-0.360923
-0.167918
0.22853
0.823231
0.557773
-0.812366
-0.372154
0.824513
0.162913
0.924373
0.62516
-0.378624
-0.824818
-0.630837
-0.22914
-0.034243
-0.870353
-0.452847
0.100958
-0.581395
0.335958
0.550021
-0.72148
-0.824757
-0.345297
-0.543429
0.083501
-0.153635
-0.596655
-0.133553
-0.938046
0.759018
-0.297076
0.108954
0.148996
0.339987
-0.421046
-0.809376
-0.924617
0.143136
-0.871574
-0.456144
-0.626198
0.084173
0.066471
0.638039
-0.207044
-0.555332
0.963255
0.517121
-0.063664
-0.791735
0.485869
-0.674846
-0.065067
0.291583
0.956174
-0.11695
0.968138
-0.768602
-0.462675
-0.62223
0.444607
-0.107062
-0.637673
-0.771898
0.655741
0.758103
-0.084295
-0.811634
0.714704
0.359824
0.982238
0.753037
0.59226
0.42306
-0.525972
-0.07581
-0.936153
-0.725203
-0.54996
0.405786
0.378746
-0.91302
0.638039
-0.715254
-0.536288
-0.486968
-0.22621
0.264604
0.476042
-0.718061
0.069767
0.510224
0.51468
0.312031
-0.876457
0.170604
-0.694134
-0.093878
0.582189
0.638406
0.672832
-0.407923
-0.129036
0.610755
0.603125
0.169688
-0.697247
0.013306
-0.273271
-0.473051
0.877983
0.850455
-0.98352
0.789721
0.087896
-0.957395
0.523775
-0.63633
-0.963987
0.316426
-0.038882
0.435818
0.186657
0.205579
0.946652
-0.506928
-0.944516
-0.77025
-0.280962
-0.574803
-0.845022
-0.689373
0.139962
0.770311
-0.495697
0.488677
-0.208387
0.668376
0.01996
0.00354
0.98706
-0.915583
-0.903192
0.800708
-0.499359
-0.136361
0.693524
-0.475066
0.836172
-0.820057
-0.766526
-0.933651
0.840139
0.943539
-0.363487
-0.281694
0.477202
-0.274126
0.78966
0.011719
-0.422572
0.769029
-0.226637
-0.712324
-0.631569
-0.36312
-0.845816
-0.929256
0.605689
-0.924312
0.655374
-0.6945
-0.887261
-0.356955
-0.480559
0.518892
-0.455594
-0.331258
0.875114
-0.029482
-0.81554
-0.889275
0.41952
0.854972
0.591772
0.868034
0.730513
0.615394
0.905817
0.112434
-0.480498
-0.56522
0.625649
-0.796496
-0.861076
0.964658
-0.326741
0.747238
-0.34487
0.353842
-0.444607
0.361228
0.801257
-0.357566
-0.565403
-0.288897
-0.879204
-0.420436
0.923823
-0.622658
-0.384362
-0.069401
-0.584875
0.1175
0.209608
-0.665263
0.757798
0.084783
0.342062
0.776109
-0.905878
0.567173
0.00177
-0.269975
0.670695
-0.192517
0.515901
-0.95123
-0.56815
-0.531221
-0.595984
-0.353171
-0.786425
-0.693646
0.612464
-0.950192
0.345663
0.609412
0.438625
0.87017
-0.523042
-0.025575
0.460599
-0.731063
0.436733
-0.02588
-0.217848
-0.52878
0.942074
0.281939
-0.09284
0.392297
0.966734
-0.182811
0.555149
0.440823
-0.41775
-0.528108
-0.269181
0.560398
0.084234
-0.018006
0.360435
-0.428737
0.215589
0.505585
0.806202
-0.12397
-0.698651
0.471159
-0.427211
0.590185
-0.895013
0.257218
-0.482207
0.161875
0.220411
-0.733016
-0.122139
-0.457731
0.811085
0.959897
-0.575597
-0.031557
-0.489898
-0.597876
-0.939144
0.423183
-0.707441
0.900568
-0.827138
0.831899
0.132699
-0.720686
0.046206
0.061405
-0.741073
0.365501
0.662333
0.781542
0.819935
0.242202
0.186108
0.251907
-0.228774
0.835622
-0.54233
-0.901911
-0.200146
-0.604895
0.799915
-0.86193
0.093878
-0.568516
-0.545077
0.321492
0.773851
-0.32607
0.96301
-0.15455
-0.203809
0.609351
-0.206128
-0.491851
-0.85784
-0.833974
-0.454129
0.363731
-0.895929
-0.894708
0.023012
0.739486
0.481719
-0.319111
-0.496429
0.680034
-0.498505
0.131966
-0.486785
0.879021
-0.728682
0.56992
0.414027
-0.83843
0.582067
0.82256
-0.877922
0.580785
-0.13044
-0.202771
-0.732345
0.188732
-0.849783
0.926997
-0.892205
0.546969
-0.259659
0.259904
-0.493499
-0.962827
0.573765
0.756943
-0.70683
-0.964536
0.929988
-0.642007
0.312824
0.011719
0.384301
0.381188
-0.520234
0.618202
-0.206433
-0.184765
0.148447
-0.171947
0.129463
0.070744
0.112128
0.188183
0.9718
-0.250992
0.543979
0.246353
-0.525667
-0.005432
-0.808582
0.218153
-0.38308
-0.009095
0.13746
-0.04639
0.553134
-0.835622
-0.559971
-0.732222
-0.12983
0.6569
0.963926
-0.30318
0.570347
-0.369468
-0.284746
-0.258011
-0.412379
0.967649
0.993957
0.665446
0.65275
-0.073308
0.673442
0.898187
-0.682964
0.318928
0.923091
0.124397
0.950742
-0.234267
0.683941
-0.895746
-0.475615
0.601904
-0.789294
0.296954
-0.01001
-0.015382
-0.006531
-0.652933
0.070439
-0.226759
-0.630593
0.497406
0.273088
-0.260026
-0.859977
-0.010804
-0.062687
0.675945
-0.496429
0.513886
0.130745
0.953488
-0.38308
0.777513
-0.795154
-0.891168
0.098822
-0.758835
-0.176158
0.006592
0.786852
0.100409
-0.722273
-0.852225
0.060795
0.563816
-0.105414
0.686748
-0.954404
-0.503632
-0.638711
-0.284563
-0.995483
0.48825
-0.231643
0.38192
-0.762925
-0.588903
-0.811329
0.401575
-0.206739
-0.473662
0.605139
-0.473662
0.316426
0.20564
-0.00293
0.533541
-0.672404
0.32784
0.400964
0.295733
-0.735702
0.414088
-0.24562
-0.503449
-0.41537
0.563267
-0.660319
0.552524
-0.748642
0.251419
0.635964
0.304279
0.906855
-0.943539
-0.605384
-0.958982
0.051822
0.371483
0.750656
0.418483
-0.45889
-0.831899
0.17976
-0.166514
0.707807
-0.125496
0.117927
-0.180187
-0.57169
-0.572362
-0.948483
0.024293
0.443203
-0.434841
0.894342
0.328267
0.241775
-0.583227
-0.539462
0.676189
-0.172069
0.460294
-0.150278
0.173045
-0.323689
0.901972
-0.447293
-0.985107
0.192089
-0.453519
-0.905939
-0.186962
-0.012025
0.217054
-0.97882
-0.124702
-0.710493
0.788561
-0.945859
-0.992614
0.782396
-0.103278
0.207959
0.395898
-0.787585
-0.613685
-0.300128
-0.864494
0.054019
-0.441372
-0.545077
-0.035586
0.55521
-0.716474
0.020814
0.767564
-0.524324
0.036684
0.706098
-0.586767
0.828359
-0.074956
-0.247024
0.484344
-0.063114
0.763535
-0.641458
-0.535189
-0.877251
0.264481
-0.644754
0.948422
-0.666667
0.403467
0.364707
0.426662
-0.976195
0.022584
0.236098
0.223646
0.606055
0.735396
0.583104
-0.863517
-0.224684
0.194592
-0.77025
0.346029
0.030031
-0.214491
-0.619606
-0.841543
-0.306537
0.808399
-0.676677
-0.856437
-0.246353
0.210279
-0.516816
0.227553
-0.168956
-0.068119
0.632973
-0.692913
0.587865
0.928768
0.078862
0.945126
-0.108405
-0.068669
-0.369651
0.710187
-0.955381
0.005982
0.167735
0.724348
0.393212
0.978881
0.619789
-0.020692
0.626869
0.785692
0.164317
0.985595
-0.91717
-0.189892
-0.536043
-0.685161
-0.633462
-0.7274
-0.250809
-0.398584
-0.399683
-0.267472
-0.438503
0.560886
-0.385399
0.766099
-0.029848
0.592443
0.392236
-0.117317
0.072636
0.525362
0.079473
-0.257889
-0.405909
-0.928157
-0.123909
-0.265519
0.396203
-0.449246
0.11634
0.986816
-0.291461
-0.558384
-0.145517
0.856742
0.896112
-0.665446
0.266252
-0.021486
0.573033
0.837026
-0.820851
-0.079106
-0.122139
-0.000977
-0.955075
0.521455
0.720686
-0.177745
-0.335103
0.959287
0.815418
0.411768
-0.01764
-0.372154
0.310078
0.336141
-1.33946
1.41688
0.126893
-1.04521
0.980232
-0.349321
1.17367
1.17852
0.265206
0.261939
-0.201407
0.442521
0.315971
1.60447
0.83763
0.827321
-0.242723
-0.384787
-1.66278
-0.0619749
0.499897
0.174173
-2.16077
0.839465
-2.13198
-0.0899346
0.133336
0.479258
0.718966
0.628782
-0.154512
-0.101805
0.0471277
-1.01996
-1.90793
0.476329
-0.820932
-0.254389
-0.004571
-0.198343
-0.186854
0.311819
-0.171698
0.384846
0.276388
1.38587
0.0497232
0.948462
-0.447725
1.23932
0.84598
1.58848
-0.586689
1.38449
-0.449204
-0.924278
-0.0171793
-0.238654
-0.270208
-0.266801
-0.390844
-0.775198
-0.237571
0.311621
0.193665
0.664084
-0.26377
0.594662
-0.438649
0.575392
0.717582
-2.72419
-0.86748
1.81045
1.38148
-1.839
-0.878074
-0.0837562
-0.513793
-0.319284
1.03104
0.0550922
0.27055
0.0556362
-0.494697
-1.81826
0.520061
-0.431901
0.154773
1.24916
-1.83743
0.123918
-2.70324
0.737773
-0.310826
3.36117
1.01428
-0.216018
0.351119
-0.0637124
0.668034
0.691454
1.01142
-0.134593
0.330069
0.10731
-0.190764
-1.25415
-2.84697
0.301302
0.0823609
0.95254
0.252427
0.589673
0.852632
-0.569285
1.29663
2.33585
0.957355
-0.667057
0.829095
-0.648257
-1.60438
0.199908
0.311454
0.298274
-1.56244
-2.2526
-0.0972276
1.05807
0.917421
-1.26418
0.140317
0.133915
0.237123
-0.686793
0.308013
0.148716
-0.653498
-0.493493
0.658351
0.47741
0.142519
-0.46381
-0.214268
-0.323729
-2.26831
0.12712
-0.11467
-0.838921
-1.10463
0.659613
-0.23151
0.544732
-1.9958
0.17409
-0.444305
0.0742924
0.240381
0.676339
-0.0963235
0.339147
-0.44474
-0.266873
-0.468972
-0.0793905
-0.930082
0.803203
0.480085
-0.636773
0.871718
-0.458052
-0.7123
0.0536185
0.752509
-0.237523
-0.635323
1.71361
-0.183886
0.153961
0.504245
1.35519
-0.840183
-0.158592
0.209937
-0.994228
-0.121455
-0.47796
0.286284
-0.172706
0.66708
1.96335
-0.783049
0.875364
-0.172908
-0.604673
-1.18511
-0.549932
0.299001
1.42467
0.0602181
1.9144
2.68118
-0.929717
0.0255268
0.900132
0.0869581
-0.208698
0.200161
-0.698808
-0.0786457
0.174848
-0.332798
-1.67983
0.916788
-1.25887
0.0540604
1.20468
-0.715504
0.633223
0.96899
0.129555
0.126302
2.62236
2.08647
-0.327969
0.0796801
0.32579
-0.221511
0.859062
0.450553
-0.398509
0.764697
-1.36366
0.647922
0.178874
-1.37571
0.748187
-0.232305
-0.0609946
0.475715
-0.940451
-0.728295
-0.580909
1.33868
0.962362
0.149638
-0.569759
-0.583402
-0.782874
-0.183589
-0.661001
1.00394
-0.740741
0.0294743
-0.893117
-1.02531
0.930574
-0.0878703
-0.602924
-0.583676
0.25322
0.34655
-0.49902
1.48258
0.865858
1.03083
0.406937
0.84668
2.08782
0.69393
-0.839057
0.642883
-0.209733
-0.954994
0.277587
-0.603819
0.0924248
-0.495463
0.903948
-0.671349
0.41377
-2.01255
-0.305667
0.622538
0.842475
0.476554
0.032515
-0.808375
0.421278
-0.458434
-0.624312
-0.965645
-1.05334
0.677782
1.91072
0.47714
-0.921617
0.504496
0.20204
-1.30674
0.286721
0.226793
0.670378
-0.728499
0.736277
-1.132
0.242651
-0.138793
-0.178761
0.162124
0.515383
-0.441558
0.0285572
-0.443164
-0.242161
0.303736
-0.306043
-0.418115
1.15896
-0.652017
-0.767053
-0.367881
0.490043
0.406196
-1.80851
0.993493
1.31215
-0.0218687
-1.04844
1.89092
-1.81276
-0.42871
-0.0127955
0.0433361
-0.254914
-0.684087
-0.652844
-0.592494
0.649997
0.358998
-1.37257
-0.415607
-0.539766
-0.420595
0.202928
-0.567861
-0.399931
0.794491
-0.362335
-0.272632
1.19362
0.502172
0.464033
1.59046
0.249145
-0.197198
0.251895
0.162915
-0.173068
1.15507
0.654147
0.134597
-0.971445
-0.790576
2.71532
0.688143
0.0593934
-0.308426
-0.384066
0.240629
0.996131
1.22722
0.769651
-0.732388
-0.494503
0.020748
0.214849
-1.18232
-0.39764
0.921032
0.46189
-1.05631
-1.44473
-2.80579
0.979053
-0.105533
-0.634339
-0.726981
0.78331
1.23787
0.647724
0.484057
-0.28528
1.13116
-0.150383
-0.28187
2.25102
-0.92043
0.0871048
0.580444
0.303406
-0.301807
0.92561
-1.56252
0.0923826
0.917932
1.67877
-0.576989
0.593878
-1.90587
0.496631
-0.719123
0.702249
-0.663122
0.32699
-0.238913
-0.414817
-0.829807
-0.296105
-1.60743
-2.84147
0.339729
1.79005
0.799583
0.6554
-1.00411
-0.0898138
-0.640632
-0.0421456
0.921519
-0.313907
-0.894665
0.194732
-0.799159
0.507761
-0.293718
0.00661781
0.091987
0.49818
-0.91651
1.02714
-0.0955337
0.152291
1.5422
0.621861
-0.891279
0.0440065
0.436958
0.349787
0.206859
0.726667
0.684958
-2.50604
1.51789
-0.63873
-0.378796
0.401894
0.59592
0.0262925
-0.85314
0.958714
0.17119
-0.390816
0.398062
0.664735
-0.430654
1.88749
-0.228783
-1.0586
0.0692893
0.431669
-0.377494
1.22737
0.210042
0.51675
-0.560037
-0.699159
-0.847763
-0.434495
1.35085
-0.962597
-0.058212
0.787602
-0.803502
-0.37196
-0.238957
1.11271
3.79353
1.42799
0.539604
0.508731
-1.4295
2.54329
-0.414626
-0.607079
-0.216222
0.529319
-1.02115
0.67297
0.707522
0.132742
-0.394424
0.521851
0.591867
-0.421896
-0.0161559
-0.606123
0.541785
-0.325796
-0.207031
-0.949208
-0.162304
0.0567715
0.787879
-0.300412
0.11191
0.521363
0.121159
-0.290292
-0.553933
0.0983027
-0.540845
-0.43136
-0.233707
1.44234
0.251587
0.161631
-0.325177
-0.842106
0.639681
0.628708
-1.93291
-0.124709
0.777623
0.410445
-0.558196
-0.00254853
-0.396862
-0.155524
-0.998932
-0.570674
-0.619301
-0.241815
-0.328481
0.397295
-0.254294
-0.888458
-1.14806
-2.8408
-0.367816
0.608902
0.40436
-0.405046
0.510027
0.180612
-0.831176
0.882594
-0.00417961
0.860602
0.833341
0.282548
-0.130629
1.5612
-1.07409
0.367652
0.793144
-1.07133
-0.31328
0.38714
-0.966441
0.207835
0.9003
0.369629
0.139225
0.0240084
0.394849
-1.24726
-1.21156
0.351129
0.198304
-3.44989
1.44119
-1.24248
0.459863
0.0774224
1.69285
-0.0096884
0.203802
-0.399079
-0.641343
-0.266003
-0.619888
-0.51424
-0.380566
2.07815
0.404119
-0.588609
0.103217
-0.616191
0.731016
1.32866
1.09351
1.13183
-1.49924
0.718977
-0.995053
-3.37159
-0.00177462
-0.868359
0.579291
1.38164
0.315404
-0.101774
0.930309
-0.0325765
2.50557
0.758638
0.958311
-0.650255
-1.55199
1.78503
-1.30704
-0.104732
0.638049
0.0779575
0.574761
0.988983
0.211245
0.301898
-0.45131
1.22772
-0.958435
-1.22923
0.49148
-0.333219
-0.792553
0.39382
-0.899009
-1.04513
-0.0637967
0.171612
-0.18306
-1.6892
0.240318
0.240868
0.731656
-0.381271
-0.606708
-0.85753
0.184326
1.15278
-0.355561
1.69662
0.700089
-0.767014
-0.692228
0.962497
-0.30599
0.049451
-1.54803
0.0913856
-0.0798449
0.104979
-1.74169
-1.37902
-0.607004
-0.289134
-0.78193
0.834329
-0.592123
-0.245158
0.689352
0.906338
0.29548
0.425032
-0.969762
-3.14753
0.076709
2.06368
0.167188
-0.860736
-0.833126
0.516569
-0.414308
0.882332
-0.0139884
0.200475
0.436571
-0.168035
-0.228844
1.50509
-0.379019
-0.530926
-0.072757
-1.27584
0.249832
0.801559
-0.614392
-0.626357
0.432073
0.727324
-0.73685
-1.07808
1.05842
0.632248
-1.46048
-0.244236
-0.354483
-1.84064
0.919828
-2.24872
-0.564976
0.150832
-0.348046
1.22807
0.152461
-0.302102
-0.250389
0.184046
0.119494
0.0569039
-0.891074
2.20902
0.836003
0.070545
-0.553297
-1.46784
0.302847
0.788528
0.487316
0.629058
-1.59715
-0.356452
0.377093
-2.37336
0.276729
0.99878
1.11344
0.000911899
-0.422032
-0.302598
1.10473
0.33758
1.96007
0.876222
0.492118
-1.5365
-1.30711
3.08072
-1.29559
-0.403157
0.160987
0.556787
0.163817
1.02191
-1.31943
0.134295
0.618523
0.814331
-1.16699
-1.09875
0.22248
0.04714
-0.298177
0.448569
-2.14811
1.13591
-1.52925
1.87864
1.00208
-1.71651
0.172382
0.713985
0.84579
-0.503763
0.307543
0.218271
-0.227883
0.592087
-0.700557
1.57655
0.902679
-0.568823
0.0180601
-0.50552
-0.22487
-0.386396
0.372243
-0.656947
-0.224636
0.160819
-1.6797
-0.142103
-1.49341
-0.679216
-0.599012
0.684815
-0.256206
-0.790084
0.887886
-0.966945
-0.642572
-0.060156
-0.166584
-3.31327
-0.493071
1.36813
-0.873452
0.519586
-0.757291
0.499146
-1.25657
-0.306598
1.2788
-0.251946
-0.345401
-0.290762
0.291612
1.29873
-1.42581
-1.39714
0.934729
-1.2979
-0.423557
2.63327
-0.854416
-0.759685
0.895667
-0.550449
1.00825
-0.358829
0.390493
-0.834142
-1.32279
1.03411
0.985722
-0.737845
-0.428596
-2.64431
-0.903593
1.57037
1.02783
0.214337
0.389075
-0.971226
0.254307
0.877809
0.433298
-1.02711
-1.15413
1.00516
-0.559362
1.4534
-2.0118
-1.0141
0.86674
1.70142
-0.20981
0.891706
-1.86548
-0.160997
-0.386629
-2.15325
1.01134
0.813208
-5.1e-05
-1.31875
-0.70847
-0.17958
2.26049
1.14799
1.37972
2.04583
-0.026544
-3.11157
-1.22452
3.17876
-1.51656
0.523181
0.330317
0.251401
-1.1527
-0.0209396
-2.5806
0.300572
-0.0659941
0.786086
2.0774
-0.586783
0.0923572
2.66358
0.68591
-0.134639
-1.32291
1.87649
-0.720817
0.727476
0.165146
-1.73406
0.293132
0.727426
0.436172
0.441392
-1.98652
0.698587
-1.2024
0.170135
0.663756
0.538036
1.08554
0.862983
0.845674
-0.880777
-0.609774
-0.10935
0.811748
-1.47848
-0.937343
-0.397255
-0.617856
-1.31437
-0.466073
0.0644704
0.847856
0.756033
-0.980465
-0.58704
0.146762
-0.710073
0.569738
0.597839
0.583732
-2.22904
-0.553011
1.75875
0.020037
0.890644
0.804791
-0.345354
-1.55706
1.07214
0.414229
-0.44484
0.443663
-2.18824
0.731945
1.05413
-0.143017
-0.719434
-0.385267
-1.91878
0.584948
2.45811
-0.0648958
-0.586641
-0.0740449
0.336095
0.026629
0.572476
1.97147
-0.0875999
-1.62093
-0.623715
0.331977
-2.63289
-0.00628659
-1.58185
0.354976
0.777694
-0.629241
-0.118362
0.313408
-0.625541
-0.173042
-0.287728
0.281705
0.097985
0.246668
2.50411
0.723081
2.84247
-0.70809
-0.122897
0.820174
-0.304341
-0.120575
1.18151
-0.783927
-0.858638
-0.384056
0.650435
1.52538
0.71608
0.255187
-1.99354
0.0336122
-0.91829
1.41654
0.945883
-0.290922
2.71455
0.373871
-5.40134
-2.46359
0.856965
-0.608579
0.708644
0.99121
-0.557293
-0.08602
0.194351
-2.24385
-0.637711
-0.273617
-0.176816
1.27586
-0.196523
0.440561
0.913599
-0.456275
0.462471
-1.05219
-0.223691
-0.185588
0.86323
0.342518
-1.49618
1.04956
-0.926297
1.15089
-0.810977
-1.81207
-0.232938
-0.708005
0.913971
0.288275
0.321409
0.418514
-0.269674
-0.0923332
0.40102
0.822381
-0.634605
2.85872
-1.21394
-1.4283
0.024645
-0.221822
0.28176
-2.06854
-0.388956
0.940944
0.834749
0.311995
-1.37865
0.0193707
0.129223
-0.778494
0.766085
-0.407962
-2.44452
-0.291547
1.27713
-0.127761
-0.24582
0.0033969
-0.503266
-0.619805
0.776875
0.499937
-0.365877
0.713974
-0.541229
0.26696
-0.694723
0.283728
-0.690393
-0.317759
-0.580339
0.102587
1.49372
-0.233721
-0.679063
0.986194
-0.824764
0.962506
1.75695
1.27163
-0.366162
-0.890828
-0.897844
-0.207809
-2.1593
-0.597951
-1.66312
0.17045
0.673652
0.926857
-1.06285
-0.660087
0.518902
0.910906
1.00279
-0.391078
0.128097
0.381668
0.395917
1.19501
2.19488
-0.338632
1.53847
2.05449
0.619636
-0.0486925
0.586333
0.600476
-0.504225
0.440027
0.759521
1.51029
-0.748243
-0.088603
-2.27101
0.338466
0.288842
0.405663
0.805723
-0.213329
2.28188
0.819573
-7.09166
0.686495
-2.63771
-0.511112
0.182774
0.0895076
0.409933
0.591873
0.794677
-1.32491
-0.453022
-1.75403
0.506957
2.0901
1.18782
0.941397
0.806897
-0.114168
0.292226
0.58153
-0.180807
-0.468795
-0.00962449
0.779579
-0.247729
0.791768
0.515958
0.158013
-0.818021
-1.77535
0.642486
0.677472
2.20638
0.941488
-1.25808
-0.219566
0.0869202
-0.510773
-0.550672
0.458896
0.570465
2.5955
-1.42444
-0.541229
0.09126
-1.80562
0.131302
-2.36787
-0.44255
-0.803792
0.698778
0.09661
-0.612055
0.522706
-0.110376
0.769094
0.811268
-5.69786
-1.96819
0.060075
1.66486
-0.27529
0.330886
0.945134
-0.438707
0.86458
0.551478
0.0957566
0.0279073
0.214156
0.992448
-0.305855
-0.569163
0.240148
-0.16035
0.636921
0.364378
-0.863287
0.771152
-0.66142
0.455007
-0.479172
-0.24738
0.353525
1.93431
0.796253
-0.408199
-0.011815
-0.826778
-1.2485
-2.52237
1.91376
-2.67145
-0.303605
1.62405
-0.561222
-0.403333
0.823033
0.233305
0.0365747
0.795998
0.301867
-0.683267
0.695971
0.805054
0.861083
2.07252
0.121744
3.10194
0.807365
1.31828
1.41317
-0.545355
-0.894341
0.518554
0.777544
2.07994
1.2329
0.649193
0.150426
-1.53227
0.547829
0.145276
1.31112
0.345081
-0.165497
2.08148
-1.40952
-4.8959
0.176061
-4.35483
-0.837991
-1.01625
-0.459739
-0.555859
-0.041316
1.11671
-2.37039
0.968998
-0.420896
0.44652
1.6824
-0.000666
0.0418404
1.14394
-0.571189
0.693873
-0.230028
-0.457625
0.698864
0.0618968
0.930348
-0.148827
-0.125279
-0.153085
1.23302
-0.594372
-0.433394
0.649625
-0.825579
0.705184
-1.45083
0.169608
-0.698279
-0.596933
-0.529924
-1.41689
0.605583
-0.0524121
0.425499
-1.1004
-0.614666
-0.094415
0.751482
-0.981794
-1.80149
-0.289494
0.958811
0.125455
-1.02548
-0.617572
-0.369806
0.213793
-0.330944
1.1091
-4.5792
-3.16706
-0.140597
0.211979
0.14383
-0.193883
-0.201765
-0.622503
0.557305
0.219445
-0.53265
0.762857
1.08176
0.959456
0.23681
0.0333283
0.145381
-0.771996
0.224168
-0.237982
-1.3495
0.916194
-0.325159
0.44418
1.05737
-0.148086
-0.920812
1.74025
0.765362
0.0804256
-0.707735
0.182959
0.168551
-1.46472
0.803618
-0.799642
-0.395997
0.780282
0.278305
0.981271
0.220063
0.309621
1.46517
0.705375
0.291683
-0.317268
-0.143629
2.23434
0.164116
0.860026
0.6019
2.00014
-0.0760071
1.07718
-0.743771
-0.779939
0.785914
-0.114691
-0.440054
0.227538
-0.24101
-0.534868
1.3748
-2.06406
-0.861357
-0.5343
1.46743
0.769293
-0.609403
-0.686441
-3.04706
-2.43957
0.0763318
-0.987662
-0.6662
-0.868575
-0.705676
0.799855
-0.735287
2.44854
0.694033
-0.0181004
1.10447
0.764719
1.18749
0.300221
-0.0247211
0.218526
0.121621
-0.743157
-0.806747
-2.37469
1.54799
0.675742
1.48662
0.363925
0.720665
-0.151942
0.079898
0.722123
-1.51745
-0.933704
-0.856487
1.91119
-0.665173
-0.153069
-0.519881
0.18266
-0.0397783
0.707602
-0.520453
0.0419044
-0.31635
0.528164
-0.198652
0.690969
1.17593
-1.17388
-0.826262
-0.632234
-0.388642
0.912545
-0.399925
-1.3408
-0.341659
-0.0824186
-0.529498
0.183617
-3.79217
-0.514723
0.832216
1.71393
0.163484
-0.527475
0.773425
0.479488
1.00865
-0.406268
-0.0699616
-0.127088
1.10448
1.39436
1.26221
0.535264
-0.384175
0.408631
0.206571
0.60946
-0.404327
-0.146505
-0.457046
0.776653
0.562448
-0.769465
0.101979
1.05992
0.629643
0.998603
0.941146
0.270775
1.44122
-2.59858
-0.00405826
-0.835182
-1.31124
3.23375
-0.066443
0.667701
0.942198
0.527958
0.365601
0.536199
-0.563989
-0.436554
1.24379
0.538037
-0.430723
0.681669
0.208385
3.35813
0.221664
0.414206
-0.664012
-0.779811
-0.779502
-0.594719
-0.628194
-1.37542
-1.44782
-0.197895
0.335118
-0.930045
0.213695
1.06367
0.887887
-0.00665333
-0.822717
-0.422092
-4.62589
-0.728641
-0.825869
-0.926334
0.3131
0.691954
-0.86498
0.768611
-0.426789
3.09633
0.373828
1.24968
-0.362361
0.0341038
-2.32435
1.44936
0.630338
0.009468
-1.41592
-0.0292296
0.312053
-0.853856
0.882533
-0.206292
-0.162782
0.764104
-0.213045
-0.703062
0.462175
0.218581
-0.496353
-0.802957
-0.948923
1.50676
-0.157445
-0.213475
-0.522737
0.55127
0.393225
-0.3982
-1.11615
-0.646357
-1.42564
-0.081841
0.637021
0.298191
0.327426
0.757271
-1.12675
0.0527441
0.590154
0.789627
0.787082
-0.672951
0.177992
-0.396493
-0.635408
1.21348
-1.47028
-0.521759
0.462413
0.346605
0.950454
0.726431
-0.00612243
0.401384
0.339393
0.480135
-0.0695559
-0.619567
0.150648
-0.676587
-0.286896
-0.549148
-0.362959
0.383624
0.106018
-0.110355
-1.14879
0.850577
-0.00487014
-0.96318
-0.190634
-0.339916
-0.287648
0.885996
0.559137
1.03696
0.0390501
0.09378
0.991156
-2.83552
1.38372
0.0597527
0.315449
4.24429
-0.933295
0.616519
0.371319
0.666042
1.35334
-1.1854
-0.389363
-0.774024
-0.0758856
1.81087
-0.406008
1.01163
-0.999736
2.602
-0.534387
-0.441761
-0.709629
-0.849571
-0.199969
0.924489
-0.843097
0.694889
0.449733
-0.0743599
-0.744209
-1.29048
0.245204
-0.28923
0.936524
-0.203284
-2.72866
-0.32602
-4.21895
0.667519
1.01032
1.25431
-1.08471
-0.321213
1.04092
-0.353553
-0.138321
1.8479
0.597919
-0.764515
-0.383468
-0.579105
-1.06852
0.586571
0.202997
-0.156427
-1.81572
0.498973
1.35585
-2.03191
0.142738
-0.123882
1.03938
0.367477
-0.552863
0.976387
-0.146211
-1.04781
0.465141
0.298432
0.996765
1.3549
-1.83994
-0.775667
-1.85836
0.232313
0.731403
1.20067
-0.754082
0.528912
0.176934
-0.0898493
-0.0682649
-1.07501
1.18574
0.1545
-1.72117
-0.617351
1.25513
-0.410538
-0.919056
-0.42229
0.714322
-0.929816
0.637107
0.0431049
-1.69175
-0.446124
0.85477
0.431319
0.793363
0.721262
-0.425515
0.671601
0.542251
0.666597
-0.0924901
-0.678422
0.198204
-0.208701
0.864088
-1.4742
-0.210411
-0.771372
-0.392905
0.768867
-0.695051
0.00187227
0.556551
0.720275
0.286595
0.965994
0.400153
2.15421
0.255736
0.446978
-0.361828
0.018256
0.833712
-1.17301
0.331406
0.0230107
-0.82193
3.97389
-1.63886
0.0859447
-0.116286
0.505691
0.957371
-0.323986
0.772291
-1.02688
0.817327
2.03137
0.556139
-0.238301
-2.37529
3.53852
0.283417
-0.490411
-1.43167
0.11555
-0.352599
0.286177
-0.576823
0.390859
0.26706
-0.0113017
-0.264785
-1.21679
-0.403284
0.137516
1.31017
1.0796
-4.87935
0.267687
-2.90226
0.759503
1.63875
0.976139
-0.116687
0.100793
0.919397
-0.314199
1.421
-0.157413
0.997781
0.577942
0.211374
0.413942
-0.360447
0.725725
0.866276
-0.589087
-1.16782
0.781934
0.670917
0.177357
1.32068
-0.472032
0.229964
1.35584
0.107161
-0.326602
-0.16957
-0.071768
-1.36077
-0.367826
0.603152
0.688331
-1.21189
0.0101867
-0.288738
-0.742595
-0.860113
-0.482865
0.530825
0.0863175
0.477622
-0.656467
0.562098
0.210488
0.888219
0.123299
-1.20838
0.738526
1.0394
-0.91996
1.00784
-0.587602
-0.469439
0.617198
0.890316
1.0083
0.156828
-2.47135
-0.487935
-0.819528
0.823172
0.852368
-0.321338
0.820247
-0.0853726
-0.0684655
-0.015541
-0.268328
-0.794187
-0.728869
-0.18739
-0.91201
-0.613987
0.219573
0.372513
0.693739
-0.302254
0.070453
-0.383041
-0.750712
-0.712289
0.914793
0.988461
1.70325
-0.330567
1.27746
0.706729
0.550991
-0.326525
-1.25106
-0.592872
-1.18718
-0.00372687
4.30703
-2.16222
-0.717526
0.928559
-0.173581
-0.014589
-0.585333
0.913264
-0.928482
-0.535929
1.13535
1.04567
0.664605
-0.492966
3.94035
-0.167763
0.341142
-1.40845
-0.125012
0.591754
-0.749834
0.802739
-1.00851
0.542769
0.148258
1.749
0.368899
0.654215
-0.853321
-0.553015
0.824617
-4.59636
-0.266889
-2.51138
1.96563
1.28838
1.28994
-0.183051
0.00633425
0.674372
-0.77958
1.28786
0.886691
1.02761
-0.146423
0.195804
-0.286285
1.85901
1.33327
0.658085
-0.659925
-2.45436
0.870427
1.3381
1.77591
1.10445
-0.146806
0.560453
-0.0521623
0.176552
0.167212
0.208074
0.210473
-0.490963
0.51578
0.148503
1.69736
-1.29609
-1.06759
-1.15886
-0.11506
-0.708336
-0.760272
0.22882
0.689995
0.326783
0.987554
0.0705741
-0.892913
0.372688
-0.534604
-0.538864
-0.719611
1.347
-0.952004
-0.617933
-0.014777
-1.28737
0.50827
0.394948
1.55265
-0.852209
-1.21854
-0.086189
0.492333
0.231273
0.354573
0.457341
0.379639
-0.14937
0.0163246
-0.32025
0.64142
-0.938939
0.524661
-0.271217
-1.49613
-0.788462
0.598616
0.168388
1.79266
-0.944205
-0.604437
0.607798
0.294213
-0.047622
-0.717469
0.012598
2.5323
-0.93943
0.351464
0.174031
0.253603
0.674331
-2.83552
-0.447394
-0.241387
-0.316543
2.73282
-1.96607
-0.759899
0.920134
0.411433
1.03283
-0.169616
-0.331192
-0.109509
1.01841
0.976569
-0.74451
-1.89448
0.261822
2.70759
0.47207
0.332427
-0.139185
0.0253371
0.160656
-0.325099
0.0460892
-2.12219
1.70823
0.553014
0.083782
-0.413455
0.039304
-0.469486
-0.852694
0.652091
-4.19211
-0.699719
-1.2709
-0.526012
0.527679
1.23088
-0.311219
-0.578895
0.198851
0.457243
0.513241
1.89634
0.203002
1.55779
-0.324425
0.307799
1.28634
-0.002636
0.162752
-0.905425
-0.930795
0.0791154
1.74732
1.04908
0.41674
0.330835
1.34671
0.428423
0.0969611
-0.768509
0.869259
0.779192
-0.133811
0.273611
0.326873
1.40122
-0.0901815
0.8288
-1.56606
0.219847
-0.692632
-0.577643
1.59306
0.723309
-0.713687
-0.338568
0.443322
-1.2695
0.742521
0.00232274
-2.22316
-1.03683
-0.398272
-0.733522
0.826251
0.0531253
0.267056
-0.638863
1.92717
-0.102366
-0.409673
-0.958967
-0.356487
-0.545533
-0.278244
0.459866
0.128788
0.880897
0.405286
0.637788
-0.350589
0.0799247
-0.267963
-1.12341
-0.225763
-0.23682
-0.57527
0.778875
0.61319
-0.457607
0.189922
-1.36153
0.109176
-0.493822
-0.028893
-0.159669
0.19988
1.44287
0.028797
-0.135854
-0.292488
1.48811
-0.20348
-2.68925
0.0540986
-0.446972
-0.861202
2.22474
-0.968098
-0.407519
-0.760773
0.0431777
0.86661
0.658212
-0.687355
-0.17711
0.599758
2.10368
-0.262583
-0.777137
0.343853
1.66538
0.593109
-0.776631
-0.424228
0.17757
-2.83549
-0.780751
-0.630813
-1.96398
1.34776
-0.304121
1.26408
0.457109
0.061923
0.093151
0.753008
0.770589
-3.39854
-2.52101
-0.221269
0.00565891
-0.331377
1.46186
-0.252173
0.344841
-0.637436
-0.258776
0.733058
1.76556
0.0702153
3.12044
0.661774
-0.713889
-0.775146
1.79352
-0.67963
-0.713266
-0.859332
0.359209
0.735746
3.36171
0.954905
-1.10275
1.45358
0.441205
0.235334
-0.346802
0.872049
0.631211
-1.5151
0.140784
-0.577814
2.8384
0.320135
-0.87081
-2.73986
-0.0125349
-1.255
0.110582
2.57458
0.681694
0.0289921
0.180822
-0.0819826
-0.49452
0.476443
1.11428
-1.85535
-0.421088
1.12596
-0.478226
-0.0179916
-0.320362
-0.158915
-0.898955
1.08792
0.193137
-1.61731
-0.0489561
0.332004
-0.519771
0.187524
0.495641
-1.04796
-0.14504
-0.702616
-0.32351
0.050071
0.0871218
-0.940962
-0.405085
-0.954696
-1.05985
-0.495701
-0.0543014
-0.790687
-0.541506
0.156603
-1.63046
0.134149
0.18897
0.995064
0.374574
0.316133
2.30903
0.302207
-0.483606
1.00078
0.889919
-1.19932
-3.1208
2.11396
-0.0987633
-0.673045
3.20011
0.209768
-0.482429
-0.669236
0.504619
-0.099854
-0.0787238
-0.36774
-1.01428
1.12314
1.17758
0.901922
-1.13095
0.230121
2.2272
-0.384535
0.589619
-0.0690017
-0.182616
-1.58835
-0.34529
-0.176782
-2.3117
0.888473
-1.23062
-0.116539
0.660404
0.931843
-0.412062
-0.860109
1.97249
-2.60753
-2.6254
-1.0499
-0.621717
-0.303967
0.222533
1.09678
0.893235
0.120831
-0.665348
0.622958
0.244487
-1.00967
2.62816
0.877994
-0.490387
0.177741
1.81415
0.0934698
-0.36847
-0.833092
-0.454499
0.735972
2.23513
0.780815
0.460957
-0.0539871
0.72067
-0.986177
0.211592
0.571195
0.841265
-1.38705
-0.627317
1.17674
1.77175
-0.595012
0.394543
-1.90427
1.2484
-0.216653
0.772723
2.09218
-0.899268
0.29731
-0.737068
0.903812
-1.22295
0.637521
-0.478168
-0.925322
-1.46372
-0.620629
-0.40983
-0.54539
0.500254
-0.627004
0.0865764
1.42051
0.906674
-3.44658
0.198083
0.198888
-1.37381
0.797255
-0.151239
1.01026
0.833362
-0.530259
0.905564
-0.184276
0.674605
1.01482
-0.930536
-1.15443
-0.307064
0.964373
-0.191779
-0.395059
0.73278
0.124588
-1.05486
0.83392
-0.188621
-0.115515
0.669818
0.98635
1.36426
-0.020284
0.59963
2.10216
1.08563
-1.50228
-1.23405
1.00852
0.92461
-0.829683
2.12801
0.424417
0.807983
0.579508
-0.432956
-0.850697
-0.330382
0.282934
-0.494436
-0.281221
1.2991
1.0352
-2.52862
-1.27932
1.77364
-1.06283
0.857504
-0.462704
-0.0359948
-0.893179
0.839691
0.37591
-0.586265
0.964484
-0.643673
1.04233
-0.820689
-0.636494
0.801056
0.155493
0.0718763
-1.44199
-4.46971
-1.61567
-2.09007
0.107057
0.408468
-0.343955
-0.954435
0.408889
-0.508524
-0.366103
2.93677
1.4994
1.43115
-0.286286
-0.149291
0.342546
1.55728
0.775565
-0.036668
-0.863035
-0.389346
0.614059
2.32248
-0.987643
-0.93495
0.890617
0.434402
-1.11434
-0.31833
-0.339656
0.484567
-1.16506
-0.737732
-0.666108
2.01655
0.334158
0.00180412
-0.852047
0.157336
-1.42771
-0.0459725
-0.431993
0.600565
0.198962
-0.267636
-0.507576
-1.26081
1.70964
0.979053
0.510316
-0.908908
-0.218399
-0.7467
-0.150443
0.530312
0.622885
0.596798
1.82414
0.477887
-3.55305
0.561345
0.581845
-1.11589
0.166841
-0.400925
0.295521
-0.652788
0.206066
0.0846895
-0.238867
-0.119455
-0.700339
0.513462
0.383693
0.644927
-0.378103
-0.0486718
-0.438994
1.3931
0.680766
-1.12223
0.0981366
0.0725269
0.426925
0.51969
0.642164
0.427648
-0.847535
0.899357
0.249146
0.82442
-2.61168
-0.471306
0.373396
0.579746
-0.452875
1.74759
-1.02024
1.45972
0.368559
-0.973809
0.878903
0.402393
-0.602091
-0.0601511
-0.539998
1.12164
0.662725
-2.62795
0.879605
1.6144
-0.522793
-0.0971314
-0.336266
-1.27552
-0.710778
0.499962
1.03299
2.13162
0.719991
-0.520378
0.243078
-1.01242
-0.416596
0.492101
-0.314266
1.74159
-1.34884
-3.72431
-0.0426115
-0.169411
-0.263724
-0.0607758
0.500039
0.851845
0.109784
0.510318
-0.877535
3.27072
3.3794
1.3803
-1.0311
-0.31806
2.33358
2.05751
-0.611468
-0.413141
0.270785
-0.0598376
1.37034
3.34563
-2.1433
0.497748
0.512638
0.666979
0.241978
0.835945
-0.502373
0.54153
0.357511
-0.845381
-0.122344
2.75072
-0.264623
-0.248186
-0.823391
0.567964
-1.14653
0.0316021
-1.76411
-0.181957
1.16655
0.527291
-0.611923
-0.16101
0.603189
1.16334
-0.777617
-0.941884
-0.248993
0.301924
-0.0959942
-0.379406
-0.410294
-0.975146
2.60273
0.119514
-5.39285
1.3396
-0.681286
-0.971264
-0.743586
-0.993378
-0.823251
0.928773
-0.577995
1.00826
0.200829
-0.271448
-0.161302
-0.952206
-1.29274
-1.25429
-0.516037
0.711438
-1.30567
0.790425
0.631153
-0.477357
-1.26233
0.571666
0.0852289
-0.29514
0.299192
0.425194
-0.289814
0.172679
0.804568
0.337516
-1.25089
1.31943
0.242132
0.919278
-0.648716
2.05515
-0.093876
0.383019
0.122013
0.658378
-0.11028
-0.192896
0.927045
0.319471
-0.0207717
0.206454
0.116971
-1.39061
1.6637
1.26305
0.027434
0.444963
-0.28137
-0.380033
-1.60471
0.398956
0.361034
3.67847
2.26294
-0.568141
1.51273
-2.14912
0.071125
-0.551505
-1.11156
-0.602421
-1.66576
-4.7515
0.65725
-1.65073
-1.0374
-1.91575
0.539806
0.331171
-0.907085
0.693243
-0.116422
4.97968
2.74828
2.23389
1.14979
0.125313
2.95476
0.734768
0.115471
-0.426166
-0.098419
0.467135
0.736846
3.63818
-2.51454
-0.510356
0.268679
0.335325
-0.575483
0.473965
-0.39234
0.062816
-0.740033
0.21164
-0.278466
2.29583
-0.754592
-0.351232
-0.783798
0.67968
0.296603
-0.410665
-0.835799
-1.01762
4.07451
0.173988
0.536698
-0.0756417
-0.466179
0.531865
-0.0778192
-0.132466
0.706781
0.489837
0.147705
-1.51269
0.299669
-0.67139
3.02838
0.335918
-2.93993
1.10734
-0.729549
1.04276
-1.0694
-0.492605
-0.288677
-0.887941
-0.0490658
-0.492897
-0.228399
0.250012
0.62864
-0.575983
-1.05142
-1.41528
-0.666252
0.945605
-1.16303
0.512272
-1.01284
-0.156224
-0.577604
0.756345
-0.00225391
-0.0232838
0.620554
-1.88752
-0.855457
1.21554
1.14214
0.38856
-1.70777
-0.240923
1.69603
-1.59353
-0.293028
0.415219
-1.44648
0.805031
-0.753329
0.237068
0.862879
-0.386771
0.672989
-0.925911
0.402755
0.159703
-0.265528
-2.19127
0.57143
3.01158
0.739021
-0.227051
-1.93451
0.156053
-0.776621
0.28233
1.26947
1.52166
0.942792
-0.209841
-0.0109282
-0.858153
-0.790617
0.421722
-0.176963
-1.09515
-0.371825
-3.61988
1.73223
-3.65393
-3.10424
-2.75408
0.139136
-0.514164
-0.766427
0.311557
-1.09324
4.22097
1.67901
0.121766
0.22383
0.0988165
3.54165
0.907237
-0.532132
-2.06218
-0.359326
0.895008
0.00625573
5.29358
-1.9026
-1.2953
-0.587919
-0.034451
-1.13497
-0.596025
-0.386535
0.079565
-1.28057
-0.23896
-1.13603
1.09517
-0.42346
-0.271131
-1.24302
0.530299
-0.763727
0.175657
0.131658
0.677164
2.7786
-0.238986
0.447806
0.0413403
0.813037
0.522336
1.15652
0.78913
0.00669934
-0.368876
-0.614043
-2.38806
0.608762
0.316859
1.63631
-0.871599
-0.547082
0.246789
-1.1734
1.29282
0.530391
0.509477
-0.0460641
-0.583898
-0.957965
1.21073
-0.70615
-0.48383
-0.477049
-1.13714
0.32483
-1.02058
-1.26652
-0.814618
-0.411454
-1.0878
0.538572
0.0240812
-1.12279
0.0924846
0.945331
-0.884317
-0.474202
-2.07503
-0.317139
-0.0804625
0.46655
-0.588638
-0.640207
0.666923
1.27554
-2.33572
-0.569714
1.15285
-1.14213
0.126887
-0.849604
-0.443441
0.566287
0.24405
0.54382
0.842503
-0.602301
1.72404
-0.003288
-1.0296
1.13696
2.34301
0.697947
-0.654337
-1.2124
-0.03627
-0.636321
0.045077
0.278414
-0.956443
0.125641
0.728756
0.43916
0.102708
-0.696891
0.367634
0.232233
-0.0098201
-0.50672
-2.17673
3.1744
-0.0163074
-3.68147
2.28383
-0.336506
0.369028
0.49898
-0.365762
-0.118316
1.71785
2.40081
-1.19071
-0.241773
0.685457
1.21662
1.25777
-0.838567
-0.495552
0.941081
0.947509
-0.865073
5.05452
-2.63091
-0.0228394
-0.67043
0.866111
-0.908542
0.371274
1.3757
-0.472414
-1.76977
-0.878145
-1.89991
-0.994236
-0.197318
-0.153854
-0.962649
0.0956899
0.938858
0.701698
-2.02866
-0.335341
2.40972
-0.178934
0.69859
0.389662
0.977389
0.424397
0.455415
-0.318008
-0.949254
-0.487299
0.285011
-1.19499
0.0686251
0.248682
1.37938
-0.488153
0.295375
0.481839
-0.464184
0.0540299
0.559217
-0.929339
0.248411
-0.609961
-1.01577
-0.067312
-0.339201
-0.474908
0.558988
-2.50721
0.0105028
0.462154
-1.13478
-1.02515
0.374459
-0.0799985
0.357906
1.53755
-1.30606
0.204304
1.22525
0.935444
0.700299
-0.0534086
-0.807132
-0.974526
-0.0423534
-0.247296
0.89499
0.606913
0.530169
-1.64911
-0.494627
-1.91473
-0.811117
-0.117477
-0.773218
0.383382
-0.495706
1.26877
0.517697
-0.956243
-1.21827
2.0538
1.28997
-1.09209
1.75351
1.62471
0.990542
-0.397504
-1.01338
0.233129
-0.626454
-0.641524
0.35289
-1.18802
-0.659875
0.602289
-0.00976439
-0.443202
-0.979873
0.0189279
-0.289798
-0.968426
0.201606
0.236936
2.86344
0.274213
-1.68136
3.60024
-1.37899
-0.955071
0.743824
0.969304
-0.223019
-0.621276
1.50304
-0.265118
-0.584016
0.719378
0.239514
-0.424157
-0.583266
-1.47326
0.646121
0.737068
-0.28224
1.51143
-3.00026
-0.331787
0.442658
-2.12167
0.45286
0.167079
0.353179
-0.469655
-0.682444
-0.401505
-0.944009
-1.2974
1.25769
-0.163513
-0.878101
-0.479903
-0.421606
-0.30566
-0.349349
0.316371
1.07108
1.14115
0.0982821
-0.305053
0.468136
-0.00237444
0.613423
0.0544018
-0.621451
-0.107509
-0.362855
-0.556813
0.904372
-0.746962
-0.224095
-0.191342
-0.142248
-1.27401
-0.748112
1.73643
-0.094356
0.362865
0.733029
0.571805
0.431988
-0.562042
1.09092
0.319112
-0.285916
-0.892454
-0.827263
1.53547
-0.0597131
-0.537213
-1.0268
-0.295363
-0.693273
0.487094
0.463236
0.504708
0.219698
-0.791274
0.512619
0.0819027
-0.548943
-1.37173
0.705379
0.417022
1.01616
-1.55916
-0.749304
-2.0053
0.624093
-2.59479
-0.99313
0.436898
0.887385
0.509199
0.334111
1.2991
0.360969
0.411231
-0.555527
2.53424
-0.022553
0.368022
0.348527
-0.531699
1.23525
0.4955
-1.50693
0.824048
-2.21771
0.171005
0.63685
1.85362
0.268998
1.14813
1.10815
0.0704484
0.741806
0.114941
-0.188178
-0.585265
0.559006
1.97873
0.736578
-0.525639
-2.57205
0.281811
-0.903985
-0.494853
-0.0232326
0.572032
-0.316331
-0.659495
2.06256
0.499475
0.380009
1.14896
-2.60711
-0.630473
-1.30488
0.429297
0.507258
-0.059189
-1.54666
0.640117
-3.98114
0.238962
0.525694
-0.837932
-0.793696
-0.433867
0.048473
-0.700492
-0.0206075
0.427729
-0.508067
-2.80701
-0.087031
-0.302199
-2.1291
0.841817
1.27651
0.642156
0.459331
-0.8227
0.645802
0.538391
0.483282
0.403104
0.806307
0.317078
0.618165
1.30293
0.350503
0.536368
0.0275549
-0.513875
1.06551
-0.511977
1.50057
0.12737
2.21632
-0.863015
-1.09841
2.63467
-0.544995
-0.126664
1.44199
0.472981
-1.19113
-0.49687
0.345406
-0.0810329
0.699192
-1.19514
-0.967851
1.94784
-0.876233
0.546277
-0.892202
-0.388887
0.22215
0.834011
-0.208662
0.567544
1.01762
-0.273887
-0.707748
-0.0644245
0.39258
-1.10231
-0.21744
-0.448439
0.464277
-1.83077
-0.620366
-0.817774
-0.219667
-1.4319
0.0750148
-0.488408
-0.452889
-0.289212
-0.336614
-0.242449
-0.0270083
-0.404934
-1.41874
1.06019
0.546764
0.292596
1.80926
-0.743126
1.64176
0.053903
-1.05397
1.07906
-3.31477
0.056601
-0.952768
0.779485
1.56273
1.35183
0.22741
-1.42487
0.612754
-0.64754
-0.222332
1.02356
0.187152
1.793
0.324141
-0.5346
-2.69878
0.886475
-0.227983
-0.228853
0.101832
0.718764
0.702079
1.8228
1.7121
-0.140875
0.710258
1.25726
-2.87123
-0.108927
-0.770362
0.663877
0.330008
0.096001
-0.0974462
1.20471
-4.99811
-0.524153
0.721153
-1.51014
-0.206452
-0.659749
0.635285
-0.205014
0.885258
0.875444
0.0210165
-1.23928
0.179678
1.30483
-0.502766
0.106053
-0.393139
-0.0458461
-2.38473
0.700355
1.03012
0.548031
-0.322206
1.15355
-0.846313
0.541102
1.98288
0.645886
-0.72995
-0.740689
0.246654
-0.51891
0.283146
1.04132
1.29992
-0.53516
0.467897
0.962437
-1.0757
1.45411
0.184464
-1.00784
0.42922
0.590349
-0.0227764
0.000817301
0.537182
0.346033
-0.541258
-0.927268
0.795871
0.251081
0.416778
1.05777
0.268322
0.26461
0.00212041
1.71097
-0.663907
-0.0303051
-0.771869
0.228101
-0.10396
-0.0788614
-0.0627915
-0.709263
0.342441
-0.354427
-0.758653
-0.785578
-0.35385
-3.03602
-0.191892
-0.891522
-0.24994
-2.78784
0.632345
-0.230142
0.490102
-0.779499
-0.69483
0.135343
-0.786316
0.121097
-0.544132
1.26482
1.75625
-2.34819
0.698108
-0.71308
-0.164531
0.394891
-2.23136
-1.1633
0.131604
1.88612
1.72875
1.27933
0.873261
-0.674364
-0.724996
0.522894
-0.459469
-0.459884
0.0590038
0.299524
1.02121
-2.35431
-3.25129
-0.659893
-0.566248
-0.107296
-1.02366
-0.302117
-0.0797773
1.67092
0.452792
0.424577
-1.50999
-0.0255272
0.168626
-1.2017
-0.988849
0.623159
1.1315
-0.579937
0.527318
2.96877
-7.62936
-0.0224465
0.0923249
-2.1447
0.669234
0.286204
-0.489387
-0.0994325
0.920536
0.248363
0.383925
-0.0846572
0.103444
1.78525
-1.60988
1.15962
0.649467
0.546125
-3.61379
-0.546499
1.23486
0.143731
-1.70206
1.6579
0.322697
-0.00190731
2.13867
0.0154314
-0.418475
-0.168674
0.612154
-1.24466
0.698837
0.24587
0.262121
0.845889
-3.93239
1.31339
-1.34224
1.48566
-0.886038
-1.16528
0.0356396
0.49999
-0.842685
0.780406
-0.020473
-0.347002
-0.13596
-3.44559
-0.712123
-0.131632
0.295409
0.0937048
0.28617
-1.06887
-0.336358
1.60729
1.23162
0.237582
0.258078
0.505785
0.987885
-1.55684
0.00979549
1.23051
-0.404691
-0.6057
-1.2101
-2.25069
0.340931
-3.325
-0.37757
0.375276
1.56843
-3.24534
-0.473269
0.466583
1.2081
-0.414308
0.40522
-1.2988
-1.41805
0.862592
1.02567
0.332678
2.65848
-1.98242
-0.5431
0.833544
0.804172
0.41313
-0.168902
0.368462
-0.716518
4.42633
2.74065
0.965627
0.254597
0.264996
-0.979028
0.40065
1.0296
-0.127459
-0.959165
1.68417
0.27097
-2.54091
-3.76113
0.279434
0.859129
-0.0969153
0.502647
-0.209493
0.569652
1.23897
0.656593
-0.382072
-1.84836
0.369018
2.23329
0.712172
0.119489
-0.075399
0.624791
-0.519023
-1.04542
3.03208
-2.54091
0.667757
0.548741
-0.733815
0.254878
-0.796785
0.399293
0.192118
1.34008
-0.177577
0.932653
-0.470946
0.475139
1.72888
1.15076
-0.850303
0.0303047
0.0334482
-3.27995
0.445308
1.58376
0.098157
-1.06483
2.22526
-0.541185
-1.15588
0.977246
0.408051
0.851393
0.00589289
-0.205207
-0.124357
-0.00805293
-0.902812
-0.106157
-0.346458
-3.62792
4.21857
-0.076502
1.34891
-0.764478
0.656333
0.0555766
-0.25714
0.160811
-0.029929
0.7209
-0.0995498
-0.427878
-1.10996
-0.799319
0.523578
-1.03861
0.766449
-0.086396
-0.878055
0.231152
1.14696
1.28866
0.916849
0.393405
0.439617
-0.938167
1.40153
0.571038
0.656682
0.244386
-0.409919
0.02256
-0.394176
0.416615
-2.6879
0.458417
1.28345
2.22334
-1.50728
-0.315594
-0.442691
-0.01301
-0.48967
-0.395681
0.493803
0.372523
-0.988085
-0.591572
-0.0875036
1.15117
-0.554386
0.293157
1.51847
0.558864
0.176893
0.000807373
0.717011
0.29069
3.03057
1.13728
0.226536
0.256075
-0.01551
0.40334
-0.123521
0.0704621
0.853239
2.13849
-2.5695
0.23933
-0.257444
-1.81274
-1.78
-0.281965
-0.165951
0.655486
-0.717891
-0.422074
-0.553264
0.873422
1.03855
0.0499816
-0.83948
-1.19523
-0.915307
0.322805
-0.459165
2.12455
-0.311413
-0.996919
-1.30162
-1.04376
0.72388
0.69126
-0.619024
0.979486
0.83916
1.21625
0.182134
0.429904
0.89605
-0.356075
-1.17839
0.95297
0.0620699
1.05794
0.0296112
0.443789
-0.783693
-2.93274
-0.613764
-1.38695
-0.489959
0.0925964
0.695141
-1.66459
-1.29013
-0.434569
0.415126
0.157562
-0.401764
0.513812
-0.384224
0.392853
0.515256
-0.774184
-0.809027
-0.421731
1.90063
0.256702
1.16873
1.00972
-0.178832
-0.657581
-0.165956
-0.646922
0.534656
0.509755
-0.931632
-0.975998
-1.12405
-1.38794
2.40426
-0.84025
0.579582
0.62072
0.846775
0.389125
0.194414
1.11782
-0.379895
1.23544
-0.32805
0.839914
1.72873
-0.440625
0.990475
0.165923
0.258721
1.17932
-0.288234
0.299994
0.373593
0.670025
0.899428
2.25384
-0.318671
0.387433
0.884587
0.162338
0.369555
-0.156147
0.571211
0.473067
-0.60882
-0.274316
1.42274
0.378291
-0.0470605
0.458587
0.377278
0.498068
0.086217
1.45142
-0.665719
0.472604
-0.0497258
1.2104
-1.37908
0.354021
0.482695
-0.454765
-0.409395
-0.408898
-0.102785
2.01987
-1.23546
-0.494107
-0.847173
0.678158
-0.746959
-0.595898
-0.311281
-0.823572
0.45039
0.636839
-1.10012
-0.790301
3.23829
0.46573
0.0901406
-0.822985
-0.794367
0.0335926
1.34775
-0.037534
0.188158
-1.50766
0.38655
0.317015
0.667831
-0.324774
-1.22319
-0.815069
-0.0114645
1.29589
-0.838164
1.61153
0.676846
0.907174
0.230901
0.137924
1.08385
0.46371
0.726191
1.28284
0.00711146
-1.80505
-0.927643
-2.46975
-1.3342
0.861095
0.285836
-1.68658
-0.275873
-1.87286
0.84741
-0.896618
0.383245
-0.59307
0.615841
-0.568933
-1.32899
-0.570218
-0.0804478
0.34144
-3.0613
-0.621766
1.88319
-0.471459
-0.435425
-0.380247
0.308502
-1.72339
0.555468
-0.563862
-0.796632
-0.0633309
0.134193
0.345069
1.82325
-0.819082
-1.26793
0.903782
0.941025
-0.987613
0.898416
-0.520172
-0.250544
0.97962
0.0305639
-0.941896
0.636132
-0.953445
-0.0345509
-0.078059
0.203633
1.7846
-0.255811
-0.198509
2.07062
-0.698904
0.717082
0.662166
-0.365573
-0.892839
0.192206
0.23735
-0.049036
-0.574136
1.34529
0.592051
1.24984
-0.005261
1.61309
0.0638716
-0.947765
-0.393755
0.179433
0.298369
-0.625859
0.86486
-0.0821967
0.145349
0.520472
-0.00632344
-0.493094
0.334913
0.672917
-1.1771
0.397828
-0.272034
0.635424
1.80088
1.88071
-0.232121
-2.22013
0.582745
0.304942
-1.54585
-0.468394
0.061486
-0.418763
0.561933
-0.110658
-1.75081
1.72985
-1.01103
-0.24342
-0.349703
0.288569
-0.314833
1.21011
0.430733
0.696809
-0.457047
0.927558
-0.681056
0.425328
0.992326
-1.77313
-0.680893
-0.559284
-0.085613
0.046961
1.49523
0.450916
0.889484
-0.449886
0.205053
0.415464
0.26296
-0.665114
0.26379
-0.930746
0.1169
0.387579
-1.079
-1.37177
0.0749634
2.0061
-1.45278
0.775687
-3.29644
-0.887522
-0.934053
0.132361
-0.605887
-0.726317
-0.728753
-0.119101
-0.581582
0.201678
1.13189
-4.21442
0.88586
0.758964
-0.21834
-0.781474
-0.880687
0.697015
-0.51978
-0.17429
0.269579
0.329581
0.284038
0.785589
-0.162256
1.88378
-0.657597
-0.234742
0.583897
0.269811
-0.601787
2.08454
-0.93181
0.675047
1.29724
-0.683003
0.341739
0.0600823
1.04086
-0.725758
-1.36088
-0.113271
0.124515
-1.80136
1.09887
0.784768
-0.530189
-0.989239
1.39775
0.596015
-0.768499
-0.741719
-1.1809
0.387695
0.184675
1.16718
-0.293678
-0.16725
0.217224
1.1967
0.0148023
-1.03736
0.667317
0.0985842
0.316657
-0.298645
-0.607418
0.323257
-0.00949042
-0.0325994
-0.45147
-0.117354
1.69573
-1.00823
-1.21749
-0.944025
0.268062
1.2075
1.99449
3.75124
-0.0471071
-5.54661
-1.52505
0.924809
-1.69689
-0.581568
-0.723389
0.960326
0.505672
0.34682
-4.00723
1.38403
0.4413
1.2814
1.2582
-0.383915
-0.275366
1.75221
-0.733467
-1.02506
-1.23287
-0.46263
0.824771
-0.835236
0.673929
-2.61809
-0.182033
-0.0333303
0.922647
-0.403223
-0.837755
-0.396475
-0.44248
0.0131965
0.637876
0.643901
-0.929943
0.212487
-0.46324
0.454056
1.42013
-0.26759
-0.261506
0.43445
0.419474
0.369022
-1.34173
-0.844607
-3.23938
-0.826872
-0.545055
0.628294
-1.21415
-0.0917616
-0.084869
-1.34457
-1.31706
0.309505
0.512379
-4.53777
0.127698
1.37628
-1.29625
-0.0200149
0.0993923
0.520577
-0.35528
0.199901
-0.294074
0.486191
-0.118745
1.79441
0.350437
1.25648
0.267976
-2.54373
-0.454505
0.00326054
0.224056
1.51478
-0.102054
-0.0413547
1.22806
-0.696254
-0.742535
0.235466
1.04133
-0.602576
-1.7462
-0.347728
0.930022
-3.05789
0.823935
-1.10578
0.116641
-2.15742
-1.01607
0.77436
0.219382
-0.132534
0.823912
-0.037007
0.179087
0.660249
-0.764574
0.00689812
1.14442
1.49819
0.24386
-0.432834
-0.296622
0.677431
-0.175848
0.580691
-0.152949
0.471074
-1.71451
-0.525689
-0.645451
-0.00741205
1.82254
-0.448753
0.0906262
0.464784
0.830465
-0.143332
1.1534
3.44248
2.89735
-5.9555
-1.75373
-0.227255
-0.619684
-0.647612
0.573667
0.865491
0.155162
-1.24927
-2.28161
1.94984
-0.0585555
-0.405248
-0.32713
0.704806
-0.44707
1.07962
-0.029304
-1.01962
-2.41914
0.959401
1.89786
1.04283
0.654814
-1.92277
0.992996
0.344783
0.353687
0.946188
-0.642455
-0.595005
-0.487179
-0.330742
0.149965
0.409955
-0.232192
1.02996
0.758741
0.342436
0.119218
-0.462443
-0.133681
-1.54264
-0.0353879
1.4236
-1.07382
0.573564
-3.03647
0.487101
-0.264221
-0.32774
0.509129
0.747311
0.879358
-0.816956
-0.330869
-0.742015
0.662187
-3.79939
0.58484
1.45787
-0.801382
-0.85156
0.610221
-0.696011
-0.0144065
-0.40648
-0.0190685
-0.301598
0.659478
-0.525057
0.409496
0.891147
0.197177
-1.39462
-0.84316
0.0657242
0.133317
1.84597
0.115375
-0.578775
0.630497
-0.235519
0.791699
-0.108361
0.886587
-0.573634
-2.36296
0.12652
0.571117
-0.800002
1.06425
-1.02303
-0.124292
-2.56171
0.507583
0.439117
-0.519681
-0.191481
0.539325
0.506749
-0.576781
-0.449206
-1.36208
-0.502969
-0.627463
0.464584
-0.284319
-2.06203
0.630387
0.707163
0.014721
1.00011
1.25912
0.054183
-1.30112
-2.08924
-0.297294
-0.44663
1.32546
-1.24129
-0.830203
-0.659416
2.178
-0.997757
2.46302
0.943676
1.85191
-6.78316
0.275241
-0.383173
0.108079
-0.647608
-0.0676831
-0.427624
-0.127628
-2.42429
-1.98625
0.577707
0.441965
-0.373281
0.533505
0.394403
-0.550123
2.73101
-0.269263
0.319022
-1.57958
-1.13785
0.870979
0.433405
-0.44016
-2.77735
-0.717302
-0.6455
-0.186173
-0.845144
-2.58361
-0.890917
0.858382
0.0345022
-1.1415
1.6756
0.446637
-0.294976
0.176532
-0.798875
-0.904471
0.199823
-1.72633
-0.329702
-0.14506
1.39136
0.0425177
0.277864
-3.12566
0.584155
-0.667138
-0.972589
-0.770617
1.41513
0.255033
1.34667
-2.00652
-0.800317
1.35687
-4.31559
0.468348
2.45115
0.225536
0.0427682
-1.24399
0.58316
-1.66536
-0.281712
0.0881411
-0.00411255
0.357229
-0.993209
-0.882244
0.129871
-0.566611
-2.23803
-0.93164
-0.638651
0.286704
2.14969
-0.3342
0.55132
0.297421
0.470653
-0.661234
-0.484543
0.736067
0.221973
-1.99096
-0.228591
1.53917
-0.691747
0.793341
-1.5636
-0.353793
-2.20715
-0.62468
0.0271758
0.383015
0.853079
0.776012
0.160168
-0.229135
0.368137
-1.14989
0.817522
1.0007
2.06314
-1.41422
-1.06571
0.0636342
0.240586
-0.173506
1.03579
-2.19956
0.761872
-0.639638
-1.89055
-0.241196
-0.965707
1.9501
0.625776
0.0787086
0.426254
0.678897
-0.255629
1.45831
1.22266
1.06831
-6.39373
-1.22357
-0.0620101
-1.21476
-0.542106
-0.675644
-0.659903
-0.746481
-2.09131
-0.716543
0.461663
0.481014
0.359456
-0.77661
0.035318
-0.211355
2.88904
0.22389
-1.24212
-2.34451
-1.5794
0.849248
1.04369
0.684588
-0.93918
-0.844519
-0.218833
0.812234
-0.837275
-1.87509
-0.0185156
1.62133
1.31368
0.403674
1.10013
1.03363
0.530099
-0.444403
-1.02224
-1.57138
0.357083
-0.377544
-1.34044
-0.425483
0.777093
-0.809373
-0.755189
-1.81266
-1.26433
-0.382297
0.481305
-0.739271
-0.104159
-0.163803
1.33093
-2.95759
-0.85965
0.27909
-1.35276
-0.275896
1.49244
-1.17931
-0.129278
-1.18623
-0.100152
0.190367
0.199033
0.433401
-0.581785
0.993186
-0.0162484
-0.0307938
1.3058
0.840801
-0.227723
-0.65528
1.33615
-0.606034
2.19252
-1.92927
0.735814
-0.188843
-0.783264
-0.279837
-1.97777
1.82484
0.522959
-2.00762
-0.798374
0.263909
-2.30258
-0.0890595
0.489046
-1.14133
-0.0491167
-0.418271
1.47754
0.349395
0.795656
0.193496
0.840171
0.967212
-0.599245
-1.0537
-0.302654
0.584378
1.43202
-1.23226
-1.8753
0.599884
1.17386
0.457044
-0.296752
-1.03035
0.456482
-1.00809
-3.00379
0.806722
0.766581
1.06193
0.756446
-0.671376
0.516348
1.95106
0.290875
0.882588
-0.0522371
0.467365
-4.9099
-1.18647
0.415073
-0.159766
-0.304928
0.574544
0.489064
-0.5831
-1.35889
-0.0643342
-1.84934
-0.550521
-0.764694
-0.464886
-0.704339
-1.26969
2.32874
0.178101
0.276754
-1.49775
-0.663883
-0.0177972
-0.957893
-0.369622
-2.20746
1.03415
0.412637
1.13202
0.268798
-3.59178
-0.659902
1.67429
1.76481
-0.805721
-0.0225757
-0.385743
-0.322684
0.889716
0.356317
-1.48984
0.664059
-1.53816
-1.76683
-1.31887
0.095316
0.841926
-1.29173
-1.37731
-1.30092
-0.0550106
-0.185413
-0.446747
0.000771541
-0.211753
-0.742017
-1.82709
-0.589647
1.54401
0.477889
-0.183803
2.63459
-0.276162
-0.039951
-1.1336
0.796913
0.825658
0.897417
0.115075
-0.0105348
0.50594
-0.996129
0.43907
0.946874
-0.250387
-1.16781
-0.820649
0.240393
0.449123
0.97744
-1.36375
-0.4422
0.682707
-0.20029
0.437397
-0.468029
0.488175
0.732561
-0.408307
-0.86421
0.671299
-3.2069
0.184648
0.36619
0.118833
-1.93759
1.04727
1.10751
0.784224
-0.597143
-0.61835
0.68673
0.919376
-0.808392
-1.46522
0.334877
0.462339
1.17115
-2.82637
0.606097
1.20373
-0.147857
2.02318
-1.0542
-0.1494
0.908422
-0.0100167
-1.39464
0.484239
1.11395
1.82964
-0.176288
-0.662558
0.42948
1.81815
-0.141809
-0.816468
-0.792626
-1.33134
-4.01544
-1.43572
-0.0299907
-1.47671
0.0968382
-0.372788
-0.701917
-0.824912
0.112669
-1.44295
0.949602
0.757565
0.904279
0.159315
-0.579007
0.834112
0.318443
0.87855
0.576522
0.916919
-3.61497
-0.187389
-0.677006
1.20117
-1.50219
-0.750795
0.021039
0.575002
-0.667204
-3.91273
0.432978
0.89885
2.033
-1.06858
1.16138
0.667429
1.16546
-0.109418
-0.558597
-1.49921
-0.491571
-1.26683
-0.488499
-0.165127
-0.541485
-0.166798
-1.75548
-1.29514
-0.0487265
-0.317091
0.804242
0.794509
0.00326676
-0.0541236
0.232732
-1.17189
0.379144
0.028937
-0.553952
0.107506
0.886975
-0.230794
-0.382147
-0.82439
0.791599
1.11382
-0.445715
-0.294344
-0.253736
0.785083
-2.06954
-0.769003
0.517235
-0.661149
-0.15765
0.279973
-1.00035
0.449595
0.369761
-0.654424
0.557177
0.670658
-0.0116099
-0.087283
1.55219
0.995517
-0.42368
-0.532875
0.099437
0.409325
-2.65886
1.11403
-0.896448
0.245572
-0.904264
0.029287
-1.08318
-0.913616
0.460124
1.08896
-0.317941
-0.462623
-0.105128
0.581305
0.269801
-0.824781
1.72252
-1.35468
0.615983
0.938898
-0.0166626
1.72199
0.361872
-0.203045
-0.105589
1.12273
-2.09114
0.905951
-0.157738
1.02232
-0.695705
0.595416
0.885631
1.87115
0.176187
-0.372989
-1.54435
-1.21369
-0.302926
-0.506887
-0.884951
-0.43339
0.70243
0.455816
0.0461868
-0.021141
0.770926
-1.34506
1.87781
0.777923
0.571049
1.97544
-0.511637
-0.295861
-0.078598
-0.79809
-0.670255
1.213
-2.61834
1.73379
0.505365
0.405313
-1.16059
0.243482
-0.607537
0.110318
-0.577117
-2.55985
0.47436
-0.136582
0.259244
-0.6678
0.266876
0.0203733
0.627524
0.603407
0.322671
-2.55051
-0.564257
-1.13947
-0.675325
-1.4122
0.266686
-0.00739651
-1.03006
-2.66656
0.162059
0.330107
-0.745779
-0.608123
-1.2432
0.128824
0.0248246
-2.53734
0.739306
-1.05912
0.823492
-0.130734
0.0616957
-0.238677
0.0770404
-0.279307
-0.587328
0.939892
0.0371209
0.185336
0.716547
-0.324042
-1.2012
-0.414387
1.24422
0.557785
0.0257619
0.326149
0.240764
0.143973
0.830061
-0.512982
-0.692337
0.883139
-0.444208
0.827142
1.21303
1.12207
0.808557
0.0393994
0.756984
1.22109
-3.04255
0.0269914
-0.238433
-0.0606724
0.67827
1.07168
-0.0821188
0.679303
-0.239736
-0.148916
-0.299031
0.843986
-0.288891
-0.259588
-0.215006
0.956459
0.680586
-2.2208
0.615767
0.808419
-0.498816
1.4681
-0.4517
0.0932534
-0.884777
1.08321
-2.34054
-0.565654
-0.345533
1.06503
0.116342
-0.524073
0.690761
1.6243
0.0336948
-0.329833
-1.3312
-3.19033
-1.80334
-2.11086
-0.382213
-0.808165
-0.476069
0.901726
0.98179
-0.737693
1.87657
-0.583286
0.543064
0.859425
-0.735341
2.00417
-1.11015
-0.645169
0.934924
0.369463
0.256011
0.203871
-1.18553
0.62111
0.255151
0.456366
-2.0999
0.393564
-0.694712
-0.284247
-0.528905
-0.398361
0.807946
0.608703
0.0810976
-1.9126
-0.0982455
0.433777
0.283378
-1.04146
-0.551699
-2.27636
-0.904055
-0.912252
0.157483
0.910089
1.76114
1.14908
-1.51657
-2.36939
-1.1454
-0.672526
0.926631
0.131816
-0.304972
0.397829
0.937244
-0.834833
-1.02535
0.865239
1.02897
1.03606
1.49489
0.639048
0.707334
0.687456
0.19572
1.51281
0.110804
-0.208414
0.93692
1.09654
-0.0713818
0.620249
0.0609978
1.02561
-0.257865
-0.901129
0.281852
0.539251
0.330062
-2.20774
-0.784057
0.501762
0.295023
0.052113
2.50935
0.695653
0.84692
-0.714822
-0.73899
1.43783
-2.29351
-0.541849
2.09506
0.305193
2.259
-0.0808142
0.221658
0.9418
-0.93143
0.38483
-0.887985
0.726649
-0.9022
1.14012
1.07646
0.337632
0.759925
-1.34615
0.227725
-0.248014
-0.652628
-0.0593111
-0.212359
0.497789
0.535651
0.37043
0.669794
0.603338
0.936301
1.70291
0.256702
0.356677
0.591107
0.895982
0.0694808
-0.674503
-1.6284
-4.60513
-1.65562
-0.779068
-2.24522
0.398262
0.610982
0.838471
0.414371
-0.204104
3.44061
0.021967
-0.40934
2.12142
0.278283
-1.3051
-1.1666
-0.0537261
0.135321
0.0265187
-0.796026
0.841872
-1.27058
0.739649
0.478371
0.819617
-1.43699
0.0980014
0.540686
-0.757514
0.561643
-0.971549
0.73196
-0.372044
0.0707439
-2.30617
-0.494265
-0.983747
0.312053
0.792251
-0.398313
-3.08588
0.939608
-0.293056
0.560697
0.813092
2.03725
0.326531
-1.74306
-1.04305
-0.714377
-0.0408274
-0.428705
-0.212201
0.430791
0.552594
-0.512305
-0.305361
-0.103652
0.4998
1.56609
-0.394971
-0.782461
-0.598002
0.756635
0.289631
0.675013
-0.0596817
-0.468551
0.950915
0.436108
0.949617
-0.210028
-0.445687
-0.930346
-0.224917
0.0265486
0.22868
1.37308
0.693352
0.603847
-0.882898
-0.112407
-0.666173
-0.0233102
0.453629
0.677324
-0.438815
0.138316
0.316607
0.386496
0.837839
-1.54244
1.08723
1.47654
0.461868
2.7482
-0.969575
-0.709131
-0.703299
0.168929
1.25512
-0.223365
1.06996
0.08039
0.173392
0.436823
-0.334248
0.809127
-0.925366
1.41634
0.87138
1.01935
-0.673537
0.750088
0.29554
-0.200477
-0.256402
-0.345106
0.782343
-0.202322
0.54854
-0.185401
-0.361917
-0.590887
1.01807
-0.332555
-1.65997
-0.758677
-3.76099
0.881372
-0.989002
-1.522
-0.509379
-0.0113422
0.237539
0.634156
0.811434
2.50367
1.62487
-0.186533
2.16838
0.459388
-1.70361
0.748754
0.201134
0.357932
-1.08015
-0.0311127
-0.00215513
0.0318056
0.161372
-0.337856
0.340882
-0.791339
-0.220591
-0.115084
0.199423
-0.230748
-0.357242
-0.473131
1.12415
1.19883
-1.56166
-0.961526
-1.32929
0.589811
0.0808194
0.921758
-1.26392
-0.566889
0.878762
-0.569514
0.121125
0.493634
1.10607
-0.474162
-0.63837
-1.05049
-0.335236
-0.981742
0.882717
-0.458116
0.310551
-0.238002
-0.177561
1.44223
0.156349
0.399929
-0.778554
-0.524643
0.860539
-0.481948
0.663609
0.378437
0.184532
0.0846003
0.475232
-0.756339
-0.802228
-0.424691
-0.331284
-0.606942
0.0791934
-0.103003
-0.597751
0.98032
-0.560942
0.390395
-1.04298
0.85787
0.526023
0.389714
0.462056
0.678101
-0.334746
0.489586
0.120897
0.815593
0.291298
-1.98063
1.56088
2.69603
-0.858949
3.96744
0.504081
-1.08118
-0.859973
0.848668
1.1238
-0.280319
-0.250094
-0.826314
0.0015377
1.24062
-0.669106
-0.189309
-1.80013
2.61841
0.901212
1.13519
-0.79171
-0.0683817
0.0893608
0.746969
0.0270738
-1.23817
-0.443112
0.55524
0.943767
1.90102
1.49744
-0.115153
-0.169372
1.11834
-3.21568
-0.736578
-1.60469
-0.611631
-1.63529
-0.744312
-0.963328
-0.268232
0.979474
-0.11526
1.61104
0.991325
1.88938
0.115171
1.16579
0.638554
-1.29465
-0.347401
-0.133645
1.01955
-2.02825
0.337475
1.94693
-0.287214
1.23509
0.328888
0.29035
-0.206282
-0.139581
0.116812
0.235987
0.074224
0.472046
0.428878
0.865665
0.415212
-2.74168
-0.0365632
-2.26711
-0.887754
0.855924
0.964826
-0.464186
-0.785646
1.40479
-0.470426
-0.818051
0.167721
-0.276473
-0.935207
-2.4789
-0.413945
-0.157841
-0.973795
0.0486353
-0.27042
-0.290278
0.154478
0.434828
0.0383999
1.5203
0.0721097
-0.53117
0.622804
-0.0607862
0.183704
-0.0606493
0.827581
1.26846
-0.428822
0.909648
-0.605336
-0.223182
-1.99063
-0.0169641
0.383194
1.18495
-0.719637
0.370174
0.33337
-0.376989
-1.23996
0.861151
-0.366379
-0.18748
-0.685926
0.773694
0.685176
1.04805
0.220716
0.127401
0.880402
0.351643
-1.56799
0.671506
0.985658
-0.660584
4.65055
0.795084
-0.99641
-0.116647
0.890586
0.792556
-0.696894
0.700186
0.50546
0.0342683
1.55657
-0.162648
0.104422
-0.113626
2.0468
0.0508275
0.997499
0.0603313
0.814786
-1.37512
-0.831707
-0.265273
-1.42865
-0.0413976
1.29459
-0.301781
2.73485
0.49766
0.848466
1.11263
-0.218347
-3.68876
-0.187314
-2.93743
0.525814
-2.72432
-1.87462
0.299677
-0.185517
0.932196
0.503569
0.932728
2.03223
1.95104
0.791021
2.52703
-0.100832
-0.566845
0.752821
-0.790321
0.503031
-1.56694
0.187128
1.59827
1.49941
1.17983
-0.883873
1.4199
-0.837843
0.725839
0.0188036
-0.845862
0.512189
-0.162532
0.74665
-1.08555
1.61636
-1.94296
0.0515204
-1.07075
0.0301725
0.539092
0.212219
-0.614784
0.822889
1.11518
-0.283174
-0.0630179
0.210476
0.0195597
-0.0975997
-0.780157
-1.42494
-0.071598
-0.616238
-0.0199253
-0.309915
0.778862
0.563334
0.823039
0.886673
-0.793241
-0.143892
-0.090634
-0.683381
-0.198616
0.0615699
0.284717
-0.433068
0.967979
-0.234868
1.14504
0.919469
0.58941
-1.11497
-0.357282
0.920872
-0.28929
-0.401595
0.714047
0.0231362
0.12023
-1.05264
-0.693474
-0.241032
0.375559
0.54063
0.031016
0.364308
-0.389661
1.67616
1.28966
0.665619
-0.110463
-2.01598
0.449826
2.38317
-0.185586
4.70032
-0.521752
-1.04616
0.930438
0.0687795
0.95179
0.346017
-0.199708
0.326538
-0.511993
-0.700994
-0.555795
-0.527938
-0.430695
3.44884
-0.430013
-0.173115
-0.899696
0.6702
-0.965995
0.896817
-0.548468
-1.56441
1.06643
0.448093
-0.279499
2.22905
1.16098
1.0619
0.212963
0.893216
-3.98228
-0.642041
-0.616487
0.798949
-0.759204
-0.954501
-0.031013
0.284284
0.0308015
0.708148
0.109379
3.08544
1.72524
0.440483
1.76927
-0.672043
-2.61224
-0.136017
0.488729
0.665512
-1.24969
-0.704513
1.39428
0.731542
-0.377137
-0.177885
1.58467
-0.476867
0.801439
0.370678
-1.02619
0.159212
-0.190003
-0.202249
-0.121236
0.25801
-1.8581
-0.842928
-1.14302
-0.620338
-0.655406
1.13039
-1.00879
0.739072
0.472131
0.833892
-0.354014
-0.107389
0.86922
-0.323698
-1.27452
-0.309651
1.34112
-0.131456
-0.638706
1.24729
-0.639683
-0.320462
-0.510988
0.362411
-0.697816
-0.448799
0.289397
0.704694
-0.841105
0.406428
-0.0806811
0.123703
0.517763
0.395189
-0.239327
-0.153377
-0.474019
-1.73513
-0.138622
-0.519636
1.3008
0.0107615
-0.052645
-0.571837
0.0253305
-1.31198
0.49944
0.807945
-0.336797
-0.173376
0.769797
1.63563
1.02075
1.35149
0.560017
0.802558
0.965396
-0.655396
-0.222613
1.63976
-0.457019
3.47558
-0.838943
0.130157
-0.319767
0.168189
0.064626
-1.25011
1.04748
-0.915397
1.23097
0.0404237
0.625365
-1.18286
-1.14706
1.20856
0.741035
-0.0351172
-1.05042
-0.763996
-1.49992
-0.417192
-0.0278428
-2.08004
0.816343
0.127001
0.417765
2.64802
-0.206449
-0.72732
-0.597948
-0.215334
-2.92148
-1.03962
-2.2605
1.73457
0.26618
-1.51027
0.249402
-0.840615
0.179697
0.821154
0.440578
3.51296
-0.440789
2.1722
0.737464
-0.0419649
-2.11735
-0.184746
-0.193143
0.362303
-0.722556
-0.71785
1.60812
1.70902
-1.24807
0.846643
1.46615
-0.184622
0.493279
-0.0449388
0.642778
-0.022135
-0.608662
0.874544
0.136199
1.43397
-0.923641
-0.74813
-1.70821
-0.93517
-0.765883
0.21028
-2.05367
-0.574819
-1.53482
-0.274776
0.257257
0.00346596
0.294631
-0.564485
-1.06244
0.591942
1.42719
0.258869
0.807715
-0.773808
-0.759347
-0.497389
0.20598
0.642506
-0.0566994
0.242559
0.132915
0.18722
0.941262
0.578158
0.986916
0.028244
1.36611
-0.732826
1.39045
0.206735
0.435471
-1.82283
-0.173159
0.289917
0.833535
1.14491
-0.290476
-0.342598
-0.0587679
-1.25617
-1.25021
0.190173
0.763585
0.967902
-0.128692
1.7864
1.2187
1.14472
1.36349
0.055333
-0.549119
-0.719363
-0.815619
1.74478
-0.788385
2.91672
-0.0715576
-0.04633
-0.437301
0.970498
0.858344
-1.29321
0.258277
-1.10043
0.110078
-0.124793
-0.0594392
0.396486
-0.323252
1.16477
0.534247
0.344623
-1.58258
0.408841
-0.0817985
-0.859964
0.0266799
-3.76082
-0.461262
-0.919825
0.865521
1.33044
0.78729
0.359902
0.251579
1.00974
-2.0026
-2.17228
-1.44063
2.16569
-0.685973
-0.756347
-0.28428
0.506861
-0.695462
-0.880954
1.01682
2.22947
-0.985371
0.0845112
1.42559
0.782463
-0.581789
-0.373675
1.0085
1.02933
-0.509837
0.0472504
1.39624
2.20462
-1.59618
0.448834
0.406561
-0.803953
0.231658
-0.445423
-0.048684
-0.998833
-0.542942
-0.790146
1.09832
0.813642
-0.532307
-0.216689
-1.97428
-0.796869
-0.00924383
0.968603
-1.27544
-0.565662
-2.3624
-0.832143
-0.580974
-0.524797
1.64972
-1.15306
-0.860314
0.309826
-0.396026
0.342009
0.907468
-0.590618
0.458559
0.508627
-0.990555
0.491914
1.03319
-0.0365414
-0.544502
-1.07603
0.0784359
-0.0738898
-0.393017
0.811966
0.580684
0.196689
0.640557
0.0371492
-0.762771
-2.4894
0.591343
0.269494
0.894879
0.761958
-0.367699
-0.325208
-1.02425
-1.01312
0.15812
-0.546167
-0.633503
-0.248223
-0.0170937
2.51794
0.190167
0.254059
0.565972
1.10806
-0.00106578
-1.14559
-1.4747
0.333386
0.0581345
2.42008
1.01273
-0.00207685
-0.0344596
0.257005
-0.02436
-0.0317315
-0.763561
0.165268
-0.45981
-0.647402
-0.425235
0.759594
-0.324277
2.46164
-0.175572
-0.430311
0.101118
-0.754478
-0.637065
-0.63669
0.176743
-1.47496
0.169696
-0.485915
0.73879
0.398062
0.614865
-0.930374
-0.0416621
1.41733
-1.16893
-1.49358
-0.485663
1.06016
-0.2955
-2.28469
1.14272
0.329229
-0.691622
-0.121215
1.06958
1.17645
-1.23506
-0.446106
1.19813
0.837726
-0.16306
0.899521
0.222494
0.454699
-0.750737
-0.680965
-0.298882
2.09036
-2.49406
0.80746
-0.677319
-0.657028
0.388553
-0.0579533
-1.20459
0.350056
-1.12652
0.0806899
-0.955876
0.690085
-1.20058
0.70084
-1.89861
0.0371182
-0.35207
0.185743
-2.08709
-0.639111
-2.84629
-0.200832
0.636664
-0.293952
0.753826
-0.539686
-0.0204035
0.662913
1.29094
-0.104615
0.184001
0.0582499
0.865746
-0.8764
0.270238
0.287174
0.569446
0.0739806
-0.426409
-0.408866
-0.485232
-0.407998
-0.144533
0.00628556
-0.324568
0.977637
0.271474
-0.637023
-0.146422
-1.00384
-0.731076
1.93407
-0.415136
-0.0379717
-0.501584
0.387132
0.108115
-1.35393
-1.44475
0.260723
1.06613
-0.0426901
-0.54692
1.0481
0.0235489
0.115781
-0.504329
0.375456
-0.90446
-0.397877
-0.34364
-0.658345
0.941053
1.16499
-0.41026
0.105439
0.29918
-0.189769
0.057478
-1.07803
0.197834
-0.787208
-1.38884
1.03114
0.00607024
0.00370214
-1.3077
1.17464
1.50631
1.31449
1.28155
-0.603519
-1.54847
-0.188647
0.969504
-0.711259
0.186566
-0.316281
0.500812
-0.804814
-0.460317
0.114378
0.144093
0.55555
0.0605471
-0.855679
-1.1452
1.44256
-0.440182
-2.42914
1.0028
0.676032
0.0786643
-0.613575
-0.274854
1.71574
0.944396
-0.00529049
1.37478
-0.857199
1.69356
1.21326
-0.0381241
-0.063125
-0.592909
0.825945
1.12436
1.75095
-2.02114
0.338163
-0.0743873
-0.958185
-0.629422
-0.101224
-1.23608
-1.00943
-1.1371
0.748425
0.0786196
-0.0625577
-1.33486
-0.114385
-0.524338
-0.636091
0.250011
-1.51123
-3.89271
-0.201481
0.0501554
0.635834
0.827767
-0.324371
-0.38977
-1.35284
-1.25286
-0.741679
-0.05993
0.701209
-0.303352
-0.524217
0.490549
-0.265542
-0.402785
0.768275
0.241813
1.09037
0.038692
-0.49385
-0.158594
0.860714
0.0906183
-0.857397
0.359992
-0.633574
1.19088
0.209195
0.139985
-1.18844
-1.03567
1.29451
0.647475
-0.0397963
-1.11455
-0.938203
0.101202
-1.63904
-0.978838
0.177232
1.12182
-0.638369
-0.857748
1.76123
0.239446
-0.871954
-0.584596
0.530649
-0.494482
1.08386
0.307422
0.550614
0.76197
2.41571
-0.421307
1.48205
-0.0110322
-0.591211
-0.13174
-0.553729
0.815252
0.240233
-1.27564
-0.630097
-0.364751
0.046722
-1.62565
0.870788
2.34659
0.375284
0.552554
0.361728
0.227865
0.488846
0.974501
0.693228
1.1801
-0.358772
1.36343
0.167716
0.097436
0.257625
0.613035
1.37025
0.0733227
-1.80417
-1.957
-0.0194011
-1.11587
-2.28362
0.247976
-0.413065
-0.487553
-0.0881442
0.0361115
1.49664
0.272512
1.478
0.240043
0.748757
-0.155224
-0.690141
0.272344
0.993617
1.438
0.323981
0.137794
2.6903
-0.307041
-0.603569
0.769683
0.3295
-0.391552
0.209761
-0.501916
0.029604
-0.0631426
0.526087
-1.41775
-0.258638
0.242891
-0.660154
-0.956884
-0.801895
-0.63952
0.552464
-1.46706
-0.715622
-0.362793
0.359877
0.824726
0.462182
-0.193023
-0.76067
-0.549211
-0.671667
0.866807
0.532633
0.0389896
-0.2411
1.19313
0.124987
1.82311
0.571159
-0.538822
4.96479
0.493527
0.101923
0.208875
-0.924426
0.368679
-0.244774
0.0771057
1.14501
1.53236
0.608334
0.143163
-1.55459
-0.930113
0.534615
-0.776044
-0.458814
-0.338423
0.85101
-0.208308
-2.06376
0.308403
0.62369
0.852672
-0.259019
-0.213245
-0.358505
0.914055
0.206235
-0.373652
0.0525241
-0.666211
1.16095
0.889169
3.14215
0.229543
1.47798
-1.24879
1.27893
0.413195
0.829823
-0.0061179
-0.373435
1.00559
-0.490324
-0.938214
0.959344
0.908747
-1.04907
-1.05314
0.78124
0.875993
0.0765923
-0.199872
-0.0998737
-0.17805
1.04382
0.874874
0.902809
0.870069
-0.337847
0.0184844
0.466224
0.850065
0.35993
0.93505
0.481272
0.426123
-1.53472
0.433533
-0.908762
-1.47196
-1.67675
-0.142998
-0.92111
-0.520721
-0.258492
-0.852032
1.5236
-0.0464308
0.363373
0.533109
0.926619
-0.325247
-1.11209
-0.65526
0.054187
0.801104
-0.206846
1.10902
4.26901
1.41258
0.385759
-0.877646
0.792055
-0.525333
-0.334079
0.854877
0.344867
-0.451376
0.699855
-1.29299
-2.07597
-0.457491
0.251881
-0.749786
-0.368527
-0.426907
-0.0537331
-0.225007
0.181601
0.0866424
-0.208123
0.840928
0.95077
1.51523
0.180533
-0.170991
0.755658
-0.448292
-0.810861
-0.200878
0.386834
0.885358
0.992426
1.13299
-0.186418
1.48845
3.83218
0.858496
-0.383077
-0.187479
-0.396491
0.827587
-0.63021
-1.66642
0.0378184
0.090145
0.586001
-0.246665
0.786455
-1.16914
-1.39217
-1.52259
-0.530215
-0.72168
0.709702
0.161899
-0.660956
-0.169705
1.16078
1.14137
0.875512
-0.239079
0.851423
0.0497039
0.720148
1.00492
1.0792
-0.216642
1.60908
-0.420103
1.77686
0.223855
0.336093
-2.43087
1.4865
-1.00476
-0.135402
-0.584425
1.49871
0.720651
1.02992
-1.29363
0.666041
0.232072
-0.519017
1.10946
0.66615
2.12929
-1.61872
-0.301262
-0.420862
-1.74289
-0.741256
-0.933244
-1.11651
0.619429
-0.0697196
0.62819
-1.13661
0.200964
-0.767221
0.794657
-0.591797
0.884002
-1.00334
2.25362
0.371367
0.0353715
0.328532
-0.006178
-0.858556
-0.0182329
-0.840362
0.372279
-0.623071
0.596925
-0.17478
0.841605
0.645661
-1.16061
-0.619826
-0.190605
0.063296
0.764165
-0.865888
0.396262
4.23435
0.463634
-0.846755
-1.1821
0.236782
-0.595016
-0.954658
0.301565
-1.08656
-1.16473
0.493472
-0.865921
-1.42979
-0.567924
-0.350432
-1.38223
0.707553
0.00409761
1.27244
1.13882
-0.836153
0.0655146
-0.450651
1.15974
1.83464
0.87878
0.786573
-0.694229
1.03773
-0.578244
0.448193
-0.686823
1.02398
1.17354
0.349268
1.76133
-0.756152
1.86273
1.57006
0.491467
0.648579
-0.879635
-0.47693
-0.258598
-0.461376
-1.73081
-0.18638
-0.353159
0.20261
0.708111
-0.266818
-0.788515
-0.711925
-0.0428841
0.8096
-0.591628
1.22751
0.0972734
0.55502
-0.0722595
-0.738731
0.220312
0.546736
0.080815
0.283506
-0.503245
-0.990323
0.550322
0.358452
0.499652
0.907105
-0.261998
2.16943
0.0262014
-2.68905
-0.790995
0.10434
-0.86733
0.287145
0.464122
0.79748
-0.20475
-0.608441
-0.938634
0.739036
0.082167
-0.672208
0.789302
-0.502849
1.02044
-1.30816
-0.138943
0.68028
-0.300503
0.878893
-1.07048
-1.36855
2.14644
1.09508
-0.295159
-1.28736
0.345217
-0.349175
0.330855
-1.07214
1.42085
-0.439392
2.35693
-1.73718
-0.339581
0.268303
-0.672011
-0.147824
0.863678
0.456901
-0.790318
0.480939
0.499158
-1.15063
0.931539
0.629252
-1.00255
-0.36379
-0.834974
-0.094462
0.542114
-0.0105222
-0.361981
4.64471
-0.704904
-0.0278123
0.714937
0.507519
-0.217148
-0.878877
1.23518
-0.992549
0.670946
-0.740156
-0.198038
-2.25961
0.0755343
-1.07955
-2.02308
0.625666
0.566838
0.0958579
0.513781
0.77405
0.0320126
0.327544
0.717157
-0.0792625
-0.369555
0.755175
-0.247115
-0.509284
-0.0926214
0.0866297
-0.629848
0.307689
0.0476206
0.258765
0.460349
0.0432759
0.834867
1.69133
-0.896751
0.846815
-0.773378
0.12623
1.14337
-0.230049
-0.936821
0.291496
0.942915
-0.520043
-0.973316
-0.32319
-0.737256
-1.54622
0.0283504
0.10184
-0.23192
1.61495
0.583833
-1.0248
0.458028
0.408168
1.15029
0.545938
-0.556028
0.453141
-0.901874
-1.80733
-0.118989
-1.22197
-0.58744
0.249242
-0.238513
2.73803
0.379564
-2.88035
-1.14275
2.21133
0.223017
-0.120424
-0.411605
1.41395
0.257488
0.824219
-1.04452
1.6973
0.716282
-0.938401
0.932181
-0.409127
1.155
-1.51251
-1.04228
0.883234
-1.96535
-0.195923
-0.918582
0.643282
2.06393
1.39524
1.35718
-1.51842
-0.271221
0.34591
1.09967
0.0881232
1.01157
1.13458
3.77348
-0.867105
0.719202
-2.96833
0.610006
-0.773169
0.0959526
-0.107058
0.278603
-0.252174
1.20182
-1.00575
0.176764
-0.0113776
0.146511
-1.31364
-0.478119
1.37813
0.195681
-0.1257
-0.491165
4.01107
-1.04994
-0.306352
-0.329049
-1.08525
1.10264
0.676176
-0.493313
-0.312459
0.500352
0.229765
-1.52043
-2.42335
0.226148
-0.8505
-1.97385
0.982566
-0.155637
0.566484
0.240618
-0.518146
-0.120206
1.00794
1.74103
0.448271
0.444974
1.17828
0.276065
-0.319028
0.404999
-0.0967406
-0.832461
0.286824
-0.259461
1.38579
0.564898
-0.594418
1.99609
1.58241
-1.45909
-0.334825
-0.939034
-1.17902
1.10227
-0.409397
-1.14106
-0.675109
0.211961
0.452028
0.633196
0.0142184
-1.43458
0.192817
-0.502524
-0.408378
0.0678901
1.35472
0.448243
0.666668
-1.21577
0.258778
-0.441128
0.653867
0.153311
-0.307247
-0.912264
-1.79273
0.0862803
0.628726
1.70433
1.48529
-0.613253
1.38194
0.158362
-2.38946
-1.51605
0.172962
-0.312059
0.423273
-0.344577
-0.278828
-0.015553
-0.399566
-0.458122
1.35519
0.620386
-0.613207
2.35964
-2.17344
2.60661
0.0174086
-0.903993
-0.743329
0.38176
-0.217014
-0.167712
0.888379
0.277985
0.845197
0.233391
-0.396194
0.673636
0.079353
0.194579
-0.0735937
-0.567231
1.14723
3.93236
-1.2621
0.136339
-0.829311
0.399023
-0.692143
-0.489016
-0.251647
-1.0112
-0.4508
0.369593
-0.138591
-0.0248749
-0.228425
-0.21522
-1.56328
-0.569641
0.659623
1.36058
0.719353
-0.106819
4.00466
-2.45223
0.334631
1.11544
-1.66146
-0.360019
0.498234
0.680957
-0.0510727
0.68545
0.721733
-0.467664
-1.22319
-0.777711
-1.13444
-0.715359
0.0715279
1.05306
-0.157351
-0.725589
-0.312502
-0.0905115
0.427986
0.306798
1.12877
-1.56438
-0.748645
1.87072
1.06301
0.236868
-0.363514
-0.947064
0.657869
-0.0397282
0.216723
1.26266
-1.26855
1.53195
1.96833
-1.23649
-0.0479335
-0.553223
-1.17523
-0.195779
0.521376
-1.32535
0.670109
0.79152
-0.861243
-0.576057
0.226072
0.09061
-0.26364
-1.26368
0.849364
-0.105726
0.503471
0.485147
0.586372
0.396544
0.334842
0.669428
0.645737
-1.03739
0.983288
0.879375
-0.5201
0.0154795
0.493006
0.147805
0.506404
-0.493259
1.79751
-0.023745
-2.75761
-0.746307
0.320088
0.942668
-0.302825
-0.48077
-0.218962
0.858883
-0.0769156
-0.0235966
0.98263
-0.036913
-1.42436
2.04338
-3.10987
2.13714
-1.10569
0.479463
-0.187111
-0.561252
0.561395
-1.81127
2.30979
0.842719
-0.129436
0.968487
0.157458
-0.292318
-0.359259
-0.470809
0.042843
-1.45742
0.737804
4.84346
-0.894171
0.455756
-2.23299
-0.642441
0.110035
-0.920361
0.317111
0.365904
0.243447
0.724342
0.549444
0.0814289
0.876238
0.649164
0.057911
-1.17136
0.902073
0.831252
0.348624
-0.311948
4.02924
-3.56809
-0.0120572
0.286499
-1.1034
-0.170118
-0.633467
0.491021
0.729634
1.39337
0.0466266
-1.17061
-1.46099
-0.791713
-0.615232
-1.49615
-0.023491
0.0462228
0.0857017
-0.903484
-0.00267436
-1.1084
1.35744
-1.68219
0.984312
-1.50632
0.411625
2.84186
1.2206
0.81404
-0.915713
-0.504312
1.4624
0.652915
0.433753
-0.154
-1.12402
-1.92258
1.82676
