0.906478
-0.224824
0.374897
-1.237033
0.787772
0.667581
1.650099
0.650051
0.325853
-0.486754
-0.383951
0.738263
1.376330
0.903022
-0.334083
0.862841
0.670547
1.249877
-0.641202
0.358502
-0.770190
0.300165
0.284982
1.670218
-0.258247
-1.577086
1.429335
-0.695909
0.350397
-0.353746
0.660304
0.524888
-0.057007
-0.801671
0.778682
-0.288001
2.182924
0.884905
1.190707
0.231970
0.713735
-0.973778
-0.431411
0.271403
-0.095896
0.425444
0.061341
-0.634931
-0.236629
1.070799
-0.883315
-0.056036
-0.220346
-0.856476
0.575229
0.558233
-0.492295
-0.155453
-0.260784
-0.211910
0.343516
0.949237
0.615130
0.601382
1.343409
1.011127
-0.652339
0.217389
-0.316012
-0.239747
0.361946
0.432315
1.332071
-0.915558
-0.630125
0.572842
1.067166
0.013572
0.922516
0.024493
0.065188
-0.790257
-0.485941
1.554094
0.127463
-0.176873
-2.039885
-1.659793
0.860706
0.428598
-0.436250
-0.362390
1.958997
-0.630858
-0.458815
-1.355985
-0.406709
-0.163685
-0.620244
1.435887
0.559381
0.083361
-0.906708
0.275835
1.318057
0.510307
1.228805
-0.807764
-1.481458
1.767894
-0.582900
0.288876
1.072618
0.416451
-0.426893
2.160130
-1.382486
2.112416
-0.762140
1.049655
-1.155438
-0.734201
-0.753612
2.683242
1.226658
-0.664691
-0.192304
0.144374
-0.476897
-0.468779
0.948422
-0.401758
0.268205
-0.570164
0.339681
-0.301959
0.542147
0.704877
0.775682
-0.044375
0.030397
0.585607
0.709455
-0.413783
0.361777
-0.636941
0.737838
-0.609168
0.360923
-0.119453
-0.620888
-0.329610
0.555820
-0.738143
0.137765
0.284502
-0.748825
-0.058536
0.664652
0.417445
-0.518892
0.056766
-0.170604
0.613685
-0.847647
0.267106
-0.485503
0.645120
-0.307575
-0.939510
0.944394
-0.227004
-0.486480
-0.388635
0.362388
0.967344
-0.394250
0.251480
-0.131844
-0.355429
-0.428798
-0.383690
0.227614
0.489349
-0.587194
0.530855
-0.532747
0.918391
-0.611549
-0.305500
0.067570
0.753403
-0.754929
-0.769151
0.565281
0.662455
-0.856437
-0.837820
0.378990
0.933712
-0.412196
0.872673
-0.330342
-0.856620
0.669780
0.622108
-0.950864
0.281694
-0.056034
-0.826589
0.948361
-0.103278
-0.756699
0.595862
-0.541842
-0.178172
-0.251541
0.305255
0.456144
-0.953183
-0.376244
-0.592810
0.829946
-0.703595
-0.467802
-0.598120
0.611488
-0.122200
0.341940
0.315022
0.833791
-0.638955
0.336080
0.317463
0.922725
0.653299
0.239639
-0.104682
0.436428
-0.970030
-0.625099
0.633584
0.965086
-0.313191
-0.741500
-0.325093
-0.997009
0.371666
-0.048038
-0.082402
-0.393274
-0.337301
-0.520906
-0.986388
-0.350729
0.453336
-0.377648
-0.769700
0.486053
-0.794360
0.409998
-0.762437
0.842459
0.537264
0.607703
-0.116340
-0.262833
-0.298602
0.526582
-0.978514
0.253067
0.525362
0.459806
-0.551425
-0.032412
-0.633034
-0.939388
-0.977904
0.856986
0.654825
0.974974
-0.986999
0.484160
0.571141
0.039004
-0.239639
-0.713972
0.443325
-0.642312
-0.310627
-0.230483
0.404261
0.572789
0.754746
0.430751
0.884514
-0.364524
0.372642
0.209302
0.499359
-0.603858
0.903620
0.290667
-0.107062
0.321919
0.748093
-0.932186
0.101752
-0.344015
0.118476
-0.923274
0.999939
0.331441
-0.451016
-0.284380
0.389611
-0.049564
0.206556
0.562962
-0.701886
-0.856864
0.064701
-0.894952
0.044375
-0.382103
-0.996460
-0.312946
0.637734
-0.785082
0.898126
-0.502350
0.070988
0.276750
-0.243301
0.403162
0.070988
0.647500
-0.026247
0.440212
-0.131905
-0.386498
-0.242691
-0.217604
-0.451932
0.098273
-0.204480
0.991332
0.548495
-0.577245
0.223646
0.365196
0.862052
-0.054080
-0.045657
0.198315
-0.490631
-0.104376
-0.566136
0.762437
-0.155710
-0.296039
0.886346
-0.176341
0.252762
0.158945
-0.891229
0.507111
-0.190075
-0.315083
0.880120
-0.678752
-0.544406
-0.935543
0.044619
-0.844229
0.252945
0.914607
0.335103
-0.936581
-0.709638
0.228163
0.995849
-0.359458
0.791735
-0.704206
-0.730941
-0.182872
0.995056
-0.681682
0.807911
-0.129952
0.364036
0.022890
0.076054
0.470793
-0.306415
-0.404016
-0.199841
0.581456
-0.327352
0.245315
-0.466032
0.010499
0.466459
-0.297198
0.398889
-0.558384
0.880730
-0.018068
0.062809
-0.252945
-0.329549
-0.299152
-0.980468
-0.600745
0.556430
-0.714887
0.232009
-0.207776
-0.490447
-0.638711
-0.799915
-0.714155
-0.130684
-0.345236
0.518586
-0.214735
-0.145089
0.703717
-0.016358
0.667765
0.034792
-0.297809
0.314839
-0.130318
-0.685039
0.784899
-0.448941
0.947140
-0.990295
-0.935482
0.186108
-0.080327
-0.443570
0.738082
0.104071
0.714216
-0.562107
0.568699
-0.621315
-0.983397
0.874016
-0.938046
-0.001953
-0.651712
-0.154978
0.644937
0.577672
-0.824147
-0.989440
-0.839895
-0.875481
0.869987
-0.915827
-0.008362
-0.085515
-0.676860
-0.771593
-0.870720
-0.455411
0.041751
0.031435
0.489166
0.225050
-0.478911
-0.371483
-0.201001
-0.629128
0.720442
0.530489
0.363609
-0.442593
-0.554111
-0.278704
-0.979430
-0.098822
0.458219
-0.411524
-0.398828
0.929683
-0.886224
0.247146
0.206189
0.000794
-0.645425
0.821583
-0.387902
-0.662638
-0.142282
0.246231
-0.882378
-0.264604
-0.842337
-0.850821
-0.855216
0.012147
-0.446133
-0.620765
0.905939
-0.745956
0.615821
0.740768
0.449857
-0.071293
0.098089
-0.502472
-0.600317
0.921931
-0.921138
0.209669
-0.305927
0.563145
-0.867363
-0.536593
0.645059
0.702680
0.350790
-0.940426
-0.375328
-0.099615
0.022706
-0.779528
0.693768
0.792102
0.789660
-0.620765
0.483245
-0.307575
0.082891
-0.886101
-0.356955
-0.499786
-0.339498
0.788073
-0.830434
-0.034182
-0.946286
0.460966
-0.075627
0.384728
-0.263627
0.630837
0.656534
0.779589
-0.171336
-0.629128
0.842337
0.632912
0.149850
-0.576024
-0.347128
-0.767076
-0.570103
-0.184276
-0.636147
0.695416
-0.505341
-0.449796
0.518525
-0.276567
0.235610
-0.049808
-0.842520
-0.831594
-0.822621
-0.796069
-0.572301
-0.545749
-0.543979
-0.317707
-0.117805
0.926936
-0.981139
-0.413172
0.783922
-0.807422
0.860587
-0.506562
0.726302
0.506989
-0.894159
-0.647378
-0.117256
-0.723128
0.753708
0.509064
0.196911
0.738998
-0.107612
0.303180
-0.172618
0.875175
0.201917
-0.181774
0.158762
0.630349
0.551730
0.332967
0.691571
0.492340
-0.489593
-0.955136
0.123299
0.498260
-0.422633
-0.374962
0.934078
-0.271440
0.949521
0.167613
-0.212293
0.352622
-0.364646
0.096136
-0.937252
0.286700
-0.269304
0.589941
-0.175792
-0.471403
0.665080
0.091680
-0.451077
0.230056
-0.765733
-0.539340
0.918757
-0.430202
-0.768907
0.331685
0.990722
-0.509492
0.485076
-0.755478
-0.939816
0.360862
0.125313
-0.894647
0.527437
0.626259
-0.120918
0.542208
-0.920222
-0.489837
0.217359
0.717390
0.504120
0.829213
-0.839590
0.160410
0.439602
0.982970
0.557163
-0.818104
-0.615150
-0.816822
-0.352316
0.432766
-0.728194
0.983764
0.726057
-0.830739
0.917536
-0.827931
0.710432
-0.210462
0.668193
-0.910517
-0.561680
0.200269
-0.453031
0.436855
0.495697
0.578649
-0.781786
0.632546
-0.606788
0.091864
0.080205
-0.216322
0.904779
0.135140
-0.200574
0.332723
0.375816
-0.347494
-0.400598
-0.557834
0.819630
-0.898004
0.615211
-0.819142
0.609046
0.627663
-0.373253
0.572667
-0.420436
-0.999329
0.484649
0.571446
0.355124
0.894403
0.538180
0.024171
0.707868
-0.949155
0.381371
-0.315022
-0.232863
0.907587
0.227065
0.342306
-0.112251
0.241104
-0.777513
0.121589
0.990783
-0.605506
-0.980895
-0.973082
-0.810169
0.648904
-0.091864
-0.216932
0.515473
0.300861
0.835927
-0.959714
-0.451810
0.011353
-0.390283
0.006226
-0.223769
0.985229
0.608741
0.564488
-0.513215
-0.454618
0.309711
-0.054630
0.005493
-0.335042
-0.056766
0.009217
0.096441
-0.982238
-0.409693
0.205396
-0.665995
0.111640
-0.966856
0.270036
0.261002
-0.934261
-0.327290
-0.275774
0.143014
-0.404261
0.824513
0.235793
0.134286
0.767320
0.706159
-0.093878
0.665385
0.082586
-0.570836
-0.453519
0.866325
0.461088
0.306659
0.004029
0.837392
0.677226
0.789904
0.601477
0.580052
-0.182628
-0.653421
-0.247391
0.400354
-0.680156
-0.406702
-0.183605
0.597937
-0.842031
-0.006531
-0.748947
-0.748031
-0.268449
0.434963
0.132149
-0.081670
0.026674
-0.001099
0.095953
0.048160
-0.391198
-0.767564
0.771715
-0.057560
-0.990722
-0.762193
-0.236220
-0.945859
0.069523
0.890435
0.248367
-0.549655
0.804431
0.497772
-0.755783
-0.753281
0.347922
-0.786425
0.623695
-0.172008
0.543307
0.517243
-0.077397
-0.334859
-0.260026
-0.928096
-0.984984
0.543551
-0.639504
-0.724470
-0.287249
-0.986999
0.798938
0.814015
0.353598
0.874077
-0.785937
-0.468473
0.440029
-0.490020
-0.219923
0.930843
-0.608252
-0.118232
0.955869
0.612586
0.473784
0.992981
0.336874
0.970823
-0.038210
0.641336
-0.348349
0.453580
0.610450
-0.732283
0.465360
0.702985
-0.517366
0.715437
-0.848074
-0.113654
-0.793689
0.711042
0.700116
-0.468534
0.718550
0.882195
-0.088201
-0.821583
0.560520
-0.878716
-0.440640
0.159739
0.786303
0.111091
0.061283
0.822438
0.547030
0.821034
0.240310
0.503937
-0.586706
0.790209
-0.274126
0.574376
-0.501434
0.007569
0.564304
-0.142404
0.445706
0.201978
0.596960
0.743759
0.338949
0.355368
0.172313
-0.694439
0.605384
0.250504
0.751389
-0.268205
-0.034487
0.867179
0.970335
0.388207
-0.501495
-0.562412
0.722822
-0.178905
-0.117439
-0.024416
0.824391
0.014710
0.873344
-0.910456
0.821217
-0.785876
0.083745
-0.105231
0.506073
-0.371849
-0.872917
-0.166148
-0.296466
0.322896
0.185192
-0.778124
-0.112128
0.619178
-0.934810
0.325398
0.194226
0.307331
-0.192028
-0.211072
-0.611671
-0.010377
0.908136
0.223158
0.354880
-0.134957
0.211317
-0.236220
0.667643
0.267350
0.549167
-0.582982
-0.194897
0.269914
-0.825124
-0.997925
0.572423
-0.330465
-0.937313
-0.495880
-0.707196
0.661356
-0.867729
0.649210
0.331685
0.517610
-0.537936
-0.484710
-0.485747
-0.416835
0.553256
0.990844
0.001587
-0.099799
0.706830
-0.107978
-0.815479
0.773118
0.576756
-0.444790
0.161265
0.588476
0.960996
0.712446
0.357932
-0.798938
0.893731
-0.535006
0.857657
0.198987
0.100653
0.168345
0.997986
-0.640786
0.880059
0.037966
-0.198987
0.608741
-0.527986
-0.708356
0.798083
-0.199780
-0.020936
-0.360923
-0.189526
-0.381615
0.899103
0.931087
0.251541
-0.073491
-0.665263
0.782152
-0.491180
0.867240
0.941281
0.978148
0.972349
-0.970335
0.674235
-0.519014
-0.731673
-0.003784
0.401453
-0.155527
-0.735335
-0.420802
0.440518
0.851614
0.405909
-0.937069
-0.916133
0.188061
0.944333
0.761582
-0.824208
0.962949
-0.372032
-0.794787
-0.198254
0.889581
-0.592321
0.269304
0.153879
0.939083
0.726607
-0.444790
-0.365013
-0.720869
0.953427
0.340231
-0.737106
-0.689495
-0.476042
0.403589
0.438381
-0.386803
-0.648538
0.046329
0.138497
0.616065
0.068547
0.613380
0.598975
-0.199414
-0.335470
-0.167124
0.546359
0.253739
0.079595
-0.715742
0.044253
0.379296
-0.682354
0.307636
0.015077
-0.416957
-0.357138
-0.333211
0.499786
-0.257096
0.418849
-0.720564
0.719038
-0.723799
-0.843924
-0.674235
0.997009
-0.382409
-0.671061
-0.951962
-0.388818
0.919673
0.523897
0.555210
0.631020
0.788134
-0.517243
-0.057438
-0.194104
0.865653
-0.396753
-0.958494
0.568516
-0.925410
-0.541476
0.110419
-0.788317
0.333944
-0.100958
0.778490
-0.694439
-0.440579
0.298907
-0.442898
0.414088
-0.236648
-0.490997
-0.769822
-0.824635
-0.936886
0.080571
0.434780
-0.191662
-0.586767
-0.680767
0.746506
0.106208
0.871757
-0.264726
-0.418849
-0.017518
0.214979
0.449612
0.225600
0.628884
-0.287615
0.119819
-0.690960
-0.650186
0.873711
0.948727
-0.970701
0.134957
0.981139
0.336141
0.445096
-0.967894
-0.780321
-0.260575
-0.853446
0.384423
0.218031
-0.698041
-0.381188
0.992126
-0.189709
-0.185436
-0.392541
0.263444
0.835134
0.571141
0.802112
-0.583837
-0.219130
0.681499
-0.852591
-0.207776
0.091986
0.403589
-0.902704
-0.652139
0.947018
0.057743
-0.878777
-0.617164
-0.677287
-0.914179
0.777818
0.569859
0.155588
0.816700
0.667338
0.347067
0.412684
-0.498382
-0.424525
0.737167
-0.113410
-0.817921
0.121284
0.653971
0.524507
0.951718
-0.779222
-0.239944
-0.895257
0.174388
0.680645
-0.061954
-0.925044
0.224257
0.231704
-0.563267
0.360984
0.305011
0.318257
-0.243118
0.962034
-0.084356
0.952329
0.336202
-0.856437
-0.477690
-0.053043
-0.901117
0.040225
0.000183
0.842276
-0.069279
-0.519380
0.406885
-0.166880
-0.858573
0.848563
0.650797
0.015809
-0.020631
-0.209241
0.616432
0.261124
-0.741928
0.585973
0.309040
-0.969175
-0.840017
0.985290
0.581578
0.447049
0.276994
-0.661356
-0.994323
0.927974
0.952878
0.819203
0.450833
-0.297076
0.988403
0.556308
0.931087
-0.480864
0.772630
0.493255
0.286089
0.851126
-0.097723
-0.221571
0.254959
-0.072331
0.351889
-0.494720
-0.492095
-0.112434
0.256913
-0.388451
0.197400
-0.623817
-0.626503
0.751999
-0.409144
-0.103278
0.275774
0.955320
-0.651285
0.226759
0.353842
-0.120125
0.008668
-0.784960
0.675822
0.478850
-0.760056
-0.731124
0.774950
0.887749
-0.570408
-0.154550
-0.574803
0.347922
-0.836965
-0.740463
0.467985
-0.022645
0.162058
0.120918
-0.248733
0.201184
0.241470
0.711713
0.245804
-0.344320
-0.150766
-0.381066
-0.601904
-0.623329
0.749924
-0.066777
-0.214308
-0.913935
0.415309
0.325581
-0.865592
-0.611610
0.685345
-0.683452
0.762437
0.690045
0.259965
0.049197
0.511506
0.653177
-0.413355
-0.122627
-0.769578
0.998474
-0.295916
0.084783
0.870720
-0.533419
-0.394311
0.043521
-0.742294
-0.246353
-0.314839
-0.872063
-0.398340
-0.769639
-0.173167
0.694439
-0.192334
-0.739486
-0.297626
-0.560764
-0.349997
-0.071782
-0.162241
0.449857
0.872246
-0.011536
-0.988219
-0.742416
0.274858
-0.147165
0.549594
-0.790820
0.854789
0.422633
-0.927852
-0.534945
-0.943112
-0.417811
0.267228
-0.059391
-0.797168
-0.834646
-0.760178
0.500458
-0.843618
0.206372
0.009766
0.719648
0.291217
-0.711530
-0.285906
-0.476592
-0.179454
-0.196240
0.080693
-0.981444
0.554111
0.934139
-0.267350
-0.171214
0.141610
0.168162
-0.111823
0.245865
0.868583
0.166270
-0.983275
0.510529
0.064457
-0.215284
-0.984557
0.534334
0.187084
0.073125
0.466886
0.375450
0.644937
-0.943112
-0.458707
-0.219069
0.420436
0.117683
0.107306
0.107795
-0.443203
-0.216932
-0.390099
0.935726
0.570286
-0.259965
0.282305
0.683086
-0.149545
0.882866
0.251541
-0.459562
0.112312
0.208570
0.100897
0.031984
-0.039797
0.373497
-0.547336
-0.481597
-0.371116
0.721419
-0.867790
-0.045352
0.962095
-0.402857
-0.523286
-0.787279
0.691937
0.758469
0.351157
-0.715315
-0.918208
-0.303241
-0.566319
-0.324055
0.995483
0.682415
0.333150
-0.696759
-0.547214
0.342977
-0.899164
-0.791247
0.738815
0.590856
0.699994
-0.597021
-0.876579
0.710371
-0.006714
0.149362
0.259232
-0.582677
0.814747
-0.997803
-0.684551
0.704450
-0.316365
-0.087835
0.914729
0.283342
-0.272600
-0.291033
0.931392
0.437954
-0.627175
0.277239
-0.783312
0.099432
-0.630043
-0.265092
-0.687725
-0.042666
0.710371
0.929134
0.213331
-0.582799
-0.998108
0.559788
0.246231
-0.780443
-0.135628
-0.754135
0.121528
0.530733
0.905390
-0.155100
-0.774889
0.318745
0.842276
0.338583
0.210462
-0.172252
-0.669719
0.597876
-0.046573
-0.037966
0.060673
-0.660563
-0.065983
0.392114
0.690350
0.585973
0.105292
0.197095
0.166270
-0.057926
-0.686260
0.854239
-0.992614
0.000671
0.332845
-0.611976
-0.894586
-0.810535
0.571812
0.493499
0.607764
-0.628273
0.523653
-0.557651
0.445218
0.513886
-0.986877
0.589514
0.066593
-0.268937
-0.691326
-0.712873
0.943051
-0.974730
-0.840689
0.023683
-0.596167
-0.973448
0.820546
0.595984
-0.632485
-0.949155
0.130501
-0.869377
0.529390
0.786852
0.700177
-0.234939
0.568638
-0.076115
0.278398
-0.199658
0.938107
-0.965513
-0.644204
0.140450
0.797717
0.022645
-0.930538
-0.171275
0.655497
-0.549045
0.470488
0.493988
0.278154
-0.940243
0.217543
-0.479949
0.433071
0.789965
0.759263
-0.249954
-0.974425
0.621376
0.066227
0.538363
-0.806873
0.541720
0.977721
-0.037539
-0.081670
0.955503
-0.777635
-0.991638
0.724837
0.847342
0.179454
-0.459684
-0.982726
0.011842
-0.561497
0.868217
-0.371300
0.662394
-0.775865
0.725508
-0.863273
0.730696
-0.254288
-0.530306
0.512727
0.171275
-0.464872
-0.681865
0.664469
0.581701
-0.163645
-0.569065
0.436916
-0.548679
-0.892877
0.654459
-0.368248
-0.646951
0.697247
0.737411
0.609290
-0.613319
-0.235671
-0.168040
-0.965696
-0.809131
0.491851
-0.906855
-0.669474
0.832509
-0.331929
0.187206
-0.597693
0.887933
-0.306415
0.523530
0.190258
0.028627
-0.925410
0.021486
0.620460
0.422511
-0.531282
0.225233
-0.488982
0.264420
-0.656900
-0.422084
0.998474
-0.251969
-0.691265
-0.330770
-0.955197
-0.207959
-0.806873
0.267839
-0.408533
-0.168162
-0.086614
-0.048526
-0.082219
-0.008912
0.212843
0.147287
-0.229445
-0.055912
-0.676555
-0.605323
-0.174510
-0.217726
-0.383568
-0.356406
0.042483
-0.802905
0.303729
-0.599951
-0.521455
0.291766
0.252457
-0.467802
0.120308
0.334310
0.975645
0.548801
0.297870
-0.235183
-0.139169
-0.837209
0.243850
-0.230910
0.699933
0.953366
-0.640481
0.730574
-0.418483
0.936275
-0.250198
-0.125618
-0.790087
0.859366
-0.409205
-0.584752
-0.288165
-0.969236
0.892083
-0.478789
0.994140
-0.502960
-0.785082
-0.593054
0.714460
0.379174
-0.087957
0.868095
0.928585
0.182995
0.446805
-0.430690
-0.525117
-0.105597
-0.640908
0.399683
-0.839651
-0.328633
-0.562412
0.205640
0.809864
-0.052860
-0.339254
0.216383
-0.759751
-0.244400
-0.528902
-0.527132
0.224623
0.091741
-0.056949
-0.426906
-0.494842
-0.879937
-0.591772
0.046145
-0.078923
-0.957090
0.100653
0.668315
-0.288836
-0.558384
-0.617286
0.032106
0.055362
0.902521
0.117500
0.683025
0.916560
-0.259049
-0.253800
0.133553
-0.754135
-0.364402
0.636880
0.070195
0.614234
0.984618
-0.736312
-0.936886
0.331014
-0.202405
0.781969
-0.906611
-0.885247
0.935787
0.558933
-0.792224
-0.623329
-0.489471
-0.774400
0.616310
-0.820668
-0.743332
0.809437
0.542453
-0.065190
-0.310444
0.511628
-0.858939
0.902338
0.859977
-0.307880
0.794238
0.550388
-0.480376
0.623878
0.098334
-0.156137
-0.490569
0.578527
-0.143563
-0.480315
0.182140
-0.192456
-0.614662
0.413355
-0.327046
0.979979
0.452970
0.898309
0.831227
0.639138
-0.844229
0.501679
0.622963
0.242874
-0.948178
-0.241836
0.820546
-0.653421
-0.141610
-0.635720
0.788378
0.494598
-0.970335
0.696393
0.179821
0.380028
0.525972
0.754013
0.356284
0.837881
0.085638
-0.407923
0.341452
0.231398
-0.685284
-0.696454
0.123360
0.796741
-0.094854
0.615150
-0.883355
0.505646
0.293414
0.158945
0.597449
-0.988281
0.074651
0.483062
-0.077153
0.240310
0.481902
-0.138375
-0.650919
-0.814808
0.245071
-0.030458
-0.740829
-0.523897
-0.859366
0.481780
0.613380
-0.723555
0.546115
0.661967
0.434231
0.077397
-0.690289
-0.999145
-0.859244
-0.052677
0.250381
0.969236
-0.458646
-0.197766
-0.402246
-0.055301
0.299762
0.257157
0.687420
-0.620643
-0.313618
-0.377281
0.221083
-0.734176
0.427455
0.608497
0.407373
0.968077
-0.536593
0.295550
-0.707502
-0.523042
-0.568516
0.942074
0.595862
-0.844595
-0.318318
0.181957
-0.638955
0.033083
-0.358115
0.182262
0.737289
0.714826
0.342123
0.318440
0.200330
0.964903
0.912165
0.932735
0.529207
0.029787
-0.136239
0.736678
-0.152170
-0.238906
-0.028993
-0.579137
0.046512
0.602576
0.560520
0.034060
-0.105780
-0.498260
0.024171
0.694134
0.155222
-0.188549
0.367637
0.194043
-0.978087
0.240554
0.605628
-0.935543
-0.823292
0.918940
0.818226
0.656351
0.794909
-0.362083
-0.320881
-0.195569
-0.198193
0.329183
-0.730269
-0.362815
-0.303241
0.843985
-0.009827
0.091802
0.254776
0.096136
-0.619056
0.699994
-0.579320
-0.369224
-0.332723
-0.794848
-0.292865
-0.318867
-0.161936
0.575047
-0.591894
0.776048
-0.926631
-0.030458
-0.057560
0.960935
-0.668681
0.230422
-0.362266
-0.305194
-0.092108
-0.548923
-0.730574
0.485137
-0.218153
-0.807972
-0.335287
-0.676616
0.557712
0.902948
0.686932
0.984557
-0.182018
-0.886040
-0.090277
0.251419
-0.300922
0.960203
0.297076
0.128365
0.501862
0.598852
-0.802234
0.104865
0.149362
0.085332
-0.029726
0.532686
-0.694012
-0.732283
0.547946
0.179027
0.968077
0.263688
0.258683
-0.982360
0.340048
-0.918635
-0.788744
-0.678935
-0.191296
-0.051517
-0.439907
-0.884270
0.827077
0.909662
0.961362
-0.936886
-0.479399
0.256363
-0.467192
0.829396
-0.169993
0.351889
0.631813
0.004944
1.000000
0.412440
0.758957
-0.361411
-0.771104
0.808033
0.906611
-0.553562
0.291705
0.445950
0.658671
0.759324
0.946774
-0.202039
-0.641641
0.271135
-0.058903
-0.864799
-0.345663
0.650613
0.426173
0.532442
-0.262040
-0.921687
0.595190
-0.796496
-0.415064
-0.227126
0.356406
0.733199
-0.486907
-0.433498
0.854239
-0.236343
0.369346
0.595678
0.649515
0.703107
-0.342428
-0.834463
-0.626503
0.013795
0.921077
0.855094
0.666850
0.646829
0.690533
0.920100
-0.785021
0.182506
0.311848
0.062138
-0.304035
-0.759141
0.965025
0.621742
0.448575
-0.275774
-0.813831
-0.739791
-0.322896
-0.545993
-0.792407
-0.807483
-0.996521
0.764817
-0.574986
0.033083
0.179393
-0.382409
-0.692669
0.317463
-0.229384
0.796069
0.060001
0.762498
-0.372215
-0.254288
-0.645486
-0.673076
-0.046695
0.621925
-0.562717
0.135995
0.779650
-0.894342
0.929866
-0.669658
0.669291
-0.446744
-0.367942
-0.094854
0.450894
-0.961607
0.643655
0.598303
0.802112
-0.146493
-0.887872
0.892938
-0.506989
-0.971495
-0.075200
-0.804676
-0.897394
0.433681
-0.347739
0.251480
-0.980468
0.024782
-0.940060
0.863517
0.541232
-0.202344
-0.501862
-0.029665
0.882561
-0.989807
-0.517427
0.154123
0.908198
0.237930
0.780565
0.634011
0.398828
0.822926
0.311665
0.811573
-0.333822
-0.719526
-0.820912
0.429470
-0.672832
-0.774461
-0.858939
-0.594641
-0.948300
0.380333
-0.163096
-0.595373
-0.905390
-0.773302
-0.921138
0.213575
-0.573643
0.866630
-0.475981
0.975890
0.272844
0.650308
0.035952
-0.644998
0.878594
-0.861869
-0.948239
0.685406
0.304706
0.956235
0.265092
0.172679
-0.925044
-0.891351
-0.062992
0.209669
-0.518769
-0.689312
0.150278
-0.134041
-0.637551
-0.097845
-0.684368
0.617103
-0.832082
-0.093267
0.245804
-0.626076
-0.880913
0.797961
-0.892755
0.875664
0.281084
0.534151
-0.435085
0.508027
0.356406
-0.573765
-0.571019
-0.389367
0.014710
0.399805
0.119514
0.334554
0.569981
-0.786486
0.259354
0.112922
0.817066
-0.801624
-0.291461
0.808094
-0.158030
0.077764
-0.647439
0.596228
-0.383141
-0.567540
0.957517
-0.346396
0.192334
0.373375
0.402735
-0.294757
-0.699689
-0.017518
0.607215
0.500092
-0.820057
0.087102
-0.542636
-0.726485
0.437588
0.927730
-0.946774
0.262406
-0.244949
-0.716902
-0.417811
0.331075
-0.741317
-0.384179
0.134774
-0.224989
0.359946
-0.201795
-0.225539
0.362083
-0.118660
-0.015931
-0.826589
-0.325826
-0.719038
0.187145
0.127632
-0.186962
0.786303
-0.871208
-0.737289
-0.469023
-0.749741
-0.081914
-0.755051
-0.149545
-0.455716
-0.873833
-0.192944
0.234206
0.296832
0.817921
-0.095953
-0.631508
-0.206739
0.102484
-0.689678
-0.377098
0.848501
-0.232802
0.970457
-0.752915
0.463896
0.554294
0.415797
-0.630349
-0.916987
0.646097
-0.438320
-0.140512
-0.743270
0.918879
-0.805713
-0.887078
0.530672
-0.470915
-0.537875
-0.169993
0.368858
0.394372
0.684063
-0.159861
-0.075749
-0.869316
-0.214063
0.042239
0.469938
-0.989623
0.679180
0.520234
-0.697919
0.500824
-0.108039
0.896600
0.929439
0.948300
-0.231154
-0.013184
0.358787
-0.030703
0.547397
0.817860
0.292498
-0.889214
-0.373131
0.070805
-0.953122
-0.657633
-0.658304
0.013551
-0.992858
0.943600
-0.450040
-0.016847
0.428920
-0.652750
0.351523
-0.518464
0.400537
-0.495819
-0.752609
-0.052188
-0.221876
0.327596
0.053470
-0.732345
-0.094732
-0.216383
-0.120247
0.084539
-0.069157
0.188610
-0.510773
-0.026369
0.536532
0.275652
-0.651956
0.541598
0.887627
-0.407068
0.679302
-0.485198
0.618141
-0.202344
-0.166880
0.878594
-0.335348
0.405481
-0.713361
-0.871635
-0.240615
-0.439175
-0.415919
0.699261
0.396081
-0.611365
-0.468534
0.630715
-0.918513
0.490631
0.957883
-0.465483
0.684551
-0.851798
-0.645242
0.925105
-0.305622
-0.203504
0.708112
-0.024965
0.203382
0.328084
-0.167430
-0.239883
-0.577245
0.793200
0.524202
0.054080
-0.451871
-0.944333
0.840017
0.737228
-0.216688
-0.030031
-0.179515
0.880425
-0.661967
-0.362266
0.965269
-0.432094
-0.789477
-0.688213
0.775194
-0.479216
-0.432522
0.504975
-0.326314
-0.417201
0.534212
-0.130684
-0.380700
-0.866630
-0.792346
-0.592382
-0.277910
0.488250
0.704999
0.578954
0.176341
0.350241
0.058292
-0.138863
-0.177501
0.374718
0.771654
0.333516
-0.349570
-0.090338
0.848807
0.840933
-0.443753
0.974669
0.107367
-0.697491
0.666117
0.539950
-0.409876
-0.272111
0.538241
0.169993
0.886529
-0.497711
-0.442959
0.091436
0.176585
0.504059
-0.169261
-0.249710
0.810779
0.616493
0.905390
-0.080327
-0.763413
-0.802905
-0.392236
0.420436
0.086126
-0.933895
0.330342
0.518159
-0.764756
0.576756
-0.931209
0.058109
0.649393
0.330403
-0.472319
0.401086
-0.174815
0.098944
0.603247
-0.777818
-0.355674
0.516328
-0.441189
0.236282
-0.551853
-0.898004
0.203931
-0.089788
-0.851187
-0.820424
0.389428
0.227858
-0.812855
-0.748337
0.131844
-0.433803
0.151193
-0.605201
0.678997
0.749252
0.867363
0.236343
-0.170421
0.338522
0.776476
-0.924556
-0.180553
0.225722
-0.592199
0.712263
-0.914118
-0.412318
0.763352
-0.455411
0.224684
0.267594
-0.576451
0.499115
-0.550510
-0.355735
0.190502
-0.645120
-0.130684
0.052554
0.076421
0.025392
-0.106818
0.816578
0.453580
-0.640847
-0.922359
-0.041140
0.176891
-0.976744
0.727706
-0.351706
-0.508942
-0.969481
-0.436794
0.448086
-0.464140
0.474516
-0.233840
0.427028
-0.738632
0.033022
-0.282732
0.197644
0.566075
-0.194958
0.738082
-0.058903
-0.530672
-0.958921
0.148202
-0.515962
0.133309
-0.668986
-0.047122
-0.511872
-0.457425
-0.188793
-0.529634
0.815602
-0.341329
-0.046206
-0.785326
0.132576
0.858268
0.500885
0.343649
0.814625
-0.530489
0.104987
0.986266
-0.786669
-0.780748
0.239822
-0.238296
-0.648904
-0.598608
-0.057743
-0.197766
0.102118
-0.418360
0.949887
-0.408228
-0.074651
-0.350607
0.794421
-0.065556
-0.789416
-0.969969
0.415492
-0.636574
-0.699872
-0.130196
-0.143563
-0.695050
0.248794
0.005310
0.603980
-0.692486
0.384423
0.531649
0.135506
-0.349203
-0.267655
-0.219984
-0.764268
-0.354453
0.365318
0.518220
-0.354453
0.937679
-0.258988
0.186047
0.604956
0.128426
0.091619
0.978820
-0.146860
0.023927
-0.074284
-0.409632
-0.350974
-0.174388
0.706281
-0.570103
-0.627724
-0.425014
0.766954
-0.877800
-0.729964
-0.835561
-0.470976
0.107367
0.910273
-0.772752
0.082158
-0.850943
0.904352
0.218946
-0.810230
0.567234
-0.537630
-0.997925
0.784105
0.003723
0.342733
-0.751389
0.010743
0.537814
-0.242019
0.969908
-0.112128
0.960386
0.801502
-0.511689
-0.360313
-0.978942
0.955075
-0.835989
0.769578
-0.538485
-0.758164
0.186413
-0.067265
-0.355551
0.585973
-0.254593
0.673442
0.594702
-0.058903
-0.105597
-0.913203
0.261796
-0.247452
-0.583959
-0.530001
0.818409
-0.687786
0.005860
-0.976988
0.805591
-0.428188
0.083257
-0.336019
-0.060856
-0.025270
0.545382
0.019044
-0.611976
0.870781
-0.226332
-0.348349
-0.661967
0.074528
0.207776
0.591955
0.653238
-0.868278
-0.202466
0.229262
0.447232
-0.145456
0.647134
0.631203
0.377892
0.688519
0.162486
0.350241
-0.523897
-0.525056
-0.984435
-0.218580
0.323506
0.170176
-0.762376
0.133431
0.388757
0.083501
0.753159
-0.924861
-0.662150
-0.802051
-0.331868
-0.879204
0.129341
0.135689
0.625587
-0.184276
0.706403
0.329671
0.538363
-0.214735
0.099860
0.965452
0.014588
-0.290057
-0.246231
0.254898
-0.213392
0.288409
-0.114143
-0.395349
0.456327
0.251114
-0.304340
0.241043
0.869255
0.488189
-0.766709
0.854789
-0.569676
-0.648477
-0.259843
-0.172069
-0.326009
-0.802966
0.275285
0.605628
0.399255
-0.774278
-0.560825
-0.226393
-0.314900
0.689800
0.008179
0.406946
-0.903070
-0.477080
-0.709577
0.249283
-0.603491
0.460783
-0.981444
-0.712141
0.068547
-0.289996
-0.411402
0.284868
-0.023744
0.232497
0.459867
0.828053
-0.541476
0.704206
-0.472990
0.464262
-0.819508
0.212843
-0.721785
-0.523164
0.050845
-0.243911
0.549472
0.870598
-0.482268
0.603247
-0.309833
0.124947
0.556980
0.582372
-0.048770
0.281450
0.662638
0.356223
0.908136
0.923579
-0.844534
0.748459
0.731307
0.614662
0.120002
-0.816700
-0.882561
-0.644632
-0.718550
0.301532
-0.306781
0.622963
0.139352
0.813221
-0.296710
-0.445279
-0.335287
-0.346762
-0.202649
0.839651
0.878472
-0.501190
-0.273576
0.877861
0.619484
0.712812
0.762070
-0.226210
-0.182384
-0.224135
0.650552
-0.276994
0.583104
-0.730880
-0.084905
-0.644143
-0.576207
-0.529879
-0.681865
0.601416
0.905573
0.624428
-0.704328
-0.367393
-0.935482
-0.044375
-0.822255
0.456815
0.887994
0.476470
-0.994323
0.712568
-0.828053
-0.337728
-0.239944
0.236282
-0.927913
-0.948483
0.811268
-0.038821
-0.342855
0.833669
0.404627
-0.289752
0.779405
0.487640
-0.005738
0.446621
0.573949
-0.465238
0.236159
-0.456876
-0.100531
-0.533602
-0.545749
0.634560
-0.967222
0.910273
0.391748
0.613319
0.930049
-0.902948
0.059757
-0.666484
0.365745
-0.308368
0.496673
0.583654
-0.734847
0.048343
-0.750412
-0.109076
-0.460966
-0.044375
-0.608558
-0.278337
-0.264909
0.931575
-0.114936
-0.362815
0.818715
0.131600
0.108283
-0.029909
-0.605323
-0.066471
-0.649087
0.582128
-0.316609
-0.740585
-0.902582
-0.733138
0.562778
-0.300616
0.907221
-0.640542
0.989379
0.497711
-0.295855
-0.884331
0.111091
-0.534701
-0.709333
0.422999
-0.616310
-0.119209
-0.105170
-0.593786
-0.996521
0.441372
0.566746
0.490814
-0.030764
0.327535
0.233901
0.484405
0.085088
0.444119
0.230361
0.241653
-0.782152
0.898431
0.110053
0.472746
0.120796
-0.220106
-0.441738
-0.740463
0.135201
-0.696637
0.213270
-0.159189
0.085027
0.377281
0.210279
0.229567
-0.325948
-0.339681
-0.739059
-0.774767
-0.299640
0.169810
-0.919490
0.382775
0.399133
-0.498077
0.974791
0.500519
0.226943
0.729170
-0.600378
0.191601
0.400476
0.034426
-0.693158
-0.901544
-0.499054
0.147653
0.085882
-0.684612
-0.541964
-0.355490
-0.083013
-0.420314
-0.775560
-0.828786
-0.653299
-0.204297
-0.544528
0.657999
-0.101569
0.452847
0.503876
0.582311
0.530672
0.501129
-0.955747
-0.653238
-0.244827
0.245559
-0.360923
-0.167918
0.228530
0.823231
0.557773
-0.812366
-0.372154
0.824513
0.162913
0.924373
0.625160
-0.378624
-0.824818
-0.630837
-0.229140
-0.034243
-0.870353
-0.452847
0.100958
-0.581395
0.335958
0.550021
-0.721480
-0.824757
-0.345297
-0.543429
0.083501
-0.153635
-0.596655
-0.133553
-0.938046
0.759018
-0.297076
0.108954
0.148996
0.339987
-0.421046
-0.809376
-0.924617
0.143136
-0.871574
-0.456144
-0.626198
0.084173
0.066471
0.638039
-0.207044
-0.555332
0.963255
0.517121
-0.063664
-0.791735
0.485869
-0.674846
-0.065067
0.291583
0.956174
-0.116950
0.968138
-0.768602
-0.462675
-0.622230
0.444607
-0.107062
-0.637673
-0.771898
0.655741
0.758103
-0.084295
-0.811634
0.714704
0.359824
0.982238
0.753037
0.592260
0.423060
-0.525972
-0.075810
-0.936153
-0.725203
-0.549960
0.405786
0.378746
-0.913020
0.638039
-0.715254
-0.536288
-0.486968
-0.226210
0.264604
0.476042
-0.718061
0.069767
0.510224
0.514680
0.312031
-0.876457
0.170604
-0.694134
-0.093878
0.582189
0.638406
0.672832
-0.407923
-0.129036
0.610755
0.603125
0.169688
-0.697247
0.013306
-0.273271
-0.473051
0.877983
0.850455
-0.983520
0.789721
0.087896
-0.957395
0.523775
-0.636330
-0.963987
0.316426
-0.038882
0.435818
0.186657
0.205579
0.946652
-0.506928
-0.944516
-0.770250
-0.280962
-0.574803
-0.845022
-0.689373
0.139962
0.770311
-0.495697
0.488677
-0.208387
0.668376
0.019960
0.003540
0.987060
-0.915583
-0.903192
0.800708
-0.499359
-0.136361
0.693524
-0.475066
0.836172
-0.820057
-0.766526
-0.933651
0.840139
0.943539
-0.363487
-0.281694
0.477202
-0.274126
0.789660
0.011719
-0.422572
0.769029
-0.226637
-0.712324
-0.631569
-0.363120
-0.845816
-0.929256
0.605689
-0.924312
0.655374
-0.694500
-0.887261
-0.356955
-0.480559
0.518892
-0.455594
-0.331258
0.875114
-0.029482
-0.815540
-0.889275
0.419520
0.854972
0.591772
0.868034
0.730513
0.615394
0.905817
0.112434
-0.480498
-0.565220
0.625649
-0.796496
-0.861076
0.964658
-0.326741
0.747238
-0.344870
0.353842
-0.444607
0.361228
0.801257
-0.357566
-0.565403
-0.288897
-0.879204
-0.420436
0.923823
-0.622658
-0.384362
-0.069401
-0.584875
0.117500
0.209608
-0.665263
0.757798
0.084783
0.342062
0.776109
-0.905878
0.567173
0.001770
-0.269975
0.670695
-0.192517
0.515901
-0.951230
-0.568150
-0.531221
-0.595984
-0.353171
-0.786425
-0.693646
0.612464
-0.950192
0.345663
0.609412
0.438625
0.870170
-0.523042
-0.025575
0.460599
-0.731063
0.436733
-0.025880
-0.217848
-0.528780
0.942074
0.281939
-0.092840
0.392297
0.966734
-0.182811
0.555149
0.440823
-0.417750
-0.528108
-0.269181
0.560398
0.084234
-0.018006
0.360435
-0.428737
0.215589
0.505585
0.806202
-0.123970
-0.698651
0.471159
-0.427211
0.590185
-0.895013
0.257218
-0.482207
0.161875
0.220411
-0.733016
-0.122139
-0.457731
0.811085
0.959897
-0.575597
-0.031557
-0.489898
-0.597876
-0.939144
0.423183
-0.707441
0.900568
-0.827138
0.831899
0.132699
-0.720686
0.046206
0.061405
-0.741073
0.365501
0.662333
0.781542
0.819935
0.242202
0.186108
0.251907
-0.228774
0.835622
-0.542330
-0.901911
-0.200146
-0.604895
0.799915
-0.861930
0.093878
-0.568516
-0.545077
0.321492
0.773851
-0.326070
0.963010
-0.154550
-0.203809
0.609351
-0.206128
-0.491851
-0.857840
-0.833974
-0.454129
0.363731
-0.895929
-0.894708
0.023012
0.739486
0.481719
-0.319111
-0.496429
0.680034
-0.498505
0.131966
-0.486785
0.879021
-0.728682
0.569920
0.414027
-0.838430
0.582067
0.822560
-0.877922
0.580785
-0.130440
-0.202771
-0.732345
0.188732
-0.849783
0.926997
-0.892205
0.546969
-0.259659
0.259904
-0.493499
-0.962827
0.573765
0.756943
-0.706830
-0.964536
0.929988
-0.642007
0.312824
0.011719
0.384301
0.381188
-0.520234
0.618202
-0.206433
-0.184765
0.148447
-0.171947
0.129463
0.070744
0.112128
0.188183
0.971800
-0.250992
0.543979
0.246353
-0.525667
-0.005432
-0.808582
0.218153
-0.383080
-0.009095
0.137460
-0.046390
0.553134
-0.835622
-0.559971
-0.732222
-0.129830
0.656900
0.963926
-0.303180
0.570347
-0.369468
-0.284746
-0.258011
-0.412379
0.967649
0.993957
0.665446
0.652750
-0.073308
0.673442
0.898187
-0.682964
0.318928
0.923091
0.124397
0.950742
-0.234267
0.683941
-0.895746
-0.475615
0.601904
-0.789294
0.296954
-0.010010
-0.015382
-0.006531
-0.652933
0.070439
-0.226759
-0.630593
0.497406
0.273088
-0.260026
-0.859977
-0.010804
-0.062687
0.675945
-0.496429
0.513886
0.130745
0.953488
-0.383080
0.777513
-0.795154
-0.891168
0.098822
-0.758835
-0.176158
0.006592
0.786852
0.100409
-0.722273
-0.852225
0.060795
0.563816
-0.105414
0.686748
-0.954404
-0.503632
-0.638711
-0.284563
-0.995483
0.488250
-0.231643
0.381920
-0.762925
-0.588903
-0.811329
0.401575
-0.206739
-0.473662
0.605139
-0.473662
0.316426
0.205640
-0.002930
0.533541
-0.672404
0.327840
0.400964
0.295733
-0.735702
0.414088
-0.245620
-0.503449
-0.415370
0.563267
-0.660319
0.552524
-0.748642
0.251419
0.635964
0.304279
0.906855
-0.943539
-0.605384
-0.958982
0.051822
0.371483
0.750656
0.418483
-0.458890
-0.831899
0.179760
-0.166514
0.707807
-0.125496
0.117927
-0.180187
-0.571690
-0.572362
-0.948483
0.024293
0.443203
-0.434841
0.894342
0.328267
0.241775
-0.583227
-0.539462
0.676189
-0.172069
0.460294
-0.150278
0.173045
-0.323689
0.901972
-0.447293
-0.985107
0.192089
-0.453519
-0.905939
-0.186962
-0.012025
0.217054
-0.978820
-0.124702
-0.710493
0.788561
-0.945859
-0.992614
0.782396
-0.103278
0.207959
0.395898
-0.787585
-0.613685
-0.300128
-0.864494
0.054019
-0.441372
-0.545077
-0.035586
0.555210
-0.716474
0.020814
0.767564
-0.524324
0.036684
0.706098
-0.586767
0.828359
-0.074956
-0.247024
0.484344
-0.063114
0.763535
-0.641458
-0.535189
-0.877251
0.264481
-0.644754
0.948422
-0.666667
0.403467
0.364707
0.426662
-0.976195
0.022584
0.236098
0.223646
0.606055
0.735396
0.583104
-0.863517
-0.224684
0.194592
-0.770250
0.346029
0.030031
-0.214491
-0.619606
-0.841543
-0.306537
0.808399
-0.676677
-0.856437
-0.246353
0.210279
-0.516816
0.227553
-0.168956
-0.068119
0.632973
-0.692913
0.587865
0.928768
0.078862
0.945126
-0.108405
-0.068669
-0.369651
0.710187
-0.955381
0.005982
0.167735
0.724348
0.393212
0.978881
0.619789
-0.020692
0.626869
0.785692
0.164317
0.985595
-0.917170
-0.189892
-0.536043
-0.685161
-0.633462
-0.727400
-0.250809
-0.398584
-0.399683
-0.267472
-0.438503
0.560886
-0.385399
0.766099
-0.029848
0.592443
0.392236
-0.117317
0.072636
0.525362
0.079473
-0.257889
-0.405909
-0.928157
-0.123909
-0.265519
0.396203
-0.449246
0.116340
0.986816
-0.291461
-0.558384
-0.145517
0.856742
0.896112
-0.665446
0.266252
-0.021486
0.573033
0.837026
-0.820851
-0.079106
-0.122139
-0.000977
-0.955075
0.521455
0.720686
-0.177745
-0.335103
0.959287
0.815418
0.411768
-0.017640
-0.372154
0.310078
0.336141
-0.510890
0.896095
0.109819
-1.014844
0.979108
-0.349079
1.172951
1.178599
-0.846742
0.242010
-0.494219
0.298149
-0.318531
-0.021427
0.652739
0.926741
-0.276970
-0.670217
-1.556641
-0.104543
-0.278256
0.031837
-2.187393
0.839370
-0.668691
-0.118980
0.134271
0.004589
0.713792
0.631093
-0.155796
0.287276
0.046337
-0.762207
-1.381696
0.086993
0.552763
-0.212697
-0.004809
0.133813
-0.186880
0.314547
-0.263140
0.382616
-0.310575
1.050067
0.015184
0.948437
-0.448879
0.840308
0.947295
1.526176
-0.532937
1.064290
-0.449197
-0.132012
-0.082868
-0.201646
-0.021155
-0.504041
-0.424014
-0.797648
-0.257744
0.138520
0.193665
0.260563
-0.259512
0.511710
-0.332949
-0.647735
0.259853
-1.912259
-0.873026
0.927398
0.442069
-0.364938
-0.883722
-0.080699
-0.513790
-0.565633
0.728777
0.055216
0.434094
0.357565
-0.494697
-0.786006
0.606855
0.463021
0.029842
0.523198
-0.860027
0.184856
-1.756811
0.735907
-0.252353
1.948131
-0.115116
-0.462089
0.513184
-0.066833
0.662233
0.691454
0.948540
0.272356
0.187095
0.243245
-0.313987
-0.955701
-1.024296
-0.443218
0.082359
0.898421
0.256066
0.589696
0.760308
-1.354706
0.716903
2.463229
0.068921
-0.824052
0.447959
-0.648257
-1.285453
0.197500
0.357441
0.298277
-0.796893
-1.108041
0.273262
0.406681
0.898134
-1.195941
0.139186
0.134018
0.224488
-0.685436
-0.361956
0.128786
-0.930188
-0.299260
0.030458
-0.922163
0.168105
-0.487985
-0.254664
-0.616411
-2.042615
0.084559
0.312334
-0.908487
-1.136911
0.659518
0.750866
0.467862
-1.998348
-0.150151
-0.448038
0.077380
0.239097
0.747634
-0.096639
0.632576
-0.044241
-0.472500
0.255595
0.061990
-0.930320
1.012561
0.480059
-0.633938
0.755401
-0.460332
-0.938564
-0.282332
0.713252
-0.237897
-0.636481
1.387616
-0.043453
0.109603
0.559051
0.883977
-0.840176
0.359534
0.224300
-0.948358
-0.054472
-0.726370
0.085621
-0.194773
0.646907
1.056623
-0.783049
0.826880
-0.168650
-0.698720
-0.960056
-0.741689
-0.270015
0.641320
0.055926
1.240631
1.081714
0.002042
0.019895
0.900588
0.086961
-0.475743
-0.069059
-0.698473
0.041845
0.316422
-0.332798
-0.743807
1.014383
-0.744666
-0.078368
0.568958
0.386066
0.694191
0.823117
0.127544
0.283772
1.949566
0.848826
-0.464140
-0.222560
0.412775
-0.227347
0.859062
0.378000
-0.293634
0.773056
-1.564842
0.573357
0.900751
0.414810
-0.812896
-0.232306
-0.081481
0.479160
-0.940422
-0.783378
-1.439127
1.081280
0.996449
-0.028535
-0.673945
-0.800055
-0.782874
0.077860
-0.663409
1.043226
-0.740737
0.814973
0.130269
-0.546709
0.169223
-0.112376
-0.534683
-0.580990
0.253181
0.328288
-0.496227
1.039586
0.849573
0.872567
0.380192
0.276987
0.553279
0.926996
-0.810998
0.592638
-0.522661
-0.824429
0.235127
0.164141
0.146496
-0.534215
0.903853
0.136484
0.314258
-2.038164
-0.582699
0.618899
0.841438
0.475273
0.066294
-0.808738
0.742878
-0.112729
-0.848164
-0.299516
-0.389962
0.677544
1.668449
0.477114
-0.918784
0.390912
0.200278
-0.773907
0.038997
0.191734
0.669642
-0.729657
0.450102
-0.986519
0.193663
-0.091025
-0.475561
0.162132
1.032991
-0.281041
-0.233706
0.126095
-0.369222
0.075838
-0.327198
-0.437771
0.155016
-0.652017
-0.386026
-0.364139
0.392395
0.747648
-0.538160
0.169018
0.414808
-0.032761
-1.469284
-0.087539
-0.779544
-0.434284
-0.013197
0.043339
-0.513872
-0.859776
-0.652333
-0.464984
0.428474
0.358998
-0.464678
-0.313756
-0.621872
-0.660033
-0.455299
0.145902
-0.338893
0.413963
-0.364513
-0.006425
1.238203
-0.764350
0.302068
1.050570
0.265216
-0.203150
0.251896
-0.052182
-0.888788
0.591975
0.047488
-0.051247
-0.224622
1.134057
0.275907
0.688143
0.058912
-0.306006
-0.384029
0.315234
0.352225
1.095870
0.731421
-0.487395
-0.526112
-1.066548
0.214849
-0.960117
-0.399966
0.932701
0.461895
-0.232947
-0.339801
-1.979419
0.429662
-0.138284
-0.603200
-0.717822
0.782482
1.216168
0.650579
-0.098969
-0.288946
1.036009
-0.427447
-0.668767
0.443209
-0.646535
0.021789
0.530942
-0.052862
0.440464
0.883654
-0.211132
0.229117
0.893876
1.678676
0.386247
0.499058
-1.931723
0.192268
-0.723113
0.702687
-0.664083
0.342320
-0.239277
-0.155677
-0.397609
-0.520804
-0.575182
-1.788973
0.339491
1.219461
0.799557
0.658012
-1.044849
-0.090957
-0.473524
-0.195934
0.888442
-0.314633
-0.895873
-0.623871
-0.703259
0.407696
-0.257302
-0.214334
0.091994
0.839485
-0.699123
0.567067
1.009730
0.064962
1.216942
0.603472
-0.907799
0.232615
0.436958
1.088365
0.209626
0.671210
1.181749
-0.814878
0.657238
-0.481735
-0.410782
-0.276975
-0.908956
0.885207
-0.858638
0.958708
0.173974
-0.527831
0.272735
0.665297
-0.256100
1.296813
-0.228783
-0.581750
0.172838
0.149512
-0.702854
0.664354
0.123345
0.577864
-0.046952
-0.701337
-0.382914
0.630315
0.881195
-1.339476
-0.441857
0.164490
-0.809399
-0.371958
-0.651317
-0.034797
2.250783
0.732245
0.197750
1.216505
0.245000
0.599047
-0.414623
-0.607411
-0.216283
0.529352
-0.886242
0.218374
0.291994
0.071090
-0.417341
0.485594
-0.234272
-0.421896
-0.104936
-0.607969
0.515332
-0.325790
0.680652
-0.154007
-0.126178
-0.579014
0.753966
-0.276229
0.121425
0.517635
0.099063
-0.288637
-1.086945
0.086685
-0.454779
-0.923627
-0.460918
0.177408
0.355124
-0.027000
-0.362526
-1.161293
0.793209
0.589342
-0.481913
0.055703
0.744475
0.410350
0.452684
-0.047995
-0.391669
-0.323309
-1.002527
-0.564433
-0.619305
-0.251738
-0.328992
0.420552
-0.062188
-0.948571
0.280383
-1.282299
-0.368054
0.303039
0.404334
-0.402518
0.517816
0.180074
-0.721827
0.791506
-0.095052
0.859860
0.832327
0.139107
-0.062584
1.459263
-1.049047
0.448986
0.793151
-0.615775
-0.149291
-0.136359
0.225992
0.118155
0.691316
0.355006
0.126660
0.774033
0.394849
-0.426179
-1.209754
0.315496
0.746266
-1.550631
0.654141
-1.305163
0.427888
-0.946299
0.919740
0.268280
0.200567
-0.398865
-0.633042
-0.263385
-0.765797
-0.513919
-0.283797
1.348965
0.404119
-0.507692
0.222115
-1.216505
0.484636
1.024577
-0.029945
1.192947
-0.631802
0.717054
-0.321070
-1.634755
-0.189698
-1.384569
0.375359
0.849701
0.309691
-0.101771
0.225675
-0.819559
1.460166
0.702700
0.048787
0.577975
0.546956
0.185644
-1.307032
-0.104751
0.637978
0.078293
0.789172
0.667863
-0.400049
0.197182
-0.639069
1.203025
-0.927108
-1.229232
0.214603
-0.334576
-0.815870
0.393826
0.293024
-1.181303
-0.223613
-0.484681
-0.211446
-1.678807
0.250249
0.236535
0.764209
-0.381219
-0.870072
-0.877466
0.697321
0.571744
-0.402733
1.275664
0.445473
-0.943216
-0.722481
0.654504
-0.838885
0.006508
-0.338420
0.323758
-0.122539
0.104884
-0.768757
-1.345674
-0.589366
-0.546122
-0.785146
0.839602
-0.592123
0.009518
0.688229
0.916969
0.175797
0.431934
0.715579
-0.883349
0.076469
2.015291
0.167146
-0.857731
-0.813180
0.516100
0.246604
0.784799
-0.154567
0.200085
0.435816
0.311882
-0.116601
1.394774
-0.362384
0.216261
-0.072751
-0.483212
0.333248
0.361730
0.346396
-0.649768
0.075578
0.715886
-0.745538
-0.296981
1.058430
1.225179
-1.459650
-0.301970
-0.070535
-0.485366
0.244189
-2.395288
-0.596900
-0.452530
-0.564309
1.222899
0.151509
-0.301618
-0.239310
0.231513
-0.042248
0.056973
-0.910786
1.363249
0.836003
-0.034679
-0.430855
-1.904680
-0.126470
0.008746
-0.679859
0.689516
-0.588595
-0.357119
0.952915
-1.166551
-0.110212
0.550339
0.713745
0.388032
-0.427443
-0.302596
0.252361
-0.189788
0.654897
0.405822
0.219327
-0.539880
-0.057045
1.166289
-1.295579
-0.403025
0.161086
0.557245
0.438767
0.816658
-1.612886
0.058816
0.382916
0.922191
-1.176060
-1.098747
0.102770
0.046308
-0.318434
0.448575
-0.710807
0.133905
-1.230635
1.020964
0.980352
-1.717866
0.181449
0.709887
0.945771
-0.503755
0.184415
0.198337
0.628268
0.875455
-0.914491
1.358920
0.321694
-0.643309
-0.023852
-0.805908
-0.562701
-0.444448
0.984260
-0.345273
-0.296888
0.160724
-0.437686
-0.096595
-1.487741
-0.963198
-0.601176
0.688616
-0.256206
-0.753717
0.887207
-0.956477
-0.792690
0.096567
0.756099
-1.233324
-0.493313
1.253095
-0.873514
0.532987
-0.777616
0.498743
-0.305444
-0.428510
1.134665
-0.251689
-0.346074
0.146921
0.417134
1.153586
-1.409180
-0.066100
0.934734
-0.105755
-0.365913
2.061686
-0.041632
-0.747457
0.723933
-0.557291
1.003508
-0.312277
0.390521
-0.024460
-1.322415
0.948808
0.892925
0.175599
-0.723343
-2.444563
-0.931134
1.246316
0.841546
0.884025
0.388905
-0.970930
0.265386
0.917844
0.310866
-1.027101
-1.208742
-0.300620
-0.559362
0.704668
-1.923839
-0.812536
0.516424
0.812035
-0.311304
0.946631
-0.967435
-0.160999
0.106354
-1.488549
0.869912
0.264146
-0.337231
-0.549242
-0.713026
-0.179580
1.255407
0.588315
0.687254
0.968501
-0.042519
-1.460459
-0.415826
1.565647
-1.516550
0.523200
0.330633
0.251841
-0.833788
0.270999
-1.372169
0.232306
0.339485
0.932706
0.678256
-0.586783
0.010395
2.663270
0.672435
-0.134633
0.217702
0.458300
0.035323
0.052984
0.148801
-1.727887
0.302212
0.723753
0.541864
0.441392
-1.684731
0.678655
-0.421680
0.736306
-0.034097
0.508892
0.851218
0.930406
0.796132
-1.178775
-0.468046
-0.166415
0.000475
-1.119855
-1.042686
-0.397350
0.431368
-1.231861
-0.464795
-0.050010
0.847416
0.758724
-0.980465
-0.298993
0.146667
-0.745777
0.723138
0.581896
0.911993
-1.396094
-0.553255
1.240446
0.019955
0.909433
0.757203
-0.345578
-0.932063
0.931648
0.260752
-0.444280
0.443157
-1.268102
0.757866
0.879274
-0.126382
0.251648
-0.385263
-0.476110
0.647073
1.702882
0.363134
-0.609441
-0.141847
0.333149
0.024201
-0.149881
1.971487
0.824585
-1.619047
-0.683871
0.096436
-1.101454
-0.260247
-1.385887
0.348612
0.559302
-0.676159
0.860875
0.313281
-0.625668
-0.164747
-0.301851
0.198908
0.097982
0.256358
0.885594
0.723081
1.720132
-0.662390
-0.207860
0.735336
-0.920055
0.152715
1.231559
-0.129336
-0.858641
-0.195287
-0.209247
0.667026
0.120784
0.267933
-1.125468
0.029680
-0.918291
0.665043
0.366380
0.034620
1.031243
-0.243474
-2.438552
-1.598896
0.735248
-0.608566
0.708630
0.991790
-0.556890
0.187824
0.183333
-1.009080
-0.742468
0.138644
-0.102590
-0.085989
-0.196523
0.386828
0.913576
-0.448828
0.462477
-0.148465
-1.256081
-0.119007
0.965821
0.322993
-1.444349
1.058641
-0.929886
1.239723
-0.810977
-1.263428
-0.247924
-0.440870
1.004368
-0.519016
0.477837
0.343969
-0.237840
-0.138102
-0.049470
0.977252
-0.680467
1.004554
-0.979809
-1.487906
0.024550
0.606092
0.444153
-2.061263
-0.218404
0.942350
0.836015
0.311996
-0.662043
0.019401
0.103459
-0.462770
0.492903
0.197953
-1.709038
-0.291793
0.596108
-0.127865
-0.226909
-0.046414
-0.503244
-0.617683
0.636253
0.317856
-0.365231
0.713643
0.397993
0.132949
-0.885491
0.300788
0.034916
-0.317755
0.108597
0.286483
0.765069
-0.052008
-0.695485
0.860237
-0.824858
0.960853
0.414145
1.271634
0.022997
-0.887855
-0.902936
-0.113385
-0.634669
-0.994293
-0.992318
0.168281
0.684069
0.877958
-0.750571
-0.660163
0.516735
0.913680
0.859929
-0.454992
0.128088
0.534895
-0.727148
1.195010
1.298512
-0.296323
0.866592
2.052493
-0.183317
0.206050
0.636562
1.028241
-0.504229
0.587493
-0.193063
-0.751425
-1.297824
-0.175107
-0.878465
0.335072
0.288840
-0.200386
0.452962
-0.639142
1.421356
0.270496
-3.105117
0.850133
-1.309852
-0.511099
0.182795
0.092443
0.410270
0.759670
-0.468089
-0.487243
-0.632631
-1.799227
0.603439
0.695484
1.187818
0.984376
0.806875
-0.099833
0.292232
0.818149
-0.446618
-0.501114
0.112230
0.755589
-0.226240
0.795146
0.514629
0.183872
-0.818021
-0.861051
0.640101
0.688962
2.115943
0.415049
-0.900839
-0.493367
-0.065181
-0.555923
-0.794618
0.001099
0.545912
1.357924
-1.361752
-0.563756
0.091165
-0.892295
0.303858
-2.350417
0.019735
-0.802259
0.698857
0.096611
0.142350
0.522736
-0.110082
0.921091
0.303840
-4.089878
-0.754317
0.059826
0.943033
-0.276000
0.348448
0.923864
-0.438560
0.467153
0.463723
-0.027177
0.028495
0.213992
1.091755
-0.461787
-0.756359
0.257798
0.233584
0.636925
0.419332
-0.536399
0.065705
-0.968168
0.494765
-0.588375
-0.247712
0.352669
0.297112
0.796253
-0.562152
0.077834
-0.824356
-0.963582
-1.293523
1.133804
-0.725671
-0.300219
1.487572
-0.294859
-0.611505
0.823004
0.232483
0.036568
0.685439
0.240777
-0.683282
0.801428
0.021329
0.861083
0.957673
0.159044
2.242840
0.775723
0.279225
1.021182
-0.502404
-0.312999
0.518551
1.010504
0.841094
-1.402032
0.160711
-0.426706
-0.007455
0.545043
0.145273
0.510071
-0.251334
-0.867433
1.594270
-0.814564
-2.123594
0.164640
-2.224335
-0.837978
-1.016232
-0.456309
-0.557980
0.082470
-0.613693
-1.345839
0.699999
-0.999590
0.486688
0.010152
-0.000666
0.214820
1.143913
-0.548022
0.693879
-0.277678
0.025513
-0.095001
-0.260435
0.901782
-0.127164
-0.125881
-0.154455
1.210942
-0.594371
0.618764
0.648242
-0.787004
0.804561
-1.433560
0.610914
-1.042030
-0.649954
-0.570772
-1.480631
-0.393109
-0.083035
0.261341
-1.167695
-0.635987
-0.094510
0.853687
-0.862161
-1.781411
0.190435
0.960482
0.124390
-1.025483
0.136819
-0.369802
0.240696
-0.023967
0.551592
-3.051155
-2.045553
-0.140848
-0.339680
0.141636
-0.177848
-0.251114
-0.622402
-0.120948
0.212237
-0.564493
0.763611
1.081761
0.419972
0.052342
-0.123923
0.163614
-0.529062
0.224171
-0.647926
-0.917089
0.167276
-0.496658
0.506307
0.970435
-0.148440
-0.920887
0.322275
0.765362
-0.569660
-0.554421
0.198875
-0.020145
-0.501383
0.437085
0.250898
-0.386662
0.440256
0.007548
0.625528
0.220075
0.309760
1.465169
0.644161
0.197475
-0.317287
-0.083995
1.355658
0.164111
-0.378604
0.624118
0.887448
-0.367906
-0.209690
-1.039761
-0.744484
1.410722
-0.114694
-0.167870
-0.313422
-1.382779
-1.197418
0.672290
-1.063507
-0.863528
-0.534304
0.697399
0.054017
-1.151456
-0.711414
-0.962353
-1.396467
0.841132
-0.013097
-0.666191
-0.870570
-0.704504
0.798113
-0.784982
0.794551
0.666496
-0.367131
0.719809
0.753583
0.217963
0.300221
0.056077
0.218500
0.152497
-0.743151
-0.774682
-1.286241
0.452310
0.053907
1.449828
0.423798
0.719517
-0.152834
0.104538
0.722124
-0.852267
-0.935082
-0.652523
1.905394
-0.474934
0.371615
-0.368334
0.154297
-0.067000
0.733865
-0.428464
0.010414
0.155880
0.388937
-0.219981
0.690915
0.715196
-1.121872
-0.827137
-0.141138
-0.387871
0.902214
-0.399926
-0.612444
-0.342035
0.031712
-0.133647
-0.225071
-2.989894
-1.127415
0.831963
1.423445
0.161258
-0.513696
0.678726
0.479552
0.556185
-0.333736
-0.130592
-0.126160
1.104448
1.139307
0.968443
0.368122
-0.366109
0.558735
0.206574
-0.118055
0.029688
-0.682358
-0.232330
0.875337
0.454882
-0.769702
0.101893
-0.048031
0.629643
0.401045
1.021021
0.248976
0.777083
-1.748337
-0.372838
-0.061409
-1.316400
2.027094
-0.054929
0.491982
0.942210
0.528040
0.365599
0.524523
-0.670026
-0.436579
1.271827
-0.457442
-0.430749
-0.216720
0.222871
2.532198
-0.142751
-0.298847
-0.568335
-0.751650
-0.485946
-0.594725
-0.199964
-0.970222
-0.689873
-0.888693
0.158107
-0.118330
0.211508
1.063667
-0.042271
-0.367253
-0.743767
-0.089750
-1.497802
-0.735626
0.035640
-0.427129
0.313108
0.687869
-0.863584
0.767270
-0.673225
0.974591
-0.271749
1.173570
-0.618217
0.019161
-2.213334
1.449402
0.724430
0.009454
-1.401093
-0.029224
0.018000
0.142906
0.090372
-0.717738
-0.202452
0.824082
-0.214190
-0.703337
0.497112
0.218582
-0.361668
-0.804311
-0.782989
1.327390
0.253737
0.203007
0.113991
0.402576
0.377864
-0.461203
-0.753594
-0.678168
-0.568002
-0.270196
0.615598
0.298178
-0.405171
0.798878
-1.134847
0.549860
0.590114
0.787159
0.786657
-0.023144
0.177431
-0.312779
-0.258779
0.504220
-0.824355
-1.040867
0.462158
0.543116
0.948209
0.738350
-0.150972
0.401439
0.102752
0.600497
-0.139632
-0.618420
0.150589
-0.401798
-0.600026
-0.747305
-0.345498
0.278380
0.106021
-0.887150
-0.767798
0.392094
0.224900
-0.869305
-0.417347
-0.339182
-0.287736
0.424404
0.559137
0.489281
0.024009
0.074826
0.134000
-2.412964
0.613187
0.555261
0.306046
2.053926
-0.301369
0.412639
0.371330
0.666153
1.353339
-1.238732
-0.454138
-0.774050
0.043821
1.054291
-0.406059
0.058687
-0.991578
1.753148
-0.881764
-0.865473
-0.423807
-0.830053
-0.234101
0.924480
-0.419835
0.849917
0.586277
-0.763233
-0.817274
-0.410239
0.242979
-0.289235
-0.047200
-0.243789
-1.918009
-0.271361
-1.275862
0.490832
1.353865
0.432159
-1.084699
-0.325477
1.042523
-0.356249
-0.506279
-0.123606
0.224883
-0.692535
-0.987646
-0.486437
-0.815686
0.587534
0.290613
-0.156430
-1.809934
0.498980
0.745028
-1.399705
-0.250736
-0.163158
0.998022
0.427698
-0.553939
0.976715
-0.089864
-1.047751
0.480456
0.297100
0.921601
1.273621
-1.250544
-0.270542
-1.153146
0.041149
0.705773
1.067108
-1.119278
0.492235
0.589155
-0.278459
-0.089733
-1.075006
0.376995
0.213936
-1.720789
-0.278517
1.255112
-0.410549
-0.915936
-0.010202
0.713807
-0.985469
0.902835
-0.740737
-1.374777
-0.331173
0.854512
0.615868
0.791098
0.732822
-0.565389
0.671637
0.088113
0.788315
-0.191068
-0.677002
0.198150
0.286274
0.584023
-1.706122
-0.193552
-0.647717
-0.392903
0.047236
-0.395367
-0.636872
0.658552
0.803240
0.068638
0.966120
0.400065
1.411659
0.255736
-0.169397
-0.401127
0.023707
0.276130
-1.119940
-0.156160
0.787182
-0.839770
1.442275
-0.680277
0.187012
-0.116278
0.505615
0.957371
-0.282511
0.752472
-1.026909
0.987048
1.223974
0.556066
-0.672285
-2.371685
1.985261
-0.116272
-0.558854
-0.598757
0.126386
-0.122493
0.286174
-0.266669
1.072370
0.293931
-0.625602
-0.895405
-0.916068
-0.405466
0.137512
0.420870
1.088999
-3.216517
0.400012
-0.327855
0.561179
1.644681
0.075531
-0.116679
0.097108
0.921308
-0.314122
0.953127
-1.359738
0.492349
0.627592
-0.729541
0.401009
-1.818184
0.727606
0.922516
-0.589088
-1.174380
0.781940
0.062498
0.601649
1.018536
0.007317
0.187758
1.422412
0.108369
-0.326207
-0.142705
-0.071679
-1.394849
-0.369147
0.590532
0.774309
-0.462505
0.928635
0.462143
-0.915688
-0.910977
-0.641727
-0.228213
0.044827
0.247213
-0.821717
0.540696
0.210488
0.004198
0.217154
-1.208884
0.978249
1.039391
-0.918191
1.018353
-0.664195
-0.469586
0.495395
0.659070
0.574078
-0.376165
-1.398552
-0.488193
-0.709716
0.820908
0.863898
-0.449240
0.820272
-0.415310
0.027189
-0.014905
-0.266761
-0.794239
-0.859103
-0.441470
-1.158172
-0.597432
0.506830
0.372515
-0.324473
0.018711
-0.491933
-0.638379
-0.580652
-0.875196
0.914751
0.985517
1.053259
-0.330567
0.964897
0.702268
0.559036
-0.330643
-1.149976
-0.561430
-0.232543
-0.025853
1.789035
-0.907483
-0.810667
0.928573
-0.173762
-0.014589
-0.590455
0.849407
-0.928508
-0.355529
0.161748
1.045583
0.795235
-0.481405
2.349601
-0.516000
0.085047
-0.405890
-0.118615
1.202654
-0.749836
1.033224
-0.051773
0.173372
-0.257123
1.000268
0.107498
0.652050
-0.853325
-1.277085
0.822302
-3.171302
0.093600
-0.466656
1.338750
1.856365
0.766443
-0.183259
0.006993
0.676423
-0.782728
0.852746
-0.291157
-0.168818
0.058627
-0.835820
-0.386897
-0.353985
1.335611
0.797203
-0.659925
-2.470654
0.870433
0.508678
1.311667
0.880904
0.239302
0.518248
0.026991
0.179349
0.167243
0.178647
0.210552
-0.254036
0.514458
0.470272
1.642248
-0.785527
-0.479473
-0.083901
-0.299277
-0.787376
-0.889002
-0.657197
0.644170
0.341339
0.841364
0.049259
-0.892913
-0.563506
-0.426927
-0.549002
-0.209222
1.346758
-0.951851
-0.603004
0.003920
-1.287391
0.419803
-0.243134
1.002762
-1.339793
-0.170267
-0.086447
0.610296
0.229031
0.354346
0.395039
0.379671
-0.094606
0.082089
-0.273877
0.643014
-0.938990
0.699837
-0.506734
-1.691560
-0.771904
0.735984
0.168390
1.001022
-0.601092
-1.001676
0.256333
0.512387
-0.159515
-0.717519
0.004067
1.489285
-0.939430
0.262167
0.194538
0.275392
0.743582
-2.405308
-0.633917
-0.000417
-0.338058
0.668592
-0.825196
-0.930597
0.920146
0.411268
1.032812
-0.371456
-0.257382
-0.109535
1.166231
-0.136324
-0.744594
-1.138431
0.276008
1.249230
0.201189
0.240523
0.529832
0.031728
1.438881
-0.325100
0.071615
-1.754659
0.158320
0.522393
-0.075992
-0.474483
0.037140
-0.469491
-1.139212
0.341602
-2.750751
-0.190496
-0.003758
-1.037303
0.989025
0.309081
-0.311861
-0.565216
0.200784
0.456692
0.276244
0.782769
-0.900854
1.871901
-1.269592
0.133975
0.412688
-0.000280
0.229171
-0.905425
-0.947310
0.079121
0.818827
0.246364
0.652672
0.590860
1.305998
0.520478
0.099769
-0.768468
0.737940
0.779271
0.176021
0.272289
0.690429
1.167435
0.253980
0.843630
-0.174452
-0.073243
-0.782593
-0.633625
0.276067
0.673110
-0.448497
-0.483835
0.419565
-1.277154
-0.510016
0.072564
-2.222830
-0.279006
-0.399302
-0.733577
0.841178
0.038259
0.267055
-0.636053
1.402755
-0.953500
-0.376699
-0.317640
-0.356744
-0.409209
-0.280447
0.446327
0.116678
0.880929
0.623772
0.714150
-0.373037
0.081546
-0.268013
-0.693128
-0.382409
-0.384171
-0.558713
0.751030
0.613191
-0.834320
0.720937
-1.692173
-0.395643
-0.388448
-0.225694
-0.159690
0.185639
0.818414
0.028797
-0.159934
-0.258091
1.529378
-0.453373
-1.478670
-0.584529
-0.489988
-0.860939
0.878465
-0.325624
-0.622088
-0.760766
0.043051
0.866580
0.351960
-0.656153
-0.177135
0.548728
1.197618
-0.262665
0.416333
0.354421
0.650120
0.399131
-0.879142
0.097429
0.183728
-0.680901
-0.780751
-0.503174
-1.344340
-0.076505
0.150449
1.065149
0.170015
0.059835
0.093143
0.517486
0.377465
-1.924403
-1.974802
0.729972
-0.227684
-0.281585
0.835673
-0.253245
0.398851
-0.635734
-0.261163
0.485840
1.092123
-0.355589
3.553435
-0.017110
-0.912863
-0.294881
1.795891
-0.701666
-0.713266
-0.849971
0.359215
-0.285387
2.675133
1.503487
-0.677672
1.421977
0.498680
0.238142
-0.346925
0.716291
0.631254
-1.364591
0.139463
-0.553919
2.825300
0.488247
-0.912058
-1.199255
-0.344937
-1.340633
-0.037474
1.396709
0.630874
-0.279500
0.066873
-0.109649
-0.524189
-0.892288
1.170865
-1.810149
0.307808
1.124901
-0.478268
-0.003062
-0.526157
-0.158915
-0.855710
0.800138
-0.756647
-1.081740
-0.418217
0.331748
-0.216628
0.185367
0.482364
-1.077651
-0.145008
-0.518227
-0.278925
-0.032003
0.088778
-0.941012
0.787333
-0.951312
-1.185551
-0.479140
-0.663179
-0.790686
-0.852294
0.804992
-1.710302
-0.332057
0.256683
0.579715
0.374503
0.296315
1.296615
0.302207
-0.220774
1.012379
0.912661
-1.034268
-1.489317
1.285720
-0.279136
-0.642338
2.329743
0.710673
-0.590915
-0.669225
0.504491
-0.099869
-0.284697
-0.441431
-1.014299
1.116748
0.589637
0.901855
0.196693
0.233435
1.667375
-0.391455
-0.003845
0.173443
-0.177847
0.635315
-0.345293
-0.036748
-1.430912
-0.276408
-0.975652
-0.496792
0.014333
0.929810
-0.412083
-0.980740
1.680635
-1.853853
-1.408052
-0.176105
-0.592973
-0.341597
0.588421
1.096100
0.947257
0.122122
-0.669119
0.526055
-0.476845
-1.266815
3.148885
0.425041
-0.690490
0.042173
1.815644
0.044543
-0.368470
-0.785602
-0.454493
-0.189152
1.895002
1.444387
0.645497
-0.079542
0.760335
-0.983166
0.211334
0.423470
0.841249
-0.953456
-0.628637
0.891487
1.809413
-0.695951
0.476528
-0.489682
0.935982
-0.219276
0.490897
1.468505
-0.950926
0.104760
-0.822296
0.875201
-1.270535
-0.824967
-0.419926
-0.885360
-0.926851
-0.621037
-0.409845
-0.536827
0.365152
-0.627004
0.149097
1.105332
0.153107
-2.368196
-0.360930
0.198633
-1.293802
0.795143
-0.160283
0.902031
0.833392
-0.222554
0.911322
-0.323995
0.676283
1.014766
0.021870
-1.034504
-0.462391
0.980939
-0.846439
-0.395058
0.017694
0.565060
-1.142698
0.579598
-0.045698
-0.484923
0.670399
0.960831
0.245395
-0.020284
0.621350
2.079498
1.111812
-0.790011
0.238265
0.070620
0.911435
-0.816126
1.273274
0.508303
0.778976
0.579515
-0.430820
-0.850716
-0.345955
0.290011
-0.494449
-0.241796
0.718991
1.035165
-0.814614
-1.286227
0.784952
-0.946428
0.276815
-0.823677
-0.032589
0.754624
0.839684
0.157100
-0.471230
-0.490651
-0.755252
0.547565
-0.598679
-0.639118
0.801023
0.045763
-0.255462
-1.105848
-3.171611
-1.371021
-1.273520
-0.479159
0.865949
-0.344205
-0.897026
0.409936
-0.511040
-0.313868
1.985516
0.743852
1.901212
-0.718217
-0.303866
-0.323819
1.557861
0.642343
-0.036668
-0.853686
-0.389341
-0.286097
1.563885
0.452081
-0.952232
0.869977
0.478951
-1.106766
-0.320396
-0.463857
0.484557
-0.183370
-0.739053
-0.936774
1.574009
-0.080509
0.165958
0.341260
-0.198539
-1.440363
-0.423217
0.279247
0.548755
0.317413
-0.320235
-0.536489
-1.308396
0.619070
1.071374
0.573631
-0.439628
-0.218498
-0.746707
-0.148287
0.743391
0.622848
0.690959
1.404255
0.264674
-2.184137
-0.600854
0.581590
-1.310776
0.165614
-0.403669
0.167904
-0.652821
0.608285
0.033421
-0.427516
-0.117745
-0.700381
1.193469
0.569493
0.522607
-0.361525
-0.800002
-0.438902
0.726999
0.923309
-1.306877
0.378360
0.280813
0.091829
0.520276
0.611069
0.151324
-0.847535
0.684888
0.189360
0.862697
-1.396562
0.022426
-0.407657
1.044491
-0.432311
0.880926
-0.882804
1.182597
0.368561
-0.972567
0.878874
0.361939
-0.553713
-0.060160
-0.306919
0.279000
0.662709
-0.606614
0.849512
0.875563
-0.585808
-0.854151
-0.837585
-1.273424
0.727315
0.499956
0.679478
1.372128
-1.134853
-0.868327
-0.769738
-0.638327
-0.419819
0.492058
-0.524954
1.450769
-1.340343
-2.787233
-0.239344
0.165245
-0.943607
0.299814
0.500044
0.879867
0.110695
0.510202
-0.922013
1.295895
1.518621
1.834418
-1.433873
-0.385012
1.186725
2.057547
-0.645856
-0.413141
0.263274
-0.059833
0.130796
2.313469
0.341312
0.855526
0.507337
0.704338
0.246547
0.829186
-0.651077
0.541530
1.610610
-0.846702
0.218178
2.149049
-0.851573
0.153529
0.212193
0.286313
-1.187257
-0.285772
-0.247582
-0.234606
-0.333533
0.482498
-0.636490
-0.208592
0.344540
1.275855
-0.675783
-0.669768
-0.249109
0.296141
-0.095903
0.520358
-0.410337
-0.774582
1.121785
0.111673
-3.926717
-0.253907
-0.681539
-1.191917
-0.743658
-0.995335
-1.032523
0.928514
-0.336968
0.884023
0.116088
-0.269271
-0.161302
-0.048665
-1.047786
-1.404740
-0.499407
0.111809
-1.305347
0.357276
0.797821
-0.670582
-0.723622
0.741154
-0.251177
-0.295168
0.267483
0.758813
-0.289814
-0.030013
0.743469
0.343218
-0.172562
0.993841
-0.239131
1.302656
-0.614890
0.697596
0.767074
-0.021328
0.121987
0.657867
-0.110330
-0.305979
0.915449
0.319468
0.273432
-0.810141
0.116971
0.391919
1.621559
0.685558
-0.171431
-0.232544
-0.091867
-0.379362
-0.218392
0.398956
0.129285
2.915506
0.123007
-0.872950
0.715748
-1.573445
0.067606
-0.552578
-1.178869
-0.783591
-1.163227
-3.603415
1.108430
-0.603077
-1.188840
-0.895767
0.536676
0.330058
-0.906029
0.693329
-0.183283
1.638052
0.420035
2.738927
0.341103
0.087633
1.740300
0.734803
0.254826
-0.426166
-0.101958
0.467140
-0.280297
2.119004
-0.385155
0.171439
0.270970
0.358900
-0.576234
0.460589
-0.483680
0.062816
0.655498
0.210318
0.500616
1.401503
-1.131110
0.254508
-0.159323
0.426430
0.257303
-0.643033
0.692558
-1.066978
0.592549
0.206650
0.516482
-0.123224
-0.771517
0.593546
-0.002999
-0.109795
0.706712
0.490158
0.147844
-0.098453
0.299657
-0.492089
1.205184
0.269297
-2.143911
-1.039553
-0.729799
0.579006
-1.069455
-0.493872
-0.561120
-0.888336
0.189811
-0.743997
-0.245224
0.252726
0.628636
0.940530
-0.809731
-1.609513
-0.648352
0.414149
-1.162484
0.137865
-0.920713
-0.329623
-0.317177
0.858909
-0.352171
-0.023285
0.583999
-0.037475
-0.855457
0.827737
1.069422
0.303170
-0.770739
-0.368478
0.825431
-0.910516
-0.280589
-0.771166
-0.258245
0.602800
-0.753423
0.236546
0.862666
-0.532198
0.622340
-0.925911
0.631262
-1.059647
-0.265528
-0.523122
0.526901
1.641304
0.457949
-0.376538
-1.408348
0.156017
-0.377279
0.282330
1.244056
1.574906
-1.060752
-0.489290
0.169414
-0.612660
-0.793909
0.416954
-0.132801
-0.844163
0.302785
-2.612624
1.961396
-1.891710
-2.361399
-1.366986
0.132564
-0.514355
-0.765232
0.311633
-0.923363
1.344421
-0.526056
0.654038
-0.360232
-0.038231
2.509624
0.907259
-0.405406
-2.062178
-0.388042
0.895013
-0.858165
2.935104
-0.640643
-0.678305
-0.585628
-0.012887
-1.135716
-0.614840
-0.441387
0.079565
0.242683
-0.240283
0.018930
1.022716
-0.686014
0.278937
-0.569023
0.333193
-0.811426
-0.114936
1.767089
0.647338
0.248991
-0.185263
0.427630
-0.006242
0.172218
0.487251
1.187430
0.757769
0.005496
-0.368862
-0.611790
-0.935990
0.608744
0.488033
0.584161
-0.725169
-0.253697
-0.690579
-1.173652
0.487956
0.530335
0.509051
-0.297349
-0.584604
-0.422979
0.911456
-0.724033
-0.480972
-0.477061
0.358781
0.536295
-1.195786
-1.247344
-0.857252
-0.385940
-1.045158
0.660622
-0.266924
-0.450415
0.167462
0.754143
-0.884317
-0.520640
-0.070258
-0.317230
-0.183309
0.410732
-0.709751
-0.340728
0.966760
0.716341
-0.997116
-0.544495
1.286890
0.071484
0.785854
-0.849753
-0.444210
0.564194
0.072845
0.474670
0.842503
-0.189399
0.271728
-0.003541
0.291918
1.091130
0.993896
0.455090
-0.194475
-0.835914
-0.036301
-0.524320
0.045077
0.702144
-0.827055
-0.757093
0.235835
0.793515
0.212045
-0.700185
0.359020
0.200359
0.354367
-0.169761
-1.614318
2.426115
0.347440
-2.922681
1.558345
-0.346597
0.369137
0.499909
-0.365727
-0.032325
0.692684
0.587846
-0.687431
-0.135088
0.528699
0.629430
1.257775
-0.666556
-0.495552
0.908131
0.947512
-0.955272
2.887830
-1.085879
0.522247
-0.668229
0.889801
-0.910634
0.345486
1.313064
-0.472412
-0.293623
-0.879469
-0.942029
-0.535508
-0.464648
-0.065532
-0.007041
0.007214
0.873406
0.319848
-0.650173
-0.356401
1.627676
-0.136230
0.678553
0.341286
0.190075
0.344158
0.473843
-0.526154
-0.952995
-0.487534
0.293670
-0.185351
0.068597
0.367459
1.110935
-0.413966
0.518318
0.957043
-0.464471
-0.923603
0.559181
-0.929553
0.020993
-0.611351
-0.598935
-0.401555
-0.446048
-0.472196
0.558969
-1.152122
0.211993
0.237413
-1.115393
-0.938765
0.429263
-0.231069
0.453972
1.268730
-0.617059
0.184842
1.057638
0.936011
0.644137
0.460554
-0.807232
-0.863759
-0.080770
-0.340451
0.726191
1.517042
0.329825
-0.815999
-0.456249
-0.308691
-0.169472
0.241832
-0.773341
0.382201
-0.499973
1.215741
0.375967
-0.956224
-0.727471
0.690679
1.289418
-0.232671
1.697159
1.264755
0.999911
-0.165161
-0.014180
0.233124
0.731605
-0.641524
1.042668
-0.631295
-0.708302
-0.037115
-0.111292
-0.303950
-0.983170
0.006912
-0.507900
-0.813677
-0.401860
-0.243690
1.837733
-0.298921
-1.255883
2.202474
-1.392526
-0.955059
0.742291
0.966883
-0.232890
-0.129739
0.288325
0.094789
-0.587132
0.594783
0.144464
-0.424157
-0.154095
-1.473415
0.609213
0.737071
0.112176
0.837091
-0.981914
0.137083
0.445736
-2.089172
0.442028
0.141896
0.237365
-0.469577
-0.245935
-0.402828
-0.328407
-0.819796
0.607608
-0.756074
0.379717
-0.551711
-0.495741
-0.606414
0.583868
0.297637
1.358053
1.161428
0.062915
-0.354319
0.016567
-0.135163
0.652518
-0.414808
-0.626706
-0.107942
-0.347850
0.086887
0.904310
-0.774026
-0.269768
-0.245560
0.275176
-0.852379
-0.748452
0.429189
-0.094365
0.362651
0.405449
0.569793
0.934321
-0.866579
1.036794
0.321703
-0.285939
0.477537
-0.618075
1.289668
-0.040261
-0.888857
-0.952274
-0.659954
-0.628869
0.109487
0.838202
0.474837
0.080713
-0.791007
0.446550
0.264730
-0.548991
-0.872943
0.717990
0.360016
0.663636
-0.119695
-0.711169
-1.905338
0.662549
-0.376830
-0.748798
0.128434
0.887284
0.507338
0.328378
1.370143
0.224299
0.411313
-0.113961
1.390846
-0.023303
0.705089
0.309763
-0.092272
1.257223
0.866974
-0.603651
0.824053
0.514273
0.171004
1.090799
2.045726
0.552036
0.684471
0.470119
0.301930
0.738506
0.102671
-0.579980
-1.125904
-0.286950
1.156511
0.404916
-0.512790
-1.370096
-0.155030
-0.921042
-0.494927
-0.029598
0.568229
-0.449534
-0.667025
1.122140
0.679569
-0.028641
1.112869
-1.435747
-0.630473
-0.785339
0.428933
0.455425
-0.059185
-0.978026
0.538724
-2.027661
0.467543
0.545405
-0.824494
-0.809202
-0.453640
-0.063389
-0.699976
-0.048742
0.426408
0.002473
-1.970146
-0.525297
-0.457421
-0.866531
0.680159
1.233367
0.435588
1.078921
-0.839330
1.667446
0.525176
0.422503
0.370483
0.674587
0.134434
0.719758
0.601432
0.346016
0.538837
0.036112
0.014266
1.064856
-0.626526
1.420611
0.351297
2.536486
-0.369888
-1.098800
1.184633
-0.544995
-0.126724
1.062020
0.470872
-0.403409
-0.697718
0.362139
-0.078748
0.699167
-0.487598
-0.816070
1.681518
-0.856816
0.011375
-0.817678
-0.979026
0.325039
0.431125
-0.022831
0.559772
1.045637
-0.273594
-0.783699
-0.499900
0.392572
-0.366520
-0.210178
-0.500054
0.155485
-0.249667
-0.407469
0.056345
-0.202600
0.535062
0.481489
-0.045837
-0.453028
-0.291233
-0.342212
-0.044181
-0.071662
-0.404536
-1.016208
0.238966
0.546014
0.477701
1.791971
0.138906
1.694988
0.164506
-1.076264
1.079061
-0.966921
0.056595
-0.574720
1.308389
0.996948
0.776507
-0.382580
-1.418229
0.609453
-0.659879
-0.612866
0.413386
0.028994
1.088342
-0.114714
0.278146
-1.453130
-0.574577
-0.247491
-0.229063
0.095556
0.714952
0.515053
1.307593
1.013828
-0.150121
0.057686
1.222751
-1.016062
-0.108927
-0.308543
0.663305
0.245403
0.096005
0.366616
0.279452
-1.938624
-0.326477
0.763819
-1.516023
-0.217577
-0.679574
0.512356
-0.203227
0.750906
0.874125
0.234945
-0.528174
0.061143
0.575427
0.684230
-0.221515
-0.409626
-0.182035
-0.639483
0.684090
1.131600
0.513531
-0.384027
1.143831
-0.914363
0.423523
2.106535
0.044789
-0.732683
-0.738558
0.248742
-0.085695
0.282257
0.890442
1.189737
-0.099646
1.008466
0.723944
-1.076136
-0.040675
0.184453
-1.007835
0.132313
0.588296
0.639929
-0.114197
0.451554
0.348514
-0.541289
-0.007109
0.777578
0.080622
0.436129
0.473323
0.342846
0.068767
0.238313
1.141486
-0.898014
-0.051532
-0.604197
0.228119
-0.181507
-0.444124
-0.062800
-0.245579
0.344291
-0.416791
-0.357101
1.097077
-0.110020
-1.819209
-0.170604
-0.241772
-0.325442
-0.753717
0.632198
-0.232285
0.484474
-0.592960
-0.609657
0.135904
-0.374168
-0.534048
-0.544882
1.438687
1.758735
-1.180328
0.655104
-0.902714
-1.316742
0.394888
-1.102519
-1.163481
0.530425
1.991810
0.536633
0.611285
0.500497
-0.801697
-0.728297
0.510489
-0.797113
-1.276841
0.169410
-0.505583
0.231397
-1.302091
-1.070237
-2.693887
-0.585758
-0.107438
-1.029772
-0.305916
-0.244350
0.995296
-0.053724
0.507097
-2.150332
-0.098505
0.649748
-1.201698
-0.550850
0.622431
1.048076
-0.579932
0.818928
1.551255
-3.287318
0.147268
0.144236
-2.157011
0.661591
0.266146
-0.626741
-0.096665
0.728599
0.247044
0.490680
0.180585
-0.295500
0.463874
-0.293786
0.725081
0.652494
0.429209
-1.037222
-0.562766
0.255198
0.093605
-1.763855
1.657889
0.125914
-0.073062
2.259374
-0.541575
-0.419678
-0.168672
0.612139
-0.536979
0.697967
0.058620
0.234722
0.911604
-2.551217
0.660441
-1.342674
0.095387
-0.886073
-1.165276
-0.217073
0.498057
-0.358834
0.687728
-0.173365
-0.344314
-0.136051
-1.721720
-0.829263
-0.229558
0.314727
-0.624062
0.360694
-0.790866
-0.003493
1.037546
0.679396
0.189223
0.472889
0.505751
0.910345
-1.051665
0.009787
1.253830
-0.404606
-0.662416
-0.245748
0.011870
0.334748
-1.700271
-0.339469
0.404370
1.052076
-0.304321
-0.473417
0.464357
1.202362
-0.260913
0.526488
-1.298195
-1.035201
0.239652
1.024919
0.317241
2.671300
-0.811688
-0.640748
0.812874
-0.933410
0.413125
0.134266
0.368143
-0.639434
3.597637
1.180976
0.288763
0.362329
0.431617
-0.982329
0.388245
0.708661
-1.064072
-0.595816
1.222157
-0.637224
-1.476633
-0.808601
-2.278300
0.839619
-0.096900
0.496657
-0.213271
0.379410
0.240480
0.451752
-0.168351
-2.345406
0.232815
1.580006
0.712172
0.506943
-0.076127
0.555589
-0.519018
-0.945123
1.515280
-1.571238
0.044139
0.603391
-0.730750
0.247511
-0.797624
0.392850
0.193855
-0.190068
-0.177665
0.800179
-0.544367
0.003683
0.962407
1.088699
-0.772353
-0.002324
-0.169637
-1.851892
0.402079
1.064419
0.128268
-1.139894
2.225161
0.826649
-1.247631
1.049004
0.359108
0.846266
0.000394
-0.205616
0.222449
-0.009012
-0.786556
0.305339
-0.150183
-3.071282
3.193219
-0.076515
0.751402
-0.764478
0.659073
0.019609
-0.259984
0.275533
-0.405578
0.612651
-0.099560
-0.429337
-0.179305
-0.577619
0.418452
-0.983245
0.865994
-0.086166
0.129539
0.489381
0.757758
1.234465
0.891026
0.189993
0.417103
-0.959960
0.702226
0.571038
0.294419
0.244533
-0.497706
0.283932
-0.612939
0.330318
-1.032214
0.429938
0.417817
0.849015
-0.388282
-0.321272
-0.441658
-0.013002
-0.351514
-0.713317
0.494284
0.490998
-0.629847
-0.591572
0.137513
1.288495
-0.067405
0.194897
0.602025
0.298111
0.212360
-0.147355
0.714950
0.644416
2.109391
0.514615
0.413427
0.061343
-0.310683
0.399257
-0.123520
-0.210201
1.127686
0.397779
-1.613305
0.209928
0.302205
0.928733
-1.765931
-0.281965
-0.175081
0.655674
-0.718282
-0.463917
-0.898426
0.821486
0.896138
-0.111931
-0.700851
-0.837854
-0.915307
0.282733
-0.459512
2.145831
-0.311411
-0.351134
-0.552119
-0.908713
-0.069273
0.743691
-0.613642
0.969573
0.838266
1.218557
0.184372
-0.881268
0.895961
-0.427344
-1.169503
0.309350
-0.428790
0.840360
-0.011303
0.398325
-1.005828
-1.480860
-0.657142
-0.092428
-0.370127
0.004248
0.695047
-0.188059
-1.443132
-0.368585
0.289851
0.153847
-0.407151
0.513396
-0.504150
0.392081
0.637566
-0.389649
-0.592246
-0.603201
1.613566
0.256689
0.952474
1.009717
-0.171379
-0.684253
-0.168687
-0.459719
0.150386
0.340976
-0.931715
-0.977503
-0.520937
-1.152936
2.272179
-0.784486
0.641739
0.623560
1.098498
0.656620
-0.061833
1.426753
-0.561663
1.083567
-0.350158
0.818121
0.559692
-0.440625
1.016980
0.166070
0.156702
0.939842
0.168560
0.203973
0.401013
0.657216
0.008719
0.812983
-0.320782
0.381741
0.882742
0.162150
0.415006
-0.502378
0.571775
0.532487
-0.511902
-0.274342
1.597544
0.524728
-0.006730
0.405335
-0.283597
0.472883
0.121695
0.488498
-0.667834
0.761994
0.436789
0.457729
-1.151443
-0.631198
-0.004523
-0.458913
-0.409395
-0.666809
0.316203
0.775620
-0.677470
-0.491441
0.490629
1.881936
-0.875893
-0.595898
-0.314634
-0.823468
0.450237
0.607307
-1.287401
-0.440256
2.976411
0.602942
0.082925
0.156298
-0.794367
0.056144
1.347400
-0.003504
0.188160
-0.646415
0.710801
-0.243696
-0.056094
-0.279067
-1.206859
-0.825797
-0.012326
1.291674
-0.835362
0.803294
0.676755
0.964516
0.171228
-0.378197
0.465037
0.266262
0.680121
1.225738
-0.265719
-0.810825
-0.971128
-0.495253
-1.058792
0.751074
0.285742
0.100635
-0.435774
-1.829428
0.797989
-0.901341
0.376583
-0.593490
0.518176
-0.569993
-1.145550
-0.131821
0.025258
-0.098169
-1.578105
-0.621779
1.883434
-0.471459
-0.422455
-0.367670
0.306372
-1.075787
0.248185
-0.799892
-0.796935
-0.064824
0.143908
0.613630
1.682674
-0.764151
-0.879561
0.918511
1.082750
-0.607896
0.634423
0.192736
-0.558548
0.834462
0.009260
-0.963174
-0.349628
-0.953445
0.022035
-0.077408
0.082033
1.173557
0.889086
-0.585639
1.589927
-0.707950
0.307569
-0.629681
-0.641389
-0.898573
0.188169
0.236272
-0.074709
-0.902537
1.345922
0.634112
0.619736
-0.005408
1.506947
0.208827
-1.390102
-0.447541
-0.410176
-0.058480
-0.590064
-0.044293
-0.084375
0.503333
1.307276
-0.879706
-0.190614
-0.828703
0.221426
-1.182184
0.397829
-0.669088
0.520023
1.220635
1.850712
-0.085567
-0.089078
1.063965
-0.461578
-1.545846
-0.468466
0.061498
-0.418657
0.671499
-0.370840
-0.763313
1.387670
-0.774244
-0.261545
0.108452
0.288569
-0.281226
1.209771
0.465965
0.696812
0.744498
0.986427
-1.483765
0.202650
1.021504
-1.745643
-0.686494
-0.560310
-0.095198
0.049846
1.360787
0.450824
1.021206
-0.203558
-0.254614
-0.506833
0.135834
-0.654763
0.208010
-1.290104
1.070228
0.344685
0.386453
-1.023083
-0.033293
2.006004
0.590327
0.665926
-3.259506
-0.614767
-0.940565
0.126814
-0.606422
-0.649881
-0.729787
0.014750
-0.079115
0.218404
1.018783
-1.692624
0.885847
0.539106
-0.218340
-0.768412
-0.843054
0.695523
0.063381
-0.360491
-0.015929
0.329331
0.282583
0.171027
0.100810
1.739448
-0.604529
0.999488
0.610806
0.955200
-0.408021
1.820844
0.000805
0.426263
1.118366
-0.701510
0.323946
-0.022590
1.040859
-0.536033
-1.357374
-0.221673
-0.438516
0.055951
0.714062
0.368621
-0.560443
-0.341376
0.674123
0.278619
-0.774259
-0.746092
-1.180112
0.368534
-0.015430
1.167822
-0.253080
-0.578023
0.216954
0.654583
0.157417
-1.222953
0.651494
-0.469720
-0.199087
-0.261453
-0.727024
0.321076
0.432683
0.567085
-1.264520
0.037536
0.609058
-0.695930
-1.223788
-0.944022
-0.430071
0.670529
1.565227
3.061652
-0.396483
-1.918832
-0.083480
0.574604
-1.696888
-0.581706
-0.723437
0.960424
0.691658
0.678933
-2.497022
1.119693
0.421207
1.237291
0.962611
-0.383915
-0.299169
1.751912
-0.718038
-1.025054
0.470755
-0.297033
-0.421143
-0.924391
0.692177
-2.595911
-0.187231
-0.035460
0.916573
-0.400814
-0.613343
-0.396566
-0.138079
0.563633
0.209337
0.112202
-1.157320
0.003283
-0.506174
0.084373
1.091948
-0.307781
0.604687
0.815607
0.333888
0.368927
0.282840
-0.948102
-3.179999
-0.410452
-0.551097
0.626146
-1.215013
-0.021913
-0.085646
-1.372375
-0.942715
0.548586
0.647232
-3.057850
0.127685
1.081873
-1.296250
-0.006979
0.121116
0.520163
-0.003814
0.133903
-0.539572
0.485888
-0.119967
1.040698
0.542533
1.139115
0.319326
-0.886256
-0.431946
0.499243
0.152815
1.239254
0.696420
-0.096708
1.049403
-0.711342
-0.756023
-0.144768
1.041326
-0.344298
-1.739783
-0.416919
0.570536
-1.433406
0.354459
-1.716210
0.086294
-0.555447
-1.199327
-0.067845
0.213984
-0.135554
0.830546
0.008723
0.076217
0.660803
-0.753380
0.300367
1.144198
1.210378
0.401404
-0.449049
-0.074074
0.547846
-0.656266
0.619277
-0.491988
0.469068
-1.027846
0.573755
-1.077355
-0.104013
0.630099
0.164823
0.083176
0.464788
-0.348967
-0.071785
0.814117
2.634024
1.654834
-1.202046
-0.566883
0.224046
-0.619684
-0.647906
0.573629
0.864288
0.228892
-1.028318
-1.293588
1.788050
0.041274
-0.427108
-0.922884
0.704806
-0.391315
1.079371
-0.032933
-1.019612
-0.666407
0.742529
0.522375
1.001546
0.667811
-1.911671
0.991681
0.342159
0.356107
0.947832
-0.069407
-0.595095
-0.322118
-0.062608
-0.245818
0.100265
-0.970084
0.747932
0.707153
-0.100555
-0.428983
-0.506053
0.760323
-1.157125
-0.068927
1.423507
0.096446
0.468748
-2.966044
0.958880
-0.270306
-0.328882
0.508263
0.459011
0.878712
-0.959712
0.237369
-0.456351
0.808601
-2.439333
0.584825
1.271381
-0.801397
-0.838451
0.620571
-0.696862
0.427489
-0.480644
-0.176319
-0.302074
0.658511
-0.628690
0.581045
0.777219
0.247144
0.277422
-0.832491
0.401459
0.010053
1.475261
0.683709
-0.575536
0.422741
-0.246758
0.782438
-0.980072
0.886588
-0.755813
-2.352394
0.053233
0.432346
0.628932
0.481107
-1.204300
-0.154581
-1.188774
0.226634
-0.107988
-0.524748
-0.194260
0.549629
0.613090
-0.714347
-0.448807
-1.393428
-0.234704
-0.627569
0.163477
-0.137313
-1.817025
0.838002
0.197335
-0.112617
1.039414
0.857954
0.053322
-0.909490
-0.617778
-0.563582
-0.584648
0.337782
-0.944593
-0.837895
-0.659418
1.087236
-0.777687
1.820147
0.458075
0.961413
-1.916349
1.045802
0.658759
0.108079
-0.647671
-0.067500
-0.430302
-0.076770
-2.181811
-1.126151
0.486856
0.979662
-0.389160
-0.088945
0.394403
-0.437170
2.730683
-0.292221
0.319027
-0.052716
-0.940048
-0.583656
0.193825
-0.429434
-2.777252
-0.714317
-0.647956
-0.193721
-0.844643
-1.787928
-0.891006
0.700610
0.331303
-1.560817
1.115193
-0.480461
-0.437282
0.104700
-1.175864
-0.114707
0.141206
-0.548850
0.012178
-0.172242
1.391261
0.911354
0.247812
-3.078440
1.012058
-0.672119
-0.970329
-0.770965
0.862362
0.254454
1.151861
-1.133433
-0.288397
0.939907
-2.396927
0.468332
2.244232
0.225309
0.059135
-1.178286
0.582047
-1.287463
-0.436258
-0.078346
-0.004287
0.356421
-0.354396
-0.635803
0.012670
-0.516430
-0.772604
-0.931412
-0.465587
0.055987
2.091072
0.205504
0.497863
0.166405
0.463306
-0.666223
-0.580747
0.736070
-0.026213
-1.977516
-0.329289
1.292832
0.560346
0.355377
-2.018792
-0.383799
-1.073388
-1.160952
-0.361017
0.379430
0.850721
0.787092
0.046058
-0.493892
0.368260
-1.130587
0.598510
1.000697
1.456310
-1.314200
-0.419819
0.195141
-0.386206
0.030172
1.074137
-1.828756
0.761804
-0.325833
-0.258446
-1.257000
-1.111261
1.145410
0.484924
0.071074
0.426243
-0.232061
-0.127806
1.191059
1.354270
1.111374
-2.210443
-0.041030
0.758855
-1.214759
-0.542096
-0.675186
-0.659830
-0.744818
-1.869617
-0.025930
0.426972
1.068869
0.502709
-1.547252
0.035318
-0.002970
2.888177
0.197012
-1.242115
-1.005770
-1.279026
-0.093250
0.812548
0.685504
-0.939024
-0.841378
-0.221149
0.759954
-0.837261
-0.851039
-0.029545
1.051734
1.052489
-0.263666
1.295200
0.778977
0.514213
-0.502283
-1.126978
-0.099926
0.301566
0.906471
-1.019838
-0.472863
0.776998
-0.519691
-0.706367
-1.789093
-0.768042
-0.386355
0.483371
-0.739275
-0.623805
-0.164253
1.175254
-1.673788
-0.408074
-0.471355
-0.546100
-0.276368
1.057868
-1.180524
-0.111138
-1.109601
-0.100957
0.290998
0.060838
0.371874
-0.581665
0.992613
0.819627
0.231404
1.139080
0.891202
0.820683
-0.655061
0.953074
-0.823858
2.265317
-1.261096
0.674326
-0.215509
-0.786816
-0.282309
-2.210527
1.824839
0.472851
-1.987923
-0.891671
0.011811
-1.044697
-0.430503
-0.894737
-1.169168
0.904725
-1.155534
0.738896
0.347866
0.792547
0.201787
0.761627
0.632195
-0.599193
-0.940296
-0.788437
0.584378
0.573616
-1.185642
-1.214618
0.653347
0.239720
0.248801
-0.256824
-0.813009
0.456482
-0.857494
-1.556710
0.282978
0.488296
0.228543
0.586148
-0.678901
0.516328
1.283982
0.288201
0.423685
0.547067
0.854771
-1.903392
-0.282093
0.460636
-0.159766
-0.305137
0.575192
0.489153
-0.732065
-2.047980
0.291920
-1.953890
-0.203379
-0.622500
-0.273984
-0.704339
-0.895549
2.327371
0.156638
0.276760
-0.895559
-0.180374
-0.081373
-0.885489
-0.386161
-2.207246
1.037179
0.410202
1.096835
0.268799
-2.281028
-0.673644
0.831737
0.971915
-1.229882
0.217562
-0.339480
-0.345801
0.844394
0.302977
-0.533945
0.618209
-0.680472
-1.516453
-1.360800
0.095221
0.740347
-1.181540
-1.378330
-0.796299
-0.057020
-0.183562
-0.445162
-0.125626
-0.212026
-0.771909
-0.559989
-0.272902
0.606799
0.358489
-0.185184
2.105010
-0.277611
-0.021879
-1.032146
0.796301
0.556722
0.764586
0.150382
-0.010438
0.505552
-0.314138
0.529896
0.757293
-0.199544
-0.281740
-0.820447
-0.320019
0.304699
1.245537
-0.643450
-0.513322
0.683327
-0.200459
0.435711
-1.562401
0.488175
0.939083
-0.358791
-0.919587
0.689842
-1.701535
-0.160229
-0.332547
0.091065
-0.674668
0.464360
0.517209
0.784089
-0.598688
-0.615581
0.570434
0.597328
-0.808370
-1.494218
-0.172137
0.462333
0.399226
-2.787086
0.768637
1.309098
-0.844122
1.042841
-1.008389
-0.064826
0.908422
0.031052
-0.414758
0.107223
0.543769
0.429392
0.144077
-0.669571
0.429463
1.258289
-0.048921
-1.438386
0.295598
-0.696909
-2.199273
-0.870313
-0.455226
-1.476715
0.096511
-0.371956
-0.701807
-0.947551
-0.649348
-1.044866
0.858881
1.017715
1.042337
-0.433937
-0.579007
0.980868
0.316463
0.867403
0.576528
0.794040
-2.162234
-0.105789
-0.473262
1.169822
-1.501408
-0.748203
0.016918
0.507569
-0.667204
-2.527269
0.431837
0.153475
1.320280
-1.059205
1.450970
0.677600
0.987619
-0.169185
-0.525907
-0.775191
-0.526318
-0.650254
-0.376582
-0.188747
-0.541580
-0.262024
-1.613189
-1.278492
0.480518
-0.316186
0.808317
0.800790
0.420776
-0.054144
0.265747
-0.266526
0.682847
-0.595817
-1.162172
0.105165
0.472858
-0.232444
-0.364945
-0.790425
0.791208
0.673092
-0.535233
-0.250924
-0.253939
0.784853
-0.949803
-0.760687
0.335836
-0.616878
0.756470
0.280159
-1.118149
0.350382
0.743502
-0.126766
0.469717
0.513424
-0.011955
-0.088409
0.439949
0.995517
-0.407134
-0.452373
0.078607
0.100182
-1.697236
0.819846
-0.733871
0.223545
-0.111161
-0.239411
-0.962305
-0.913657
0.460756
1.088954
-0.440699
-0.698747
-0.105137
0.403385
-0.338449
-0.824794
0.547190
-1.321710
0.107204
1.115446
-0.317691
0.216969
0.413946
-0.190678
-0.105589
1.123161
-1.974881
-0.004122
-0.783526
-0.740679
-0.108559
0.588957
0.885620
1.175923
0.139661
-0.708089
-0.485955
-0.048683
0.500727
0.481629
-1.274986
-0.433391
0.700069
0.456629
0.043912
-0.158671
0.363825
-0.748284
1.817727
0.563810
0.717316
0.710832
-0.511637
-0.264661
-0.080266
-0.785268
-0.670250
0.767629
-1.457211
1.510235
0.379407
0.369495
-1.159185
0.245610
-0.619132
-0.002641
-0.577115
-1.314673
0.474221
-0.778381
-0.221469
-0.280253
0.930596
0.234536
0.455371
0.529088
0.457159
-1.590615
-0.596065
-0.374329
-0.720535
-1.436107
0.266591
-0.623236
-0.877891
-2.650302
0.633726
0.330368
-0.743623
-0.597151
-0.803832
0.128810
0.046663
-1.851018
0.945258
-1.572099
-0.504398
-0.133984
-0.194927
-0.240805
0.093266
-0.348577
-0.587392
0.437703
-0.036178
0.198982
0.716184
-0.324093
0.026730
-0.434310
1.017805
0.592976
0.661780
0.326319
-0.200422
0.196010
1.572640
0.150948
-0.834386
0.627661
-0.444799
0.826685
0.084272
1.122065
0.702288
0.158719
0.750382
0.458694
-2.306523
-0.071101
-0.081738
-0.076591
0.908175
0.754413
-0.091575
0.679330
-0.241399
-0.148919
-0.357639
0.650794
-0.288916
-0.529776
-0.850097
0.956445
-0.531454
-2.199354
0.102651
0.818244
-0.812464
0.612370
-0.396376
0.149551
-0.884763
1.024904
-2.461281
-0.433785
-0.995619
-0.199111
0.590955
-0.529733
0.690756
0.915766
0.020268
-0.492233
0.038858
-2.250145
-1.112919
-0.998973
-0.495131
-0.808171
-0.477457
0.902711
0.980051
-0.976403
1.068579
-0.214378
0.354765
0.039846
-0.573557
0.889434
-1.110155
-0.536519
0.933881
0.404553
0.256014
-0.252361
-0.550822
0.345898
-0.167879
0.420133
-2.097704
0.395515
-0.707109
-0.402025
-0.528904
0.336940
0.807813
0.228003
-0.313420
-1.389324
0.601294
1.058991
0.095177
-1.115583
-0.324567
-0.683402
-0.932986
-0.043352
0.023245
0.884720
1.761087
0.457814
-1.356362
-2.364637
-0.841505
-0.672557
0.924249
0.142772
0.093841
0.397785
0.974427
-0.137805
-0.953873
0.411541
-0.623783
1.031899
1.272787
0.636921
0.721339
0.597025
0.195732
1.072834
0.032371
-0.227989
0.936514
1.096481
0.649337
0.629824
-0.160947
1.050941
0.252336
-0.900975
-0.590161
0.775666
0.823824
-1.534869
-0.913776
0.264478
0.294585
0.051408
1.236194
0.695653
0.735559
-0.609526
-0.748241
0.227907
-1.893407
-0.731219
1.632615
0.293640
1.385839
-0.224561
0.134815
0.941822
-0.933620
0.384830
-0.921606
0.545915
-0.902225
0.821169
0.535745
0.337604
-0.261173
-1.331571
0.107429
-0.327045
-0.980444
-0.341265
-0.156959
0.381197
0.535680
0.304745
0.139301
1.104289
0.299074
1.089254
0.027813
0.352056
0.591102
-0.007283
0.030074
-0.657565
-0.070564
-3.367344
-0.928457
-0.189569
-1.714422
0.398254
0.609794
0.839627
0.413150
-0.538335
2.046907
-0.139824
-0.458141
0.910895
0.370039
-1.543030
-1.166556
0.179393
0.134851
0.036524
-0.796023
0.379776
-0.611577
0.597352
0.102427
0.783111
-1.432314
0.099965
0.530131
-0.807093
0.561644
-0.850373
0.731849
-0.661075
-0.175576
-1.566373
0.125372
0.015868
0.040857
0.732472
-0.182795
-1.870234
0.907413
0.915525
0.384620
0.785569
2.037232
-0.060000
-1.618023
-1.043135
-0.474309
-0.040933
-0.425028
-0.201662
0.896059
0.552097
-0.434485
0.090908
-0.468256
0.346218
0.226721
-0.400039
-0.710552
-0.600130
0.768727
0.192615
0.675009
-0.334147
-0.543139
0.929629
0.435702
0.949556
0.446021
-0.388119
-1.129784
-0.207433
0.356743
0.228818
0.539258
0.978930
0.725284
-0.654878
-0.224200
-0.921639
-0.023412
0.452687
-0.397738
-0.438831
-0.198436
0.360998
0.372042
-0.004722
-1.143640
0.620303
0.459925
0.456480
1.529613
-0.969435
-0.630969
-0.703280
0.168482
1.255126
-0.276833
0.894702
0.080365
0.040844
0.056866
-0.334299
0.076304
-0.916695
0.984741
0.644892
0.424145
-0.948369
0.805525
-0.048786
-0.200457
-0.288665
-0.652437
0.489123
-0.865412
0.332099
-0.898832
-0.365520
-0.590892
0.083081
-0.483653
-0.869787
0.205506
-2.607842
1.049037
-0.531732
-1.623210
-0.509382
0.016565
0.238853
0.631409
0.296408
0.360404
1.195884
0.022769
0.800663
0.510367
-1.511783
0.749717
0.385611
0.357931
-1.094556
-0.031110
-0.685958
0.708011
0.124508
-0.534226
0.304284
-0.750781
-0.218592
-0.119412
0.231761
-0.230735
-0.332518
-0.473221
0.719381
1.253271
-0.720100
-0.687161
-0.202673
0.304731
0.039050
1.138572
-0.650383
-0.604086
1.177838
-0.777936
0.094348
0.493634
0.761394
-0.360436
-0.638531
-0.736933
-0.335340
-0.980277
0.893551
-0.051330
0.309825
-0.246948
-0.103166
0.918102
-0.162025
-0.413641
-0.784531
-0.535063
0.858392
-0.470257
0.559170
0.378499
-0.174091
0.017558
0.480980
-0.756712
-0.802289
0.317497
-0.291685
-0.786835
0.096078
-0.169176
-0.597630
0.240301
-0.286635
0.374692
-1.357152
0.750750
0.463296
0.389769
0.461006
-0.418283
-0.334777
-0.073698
0.151641
0.808662
0.033248
-1.490826
1.011647
1.516872
-0.857233
2.781997
0.645545
-0.627997
-0.859952
0.848402
1.123805
-0.187248
-0.398623
-0.826339
-0.045638
0.805848
-0.669179
-0.661023
-1.795524
1.675250
0.558838
0.467384
-0.889163
-0.013020
0.293592
0.746978
-0.005897
-1.076012
-0.670355
-0.110171
0.755968
0.432464
1.494852
-0.115157
-0.957292
1.031933
-1.627390
-0.172646
-0.371859
-0.383864
-0.803945
-0.586133
-0.963330
-0.230712
0.981141
-0.115273
0.879809
-1.018589
1.302518
0.487609
-0.395523
0.683903
-2.085623
-0.345520
0.148741
1.019549
-2.052108
0.337478
1.200142
0.153487
0.831614
0.362432
0.253101
-0.138368
-0.137423
0.115449
0.240866
0.074245
0.511848
0.428799
0.467916
0.577139
-1.810826
0.264360
-0.980650
-1.048352
0.800880
1.153386
-0.111624
-0.828936
0.964331
-0.681054
-0.842410
0.167721
-0.193571
-0.796037
-2.479422
-0.026222
-0.157926
-0.972014
0.061508
-0.614970
-0.290712
-0.003281
0.327181
-0.257556
1.104351
-0.044561
-0.538105
0.553870
-0.062933
0.195387
-0.157001
0.827670
0.966061
-0.498462
0.918731
-0.605737
-0.223239
-1.489602
-0.023406
0.177868
1.201535
-0.683145
0.370279
-0.514778
-0.124309
-1.292594
0.467196
-0.464464
-0.278185
-0.685724
0.769796
-0.494656
1.048021
-0.327509
0.184030
0.878942
0.456021
-1.193125
0.253883
0.017585
-0.655387
3.111818
0.720059
-0.634899
-0.116619
0.890113
0.792556
-0.634691
0.574797
0.505435
0.041290
1.191609
-0.162732
0.233690
-0.101774
1.035587
-0.205174
0.435676
0.092869
0.866277
-0.747263
-0.831706
-0.299963
-1.135261
-0.055901
0.845332
-0.511233
0.515069
0.495589
0.848466
0.292835
-0.194055
-2.256690
0.419931
-1.427289
0.572837
-1.416969
-0.960165
0.299676
-0.146684
0.934284
0.500342
0.248782
-0.161978
1.092257
1.180795
0.878376
-0.075649
-1.425135
0.755166
-0.440159
0.503031
-1.591848
0.187131
0.628549
1.317433
0.748603
-0.847842
1.381527
-0.765552
0.727650
0.017340
-0.870726
0.512210
-0.602430
0.746571
-1.187133
1.767992
-0.901595
0.433569
0.378391
0.023210
0.464357
0.365234
0.094248
0.772219
0.849536
-0.459302
-0.084165
0.210476
0.037707
0.038603
-0.776289
-0.874585
-0.071890
-0.615806
-0.005221
-0.925649
0.778792
0.410440
0.459754
0.551751
-0.485774
0.366079
-0.098476
-0.643813
-0.200744
0.069525
0.210339
-0.432956
0.567156
-0.319649
1.153217
0.919199
0.589358
-0.927415
-0.395960
0.706258
-0.272702
-0.333423
0.714136
-0.668772
0.377916
-1.034110
-1.005772
-0.339460
0.179560
0.540647
0.021654
-0.746000
-0.389677
1.400956
1.360526
0.668235
-0.174574
-1.728634
0.146910
1.333009
-0.180782
3.172475
-0.612139
-0.892014
0.930465
0.068594
0.951790
0.276201
-0.276350
0.326513
-0.513366
-0.861775
-0.555879
0.016621
-0.417899
2.239026
-0.561990
-0.223936
-0.574770
0.714223
-0.243244
0.896818
-0.449180
-0.921018
0.439543
0.109554
-0.309567
-0.080182
1.158906
1.061905
-0.398612
0.972889
-3.063586
0.258701
0.443358
-0.073323
-0.283478
-0.495642
-0.031011
0.326445
0.033046
0.707577
-0.430869
0.934443
0.901985
0.780902
0.322039
-0.747189
-2.969006
-0.133660
0.793843
0.665512
-1.273847
-0.704510
0.327323
-0.010596
-0.688523
-0.101831
1.547284
-0.437500
0.803235
0.369131
-1.090643
0.159233
-0.711396
-0.202328
-0.123181
0.226041
-1.073833
-0.475479
0.369671
-0.523620
-0.728784
1.253165
-0.035641
0.683859
1.123380
0.692286
-0.374753
-0.115039
0.242040
-0.199700
-1.256143
0.251780
1.340076
-0.130825
-0.623688
1.007058
-0.639743
-0.402222
-0.483928
-0.151326
-0.461775
0.149764
0.280648
0.829171
-0.843215
0.410128
-0.154002
0.123807
-0.015755
0.317363
-0.266069
-0.153348
-0.474074
-1.540809
-0.144985
-0.729564
1.317388
-0.294283
-0.052572
-1.001108
0.194937
-1.135204
0.306704
0.678105
-0.706738
-0.173442
0.754973
0.905389
1.020747
1.271505
0.637671
0.821203
0.516028
-0.416560
-0.246818
0.463694
-0.451837
2.261168
-1.083088
0.176269
-0.319742
0.168056
0.064626
-1.364566
0.953638
-0.915421
1.284249
-0.017224
0.625283
-0.604941
-1.156576
0.006793
0.580192
-0.134300
-0.494396
-0.728851
-0.837875
-0.417191
0.101017
-0.823107
0.063631
0.008328
0.502429
1.080774
-0.208464
-0.727356
-1.076344
-0.233068
-2.341504
-0.670238
-1.593704
0.693278
-0.332861
-1.419074
0.249405
-0.787502
0.181733
0.821266
-0.030188
1.909568
-0.679547
2.626964
-0.364193
-0.164428
-2.465445
-0.182379
-0.028161
0.362303
-0.745495
-0.717847
0.984690
0.661141
-0.936780
0.976070
1.439272
-0.139966
0.495090
-0.046578
0.595434
-0.022122
-1.235503
0.874466
-0.162308
1.645700
-0.513420
-0.467973
-0.261742
-0.694773
-0.829505
0.349119
-1.021106
-0.630489
-0.200863
-0.400070
0.235145
-0.026203
-0.628664
-0.349074
-1.013211
0.926878
1.426157
0.259547
0.822778
-0.797507
-0.759373
-0.526557
0.648089
0.174418
-0.048416
0.735341
0.123259
0.345506
0.939171
0.582012
0.905036
0.028359
0.759063
-0.795531
1.264901
0.207130
0.435415
-1.299740
-0.174276
0.086863
0.850127
0.143084
-0.290419
-0.671650
0.101203
-0.832728
-1.276492
0.106778
0.258005
0.967855
-0.149714
0.586124
1.218697
1.515418
1.427132
0.075752
-0.899743
-0.543163
-0.724911
0.490223
-0.780101
1.970896
-0.604196
-0.014954
-0.437276
0.970285
0.858342
-1.383016
0.165828
-1.100447
0.255525
0.001915
-0.059506
0.496404
-0.358230
0.129269
0.393831
-0.078568
-1.398472
0.433998
0.555899
-0.859967
-0.056846
-2.172480
-0.827558
-0.918346
0.995612
0.447380
0.785318
0.359029
-0.348030
0.921591
-2.062439
-1.631740
-1.442534
0.890895
-0.824079
-0.516178
-0.284276
0.561355
-0.693525
-0.880825
0.614975
0.871272
-0.448755
0.710339
0.506410
0.636088
-1.244723
-0.370584
1.098855
1.029334
-0.530736
0.047252
1.207407
1.268043
-0.459276
0.557810
0.386849
-0.745677
0.230303
-0.446911
-0.092527
-0.998833
-0.975347
-0.790224
0.817030
1.170598
-0.266204
0.080586
-0.803216
-0.402488
-0.049542
1.160736
-0.295003
-0.618376
-0.468886
-0.935622
-0.603521
-0.572379
0.367027
-0.884783
-0.838091
0.674599
-0.396326
0.342911
0.920858
-0.290273
0.458547
0.522392
-0.853253
0.077426
0.953495
0.657896
-0.555064
-0.662819
0.076363
-0.068647
-0.505413
0.812098
0.277339
0.144756
0.392826
0.037796
-0.762826
-1.845408
0.603128
0.075537
0.911473
-0.293743
-0.367659
-0.614512
-0.913553
-0.655574
0.384593
-0.522649
-1.115264
-0.247613
-0.047175
1.551730
0.190167
0.487940
0.614733
1.120474
0.081494
-1.010115
-1.386771
-0.434287
0.065602
1.804377
0.858077
0.028357
-0.034492
0.256595
-0.024367
0.020658
-0.736633
0.165255
-0.306435
-0.667309
-0.425274
0.644490
-0.374456
1.317202
-0.260308
-0.898193
-0.406654
-0.739482
-0.013730
-0.636697
-0.079949
-0.763037
-0.187971
-0.569283
0.469046
0.465771
0.612293
-0.933199
-0.720396
1.440335
-1.552834
-0.822468
-1.016830
-0.102408
-0.432332
-1.622288
1.142723
0.386800
-0.689855
-0.120937
0.735030
0.445981
-0.563526
0.233414
0.335261
0.729132
-1.207386
0.909632
0.442466
0.454699
-0.770622
-0.680963
-0.385689
1.135397
-1.246442
1.013303
-0.701222
-0.587579
0.387789
-0.061138
-1.220761
0.350056
-1.084551
0.080612
-1.035649
0.822581
-1.199004
0.949981
-0.660956
0.353321
-0.388348
0.375256
-0.931938
-0.662972
-0.914404
-0.292540
0.611692
-0.341534
0.059911
-0.340223
-0.006997
1.008654
1.290946
-0.103929
0.195637
0.623564
0.865032
-0.868454
0.104803
0.041288
0.301850
0.284322
-0.437928
0.160327
-0.487014
-0.400799
-0.272714
0.006373
-0.239925
0.888617
-0.026492
-0.636043
-0.146478
-0.339934
-0.656716
1.750842
-0.398553
-0.696527
-0.501468
0.209929
0.083753
-1.047578
-0.809577
0.327113
0.464707
-0.042127
-0.583913
0.339536
0.023549
0.327328
-0.480725
0.345825
-0.399551
-0.723926
-0.313697
-0.688315
0.950162
0.621135
-0.440030
-0.194323
0.299095
-0.190434
0.057456
-1.034434
0.160487
-0.787216
-1.094882
0.716275
0.006054
0.241178
-1.364467
0.375480
1.323930
0.692299
0.430421
-0.599168
-0.818305
-0.188651
0.696663
-0.602194
-0.548239
-0.502141
-0.031513
-0.306606
-0.463509
0.109594
-0.496081
0.533498
-0.498358
-0.119422
-1.254297
0.829164
-0.707727
-1.401064
1.002810
0.721964
0.081508
-0.613130
-0.588361
0.927799
1.015603
0.706406
0.673822
-0.926995
0.087303
1.226312
0.273791
-0.063125
-0.606598
0.825947
0.872687
0.917552
-0.948368
0.635878
-0.108121
-0.895938
-0.629178
-0.110303
-1.244976
-1.009432
-0.437322
0.748346
0.390279
0.253361
-1.482129
-0.031746
0.804841
-0.431908
0.223813
-1.353076
-2.770123
-0.206173
0.970448
0.551917
0.803587
-0.371976
-0.647008
-1.211448
-1.250269
-0.541582
-0.059936
0.699219
-0.295041
-0.083890
0.489865
-0.337330
-1.080959
0.664347
-0.349964
0.381920
0.026267
-0.167148
-0.159993
0.867980
-0.096298
-0.857404
0.857723
-0.764097
0.838943
0.210353
0.139935
-0.612308
-0.761463
1.124856
0.664069
-0.456243
-1.114223
-1.156461
-0.020904
-1.114294
-0.385248
0.187222
0.623067
-0.638409
-0.895355
1.102920
0.239446
-0.637680
-0.591008
0.461926
0.002232
0.203827
0.112092
0.056782
0.779560
1.461536
-0.293757
0.911224
-0.012368
-0.592087
-0.131803
-0.486004
0.755150
0.240230
-0.940224
-1.200524
-0.364751
0.410680
-1.687402
0.233189
1.992458
0.063822
0.102769
0.362499
0.813683
0.488846
0.801229
0.478791
0.224741
-0.481309
0.752125
0.875080
0.093924
0.250864
0.122083
1.173118
-0.276547
-0.661271
-1.328938
0.663936
-0.815467
-0.711997
0.245992
-0.389931
-0.483121
-0.087684
-0.142892
-0.107098
0.352325
2.201615
-0.239501
0.709983
-1.126344
-0.677089
0.755339
0.993617
1.431226
0.323983
-0.335017
1.137913
0.036693
-0.258305
0.720597
0.379104
-0.393333
0.194052
-0.528172
0.029604
1.107471
0.526008
-0.673234
0.538105
0.284742
-0.967506
0.186298
-0.613790
-0.652242
0.684500
-1.741244
-0.718806
-0.471095
0.285394
0.803173
0.413920
-0.732632
-0.678475
-0.557658
-0.426739
0.866804
0.534574
0.042679
-0.412540
1.192931
0.069885
0.763485
0.458420
-1.086726
2.860474
0.480650
0.037674
0.207483
-0.922622
0.126642
-0.244460
0.883589
0.963988
1.261581
0.609710
0.143121
-0.990953
-0.538346
0.374062
-0.759219
-0.806798
-0.337878
0.478457
-0.377688
-1.367319
0.140015
0.573896
0.354046
-0.259054
-0.252431
-0.130630
0.914055
0.142929
-0.389841
-0.039400
0.068275
0.495972
0.611479
1.782208
0.251918
0.781430
-0.545883
0.938688
0.409973
0.829130
-0.006309
-0.276789
0.955326
-0.490324
-0.610589
0.294151
0.908747
-0.082814
-1.112939
0.238944
0.430574
0.455112
-0.580810
-0.099891
0.259525
1.043823
0.938071
0.727010
-0.429966
-0.403086
-0.129725
0.491244
0.846762
0.351287
0.705424
0.545424
0.325283
-0.257822
1.053470
-0.236290
-1.256393
-0.387924
-0.147276
-0.924671
-0.515919
-0.258111
-0.797642
0.391938
0.482951
1.143712
0.522626
0.811630
-0.360259
-1.106245
0.018070
0.054186
0.790873
-0.206844
0.657820
1.354487
1.097523
0.656527
-0.929706
0.832290
-0.526663
-0.354694
0.805905
0.344867
0.888106
0.699775
-0.083162
-0.988187
-0.389551
-0.006684
0.309828
-0.174765
-0.438204
0.019863
-1.417982
0.185140
0.265048
-0.291769
0.812458
0.901851
0.686141
0.211229
-0.142797
0.889528
-0.448731
-0.809004
-0.198304
-0.198265
0.885343
0.871590
0.203304
-0.055567
0.679989
2.352562
0.845621
-0.674102
-0.188102
-0.405604
0.532732
-0.629993
-0.817150
-0.150982
-0.091178
0.587400
-0.246677
0.936528
-0.818299
-1.571087
-1.505543
-0.779251
-0.706314
-0.018467
-0.052360
-0.012716
0.164730
1.039424
0.798246
0.875451
-0.285510
0.976065
0.049627
0.714648
1.011674
1.002669
0.327150
1.110518
-0.636989
0.052480
0.255056
0.978652
-0.971254
1.283708
-1.008618
-0.136295
-0.585749
1.565152
0.681224
1.029907
-0.880875
-0.438445
0.231922
0.840991
1.054259
-0.094923
1.803606
-0.827551
-1.196670
-0.420884
-1.094694
-0.741256
-0.258346
-0.690019
-0.268552
-0.087888
0.440280
-1.092673
0.197600
-0.777794
0.766627
-0.415332
0.708137
-0.261297
1.873408
0.601995
-0.696537
0.764582
-0.012676
-0.861990
-0.015758
-0.840090
0.677646
-0.965097
0.184859
0.581827
1.005985
0.542432
-0.084390
-0.619817
0.370363
0.063294
0.743106
-0.865886
0.591907
1.466962
0.049781
-0.524000
-1.224024
0.268197
-0.596673
-0.978991
0.246605
-1.086385
-0.074011
0.493389
0.368659
-0.477179
-0.369710
-0.094809
-0.307731
0.871910
-0.023658
1.113846
-0.242377
-0.820016
0.561862
-0.519248
1.098602
1.785435
0.438818
0.757293
-0.670605
0.945848
-0.578343
0.449762
-0.677389
0.571512
1.173409
0.096781
0.989846
-0.374700
0.661380
1.126643
0.478553
0.443653
-0.879667
-0.481774
-0.622225
-0.461693
-0.871572
-0.337119
-0.472381
0.203925
0.708091
-0.425958
-0.487000
-0.957244
-0.024816
0.440612
-0.559153
0.277474
-0.129802
1.012625
0.398570
-0.889861
-0.070873
0.546653
0.024672
-0.186396
-0.503320
-0.745160
0.573853
0.300092
0.406413
1.036043
-0.196527
-0.080405
0.066209
-0.950308
0.504110
-0.485197
-0.869322
0.285631
0.461566
0.787433
-0.168280
-0.608314
-0.505766
-0.536139
0.081844
0.629383
0.726415
-0.979396
0.864149
-0.372391
-0.285524
0.680258
0.394308
0.878892
-0.097364
-0.637279
0.848549
0.891826
-0.317742
-1.117519
0.341850
-0.361409
0.270173
-1.023154
1.030919
-0.663942
1.288695
-0.950877
-1.539638
1.516504
-0.680730
-0.149016
0.862261
0.454632
-0.624161
0.633979
-0.627133
-0.443395
1.134741
0.552978
0.815986
-0.363790
-0.199208
-0.097325
0.507084
-0.010520
0.038718
2.978908
-0.556192
0.570825
0.686962
0.540698
-0.220850
-0.902268
1.124780
-0.991778
0.713719
-0.740238
0.811301
-1.795512
0.182355
-0.810732
-0.818668
0.579502
0.523034
-0.248866
-0.710479
0.779123
0.580654
0.295109
0.627666
-0.128702
-0.599287
0.685876
-0.184088
-0.756483
-0.093279
0.086750
-0.613630
-0.249218
0.047348
0.015458
-0.128605
0.063990
-0.169573
1.375981
-0.909719
0.579627
-0.773387
0.124840
0.710948
-0.230484
-0.027833
0.198405
0.848688
-0.518600
-0.973340
-0.502115
-0.383082
-1.798071
0.047547
-0.405686
-0.187845
0.513580
0.304777
-0.715685
0.948023
0.301777
1.086891
0.546284
-0.622061
-0.018186
-0.901912
-1.304811
-0.085685
-1.306474
-0.982022
0.783316
-0.094166
1.093542
0.426741
-0.929156
-0.060877
1.234331
0.222906
-0.122682
-0.414877
1.398860
0.308269
0.824559
-0.584951
0.416195
0.715841
0.092313
0.875017
-0.677326
1.022084
-1.109964
-0.596260
0.883200
-1.421332
-0.195975
0.091286
0.605889
0.438931
1.028902
0.997463
-0.737285
-0.274589
0.333508
0.900593
-0.011699
0.655652
0.469988
2.227959
-0.519940
-0.308079
-0.536178
0.599064
-0.773156
0.089651
-0.111010
0.376953
-0.338375
0.336425
-0.509819
0.451461
0.001608
1.308238
-1.313639
0.372919
1.371520
0.145201
-0.125697
-0.401729
2.255617
-0.598291
0.181976
-0.345838
-1.055284
1.094015
0.653455
-0.621022
-0.310658
0.306408
0.229686
-0.668945
-1.717703
0.378923
-0.461623
-0.830439
0.979970
-0.194559
0.146426
-0.947830
-0.534751
0.717029
1.000413
1.623920
